{"learner":{"attributes":{"best_iteration":"99","best_ntree_limit":"100"},"feature_names":[],"feature_types":[],"gradient_booster":{"model":{"gbtree_model_param":{"num_parallel_tree":"1","num_trees":"100","size_leaf_vector":"0"},"tree_info":[0,0,0,0,0,0,0,0,0,0,0,0,0,0,0,0,0,0,0,0,0,0,0,0,0,0,0,0,0,0,0,0,0,0,0,0,0,0,0,0,0,0,0,0,0,0,0,0,0,0,0,0,0,0,0,0,0,0,0,0,0,0,0,0,0,0,0,0,0,0,0,0,0,0,0,0,0,0,0,0,0,0,0,0,0,0,0,0,0,0,0,0,0,0,0,0,0,0,0,0],"trees":[{"base_weights":[-5.761538E-4,-4.9959883E-1,4.9810722E-1,-4.9963945E-1,1.20000005E-1,2.7180785E-1,4.999335E-1,-4.9989307E-1,-4.0590405E-1,1.888298E-1,4.758772E-1,-0E0,4.9994373E-1,-1.4998929E-1,-4.6134022E-1,-1.7021276E-1,-4.5333335E-1,4.237288E-3,2.3713647E-1,1.03125006E-1,1.4507043E-1,-7.5E-2,7.5E-2,9.375E-2,1.499862E-1,-1.3962767E-1,-2.857143E-1,-2.7631578E-1,2.5E-1,-4.6153846E-1,-0E0,2.3404256E-1,-1.4583333E-1,2.196602E-1,4.3055555E-1,7.5E-2,-1.25E-1,-1.4375E-1,2.0000001E-2,1.25E-1,-0E0,-1.0000001E-1,-1.4307693E-1,-3.75E-2,7.5E-2,8.372094E-2,-6.0000002E-2,-1.2954547E-1,-5.8823535E-3,9.130435E-2,5.5872485E-2,1.367647E-1,-0E0],"categories":[],"categories_nodes":[],"categories_segments":[],"categories_sizes":[],"default_left":[0,0,0,0,0,0,0,0,0,0,0,0,0,0,0,0,0,0,0,0,0,0,0,0,0,0,0,0,0,0,0,0,0,0,0,0,0,0,0,0,0,0,0,0,0,0,0,0,0,0,0,0,0],"id":0,"left_children":[1,3,5,7,-1,9,11,13,15,17,19,21,23,-1,25,27,29,31,33,-1,-1,-1,-1,-1,-1,-1,35,37,39,41,43,45,47,49,51,-1,-1,-1,-1,-1,-1,-1,-1,-1,-1,-1,-1,-1,-1,-1,-1,-1,-1],"loss_changes":[4.902355E4,3.796875E0,4.0585938E1,2.1386719E0,0E0,1.3304363E1,5.019531E-1,3.90625E-2,2.9522552E0,5.0282116E0,6.546402E-2,2.5E-1,3.125E-2,0E0,6.214142E-3,2.1646137E0,8.369217E-1,4.103599E0,1.4163933E0,0E0,0E0,0E0,0E0,0E0,0E0,0E0,5.9523815E-1,2.675768E0,4.1666675E-1,2.7692413E-1,1.875E-1,9.7436905E-1,2.590631E0,1.109335E0,3.9256525E-1,0E0,0E0,0E0,0E0,0E0,0E0,0E0,0E0,0E0,0E0,0E0,0E0,0E0,0E0,0E0,0E0,0E0,0E0],"parents":[2147483647,0,0,1,1,2,2,3,3,5,5,6,6,7,7,8,8,9,9,10,10,11,11,12,12,14,14,15,15,16,16,17,17,18,18,26,26,27,27,28,28,29,29,30,30,31,31,32,32,33,33,34,34],"right_children":[2,4,6,8,-1,10,12,14,16,18,20,22,24,-1,26,28,30,32,34,-1,-1,-1,-1,-1,-1,-1,36,38,40,42,44,46,48,50,52,-1,-1,-1,-1,-1,-1,-1,-1,-1,-1,-1,-1,-1,-1,-1,-1,-1,-1],"split_conditions":[-6.4101624E-1,8.3668697E-1,4.548086E-1,-9.149724E-1,1.20000005E-1,-5.132824E-1,-6.6720897E-1,1.5431003E-1,-1.0245334E0,-3.3300987E-1,1.0037866E0,3.9889297E0,-3.1143272E0,-1.4998929E-1,6.6958743E-1,1.1892361E-3,2.1967447E0,-1.0823916E0,4.547934E-1,1.03125006E-1,1.4507043E-1,-7.5E-2,7.5E-2,9.375E-2,1.499862E-1,-1.3962767E-1,-1.8463815E0,4.841455E0,8.025242E0,-9.178521E-1,-8.453159E-1,-9.201692E-1,-6.6720897E-1,-1.2880937E0,8.025242E0,7.5E-2,-1.25E-1,-1.4375E-1,2.0000001E-2,1.25E-1,-0E0,-1.0000001E-1,-1.4307693E-1,-3.75E-2,7.5E-2,8.372094E-2,-6.0000002E-2,-1.2954547E-1,-5.8823535E-3,9.130435E-2,5.5872485E-2,1.367647E-1,-0E0],"split_indices":[9,6,9,9,0,10,6,7,1,6,6,0,5,0,6,6,4,12,1,0,0,0,0,0,0,0,1,13,0,1,5,8,6,10,0,0,0,0,0,0,0,0,0,0,0,0,0,0,0,0,0,0,0],"split_type":[0,0,0,0,0,0,0,0,0,0,0,0,0,0,0,0,0,0,0,0,0,0,0,0,0,0,0,0,0,0,0,0,0,0,0,0,0,0,0,0,0,0,0,0,0,0,0,0,0,0,0,0,0],"sum_hessian":[1.96995E5,9.8464E4,9.8531E4,9.846E4,4E0,7.9E2,9.7741E4,9.819E4,2.7E2,5.63E2,2.27E2,2E0,9.7739E4,9.7997E4,1.93E2,4.6E1,2.24E2,1.17E2,4.46E2,1.5E1,2.12E2,1E0,1E0,7E0,9.7732E4,1.87E2,6E0,3.7E1,9E0,2.2E2,4E0,4.6E1,7.1E1,4.11E2,3.5E1,1E0,5E0,2.3E1,1.4E1,5E0,4E0,2.6E1,1.94E2,3E0,1E0,4.2E1,4E0,2.1E1,5E1,1.14E2,2.97E2,3.3E1,2E0],"tree_param":{"num_deleted":"0","num_feature":"16","num_nodes":"53","size_leaf_vector":"0"}},{"base_weights":[-4.0208784E-4,-3.497235E-1,3.4868178E-1,-3.497531E-1,9.12E-2,1.8551607E-1,3.499297E-1,-3.499286E-1,-2.848868E-1,1.266237E-1,3.2865423E-1,2.9932052E-1,1.0499976E-1,-1.0499359E-1,-9.693737E-2,-2.9818875E-1,1.896875E-1,2.0778662E-2,1.7486235E-1,-0E0,3.3169731E-1,1.0570252E-1,2.6993823E-1,-1.9255355E-1,-1.0037397E-1,1.1100001E-1,7.500005E-3,1.5957344E-1,-1.0721174E-1,3.3526692E-1,1.579596E-1,-6.3750006E-2,6.3750006E-2,1.8126208E-1,1.00760564E-1,2.3845206E-1,9.4475076E-2,-7.5768754E-2,4.568182E-2,-2.90625E-2,6.3750006E-2,-8.3352275E-2,5.3987738E-2,-9.823089E-2,-2.0439321E-2,-7.411765E-2,1.0811994E-1,5.6600228E-2,2.3005484E-2,-2.9997243E-2,8.750345E-2,7.975277E-2,-1.111745E-1],"categories":[],"categories_nodes":[],"categories_segments":[],"categories_sizes":[],"default_left":[0,0,0,0,0,0,0,0,0,0,0,0,0,0,0,0,0,0,0,0,0,0,0,0,0,0,0,0,0,0,0,0,0,0,0,0,0,0,0,0,0,0,0,0,0,0,0,0,0,0,0,0,0],"id":1,"left_children":[1,3,5,7,-1,9,11,13,15,17,19,21,-1,-1,-1,23,25,27,29,31,33,-1,35,37,-1,-1,39,41,43,45,47,-1,-1,49,-1,51,-1,-1,-1,-1,-1,-1,-1,-1,-1,-1,-1,-1,-1,-1,-1,-1,-1],"loss_changes":[2.4022299E4,2.0146484E0,1.9999023E1,1.0195312E0,0E0,6.2806892E0,2.3925781E-1,1.8554688E-2,1.7673187E0,2.7177706E0,2.1802711E-1,1.2455177E-1,0E0,0E0,0E0,9.5044136E-1,2.600305E-1,3.0015268E0,9.3936825E-1,1.80625E-1,7.4661255E-2,0E0,5.944729E-2,1.4869444E0,0E0,0E0,1.2757032E-1,7.722764E-1,7.350656E-1,5.8664703E-1,8.166237E-1,0E0,0E0,2.776039E-1,0E0,1.0994213E0,0E0,0E0,0E0,0E0,0E0,0E0,0E0,0E0,0E0,0E0,0E0,0E0,0E0,0E0,0E0,0E0,0E0],"parents":[2147483647,0,0,1,1,2,2,3,3,5,5,6,6,7,7,8,8,9,9,10,10,11,11,15,15,16,16,17,17,18,18,19,19,20,20,22,22,23,23,26,26,27,27,28,28,29,29,30,30,33,33,35,35],"right_children":[2,4,6,8,-1,10,12,14,16,18,20,22,-1,-1,-1,24,26,28,30,32,34,-1,36,38,-1,-1,40,42,44,46,48,-1,-1,50,-1,52,-1,-1,-1,-1,-1,-1,-1,-1,-1,-1,-1,-1,-1,-1,-1,-1,-1],"split_conditions":[-6.4101624E-1,8.3668697E-1,8.3668697E-1,-9.149724E-1,9.12E-2,4.548086E-1,-4.025951E-1,1.5431426E-1,2.1967447E0,-1.6590631E-1,-6.6720897E-1,-9.0065765E-1,1.0499976E-1,-1.0499359E-1,-9.693737E-2,-9.178521E-1,-1.0245334E0,-9.201692E-1,-6.410042E-1,3.9889297E0,3.98887E0,1.0570252E-1,4.547934E-1,1.1892361E-3,-1.0037397E-1,1.1100001E-1,-8.453159E-1,2.2288861E0,-8.3430207E-1,-3.3300987E-1,-7.3465705E-1,-6.3750006E-2,6.3750006E-2,-6.2394893E-1,1.00760564E-1,9.236846E-1,9.4475076E-2,-7.5768754E-2,4.568182E-2,-2.90625E-2,6.3750006E-2,-8.3352275E-2,5.3987738E-2,-9.823089E-2,-2.0439321E-2,-7.411765E-2,1.0811994E-1,5.6600228E-2,2.3005484E-2,-2.9997243E-2,8.750345E-2,7.975277E-2,-1.111745E-1],"split_indices":[9,6,6,9,0,9,10,4,4,14,6,5,0,0,0,1,1,8,1,0,13,0,1,6,0,0,5,13,14,6,10,0,0,5,0,3,0,0,0,0,0,0,0,0,0,0,0,0,0,0,0,0,0],"split_type":[0,0,0,0,0,0,0,0,0,0,0,0,0,0,0,0,0,0,0,0,0,0,0,0,0,0,0,0,0,0,0,0,0,0,0,0,0,0,0,0,0,0,0,0,0,0,0,0,0,0,0,0,0],"sum_hessian":[1.96995E5,9.8464E4,9.8531E4,9.846E4,4E0,7.49E2,9.7782E4,9.819E4,2.7E2,5.32E2,2.17E2,1.4E2,9.7642E4,9.7995E4,1.95E2,2.63E2,7E0,1.67E2,3.65E2,2E0,2.15E2,4.6E1,9.4E1,6.9E1,1.94E2,3E0,4E0,8E1,8.7E1,3.3E1,3.32E2,1E0,1E0,7E0,2.08E2,5.9E1,3.5E1,5.9E1,1E1,3E0,1E0,3E0,7.7E1,1.2E1,7.5E1,1E0,3.2E1,2.4E2,9.2E1,2E0,5E0,5.7E1,2E0],"tree_param":{"num_deleted":"0","num_feature":"16","num_nodes":"53","size_leaf_vector":"0"}},{"base_weights":[-2.7994227E-4,-2.448074E-1,2.4408124E-1,-2.4482909E-1,6.9312006E-2,1.3229363E-1,2.4498919E-1,-2.4495207E-1,-1.9936459E-1,8.7229066E-2,2.2592735E-1,-5.4187503E-2,2.4499539E-1,-7.348741E-2,-1.5272473E-1,-2.0922628E-1,1.5099218E-1,-1.4545353E-1,9.88293E-2,-6.4058214E-2,2.2846813E-1,4.2690974E-2,7.350039E-2,8.962134E-2,-7.043085E-2,8.8508695E-2,-2.1420163E-1,8.602501E-2,1.2187505E-2,-2.4444902E-1,1.0784245E-1,7.6879665E-2,2.0421185E-1,1.9281483E-1,2.5643244E-1,-3.7961002E-2,7.829061E-2,8.336532E-2,-6.5145515E-2,-2.2523435E-2,5.41875E-2,-1.9501884E-2,-9.6680485E-2,5.0401133E-2,2.2574235E-2,2.5421403E-2,-8.925365E-2,2.5559403E-2,7.837985E-2,6.8810105E-2,1.0036569E-2,1.0107938E-1,7.410877E-2],"categories":[],"categories_nodes":[],"categories_segments":[],"categories_sizes":[],"default_left":[0,0,0,0,0,0,0,0,0,0,0,0,0,0,0,0,0,0,0,0,0,0,0,0,0,0,0,0,0,0,0,0,0,0,0,0,0,0,0,0,0,0,0,0,0,0,0,0,0,0,0,0,0],"id":2,"left_children":[1,3,5,7,-1,9,11,13,15,17,19,-1,21,-1,23,25,27,29,31,-1,33,-1,-1,35,-1,-1,37,-1,39,41,43,45,47,49,51,-1,-1,-1,-1,-1,-1,-1,-1,-1,-1,-1,-1,-1,-1,-1,-1,-1,-1],"loss_changes":[1.1771166E4,1.0722656E0,9.968262E0,5.0146484E-1,0E0,3.3390646E0,3.022461E-1,1.7089844E-2,9.67927E-1,1.4692287E0,3.3685684E-1,0E0,2.4902344E-2,0E0,1.9998947E-1,7.255306E-1,1.4725578E-1,6.783162E-1,1.1732383E0,0E0,2.0679092E-1,0E0,0E0,1.4413641E-1,0E0,0E0,4.4068718E-1,0E0,8.7055E-2,2.4436843E-1,3.0458122E-3,1.2814877E0,5.752828E-1,6.738448E-1,2.3497581E-2,0E0,0E0,0E0,0E0,0E0,0E0,0E0,0E0,0E0,0E0,0E0,0E0,0E0,0E0,0E0,0E0,0E0,0E0],"parents":[2147483647,0,0,1,1,2,2,3,3,5,5,6,6,7,7,8,8,9,9,10,10,12,12,14,14,15,15,16,16,17,17,18,18,20,20,23,23,26,26,28,28,29,29,30,30,31,31,32,32,33,33,34,34],"right_children":[2,4,6,8,-1,10,12,14,16,18,20,-1,22,-1,24,26,28,30,32,-1,34,-1,-1,36,-1,-1,38,-1,40,42,44,46,48,50,52,-1,-1,-1,-1,-1,-1,-1,-1,-1,-1,-1,-1,-1,-1,-1,-1,-1,-1],"split_conditions":[-6.4101624E-1,8.3668697E-1,4.547934E-1,-9.149724E-1,6.9312006E-2,8.366873E-1,-6.6720897E-1,6.6958743E-1,2.1967447E0,1.530523E0,-6.6720897E-1,-5.4187503E-2,-3.1143272E0,-7.348741E-2,-1.8463815E0,-2.3957148E0,-1.0245334E0,-6.2669516E-1,8.025242E0,-6.4058214E-2,-2.3655675E-1,4.2690974E-2,7.350039E-2,8.025242E0,-7.043085E-2,8.8508695E-2,-1.8463815E0,8.602501E-2,-8.453159E-1,-6.410042E-1,-6.410042E-1,4.5898524E-1,-2.6715934E0,6.110352E0,1.0037866E0,-3.7961002E-2,7.829061E-2,8.336532E-2,-6.5145515E-2,-2.2523435E-2,5.41875E-2,-1.9501884E-2,-9.6680485E-2,5.0401133E-2,2.2574235E-2,2.5421403E-2,-8.925365E-2,2.5559403E-2,7.837985E-2,6.8810105E-2,1.0036569E-2,1.0107938E-1,7.410877E-2],"split_indices":[9,6,1,9,0,14,6,6,4,13,6,0,5,0,1,2,1,2,0,0,5,0,0,0,0,0,1,0,5,1,1,12,5,0,6,0,0,0,0,0,0,0,0,0,0,0,0,0,0,0,0,0,0],"split_type":[0,0,0,0,0,0,0,0,0,0,0,0,0,0,0,0,0,0,0,0,0,0,0,0,0,0,0,0,0,0,0,0,0,0,0,0,0,0,0,0,0,0,0,0,0,0,0,0,0,0,0,0,0],"sum_hessian":[1.96995E5,9.8464E4,9.8531E4,9.846E4,4E0,7.95E2,9.7736E4,9.819E4,2.7E2,5.38E2,2.57E2,1E0,9.7735E4,9.8182E4,8E0,2.63E2,7E0,2.5E1,5.13E2,1E0,2.56E2,7E0,9.7728E4,2E0,6E0,2E0,2.61E2,3E0,4E0,1.8E1,7E0,4.26E2,8.7E1,1.16E2,1.4E2,1E0,1E0,1E0,2.6E2,3E0,1E0,6E0,1.2E1,1E0,6E0,4.18E2,8E0,2.9E1,5.8E1,9.4E1,2.2E1,1.1E1,1.29E2],"tree_param":{"num_deleted":"0","num_feature":"16","num_nodes":"53","size_leaf_vector":"0"}},{"base_weights":[-1.9373898E-4,-1.7136326E-1,1.708594E-1,-1.7137913E-1,5.267713E-2,6.795617E-2,1.7136878E-1,-1.715266E-1,-1.473241E-1,-2.1141572E-2,9.7794704E-2,1.3082881E-1,1.7151143E-1,-5.1449694E-2,-1.970867E-1,-1.6400522E-1,-1.0452866E-1,-2.7112827E-1,4.866031E-2,7.667968E-2,1.7450413E-1,9.411269E-2,1.6230139E-1,3.4070767E-2,5.1455215E-2,-6.113128E-2,1.2606263E-2,-5.1510412E-2,-1.5192875E-1,1.0443314E-1,-1.4053188E-1,-3.1280568E-1,-1.07363455E-1,2.3682415E-1,1.6720382E-2,1.4932108E-1,5.266949E-2,-4.6059377E-2,1.8075824E-1,1.5966734E-1,5.2290354E-2,5.469552E-2,1.4547424E-1,9.313715E-2,-5.7048928E-2,-3.4445453E-2,-4.965842E-2,9.641403E-2,-5.2635994E-2,-4.4383246E-2,1.7864767E-2,-6.514406E-2,-1.06490724E-1,6.344989E-4,-5.7000313E-2,8.414503E-2,-4.9611956E-2,3.8948122E-2,-1.0021993E-2,5.122528E-2,-3.3388183E-2,-1.9683046E-3,2.8075444E-2,7.0329875E-2,5.0172724E-2,4.413844E-2,9.2351615E-2,5.5024922E-2,8.186037E-3,3.759659E-2,5.130672E-2],"categories":[],"categories_nodes":[],"categories_segments":[],"categories_sizes":[],"default_left":[0,0,0,0,0,0,0,0,0,0,0,0,0,0,0,0,0,0,0,0,0,0,0,0,0,0,0,0,0,0,0,0,0,0,0,0,0,0,0,0,0,0,0,0,0,0,0,0,0,0,0,0,0,0,0,0,0,0,0,0,0,0,0,0,0,0,0,0,0,0,0],"id":3,"left_children":[1,3,5,7,-1,9,11,13,15,17,19,21,23,-1,25,27,29,31,33,35,37,39,41,-1,-1,-1,43,-1,45,47,49,51,53,55,57,59,61,-1,63,65,67,-1,69,-1,-1,-1,-1,-1,-1,-1,-1,-1,-1,-1,-1,-1,-1,-1,-1,-1,-1,-1,-1,-1,-1,-1,-1,-1,-1,-1,-1],"loss_changes":[5.767891E3,5.722656E-1,5.153076E0,3.2421875E-1,0E0,1.2967799E0,5.4467773E-1,3.515625E-2,4.1617966E-1,2.1594872E0,5.778177E-1,3.8685703E-1,1.4160156E-2,0E0,1.4133072E-1,1.4344215E-2,1.3162072E0,1.5069926E-1,5.7900447E-1,4.944458E-1,1.8777442E-1,4.3853974E-1,3.6127567E-2,0E0,0E0,0E0,3.0061764E-1,0E0,7.082701E-2,1.6351204E0,2.2830224E-1,7.618904E-3,6.3731104E-2,2.9221952E-1,4.80592E-1,4.1553402E-1,5.2892286E-1,0E0,1.665306E-2,7.1759224E-2,3.2613567E-1,0E0,3.3141613E-2,0E0,0E0,0E0,0E0,0E0,0E0,0E0,0E0,0E0,0E0,0E0,0E0,0E0,0E0,0E0,0E0,0E0,0E0,0E0,0E0,0E0,0E0,0E0,0E0,0E0,0E0,0E0,0E0],"parents":[2147483647,0,0,1,1,2,2,3,3,5,5,6,6,7,7,8,8,9,9,10,10,11,11,12,12,14,14,15,15,16,16,17,17,18,18,19,19,20,20,21,21,22,22,26,26,28,28,29,29,30,30,31,31,32,32,33,33,34,34,35,35,36,36,38,38,39,39,40,40,42,42],"right_children":[2,4,6,8,-1,10,12,14,16,18,20,22,24,-1,26,28,30,32,34,36,38,40,42,-1,-1,-1,44,-1,46,48,50,52,54,56,58,60,62,-1,64,66,68,-1,70,-1,-1,-1,-1,-1,-1,-1,-1,-1,-1,-1,-1,-1,-1,-1,-1,-1,-1,-1,-1,-1,-1,-1,-1,-1,-1,-1,-1],"split_conditions":[-6.4101624E-1,8.3668697E-1,5.024879E-1,-8.343085E-1,5.267713E-2,3.146014E0,-5.132824E-1,-9.149724E-1,-9.149724E-1,-5.001042E-1,4.547934E-1,4.548086E-1,1.5431426E-1,-5.1449694E-2,8.025242E0,1.5431003E-1,-2.0074925E0,-8.453159E-1,-6.410042E-1,-2.0074925E0,-6.6720897E-1,4.841527E0,9.479023E-1,3.4070767E-2,5.1455215E-2,-6.113128E-2,-7.056564E-1,-5.1510412E-2,-2.2842011E0,-9.178521E-1,2.1967447E0,-6.410042E-1,-6.410042E-1,3.1346958E0,-6.4200693E-1,1.1217812E0,1.1892361E-3,-4.6059377E-2,4.548086E-1,8.772762E-1,-1.2880937E0,5.469552E-2,2.196688E0,9.313715E-2,-5.7048928E-2,-3.4445453E-2,-4.965842E-2,9.641403E-2,-5.2635994E-2,-4.4383246E-2,1.7864767E-2,-6.514406E-2,-1.06490724E-1,6.344989E-4,-5.7000313E-2,8.414503E-2,-4.9611956E-2,3.8948122E-2,-1.0021993E-2,5.122528E-2,-3.3388183E-2,-1.9683046E-3,2.8075444E-2,7.0329875E-2,5.0172724E-2,4.413844E-2,9.2351615E-2,5.5024922E-2,8.186037E-3,3.759659E-2,5.130672E-2],"split_indices":[9,6,6,6,0,13,10,9,9,14,1,9,4,0,0,7,5,5,1,5,6,0,1,0,0,0,4,0,5,1,4,1,1,0,8,4,6,0,9,4,10,0,7,0,0,0,0,0,0,0,0,0,0,0,0,0,0,0,0,0,0,0,0,0,0,0,0,0,0,0,0],"split_type":[0,0,0,0,0,0,0,0,0,0,0,0,0,0,0,0,0,0,0,0,0,0,0,0,0,0,0,0,0,0,0,0,0,0,0,0,0,0,0,0,0,0,0,0,0,0,0,0,0,0,0,0,0,0,0,0,0,0,0,0,0,0,0,0,0,0,0,0,0,0,0],"sum_hessian":[1.96995E5,9.8464E4,9.8531E4,9.846E4,4E0,4.86E2,9.8045E4,9.7854E4,6.06E2,1.22E2,3.64E2,3.47E2,9.7698E4,9.7756E4,9.8E1,4.34E2,1.72E2,2.6E1,9.6E1,2.87E2,7.7E1,1.62E2,1.85E2,1.2E1,9.7686E4,9.5E1,3E0,2.57E2,1.77E2,2.5E1,1.47E2,2E1,6E0,1.3E1,8.3E1,7E1,2.17E2,1E0,7.6E1,6.2E1,1E2,8E1,1.05E2,1E0,2E0,5E1,1.27E2,1.4E1,1.1E1,1.42E2,5E0,8E0,1.2E1,3E0,3E0,1.2E1,1E0,2.5E1,5.8E1,6.5E1,5E0,8.9E1,1.28E2,1.2E1,6.4E1,5.9E1,3E0,1.5E1,8.5E1,6.2E1,4.3E1],"tree_param":{"num_deleted":"0","num_feature":"16","num_nodes":"71","size_leaf_vector":"0"}},{"base_weights":[-1.3438714E-4,-1.1995572E-1,1.19605474E-1,-1.1996737E-1,4.0034607E-2,4.747454E-2,1.1996253E-1,-1.2002451E-1,-8.792276E-2,-1.6136833E-2,6.878063E-2,9.256666E-2,1.2005889E-1,-1.2003106E-1,-1.1006685E-2,-5.169042E-2,-1.1018041E-1,-1.9823425E-1,3.4716435E-2,5.2818693E-2,1.1994997E-1,6.710404E-2,1.14383005E-1,4.596836E-2,1.2005155E-1,-1.20061696E-1,-1.0153501E-1,-3.0004827E-2,7.845746E-2,-1.1818057E-1,9.8750845E-2,-7.318459E-2,-1.3373543E-1,-1.1888439E-1,-2.45357E-1,1.9711195E-2,7.770322E-2,1.0162673E-1,3.7290856E-2,1.292845E-1,-1.0102288E-1,8.377378E-2,-2.3954723E-2,3.9107166E-2,1.0338712E-1,2.2381365E-2,3.601677E-2,-3.6012087E-2,-4.1780174E-2,-3.3424515E-2,1.11039905E-2,-3.918088E-2,7.171384E-2,7.235378E-2,-4.0133033E-2,-4.0786803E-2,-1.2135158E-2,-4.2722907E-2,1.7167568E-4,-6.708249E-2,6.932262E-3,-5.1988456E-2,-8.87272E-2,5.0473075E-2,-2.0581523E-3,-8.575066E-2,3.7276562E-2,7.989547E-2,8.477823E-3,4.020942E-2,-1.3542308E-2,2.1899484E-2,4.8412364E-2,3.7100036E-2,-2.8930398E-2,2.6645469E-2,3.746323E-2],"categories":[],"categories_nodes":[],"categories_segments":[],"categories_sizes":[],"default_left":[0,0,0,0,0,0,0,0,0,0,0,0,0,0,0,0,0,0,0,0,0,0,0,0,0,0,0,0,0,0,0,0,0,0,0,0,0,0,0,0,0,0,0,0,0,0,0,0,0,0,0,0,0,0,0,0,0,0,0,0,0,0,0,0,0,0,0,0,0,0,0,0,0,0,0,0,0],"id":4,"left_children":[1,3,5,7,-1,9,11,13,15,17,19,21,23,25,27,29,31,33,35,37,39,41,43,-1,45,47,49,-1,-1,51,53,55,57,59,61,63,-1,65,67,69,-1,71,73,-1,75,-1,-1,-1,-1,-1,-1,-1,-1,-1,-1,-1,-1,-1,-1,-1,-1,-1,-1,-1,-1,-1,-1,-1,-1,-1,-1,-1,-1,-1,-1,-1,-1],"loss_changes":[2.8263926E3,3.0664062E-1,2.5319824E0,1.697998E-1,0E0,6.611458E-1,2.475586E-1,6.8847656E-2,1.3865864E-1,1.1458925E0,2.917825E-1,1.8563867E-1,5.3710938E-3,4.35791E-2,1.9596177E-1,7.118708E-1,8.607066E-2,7.178891E-2,3.2135677E-1,2.084176E-1,4.101553E-1,2.4942869E-1,1.919341E-2,0E0,1.0498047E-2,2.355957E-2,2.3546147E-1,0E0,0E0,2.4866235E-1,7.6087207E-1,8.696489E-2,7.6972604E-2,1.8360639E-1,6.858051E-3,3.64256E-1,0E0,6.2295103E-1,4.3512192E-1,7.642865E-2,0E0,1.03613675E-1,2.9011527E-1,0E0,2.4913907E-2,0E0,0E0,0E0,0E0,0E0,0E0,0E0,0E0,0E0,0E0,0E0,0E0,0E0,0E0,0E0,0E0,0E0,0E0,0E0,0E0,0E0,0E0,0E0,0E0,0E0,0E0,0E0,0E0,0E0,0E0,0E0,0E0],"parents":[2147483647,0,0,1,1,2,2,3,3,5,5,6,6,7,7,8,8,9,9,10,10,11,11,12,12,13,13,14,14,15,15,16,16,17,17,18,18,19,19,20,20,21,21,22,22,24,24,25,25,26,26,29,29,30,30,31,31,32,32,33,33,34,34,35,35,37,37,38,38,39,39,41,41,42,42,44,44],"right_children":[2,4,6,8,-1,10,12,14,16,18,20,22,24,26,28,30,32,34,36,38,40,42,44,-1,46,48,50,-1,-1,52,54,56,58,60,62,64,-1,66,68,70,-1,72,74,-1,76,-1,-1,-1,-1,-1,-1,-1,-1,-1,-1,-1,-1,-1,-1,-1,-1,-1,-1,-1,-1,-1,-1,-1,-1,-1,-1,-1,-1,-1,-1,-1,-1],"split_conditions":[-6.4101624E-1,8.3668697E-1,5.024879E-1,-6.4200693E-1,4.0034607E-2,3.146014E0,-5.132824E-1,1.1892361E-3,-9.178521E-1,-5.001042E-1,4.548086E-1,4.548086E-1,-6.2669516E-1,8.025242E0,-1.0245334E0,-1.024555E0,1.6829155E-1,-6.410042E-1,-6.2394893E-1,-2.0074925E0,-7.9000074E-1,4.5899293E-1,4.5899293E-1,4.596836E-2,1.5431003E-1,-5.0010943E-1,-9.149724E-1,-3.0004827E-2,7.845746E-2,6.695884E-1,8.772762E-1,1.5305475E0,2.1967447E0,-8.3430207E-1,-6.6720897E-1,-6.410042E-1,7.770322E-2,-1.0245334E0,-9.149536E-1,1.2023284E0,-1.0102288E-1,5.2201885E-1,-9.0068805E-1,3.9107166E-2,9.2365956E-1,2.2381365E-2,3.601677E-2,-3.6012087E-2,-4.1780174E-2,-3.3424515E-2,1.11039905E-2,-3.918088E-2,7.171384E-2,7.235378E-2,-4.0133033E-2,-4.0786803E-2,-1.2135158E-2,-4.2722907E-2,1.7167568E-4,-6.708249E-2,6.932262E-3,-5.1988456E-2,-8.87272E-2,5.0473075E-2,-2.0581523E-3,-8.575066E-2,3.7276562E-2,7.989547E-2,8.477823E-3,4.020942E-2,-1.3542308E-2,2.1899484E-2,4.8412364E-2,3.7100036E-2,-2.8930398E-2,2.6645469E-2,3.746323E-2],"split_indices":[9,6,6,8,0,13,10,6,1,14,9,9,2,0,1,9,14,1,5,5,10,8,8,0,7,6,9,0,0,14,4,0,4,14,6,1,0,1,1,5,0,2,10,0,2,0,0,0,0,0,0,0,0,0,0,0,0,0,0,0,0,0,0,0,0,0,0,0,0,0,0,0,0,0,0,0,0],"split_type":[0,0,0,0,0,0,0,0,0,0,0,0,0,0,0,0,0,0,0,0,0,0,0,0,0,0,0,0,0,0,0,0,0,0,0,0,0,0,0,0,0,0,0,0,0,0,0,0,0,0,0,0,0,0,0,0,0,0,0,0,0,0,0,0,0,0,0,0,0,0,0,0,0,0,0,0,0],"sum_hessian":[1.96995E5,9.8464E4,9.8531E4,9.846E4,4E0,4.86E2,9.8045E4,9.8282E4,1.78E2,1.22E2,3.64E2,3.47E2,9.7698E4,9.8276E4,6E0,6.9E1,1.09E2,2.6E1,9.6E1,2.79E2,8.5E1,1.62E2,1.85E2,1.7E1,9.7681E4,9.8108E4,1.68E2,5E0,1E0,4.8E1,2.1E1,4.4E1,6.5E1,1.1E1,1.5E1,9.1E1,5E0,6.6E1,2.13E2,8.4E1,1E0,1.37E2,2.5E1,7.1E1,1.14E2,1.1E1,9.767E4,9.8006E4,1.02E2,1.57E2,1.1E1,4.7E1,1E0,1.3E1,8E0,1.4E1,3E1,6.1E1,4E0,6E0,5E0,8E0,7E0,1.3E1,7.8E1,3E0,6.3E1,7E0,2.06E2,8.2E1,2E0,1.22E2,1.5E1,8E0,1.7E1,7.1E1,4.3E1],"tree_param":{"num_deleted":"0","num_feature":"16","num_nodes":"77","size_leaf_vector":"0"}},{"base_weights":[-9.338179E-5,-8.396943E-2,8.372563E-2,-8.397799E-2,3.0426307E-2,-4.5989486E-3,8.388913E-2,-8.4060974E-2,-7.046239E-2,4.269344E-2,-5.5027917E-2,5.9552062E-2,8.404367E-2,-2.5211979E-2,-1.0399308E-1,-7.970699E-2,-4.681001E-2,6.2360246E-2,2.9222524E-2,-1.3310516E-1,-1.50721595E-2,1.3110685E-1,5.389772E-2,1.0607412E-1,8.402611E-2,-1.0763946E-1,9.518448E-3,-7.52963E-2,-8.981089E-2,1.14650704E-1,-7.233165E-2,-7.354744E-3,8.8607945E-2,-1.5378176E-1,6.997742E-2,8.298363E-2,-8.748297E-2,-4.701866E-2,1.54548E-1,3.6578882E-2,8.5163094E-2,1.18729375E-1,1.4828643E-3,7.759271E-3,8.403002E-2,-4.203957E-2,-2.7868243E-2,7.7500984E-2,-4.7859944E-2,-2.4208317E-2,6.651155E-3,-2.3967667E-2,-3.134129E-2,1.01286255E-1,-2.9996147E-2,-3.2978516E-2,-1.3378162E-2,1.4371077E-2,-4.4548362E-2,-7.8193685E-3,3.5790965E-2,-1.01911016E-1,-3.5779126E-2,1.882893E-4,9.1929495E-2,-5.0110143E-2,1.3132287E-2,-8.190617E-2,4.0271234E-2,5.5640563E-2,3.193573E-2,1.7404161E-2,-2.026563E-3,-3.8228672E-2,2.6361596E-2,5.2198924E-2,2.4235846E-2,-9.140344E-2,2.3351327E-2,2.238466E-2,2.5212627E-2],"categories":[],"categories_nodes":[],"categories_segments":[],"categories_sizes":[],"default_left":[0,0,0,0,0,0,0,0,0,0,0,0,0,0,0,0,0,0,0,0,0,0,0,0,0,0,0,0,0,0,0,0,0,0,0,0,0,0,0,0,0,0,0,0,0,0,0,0,0,0,0,0,0,0,0,0,0,0,0,0,0,0,0,0,0,0,0,0,0,0,0,0,0,0,0,0,0,0,0,0,0],"id":5,"left_children":[1,3,5,7,-1,9,11,13,15,17,19,21,23,-1,25,27,29,-1,31,33,35,37,39,41,43,45,47,49,51,53,55,57,59,61,-1,63,65,67,69,71,73,75,77,-1,79,-1,-1,-1,-1,-1,-1,-1,-1,-1,-1,-1,-1,-1,-1,-1,-1,-1,-1,-1,-1,-1,-1,-1,-1,-1,-1,-1,-1,-1,-1,-1,-1,-1,-1,-1,-1],"loss_changes":[1.3849692E3,1.6479492E-1,1.4232178E0,1.0449219E-1,0E0,4.3878716E-1,3.6486816E-1,3.2287598E-2,1.2899351E-1,2.0530495E-1,2.7564144E-1,2.4540114E-1,2.8930664E-2,0E0,4.2001367E-2,1.26235485E-2,7.211814E-1,0E0,1.9397363E-1,2.6312512E-1,4.3327755E-1,1.9516271E-1,3.1094337E-1,9.777248E-2,2.0080566E-2,3.2977343E-2,2.0946568E-1,1.643647E-1,1.0120392E-2,1.1823456E0,1.5152538E-1,4.438658E-1,1.2278628E-1,1.4559746E-1,0E0,4.782671E-1,3.7276867E-1,2.824349E-1,3.9742053E-2,3.4871656E-1,1.2983048E-1,1.2434608E-1,2.3410743E-1,0E0,4.9438477E-3,0E0,0E0,0E0,0E0,0E0,0E0,0E0,0E0,0E0,0E0,0E0,0E0,0E0,0E0,0E0,0E0,0E0,0E0,0E0,0E0,0E0,0E0,0E0,0E0,0E0,0E0,0E0,0E0,0E0,0E0,0E0,0E0,0E0,0E0,0E0,0E0],"parents":[2147483647,0,0,1,1,2,2,3,3,5,5,6,6,7,7,8,8,9,9,10,10,11,11,12,12,14,14,15,15,16,16,18,18,19,19,20,20,21,21,22,22,23,23,24,24,25,25,26,26,27,27,28,28,29,29,30,30,31,31,32,32,33,33,35,35,36,36,37,37,38,38,39,39,40,40,41,41,42,42,44,44],"right_children":[2,4,6,8,-1,10,12,14,16,18,20,22,24,-1,26,28,30,-1,32,34,36,38,40,42,44,46,48,50,52,54,56,58,60,62,-1,64,66,68,70,72,74,76,78,-1,80,-1,-1,-1,-1,-1,-1,-1,-1,-1,-1,-1,-1,-1,-1,-1,-1,-1,-1,-1,-1,-1,-1,-1,-1,-1,-1,-1,-1,-1,-1,-1,-1,-1,-1,-1,-1],"split_conditions":[-6.4101624E-1,8.3668697E-1,-1.6591032E-1,-8.343085E-1,3.0426307E-2,-9.201692E-1,4.547934E-1,-9.149724E-1,-9.149724E-1,-2.4035716E0,-1.3433915E0,-6.410042E-1,4.548086E-1,-2.5211979E-2,8.025242E0,-1.0245334E0,-2.0075612E0,6.2360246E-2,1.5431426E-1,1.5431426E-1,-1.0113753E0,-1.1596985E0,-4.579237E-1,8.025242E0,-3.1143272E0,-9.178521E-1,-7.056564E-1,-1.024555E0,-6.2669516E-1,-9.178521E-1,-6.4200693E-1,6.110262E0,-2.6715934E0,-1.1596985E0,6.997742E-2,-1.0666828E0,1.5431003E-1,6.6958743E-1,-1.0113753E0,-7.3463243E-1,1.6828878E-1,-6.2396973E-1,9.2365956E-1,7.759271E-3,-9.0068805E-1,-4.203957E-2,-2.7868243E-2,7.7500984E-2,-4.7859944E-2,-2.4208317E-2,6.651155E-3,-2.3967667E-2,-3.134129E-2,1.01286255E-1,-2.9996147E-2,-3.2978516E-2,-1.3378162E-2,1.4371077E-2,-4.4548362E-2,-7.8193685E-3,3.5790965E-2,-1.01911016E-1,-3.5779126E-2,1.882893E-4,9.1929495E-2,-5.0110143E-2,1.3132287E-2,-8.190617E-2,4.0271234E-2,5.5640563E-2,3.193573E-2,1.7404161E-2,-2.026563E-3,-3.8228672E-2,2.6361596E-2,5.2198924E-2,2.4235846E-2,-9.140344E-2,2.3351327E-2,2.238466E-2,2.5212627E-2],"split_indices":[9,6,6,6,0,8,1,9,9,12,5,1,9,0,0,1,10,0,4,4,10,2,5,0,5,1,4,9,2,1,8,13,5,2,0,5,7,6,10,5,6,10,2,0,10,0,0,0,0,0,0,0,0,0,0,0,0,0,0,0,0,0,0,0,0,0,0,0,0,0,0,0,0,0,0,0,0,0,0,0,0],"split_type":[0,0,0,0,0,0,0,0,0,0,0,0,0,0,0,0,0,0,0,0,0,0,0,0,0,0,0,0,0,0,0,0,0,0,0,0,0,0,0,0,0,0,0,0,0,0,0,0,0,0,0,0,0,0,0,0,0,0,0,0,0,0,0,0,0,0,0,0,0,0,0,0,0,0,0,0,0,0,0,0,0],"sum_hessian":[1.96995E5,9.8464E4,9.8531E4,9.846E4,4E0,1.82E2,9.8349E4,9.7854E4,6.06E2,9.4E1,8.8E1,6.23E2,9.7726E4,9.7756E4,9.8E1,4.34E2,1.72E2,6E0,8.8E1,2.9E1,5.9E1,4.4E1,5.79E2,7.3E1,9.7653E4,9.5E1,3E0,3.08E2,1.26E2,2.3E1,1.49E2,5.5E1,3.3E1,2.8E1,1E0,2.5E1,3.4E1,5E0,3.9E1,3.74E2,2.05E2,6.5E1,8E0,7E0,9.7646E4,2.7E1,6.8E1,1E0,2E0,2.92E2,1.6E1,7.9E1,4.7E1,1.1E1,1.2E1,6.2E1,8.7E1,4E1,1.5E1,7E0,2.6E1,3E0,2.5E1,1.9E1,6E0,2.1E1,1.3E1,2E0,3E0,2.2E1,1.7E1,2.5E2,1.24E2,2E0,2.03E2,2.5E1,4E1,1E0,7E0,1.33E2,9.7513E4],"tree_param":{"num_deleted":"0","num_feature":"16","num_nodes":"81","size_leaf_vector":"0"}},{"base_weights":[-6.4981126E-5,-5.8779445E-2,5.8609556E-2,-5.8794443E-2,7.97418E-3,4.503009E-3,5.8739968E-2,-5.884445E-2,-5.0582435E-2,9.4399296E-2,-5.432763E-2,3.4790184E-2,-2.5070459E-2,-1.1352314E-2,5.876077E-2,-1.7648386E-2,-7.573518E-2,-5.6735434E-2,-3.4576647E-2,-1.7901417E-2,1.4508551E-1,-2.4530564E-2,4.5360636E-2,-7.010045E-4,1.0146146E-1,-1.3340428E-1,1.7160962E-3,-1.6795243E-1,1.9199722E-2,1.4791647E-1,5.873567E-2,2.834249E-2,-8.078806E-2,-2.7008548E-2,-5.8031343E-2,9.0366706E-2,-5.375989E-2,1.4452494E-2,-1.6795563E-2,8.10458E-2,4.1028135E-2,1.3069905E-1,-4.229934E-2,3.1238464E-3,1.2520622E-1,3.2335255E-2,-1.4857702E-1,-1.0130469E-1,2.0092236E-2,1.7362727E-2,-1.01338945E-1,-2.898086E-2,5.877064E-2,2.0739628E-1,8.650618E-2,4.1189004E-2,5.8834758E-2,5.24592E-2,-3.8287953E-2,-3.3022985E-2,-1.958564E-2,-1.6844349E-2,5.811081E-4,-1.978127E-2,-1.5526585E-2,7.3432535E-2,-2.147168E-2,-1.2663799E-2,-3.7665464E-2,2.167874E-2,-1.25863785E-2,1.9357184E-2,7.8997344E-2,-1.05629735E-1,-2.3201772E-3,-4.3902777E-2,2.0020388E-2,2.6960911E-2,5.00231E-2,-5.0764915E-2,-2.4707818E-3,-6.283599E-3,-4.5765102E-2,2.159757E-2,-1.4334029E-2,2.4348414E-2,6.7158802E-3,6.979989E-2,1.3682247E-2,2.924259E-2,1.3521868E-2,2.3165222E-2,9.812906E-3,-5.187058E-2,1.7652383E-2],"categories":[],"categories_nodes":[],"categories_segments":[],"categories_sizes":[],"default_left":[0,0,0,0,0,0,0,0,0,0,0,0,0,0,0,0,0,0,0,0,0,0,0,0,0,0,0,0,0,0,0,0,0,0,0,0,0,0,0,0,0,0,0,0,0,0,0,0,0,0,0,0,0,0,0,0,0,0,0,0,0,0,0,0,0,0,0,0,0,0,0,0,0,0,0,0,0,0,0,0,0,0,0,0,0,0,0,0,0,0,0,0,0,0,0],"id":6,"left_children":[1,3,5,7,9,11,13,15,17,19,21,23,25,27,29,-1,31,33,35,37,39,-1,-1,41,43,45,47,49,51,53,55,57,59,61,63,65,67,-1,-1,-1,69,71,73,75,77,-1,79,81,83,-1,-1,-1,85,87,89,91,93,-1,-1,-1,-1,-1,-1,-1,-1,-1,-1,-1,-1,-1,-1,-1,-1,-1,-1,-1,-1,-1,-1,-1,-1,-1,-1,-1,-1,-1,-1,-1,-1,-1,-1,-1,-1,-1,-1],"loss_changes":[6.7866327E2,9.9090576E-2,6.949768E-1,3.744507E-2,1.2897064E-1,2.1404803E-1,1.4398193E-1,2.2857666E-2,5.742395E-2,5.9518248E-2,9.132251E-2,2.7928776E-1,3.5135764E-1,1.4675821E-1,2.1121216E-1,0E0,5.0671697E-2,1.5151858E-2,4.1231728E-1,1.2762845E-2,8.001523E-2,0E0,0E0,4.318784E-1,9.534395E-2,1.0384193E-1,1.8756163E-1,2.1132807E-1,1.2482021E-1,8.0681086E-2,1.68396E-1,1.3658135E-1,3.276992E-2,1.6977824E-2,1.7179608E-2,5.926281E-1,1.1739138E-1,0E0,0E0,0E0,1.5991293E-2,1.4976284E-1,6.3977844E-1,9.533522E-2,3.3451855E-2,0E0,6.522703E-2,5.8575794E-2,2.9933405E-1,0E0,0E0,0E0,1.447656E-2,4.2537928E-2,2.4238154E-3,1.6702473E-1,1.5765381E-1,0E0,0E0,0E0,0E0,0E0,0E0,0E0,0E0,0E0,0E0,0E0,0E0,0E0,0E0,0E0,0E0,0E0,0E0,0E0,0E0,0E0,0E0,0E0,0E0,0E0,0E0,0E0,0E0,0E0,0E0,0E0,0E0,0E0,0E0,0E0,0E0,0E0,0E0],"parents":[2147483647,0,0,1,1,2,2,3,3,4,4,5,5,6,6,7,7,8,8,9,9,10,10,11,11,12,12,13,13,14,14,16,16,17,17,18,18,19,19,20,20,23,23,24,24,25,25,26,26,27,27,28,28,29,29,30,30,31,31,32,32,33,33,34,34,35,35,36,36,40,40,41,41,42,42,43,43,44,44,46,46,47,47,48,48,52,52,53,53,54,54,55,55,56,56],"right_children":[2,4,6,8,10,12,14,16,18,20,22,24,26,28,30,-1,32,34,36,38,40,-1,-1,42,44,46,48,50,52,54,56,58,60,62,64,66,68,-1,-1,-1,70,72,74,76,78,-1,80,82,84,-1,-1,-1,86,88,90,92,94,-1,-1,-1,-1,-1,-1,-1,-1,-1,-1,-1,-1,-1,-1,-1,-1,-1,-1,-1,-1,-1,-1,-1,-1,-1,-1,-1,-1,-1,-1,-1,-1,-1,-1,-1,-1,-1,-1],"split_conditions":[-6.4101624E-1,6.6958743E-1,1.1892361E-3,-8.3430207E-1,-9.149536E-1,-1.4541247E0,-2.505568E0,-9.149724E-1,-9.149724E-1,-2.3948846E0,2.1967447E0,1.5431426E-1,-1.3433915E0,6.110352E0,-6.4199823E-1,-1.7648386E-2,-3.169669E0,-2.3957148E0,-2.0074925E0,3.1346958E0,9.067886E-1,-2.4530564E-2,4.5360636E-2,-6.672031E-1,-2.6715934E0,-9.178521E-1,-6.6720897E-1,3.9889297E0,-8.7024397E-1,8.3668697E-1,-5.1326543E-1,-7.056386E-1,-9.178521E-1,1.5431426E-1,-1.1459424E0,-9.178521E-1,6.110262E0,1.4452494E-2,-1.6795563E-2,8.10458E-2,3.1346958E0,-1.8414673E0,-6.6720897E-1,-1.0245334E0,-1.730843E0,3.2335255E-2,-1.066719E0,1.5305475E0,-6.267103E-1,1.7362727E-2,-1.01338945E-1,-2.898086E-2,4.547934E-1,4.547934E-1,4.547934E-1,-1.2880498E0,1.6828878E-1,5.24592E-2,-3.8287953E-2,-3.3022985E-2,-1.958564E-2,-1.6844349E-2,5.811081E-4,-1.978127E-2,-1.5526585E-2,7.3432535E-2,-2.147168E-2,-1.2663799E-2,-3.7665464E-2,2.167874E-2,-1.25863785E-2,1.9357184E-2,7.8997344E-2,-1.05629735E-1,-2.3201772E-3,-4.3902777E-2,2.0020388E-2,2.6960911E-2,5.00231E-2,-5.0764915E-2,-2.4707818E-3,-6.283599E-3,-4.5765102E-2,2.159757E-2,-1.4334029E-2,2.4348414E-2,6.7158802E-3,6.979989E-2,1.3682247E-2,2.924259E-2,1.3521868E-2,2.3165222E-2,9.812906E-3,-5.187058E-2,1.7652383E-2],"split_indices":[9,6,6,14,1,10,5,9,9,5,4,4,5,0,12,0,5,2,5,0,4,0,0,14,5,1,6,0,3,6,5,7,1,4,3,1,13,0,0,0,0,5,6,1,10,0,10,0,3,0,0,0,1,1,1,5,6,0,0,0,0,0,0,0,0,0,0,0,0,0,0,0,0,0,0,0,0,0,0,0,0,0,0,0,0,0,0,0,0,0,0,0,0,0,0],"split_type":[0,0,0,0,0,0,0,0,0,0,0,0,0,0,0,0,0,0,0,0,0,0,0,0,0,0,0,0,0,0,0,0,0,0,0,0,0,0,0,0,0,0,0,0,0,0,0,0,0,0,0,0,0,0,0,0,0,0,0,0,0,0,0,0,0,0,0,0,0,0,0,0,0,0,0,0,0,0,0,0,0,0,0,0,0,0,0,0,0,0,0,0,0,0,0],"sum_hessian":[1.96995E5,9.8464E4,9.8531E4,9.8442E4,2.2E1,2.37E2,9.8294E4,9.784E4,6.02E2,9E0,1.3E1,1.17E2,1.2E2,2.9E1,9.8265E4,9.7749E4,9.1E1,4.33E2,1.69E2,3E0,6E0,1.2E1,1E0,7.7E1,4E1,2.3E1,9.7E1,4E0,2.5E1,2.6E1,9.8239E4,4E0,8.7E1,1.9E1,4.14E2,2.2E1,1.47E2,1E0,2E0,2E0,4E0,1.8E1,5.9E1,8E0,3.2E1,1E0,2.2E1,1.4E1,8.3E1,2E0,2E0,6E0,1.9E1,1.2E1,1.4E1,5.54E2,9.7685E4,2E0,2E0,2.8E1,5.9E1,9E0,1E1,1.79E2,2.35E2,1.1E1,1.1E1,1.28E2,1.9E1,3E0,1E0,1.3E1,5E0,5E0,5.4E1,2E0,6E0,1.9E1,1.3E1,1.9E1,3E0,6E0,8E0,4.7E1,3.6E1,1.1E1,8E0,1E1,2E0,1E1,4E0,1.04E2,4.5E2,2E0,9.7683E4],"tree_param":{"num_deleted":"0","num_feature":"16","num_nodes":"95","size_leaf_vector":"0"}},{"base_weights":[-4.5371864E-5,-4.114558E-2,4.102689E-2,-4.1157186E-2,1.0304756E-2,1.3927718E-2,4.1163575E-2,-4.1184872E-2,-3.1806175E-2,9.579578E-2,-2.5503593E-2,3.0140767E-3,5.0471548E-2,-4.34156E-2,4.1168846E-2,-4.1175593E-2,-9.232722E-2,-4.6599764E-2,-1.7195042E-2,4.440829E-3,6.4836636E-2,-5.101839E-2,3.3171482E-2,1.6366856E-1,-2.1764282E-3,-1.08544976E-1,5.876171E-2,1.9683462E-1,4.1152544E-2,-4.1168217E-2,-6.318529E-2,-4.2678926E-2,-2.285547E-2,-5.4043707E-2,-1.8391851E-2,2.3144267E-1,-3.283268E-2,1.5656864E-2,-1.3436451E-2,1.1200681E-2,-1.7998867E-2,5.6163974E-2,2.093277E-2,-1.0588747E-1,3.7057172E-3,-1.158895E-1,1.2690626E-1,-4.140098E-2,6.819036E-2,6.73139E-2,1.7330898E-2,-5.7565708E-2,4.1159175E-2,-1.2354773E-2,-2.8999706E-3,-1.2974216E-2,-9.919838E-2,-1.2560816E-2,-2.0248614E-2,4.4744827E-2,-1.4295925E-2,1.1343185E-1,-1.392396E-2,-2.3868482E-3,-1.7279143E-2,-1.3999977E-2,-9.933131E-2,1.8791802E-2,-1.0807774E-3,1.0417637E-2,4.3817412E-2,3.9452028E-2,-3.0319879E-2,2.9625952E-2,7.6140864E-3,-8.9936905E-2,2.9784543E-2,4.0418137E-2,1.2343903E-2],"categories":[],"categories_nodes":[],"categories_segments":[],"categories_sizes":[],"default_left":[0,0,0,0,0,0,0,0,0,0,0,0,0,0,0,0,0,0,0,0,0,0,0,0,0,0,0,0,0,0,0,0,0,0,0,0,0,0,0,0,0,0,0,0,0,0,0,0,0,0,0,0,0,0,0,0,0,0,0,0,0,0,0,0,0,0,0,0,0,0,0,0,0,0,0,0,0,0,0],"id":7,"left_children":[1,3,5,7,9,11,13,15,17,19,21,23,25,-1,27,29,31,33,35,37,-1,39,-1,41,43,45,47,49,51,53,55,-1,-1,57,59,61,63,-1,-1,-1,-1,-1,-1,65,67,-1,69,71,73,-1,-1,75,77,-1,-1,-1,-1,-1,-1,-1,-1,-1,-1,-1,-1,-1,-1,-1,-1,-1,-1,-1,-1,-1,-1,-1,-1,-1,-1],"loss_changes":[3.3254642E2,5.92041E-2,3.6439514E-1,2.4169922E-2,7.285287E-2,1.9766566E-1,1.0197449E-1,4.2785645E-2,6.296328E-2,7.598708E-2,6.466402E-2,3.1973144E-1,1.566613E-1,0E0,2.4064636E-1,1.3336182E-2,2.865076E-3,2.9662818E-2,5.908148E-1,1.4090583E-2,0E0,1.4138404E-2,0E0,1.34651065E-2,2.2732855E-1,4.4140786E-1,1.0576263E-1,2.534318E-2,6.651306E-2,4.397583E-2,1.5101999E-1,0E0,0E0,1.6006976E-2,1.6398628E-1,3.843109E-1,8.702135E-2,0E0,0E0,0E0,0E0,0E0,0E0,2.5129932E-1,1.5226458E-1,0E0,1.9897744E-3,1.16456784E-1,1.2833318E-1,0E0,0E0,2.9570928E-1,1.1213684E-1,0E0,0E0,0E0,0E0,0E0,0E0,0E0,0E0,0E0,0E0,0E0,0E0,0E0,0E0,0E0,0E0,0E0,0E0,0E0,0E0,0E0,0E0,0E0,0E0,0E0,0E0],"parents":[2147483647,0,0,1,1,2,2,3,3,4,4,5,5,6,6,7,7,8,8,9,9,10,10,11,11,12,12,14,14,15,15,16,16,17,17,18,18,19,19,21,21,23,23,24,24,25,25,26,26,27,27,28,28,29,29,30,30,33,33,34,34,35,35,36,36,43,43,44,44,46,46,47,47,48,48,51,51,52,52],"right_children":[2,4,6,8,10,12,14,16,18,20,22,24,26,-1,28,30,32,34,36,38,-1,40,-1,42,44,46,48,50,52,54,56,-1,-1,58,60,62,64,-1,-1,-1,-1,-1,-1,66,68,-1,70,72,74,-1,-1,76,78,-1,-1,-1,-1,-1,-1,-1,-1,-1,-1,-1,-1,-1,-1,-1,-1,-1,-1,-1,-1,-1,-1,-1,-1,-1,-1],"split_conditions":[-6.4101624E-1,6.6958743E-1,5.0248945E-1,-3.3300525E-1,-1.0245334E0,8.025125E0,-6.6720897E-1,-6.4199823E-1,-1.024555E0,-1.1596985E0,2.1967447E0,-9.149536E-1,-1.0245334E0,-4.34156E-2,-6.267103E-1,8.772534E-1,-9.178521E-1,-1.2880937E0,-2.2288594E0,3.1346958E0,6.4836636E-2,-8.894961E-3,3.3171482E-2,6.110262E0,-8.3430207E-1,8.772762E-1,-3.335809E0,4.547934E-1,1.6828878E-1,1.5431003E-1,-9.149724E-1,-4.2678926E-2,-2.285547E-2,1.5431426E-1,-9.201692E-1,-1.0245334E0,3.9889297E0,1.5656864E-2,-1.3436451E-2,1.1200681E-2,-1.7998867E-2,5.6163974E-2,2.093277E-2,3.98887E0,-6.410042E-1,-1.158895E-1,3.9889297E0,-1.1596985E0,2.1967447E0,6.73139E-2,1.7330898E-2,-2.3655675E-1,-6.410042E-1,-1.2354773E-2,-2.8999706E-3,-1.2974216E-2,-9.919838E-2,-1.2560816E-2,-2.0248614E-2,4.4744827E-2,-1.4295925E-2,1.1343185E-1,-1.392396E-2,-2.3868482E-3,-1.7279143E-2,-1.3999977E-2,-9.933131E-2,1.8791802E-2,-1.0807774E-3,1.0417637E-2,4.3817412E-2,3.9452028E-2,-3.0319879E-2,2.9625952E-2,7.6140864E-3,-8.9936905E-2,2.9784543E-2,4.0418137E-2,1.2343903E-2],"split_indices":[9,6,14,14,1,13,6,12,9,2,4,1,1,0,3,7,1,10,5,0,0,0,0,13,14,4,10,1,6,7,9,0,0,4,8,1,0,0,0,0,0,0,0,13,1,0,0,2,4,0,0,5,1,0,0,0,0,0,0,0,0,0,0,0,0,0,0,0,0,0,0,0,0,0,0,0,0,0,0],"split_type":[0,0,0,0,0,0,0,0,0,0,0,0,0,0,0,0,0,0,0,0,0,0,0,0,0,0,0,0,0,0,0,0,0,0,0,0,0,0,0,0,0,0,0,0,0,0,0,0,0,0,0,0,0,0,0,0,0,0,0,0,0,0,0,0,0,0,0,0,0,0,0,0,0,0,0,0,0,0,0],"sum_hessian":[1.96995E5,9.8464E4,9.8531E4,9.8442E4,2.2E1,4.95E2,9.8036E4,9.8148E4,2.94E2,6E0,1.6E1,3.82E2,1.13E2,2E0,9.8034E4,9.8132E4,1.6E1,1.45E2,1.49E2,4E0,2E0,1.4E1,2E0,1.1E1,3.71E2,5E0,1.08E2,9E0,9.8025E4,9.8102E4,3E1,2E0,1.4E1,1.14E2,3.1E1,8E0,1.41E2,2E0,2E0,1E0,1.3E1,8E0,3E0,1.9E1,3.52E2,2E0,3E0,9E0,9.9E1,7E0,2E0,6E0,9.8019E4,9.8057E4,4.5E1,2.9E1,1E0,6.2E1,5.2E1,4E0,2.7E1,5E0,3E0,7.1E1,7E1,1.6E1,3E0,3.8E1,3.14E2,1E0,2E0,2E0,7E0,5.7E1,4.2E1,2E0,4E0,1.2E1,9.8007E4],"tree_param":{"num_deleted":"0","num_feature":"16","num_nodes":"79","size_leaf_vector":"0"}},{"base_weights":[-3.186239E-5,-2.8802132E-2,2.8718844E-2,-2.8811203E-2,1.1275519E-2,-2.5846786E-3,2.8794346E-2,-2.8796311E-2,-4.6110205E-2,7.663662E-2,-1.6301142E-2,-1.0033829E-2,7.486768E-2,7.604628E-2,2.877674E-2,-2.8813E-2,1.8910816E-2,-3.3685763E-4,-5.7895206E-2,3.5526543E-3,5.186931E-2,-3.6166087E-2,8.845729E-2,3.821574E-2,-2.6153907E-2,-3.473248E-2,1.0102874E-1,-8.509037E-3,1.0889483E-1,1.6326886E-2,2.8846653E-2,-2.8816992E-2,2.385262E-2,-1.6454011E-2,1.0023329E-1,1.13955416E-1,-5.3061225E-2,-5.3237785E-2,-5.4094158E-2,1.2525488E-2,-1.0749159E-2,9.520582E-3,-1.2984897E-2,6.2249606E-3,3.358082E-2,-6.907689E-3,1.0129651E-1,-3.6334854E-2,6.401867E-2,1.4080568E-1,-8.622239E-3,-7.189943E-2,6.948832E-2,1.4728132E-1,1.9641612E-2,3.0447172E-2,-3.8103934E-3,4.812997E-2,2.8832138E-2,-8.641279E-3,-1.2717005E-2,-9.385424E-3,6.147213E-2,1.1120589E-1,1.8048625E-2,-7.7516055E-3,7.870872E-2,-6.7321765E-3,-1.6976569E-2,-1.9796845E-2,-1.2541307E-2,1.0727824E-2,-3.258539E-2,-1.4753679E-2,4.3748222E-2,-9.5219933E-4,-2.0570729E-2,4.112845E-2,9.296383E-3,2.5612881E-2,5.5211548E-2,-3.607032E-2,1.1324123E-2,3.184354E-2,1.3155407E-2,4.9173757E-2,1.1161948E-2,-9.437434E-3,1.0786161E-2,-8.7661855E-3,1.4218363E-2,1.760718E-2,-9.69469E-3,-3.817273E-3,8.650575E-3],"categories":[],"categories_nodes":[],"categories_segments":[],"categories_sizes":[],"default_left":[0,0,0,0,0,0,0,0,0,0,0,0,0,0,0,0,0,0,0,0,0,0,0,0,0,0,0,0,0,0,0,0,0,0,0,0,0,0,0,0,0,0,0,0,0,0,0,0,0,0,0,0,0,0,0,0,0,0,0,0,0,0,0,0,0,0,0,0,0,0,0,0,0,0,0,0,0,0,0,0,0,0,0,0,0,0,0,0,0,0,0,0,0,0,0],"id":8,"left_children":[1,3,5,7,9,11,13,15,17,19,21,23,25,27,29,31,33,35,37,39,-1,41,43,45,47,-1,49,51,53,55,57,59,61,-1,63,65,67,69,-1,-1,-1,-1,-1,-1,-1,71,73,75,77,79,81,-1,83,85,-1,87,89,91,93,-1,-1,-1,-1,-1,-1,-1,-1,-1,-1,-1,-1,-1,-1,-1,-1,-1,-1,-1,-1,-1,-1,-1,-1,-1,-1,-1,-1,-1,-1,-1,-1,-1,-1,-1,-1],"loss_changes":[1.6294911E2,3.6117554E-2,2.3295593E-1,2.4024963E-2,4.270541E-2,1.3806635E-1,7.9582214E-2,7.885742E-2,4.4753924E-2,4.8631746E-2,3.85765E-2,1.7055702E-1,1.1643227E-1,1.0091728E-1,8.506012E-2,2.1362305E-2,2.1543251E-1,1.14514396E-1,2.8030753E-2,9.017969E-3,0E0,8.622307E-3,2.4464037E-3,1.5725286E-1,1.5288499E-1,0E0,8.408411E-2,2.1497881E-1,3.369528E-2,1.5678963E-1,2.59552E-2,1.5769958E-2,8.6273395E-2,0E0,1.6193415E-1,1.3125765E-1,1.3423711E-4,6.7180544E-3,0E0,0E0,0E0,0E0,0E0,0E0,0E0,1.4709364E-1,1.6129018E-1,1.5798177E-1,3.678561E-2,1.783666E-2,3.559077E-2,0E0,3.8033165E-3,1.7700225E-2,0E0,1.1158058E-1,2.9804227E-1,6.306468E-2,1.2992859E-2,0E0,0E0,0E0,0E0,0E0,0E0,0E0,0E0,0E0,0E0,0E0,0E0,0E0,0E0,0E0,0E0,0E0,0E0,0E0,0E0,0E0,0E0,0E0,0E0,0E0,0E0,0E0,0E0,0E0,0E0,0E0,0E0,0E0,0E0,0E0,0E0],"parents":[2147483647,0,0,1,1,2,2,3,3,4,4,5,5,6,6,7,7,8,8,9,9,10,10,11,11,12,12,13,13,14,14,15,15,16,16,17,17,18,18,19,19,21,21,22,22,23,23,24,24,26,26,27,27,28,28,29,29,30,30,31,31,32,32,34,34,35,35,36,36,37,37,45,45,46,46,47,47,48,48,49,49,50,50,52,52,53,53,55,55,56,56,57,57,58,58],"right_children":[2,4,6,8,10,12,14,16,18,20,22,24,26,28,30,32,34,36,38,40,-1,42,44,46,48,-1,50,52,54,56,58,60,62,-1,64,66,68,70,-1,-1,-1,-1,-1,-1,-1,72,74,76,78,80,82,-1,84,86,-1,88,90,92,94,-1,-1,-1,-1,-1,-1,-1,-1,-1,-1,-1,-1,-1,-1,-1,-1,-1,-1,-1,-1,-1,-1,-1,-1,-1,-1,-1,-1,-1,-1,-1,-1,-1,-1,-1,-1],"split_conditions":[-6.4101624E-1,6.6958743E-1,1.1892361E-3,-6.410042E-1,-1.0245334E0,-6.7929065E-1,-6.4199823E-1,-9.0068805E-1,2.2288861E0,-1.1596985E0,2.1967447E0,-6.410042E-1,-6.6720897E-1,-2.4502263E0,4.547934E-1,5.024879E-1,2.221754E0,-1.0666828E0,5.2203345E-1,3.1346958E0,5.186931E-2,-8.894961E-3,-8.894961E-3,4.841455E0,4.547934E-1,-3.473248E-2,1.5431426E-1,6.6958743E-1,8.3668697E-1,4.841527E0,4.548086E-1,8.772534E-1,-9.149724E-1,-1.6454011E-2,-3.3300987E-1,-1.1773664E0,-9.237057E-1,3.98887E0,-5.4094158E-2,1.2525488E-2,-1.0749159E-2,9.520582E-3,-1.2984897E-2,6.2249606E-3,3.358082E-2,3.9889297E0,-1.0245334E0,-1.454075E0,4.548086E-1,1.5305475E0,-6.410042E-1,-7.189943E-2,9.236846E-1,4.547934E-1,1.9641612E-2,-1.2327081E0,8.025242E0,8.025242E0,-3.1143272E0,-8.641279E-3,-1.2717005E-2,-9.385424E-3,6.147213E-2,1.1120589E-1,1.8048625E-2,-7.7516055E-3,7.870872E-2,-6.7321765E-3,-1.6976569E-2,-1.9796845E-2,-1.2541307E-2,1.0727824E-2,-3.258539E-2,-1.4753679E-2,4.3748222E-2,-9.5219933E-4,-2.0570729E-2,4.112845E-2,9.296383E-3,2.5612881E-2,5.5211548E-2,-3.607032E-2,1.1324123E-2,3.184354E-2,1.3155407E-2,4.9173757E-2,1.1161948E-2,-9.437434E-3,1.0786161E-2,-8.7661855E-3,1.4218363E-2,1.760718E-2,-9.69469E-3,-3.817273E-3,8.650575E-3],"split_indices":[9,6,6,1,1,5,12,10,13,2,4,1,6,5,1,6,0,5,3,0,0,0,0,13,1,0,4,6,6,0,9,7,9,0,6,5,3,13,0,0,0,0,0,0,0,0,1,5,9,0,1,0,3,1,0,5,0,0,5,0,0,0,0,0,0,0,0,0,0,0,0,0,0,0,0,0,0,0,0,0,0,0,0,0,0,0,0,0,0,0,0,0,0,0,0],"split_type":[0,0,0,0,0,0,0,0,0,0,0,0,0,0,0,0,0,0,0,0,0,0,0,0,0,0,0,0,0,0,0,0,0,0,0,0,0,0,0,0,0,0,0,0,0,0,0,0,0,0,0,0,0,0,0,0,0,0,0,0,0,0,0,0,0,0,0,0,0,0,0,0,0,0,0,0,0,0,0,0,0,0,0,0,0,0,0,0,0,0,0,0,0,0,0],"sum_hessian":[1.96995E5,9.8464E4,9.8531E4,9.8442E4,2.2E1,2.37E2,9.8294E4,9.836E4,8.2E1,6E0,1.6E1,2.17E2,2E1,3.5E1,9.8259E4,9.8326E4,3.4E1,1.7E1,6.5E1,4E0,2E0,1.4E1,2E0,5.4E1,1.63E2,2E0,1.8E1,1E1,2.5E1,5.5E2,9.7709E4,9.8319E4,7E0,1.8E1,1.6E1,5E0,1.2E1,6.4E1,1E0,2E0,2E0,1E0,1.3E1,1E0,1E0,3.2E1,2.2E1,1.47E2,1.6E1,1.3E1,5E0,2E0,8E0,1.2E1,1.3E1,3.23E2,2.27E2,7.1E1,9.7638E4,9.823E4,8.9E1,6E0,1E0,1E0,1.5E1,3E0,2E0,2E0,1E1,2.8E1,3.6E1,2.3E1,9E0,5E0,1.7E1,7.3E1,7.4E1,4E0,1.2E1,7E0,6E0,1E0,4E0,2E0,6E0,1E1,2E0,2.6E1,2.97E2,1.52E2,7.5E1,6.3E1,8E0,7E0,9.7631E4],"tree_param":{"num_deleted":"0","num_feature":"16","num_nodes":"95","size_leaf_vector":"0"}},{"base_weights":[-2.0669924E-5,-2.0159516E-2,2.0104483E-2,-2.016678E-2,1.1805341E-2,7.992369E-3,2.0202298E-2,-2.0195909E-2,-1.5407095E-2,6.130929E-2,-9.273069E-3,2.1975685E-3,3.3364166E-2,4.3299485E-2,2.0182697E-2,-2.01839E-2,-3.2735273E-2,-1.2751471E-2,-3.3653963E-2,2.842119E-3,4.1495442E-2,-2.5547214E-2,7.5188674E-2,6.684277E-3,-6.96476E-2,9.666737E-2,2.434246E-2,7.201336E-2,1.5581937E-2,-2.050199E-2,2.0184305E-2,-2.0202056E-2,-1.8437112E-2,3.9470855E-2,-3.6465902E-2,-1.8573573E-2,1.0880172E-2,8.206927E-3,-4.3238793E-2,1.0020388E-2,-8.599328E-3,8.092493E-3,-9.3676755E-3,5.291212E-3,2.8543694E-2,4.633099E-3,6.3514106E-2,8.3054945E-2,-1.06808014E-1,1.1065839E-1,-2.1176986E-2,6.0441648E-3,3.0057302E-2,9.021171E-2,4.475917E-2,-8.8493206E-2,2.9999474E-2,2.903001E-2,2.0172033E-2,-6.060297E-3,-8.132986E-3,-6.113047E-3,-4.5143333E-3,4.616658E-2,-2.6431154E-2,-3.6385167E-2,-9.294929E-3,-8.730775E-3,-4.6826648E-3,3.9916117E-2,-2.8133662E-3,6.296698E-2,-1.1689981E-2,-1.16767455E-2,-4.5980033E-2,2.4080647E-3,-2.5607549E-2,1.0492574E-2,3.1472314E-2,-8.1242144E-2,-1.1397186E-2,3.8851015E-2,1.9570943E-2,9.169416E-3,3.4236312E-3,3.5935555E-2,1.7474594E-2,2.9510202E-2,1.0745832E-2,2.4257666E-2,5.255202E-3,2.9900714E-3,9.694743E-3,-9.603986E-4,6.05421E-3],"categories":[],"categories_nodes":[],"categories_segments":[],"categories_sizes":[],"default_left":[0,0,0,0,0,0,0,0,0,0,0,0,0,0,0,0,0,0,0,0,0,0,0,0,0,0,0,0,0,0,0,0,0,0,0,0,0,0,0,0,0,0,0,0,0,0,0,0,0,0,0,0,0,0,0,0,0,0,0,0,0,0,0,0,0,0,0,0,0,0,0,0,0,0,0,0,0,0,0,0,0,0,0,0,0,0,0,0,0,0,0,0,0,0,0],"id":9,"left_children":[1,3,5,7,9,11,13,15,17,19,21,23,25,27,29,31,33,35,37,39,-1,41,43,45,47,49,51,53,55,-1,57,59,61,63,65,67,69,71,73,-1,-1,-1,-1,-1,-1,75,-1,77,79,81,-1,-1,83,85,87,-1,89,91,93,-1,-1,-1,-1,-1,-1,-1,-1,-1,-1,-1,-1,-1,-1,-1,-1,-1,-1,-1,-1,-1,-1,-1,-1,-1,-1,-1,-1,-1,-1,-1,-1,-1,-1,-1,-1],"loss_changes":[7.984237E1,2.3097992E-2,1.1656952E-1,1.3336182E-2,2.456821E-2,1.1622308E-1,4.3376923E-2,1.4072418E-2,2.879031E-2,3.1124314E-2,2.5288088E-2,2.0838022E-1,8.159903E-2,6.41399E-2,1.5270233E-2,2.7275085E-3,2.6221775E-2,7.2847396E-2,3.0848294E-2,5.7714987E-3,0E0,5.3159157E-3,1.7675273E-3,2.5471467E-1,2.2450155E-1,4.9933165E-2,2.5112033E-3,1.5801445E-2,2.0138167E-1,0E0,1.001358E-2,1.6784668E-4,6.3794553E-3,8.654223E-2,3.7165835E-2,1.2781024E-2,2.6112264E-1,1.508902E-1,2.3479186E-2,0E0,0E0,0E0,0E0,0E0,0E0,1.8484856E-1,0E0,4.73623E-3,3.3957767E-1,6.1032474E-3,0E0,0E0,1.5262142E-4,1.4763638E-2,5.10291E-3,0E0,2.5246594E-2,8.008704E-3,1.9813538E-2,0E0,0E0,0E0,0E0,0E0,0E0,0E0,0E0,0E0,0E0,0E0,0E0,0E0,0E0,0E0,0E0,0E0,0E0,0E0,0E0,0E0,0E0,0E0,0E0,0E0,0E0,0E0,0E0,0E0,0E0,0E0,0E0,0E0,0E0,0E0,0E0],"parents":[2147483647,0,0,1,1,2,2,3,3,4,4,5,5,6,6,7,7,8,8,9,9,10,10,11,11,12,12,13,13,14,14,15,15,16,16,17,17,18,18,19,19,21,21,22,22,23,23,24,24,25,25,26,26,27,27,28,28,30,30,31,31,32,32,33,33,34,34,35,35,36,36,37,37,38,38,45,45,47,47,48,48,49,49,52,52,53,53,54,54,56,56,57,57,58,58],"right_children":[2,4,6,8,10,12,14,16,18,20,22,24,26,28,30,32,34,36,38,40,-1,42,44,46,48,50,52,54,56,-1,58,60,62,64,66,68,70,72,74,-1,-1,-1,-1,-1,-1,76,-1,78,80,82,-1,-1,84,86,88,-1,90,92,94,-1,-1,-1,-1,-1,-1,-1,-1,-1,-1,-1,-1,-1,-1,-1,-1,-1,-1,-1,-1,-1,-1,-1,-1,-1,-1,-1,-1,-1,-1,-1,-1,-1,-1,-1,-1],"split_conditions":[-6.4101624E-1,6.6958743E-1,4.548086E-1,-8.3430207E-1,-1.0245334E0,-2.3655675E-1,4.547934E-1,-9.149724E-1,-6.410042E-1,-1.1596985E0,2.1967447E0,2.1967447E0,-4.025951E-1,-6.7929065E-1,-6.6720897E-1,2.221754E0,-3.169669E0,-9.149724E-1,2.2288861E0,3.1346958E0,4.1495442E-2,-8.894961E-3,-8.894961E-3,9.544278E-1,-6.410042E-1,2.7964725E0,4.841527E0,8.025125E0,-6.2394893E-1,-2.050199E-2,4.5898524E-1,1.5431426E-1,-1.8464235E0,-7.056386E-1,-1.8029783E0,3.98887E0,-2.0074925E0,-1.0666828E0,5.2203345E-1,1.0020388E-2,-8.599328E-3,8.092493E-3,-9.3676755E-3,5.291212E-3,2.8543694E-2,5.2201885E-1,6.3514106E-2,5.2201885E-1,-7.3465705E-1,3.3538833E-1,-2.1176986E-2,6.0441648E-3,3.722024E-1,6.6958743E-1,-2.4490702E0,-8.8493206E-2,-3.4724024E-1,-1.2880937E0,5.2201885E-1,-6.060297E-3,-8.132986E-3,-6.113047E-3,-4.5143333E-3,4.616658E-2,-2.6431154E-2,-3.6385167E-2,-9.294929E-3,-8.730775E-3,-4.6826648E-3,3.9916117E-2,-2.8133662E-3,6.296698E-2,-1.1689981E-2,-1.16767455E-2,-4.5980033E-2,2.4080647E-3,-2.5607549E-2,1.0492574E-2,3.1472314E-2,-8.1242144E-2,-1.1397186E-2,3.8851015E-2,1.9570943E-2,9.169416E-3,3.4236312E-3,3.5935555E-2,1.7474594E-2,2.9510202E-2,1.0745832E-2,2.4257666E-2,5.255202E-3,2.9900714E-3,9.694743E-3,-9.603986E-4,6.05421E-3],"split_indices":[9,6,9,14,1,5,1,9,1,2,4,4,10,5,6,0,5,9,13,0,0,0,0,12,1,2,0,13,5,0,12,4,9,7,2,13,5,5,3,0,0,0,0,0,0,2,0,2,10,6,0,0,5,6,1,0,5,10,2,0,0,0,0,0,0,0,0,0,0,0,0,0,0,0,0,0,0,0,0,0,0,0,0,0,0,0,0,0,0,0,0,0,0,0,0],"split_type":[0,0,0,0,0,0,0,0,0,0,0,0,0,0,0,0,0,0,0,0,0,0,0,0,0,0,0,0,0,0,0,0,0,0,0,0,0,0,0,0,0,0,0,0,0,0,0,0,0,0,0,0,0,0,0,0,0,0,0,0,0,0,0,0,0,0,0,0,0,0,0,0,0,0,0,0,0,0,0,0,0,0,0,0,0,0,0,0,0,0,0,0,0,0,0],"sum_hessian":[1.96995E5,9.8464E4,9.8531E4,9.8442E4,2.2E1,7.9E2,9.7741E4,9.784E4,6.02E2,6E0,1.6E1,6.44E2,1.46E2,8.1E1,9.766E4,9.7749E4,9.1E1,5.27E2,7.5E1,4E0,2E0,1.4E1,2E0,6.07E2,3.7E1,1.7E1,1.29E2,3.9E1,4.2E1,1E0,9.7659E4,9.6733E4,1.016E3,4E0,8.7E1,4.23E2,1.04E2,1.4E1,6.1E1,2E0,2E0,1E0,1.3E1,1E0,1E0,6.02E2,5E0,7E0,3E1,1.6E1,1E0,7.7E1,5.2E1,2.2E1,1.7E1,1E0,4.1E1,1.32E2,9.7527E4,9.6722E4,1.1E1,6.43E2,3.73E2,2E0,2E0,4E0,8.3E1,9.1E1,3.32E2,1.4E1,9E1,2E0,1.2E1,6E1,1E0,5.81E2,2.1E1,3E0,4E0,8E0,2.2E1,1E1,6E0,5E1,2E0,1E1,1.2E1,1E0,1.6E1,7E0,3.4E1,2E1,1.12E2,3.6E1,9.7491E4],"tree_param":{"num_deleted":"0","num_feature":"16","num_nodes":"95","size_leaf_vector":"0"}},{"base_weights":[-1.3869161E-5,-1.4104372E-2,1.4089371E-2,-1.4115151E-2,3.268284E-2,-1.31113E-2,1.4114392E-2,-1.4123339E-2,4.9013477E-2,-4.1601524E-2,4.590557E-2,2.2212647E-2,-2.1526432E-2,4.8115797E-2,1.4079647E-2,-1.4105057E-2,-3.0649237E-2,-2.6226312E-2,9.9316634E-2,-5.0228145E-3,-1.7426692E-2,1.04068436E-1,1.9580055E-2,-1.5151287E-2,2.1408275E-1,-2.4985144E-2,9.3602445E-3,5.8677928E-3,1.0631857E-1,-5.1228995E-3,1.4123376E-2,-1.4084312E-2,-5.3070307E-2,4.3372005E-2,-4.796511E-2,-7.470992E-3,-1.8000439E-2,1.15508534E-1,-2.1039965E-3,4.8826046E-2,1.0211264E-2,7.0332587E-3,1.1168411E-2,-2.8917339E-2,2.8700925E-2,1.0213675E-1,-5.7995124E-3,-1.9494921E-2,-3.3526484E-2,5.672336E-2,-7.066005E-2,1.8030286E-1,5.85383E-2,5.1654098E-3,-6.0827352E-2,9.042917E-2,1.4109999E-2,-4.23901E-3,6.0911556E-3,-6.4113536E-3,-2.3843322E-2,-7.7069034E-3,3.2547235E-2,-2.9113801E-2,-9.2551566E-4,1.9156005E-3,-3.7594223E-3,4.1788593E-2,1.8853387E-2,7.990372E-3,5.687813E-4,-5.3035174E-3,-9.830693E-3,-1.0516868E-3,-6.5594777E-3,-1.3419676E-2,-5.6639328E-3,-4.2189256E-4,2.5754038E-2,-3.0995427E-2,-1.4362096E-2,6.703149E-2,1.221517E-2,3.5415925E-3,3.479123E-2,7.0886156E-3,-2.0449809E-3,3.0253155E-2,-2.2104446E-2,3.4899853E-2,1.498139E-3,-3.1596884E-2,4.2344187E-3],"categories":[],"categories_nodes":[],"categories_segments":[],"categories_sizes":[],"default_left":[0,0,0,0,0,0,0,0,0,0,0,0,0,0,0,0,0,0,0,0,0,0,0,0,0,0,0,0,0,0,0,0,0,0,0,0,0,0,0,0,0,0,0,0,0,0,0,0,0,0,0,0,0,0,0,0,0,0,0,0,0,0,0,0,0,0,0,0,0,0,0,0,0,0,0,0,0,0,0,0,0,0,0,0,0,0,0,0,0,0,0,0,0],"id":10,"left_children":[1,3,5,7,9,11,13,15,17,19,21,23,25,27,29,31,33,35,37,-1,-1,39,41,43,45,47,-1,49,51,53,55,57,59,61,63,65,-1,67,-1,-1,-1,69,-1,71,-1,-1,-1,73,75,77,79,81,83,85,87,89,91,-1,-1,-1,-1,-1,-1,-1,-1,-1,-1,-1,-1,-1,-1,-1,-1,-1,-1,-1,-1,-1,-1,-1,-1,-1,-1,-1,-1,-1,-1,-1,-1,-1,-1,-1,-1],"loss_changes":[3.914759E1,5.016136E-2,6.719208E-2,5.161476E-2,2.4501314E-2,2.7528424E-2,1.1552811E-1,2.9327393E-2,5.180709E-2,6.6686654E-4,2.8585695E-2,1.3228603E-1,1.4274813E-2,2.4527122E-1,8.258629E-2,7.879448E-2,1.4050853E-1,3.3525117E-3,1.4583573E-2,0E0,0E0,1.9118868E-2,3.0595507E-3,2.7175605E-2,9.5073506E-2,2.6289783E-3,0E0,2.336282E-1,1.3791496E-1,1.2868965E-1,9.880257E-2,1.5492058E-1,4.183027E-2,9.7228535E-2,1.9354294E-1,4.3061102E-4,0E0,1.4975667E-5,0E0,0E0,0E0,9.56485E-4,0E0,7.002242E-5,0E0,0E0,0E0,1.6286131E-3,3.4227837E-3,6.1066404E-2,1.2913592E-2,8.723962E-2,7.109868E-2,4.2194303E-2,8.016531E-2,3.704159E-2,5.685997E-2,0E0,0E0,0E0,0E0,0E0,0E0,0E0,0E0,0E0,0E0,0E0,0E0,0E0,0E0,0E0,0E0,0E0,0E0,0E0,0E0,0E0,0E0,0E0,0E0,0E0,0E0,0E0,0E0,0E0,0E0,0E0,0E0,0E0,0E0,0E0,0E0],"parents":[2147483647,0,0,1,1,2,2,3,3,4,4,5,5,6,6,7,7,8,8,9,9,10,10,11,11,12,12,13,13,14,14,15,15,16,16,17,17,18,18,21,21,22,22,23,23,24,24,25,25,27,27,28,28,29,29,30,30,31,31,32,32,33,33,34,34,35,35,37,37,41,41,43,43,47,47,48,48,49,49,50,50,51,51,52,52,53,53,54,54,55,55,56,56],"right_children":[2,4,6,8,10,12,14,16,18,20,22,24,26,28,30,32,34,36,38,-1,-1,40,42,44,46,48,-1,50,52,54,56,58,60,62,64,66,-1,68,-1,-1,-1,70,-1,72,-1,-1,-1,74,76,78,80,82,84,86,88,90,92,-1,-1,-1,-1,-1,-1,-1,-1,-1,-1,-1,-1,-1,-1,-1,-1,-1,-1,-1,-1,-1,-1,-1,-1,-1,-1,-1,-1,-1,-1,-1,-1,-1,-1,-1,-1],"split_conditions":[1.1892361E-3,4.547934E-1,-9.149724E-1,-6.2394893E-1,-6.6720897E-1,-2.2842796E0,1.6829155E-1,-6.2669516E-1,-6.6720897E-1,1.2766416E0,4.548086E-1,-1.024555E0,8.3668697E-1,-1.2327081E0,5.0248945E-1,-6.4199823E-1,-1.5647585E0,8.025242E0,8.025242E0,-5.0228145E-3,-1.7426692E-2,-1.6590631E-1,-1.2327081E0,5.0248945E-1,-1.0245334E0,-1.024555E0,9.3602445E-3,-6.4199823E-1,-9.0068805E-1,-7.8997415E-1,-6.410042E-1,-8.621949E-1,-6.4101624E-1,-1.024555E0,-6.4199823E-1,-2.3957756E0,-1.8000439E-2,-1.4541247E0,-2.1039965E-3,4.8826046E-2,1.0211264E-2,-1.1596985E0,1.1168411E-2,-3.335694E0,2.8700925E-2,1.0213675E-1,-5.7995124E-3,3.98887E0,-9.149536E-1,-2.2842011E0,3.9889297E0,4.548086E-1,-8.453159E-1,4.841527E0,-6.410042E-1,9.242156E-1,1.6828878E-1,-4.23901E-3,6.0911556E-3,-6.4113536E-3,-2.3843322E-2,-7.7069034E-3,3.2547235E-2,-2.9113801E-2,-9.2551566E-4,1.9156005E-3,-3.7594223E-3,4.1788593E-2,1.8853387E-2,7.990372E-3,5.687813E-4,-5.3035174E-3,-9.830693E-3,-1.0516868E-3,-6.5594777E-3,-1.3419676E-2,-5.6639328E-3,-4.2189256E-4,2.5754038E-2,-3.0995427E-2,-1.4362096E-2,6.703149E-2,1.221517E-2,3.5415925E-3,3.479123E-2,7.0886156E-3,-2.0449809E-3,3.0253155E-2,-2.2104446E-2,3.4899853E-2,1.498139E-3,-3.1596884E-2,4.2344187E-3],"split_indices":[6,1,9,5,6,10,14,2,6,1,9,9,6,5,14,12,5,0,0,0,0,14,5,14,1,9,0,12,10,5,1,12,9,9,12,3,0,10,0,0,0,2,0,5,0,0,0,13,1,5,0,9,5,0,1,8,6,0,0,0,0,0,0,0,0,0,0,0,0,0,0,0,0,0,0,0,0,0,0,0,0,0,0,0,0,0,0,0,0,0,0,0,0],"split_type":[0,0,0,0,0,0,0,0,0,0,0,0,0,0,0,0,0,0,0,0,0,0,0,0,0,0,0,0,0,0,0,0,0,0,0,0,0,0,0,0,0,0,0,0,0,0,0,0,0,0,0,0,0,0,0,0,0,0,0,0,0,0,0,0,0,0,0,0,0,0,0,0,0,0,0,0,0,0,0,0,0,0,0,0,0,0,0,0,0,0,0,0,0],"sum_hessian":[1.96995E5,9.8542E4,9.8453E4,9.852E4,2.2E1,9E1,9.8363E4,9.8508E4,1.2E1,3E0,1.9E1,1.7E1,7.3E1,9.9E1,9.8264E4,9.8401E4,1.07E2,5E0,7E0,2E0,1E0,5E0,1.4E1,1.5E1,2E0,6.9E1,4E0,5.8E1,4.1E1,2.23E2,9.8041E4,9.835E4,5.1E1,2E1,8.7E1,4E0,1E0,6E0,1E0,2E0,3E0,9E0,5E0,1.4E1,1E0,1E0,1E0,4.4E1,2.5E1,3.5E1,2.3E1,1.5E1,2.6E1,1.89E2,3.4E1,1.6E1,9.8025E4,9.822E4,1.3E2,2.4E1,2.7E1,1E1,1E1,4.1E1,4.6E1,1E0,3E0,3E0,3E0,1E0,8E0,5E0,9E0,6E0,3.8E1,1.3E1,1.2E1,1.2E1,2.3E1,8E0,1.5E1,1.1E1,4E0,1.5E1,1.1E1,7.4E1,1.15E2,2E0,3.2E1,1.2E1,4E0,3E0,9.8022E4],"tree_param":{"num_deleted":"0","num_feature":"16","num_nodes":"93","size_leaf_vector":"0"}},{"base_weights":[-8.326218E-6,-9.881935E-3,9.858568E-3,-9.901435E-3,-2.8057843E-3,9.1560096E-2,9.849346E-3,-9.891261E-3,-3.237214E-2,7.214619E-3,-1.5185089E-2,3.5441197E-2,3.603996E-2,-5.5370606E-2,9.860502E-3,-9.8961275E-3,1.5261707E-1,-2.4785388E-2,-1.5161407E-2,-6.174922E-2,1.1504549E-2,-6.1364123E-3,-5.1878165E-2,1.1953936E-2,3.1221004E-3,4.6088476E-2,-1.1112952E-1,-3.8795814E-2,9.8757185E-3,-9.892138E-3,-2.0207873E-2,9.4033346E-2,-2.5355661E-2,-2.9469607E-2,-1.1064724E-2,-3.1075368E-2,-1.0499541E-2,-1.3564712E-2,2.7797E-2,2.9307045E-2,-1.1362027E-2,-1.0110863E-1,5.9221346E-2,-5.5786315E-2,-8.8637754E-2,-8.9394666E-2,-1.0645639E-2,4.4149544E-2,9.849495E-3,-2.9685923E-3,1.4066905E-3,-3.9585293E-3,-1.21677825E-2,-9.873608E-3,-5.54123E-3,1.6282605E-3,-4.050077E-3,1.0939774E-2,-9.690309E-3,5.550519E-2,-1.4667955E-3,1.5709039E-2,-1.0698228E-2,-9.334775E-3,7.5967226E-4,-5.6986596E-2,-5.9761284E-3,2.8738309E-2,-1.00995395E-2,-2.4859935E-2,3.6314268E-2,-1.3906961E-2,1.8552218E-2,4.6165973E-2,5.5974373E-3,-1.9577807E-2,2.9605448E-3],"categories":[],"categories_nodes":[],"categories_segments":[],"categories_sizes":[],"default_left":[0,0,0,0,0,0,0,0,0,0,0,0,0,0,0,0,0,0,0,0,0,0,0,0,0,0,0,0,0,0,0,0,0,0,0,0,0,0,0,0,0,0,0,0,0,0,0,0,0,0,0,0,0,0,0,0,0,0,0,0,0,0,0,0,0,0,0,0,0,0,0,0,0,0,0,0,0],"id":11,"left_children":[1,3,5,7,9,11,13,15,17,19,21,-1,23,25,27,29,31,33,-1,35,37,39,41,-1,-1,-1,43,45,47,49,51,-1,-1,53,55,-1,-1,57,59,61,63,65,67,69,-1,-1,71,73,75,-1,-1,-1,-1,-1,-1,-1,-1,-1,-1,-1,-1,-1,-1,-1,-1,-1,-1,-1,-1,-1,-1,-1,-1,-1,-1,-1,-1],"loss_changes":[1.9191813E1,1.3558388E-2,7.3337555E-2,2.2129059E-2,3.3849966E-2,1.1973627E-2,7.222748E-2,7.913208E-2,4.811477E-3,4.5383748E-2,4.018855E-2,0E0,7.317588E-5,2.1518297E-1,7.331562E-2,3.8385391E-3,1.4090583E-1,1.794856E-3,0E0,6.446842E-3,5.878393E-2,1.866916E-2,1.3725533E-1,0E0,0E0,0E0,1.2633695E-1,2.2300822E-1,8.807182E-2,4.579544E-3,4.745451E-3,0E0,0E0,3.0079298E-4,4.749474E-4,0E0,0E0,5.46091E-2,4.479935E-1,2.1340344E-2,2.3957318E-2,1.18842155E-1,3.040204E-2,6.7495E-2,0E0,0E0,7.7934764E-2,2.0693024E-1,1.4097118E-1,0E0,0E0,0E0,0E0,0E0,0E0,0E0,0E0,0E0,0E0,0E0,0E0,0E0,0E0,0E0,0E0,0E0,0E0,0E0,0E0,0E0,0E0,0E0,0E0,0E0,0E0,0E0,0E0],"parents":[2147483647,0,0,1,1,2,2,3,3,4,4,5,5,6,6,7,7,8,8,9,9,10,10,12,12,13,13,14,14,15,15,16,16,17,17,19,19,20,20,21,21,22,22,26,26,27,27,28,28,29,29,30,30,33,33,34,34,37,37,38,38,39,39,40,40,41,41,42,42,43,43,46,46,47,47,48,48],"right_children":[2,4,6,8,10,12,14,16,18,20,22,-1,24,26,28,30,32,34,-1,36,38,40,42,-1,-1,-1,44,46,48,50,52,-1,-1,54,56,-1,-1,58,60,62,64,66,68,70,-1,-1,72,74,76,-1,-1,-1,-1,-1,-1,-1,-1,-1,-1,-1,-1,-1,-1,-1,-1,-1,-1,-1,-1,-1,-1,-1,-1,-1,-1,-1,-1],"split_conditions":[-6.4101624E-1,1.5431426E-1,-2.4035716E0,-9.0065765E-1,8.772762E-1,-1.1459424E0,-8.343085E-1,-9.0068805E-1,-3.3300987E-1,3.146014E0,-9.149724E-1,3.5441197E-2,4.547934E-1,-2.0074925E0,-2.6715934E0,1.6829155E-1,3.1346958E0,3.353905E-1,-1.5161407E-2,-9.178521E-1,-1.024555E0,-2.4035716E0,2.1967447E0,1.1953936E-2,3.1221004E-3,4.6088476E-2,3.9889297E0,-1.0245334E0,-6.410042E-1,1.1892361E-3,-9.149724E-1,9.4033346E-2,-2.5355661E-2,-6.410042E-1,-2.3957756E0,-3.1075368E-2,-1.0499541E-2,4.841455E0,-9.178521E-1,-2.4490702E0,-6.267103E-1,-9.178521E-1,-6.410042E-1,3.1346958E0,-8.8637754E-2,-8.9394666E-2,-2.7822769E0,-1.1374569E0,-1.1459424E0,-2.9685923E-3,1.4066905E-3,-3.9585293E-3,-1.21677825E-2,-9.873608E-3,-5.54123E-3,1.6282605E-3,-4.050077E-3,1.0939774E-2,-9.690309E-3,5.550519E-2,-1.4667955E-3,1.5709039E-2,-1.0698228E-2,-9.334775E-3,7.5967226E-4,-5.6986596E-2,-5.9761284E-3,2.8738309E-2,-1.00995395E-2,-2.4859935E-2,3.6314268E-2,-1.3906961E-2,1.8552218E-2,4.6165973E-2,5.5974373E-3,-1.9577807E-2,2.9605448E-3],"split_indices":[9,4,12,5,4,3,6,10,6,13,9,0,1,5,5,14,0,14,0,1,9,12,4,0,0,0,0,1,1,6,9,0,0,1,3,0,0,13,1,1,3,1,1,0,0,0,5,8,3,0,0,0,0,0,0,0,0,0,0,0,0,0,0,0,0,0,0,0,0,0,0,0,0,0,0,0,0],"split_type":[0,0,0,0,0,0,0,0,0,0,0,0,0,0,0,0,0,0,0,0,0,0,0,0,0,0,0,0,0,0,0,0,0,0,0,0,0,0,0,0,0,0,0,0,0,0,0,0,0,0,0,0,0,0,0,0,0,0,0,0,0,0,0,0,0,0,0,0,0,0,0,0,0,0,0,0,0],"sum_hessian":[1.96995E5,9.8464E4,9.8531E4,9.8193E4,2.71E2,1E1,9.8521E4,9.815E4,4.3E1,1.5E2,1.21E2,6E0,4E0,1.6E1,9.8505E4,9.8148E4,2E0,3.2E1,1.1E1,8E0,1.42E2,9.8E1,2.3E1,3E0,1E0,3E0,1.3E1,3E1,9.8475E4,9.8112E4,3.6E1,1E0,1E0,2.3E1,9E0,2E0,6E0,5.6E1,8.6E1,1.2E1,8.6E1,1.6E1,7E0,1.1E1,2E0,2E0,2.8E1,7.4E1,9.8401E4,9.8091E4,2.1E1,2.8E1,8E0,1.6E1,7E0,1E0,8E0,1.5E1,4.1E1,1.4E1,7.2E1,9E0,3E0,3.5E1,5.1E1,7E0,9E0,5E0,2E0,1E1,1E0,1.9E1,9E0,1.3E1,6.1E1,2.4E1,9.8377E4],"tree_param":{"num_deleted":"0","num_feature":"16","num_nodes":"77","size_leaf_vector":"0"}},{"base_weights":[-6.072497E-6,-6.9163353E-3,6.9104373E-3,-6.9238986E-3,2.57807E-2,-8.725082E-3,6.924832E-3,-6.9302153E-3,4.1474544E-2,1.0315689E-1,1.3499308E-2,1.903676E-2,-1.5360056E-2,3.3004243E-2,6.8982216E-3,-6.9160378E-3,-1.9783678E-2,-1.6649164E-2,7.988301E-2,3.7542738E-2,8.877862E-3,-2.2290905E-3,4.527455E-2,-9.325681E-3,1.6395754E-1,-1.767456E-2,6.0345023E-3,2.520209E-3,7.5041234E-2,-1.9456293E-3,6.9488394E-3,-6.9084633E-3,-7.4035875E-2,-3.4573123E-2,5.6084275E-2,-3.494064E-3,-1.2363701E-2,9.3421035E-2,-2.2324743E-3,-3.2127365E-2,7.922758E-3,2.1210434E-2,2.0963501E-2,-2.0739319E-2,2.4281833E-2,7.849046E-2,-4.709566E-3,-1.4014443E-2,-2.3329588E-2,3.7112888E-2,-4.947382E-2,1.2825401E-1,4.0728435E-2,9.875634E-3,-1.7633839E-2,2.1789424E-2,6.932346E-3,-2.0677042E-3,-1.1176266E-2,-6.6054E-3,-8.9132205E-2,-2.2685854E-2,6.458247E-4,2.6611835E-2,-2.3552726E-3,1.3840215E-3,-2.0022849E-3,3.510079E-2,1.3945253E-2,-2.6797662E-3,-1.5256771E-2,6.2881173E-3,-1.3152532E-3,-2.658069E-4,7.994217E-3,-1.1752978E-3,-6.907773E-3,-2.1457572E-3,-5.2661076E-3,-1.3496553E-2,-4.809118E-3,2.3649365E-2,1.0680659E-3,-2.3467667E-2,-9.062656E-3,4.7729526E-2,8.572987E-3,-1.3784941E-3,2.1652643E-2,7.332577E-2,2.0654819E-3,-1.136885E-2,7.558525E-3,1.9385662E-2,4.7287894E-3,-7.4044704E-3,2.083182E-3],"categories":[],"categories_nodes":[],"categories_segments":[],"categories_sizes":[],"default_left":[0,0,0,0,0,0,0,0,0,0,0,0,0,0,0,0,0,0,0,0,0,0,0,0,0,0,0,0,0,0,0,0,0,0,0,0,0,0,0,0,0,0,0,0,0,0,0,0,0,0,0,0,0,0,0,0,0,0,0,0,0,0,0,0,0,0,0,0,0,0,0,0,0,0,0,0,0,0,0,0,0,0,0,0,0,0,0,0,0,0,0,0,0,0,0,0,0],"id":12,"left_children":[1,3,5,7,9,11,13,15,17,19,21,23,25,27,29,31,33,35,37,-1,-1,39,41,43,45,47,-1,49,51,53,55,57,59,61,63,65,-1,67,-1,69,71,-1,73,75,-1,-1,-1,77,79,81,83,85,87,89,91,93,95,-1,-1,-1,-1,-1,-1,-1,-1,-1,-1,-1,-1,-1,-1,-1,-1,-1,-1,-1,-1,-1,-1,-1,-1,-1,-1,-1,-1,-1,-1,-1,-1,-1,-1,-1,-1,-1,-1,-1,-1],"loss_changes":[9.415451E0,2.45471E-2,2.2219181E-2,3.0407429E-2,2.0464063E-2,1.7054524E-2,6.80356E-2,1.7814636E-2,3.0351736E-2,1.1487156E-3,1.0596168E-2,7.551455E-2,6.431455E-3,1.2795658E-1,4.4002533E-2,4.9513817E-2,1.2311986E-1,1.7947874E-3,1.01528205E-2,0E0,0E0,4.8073786E-3,2.8449297E-3,1.8162685E-2,5.6752257E-2,1.121914E-3,0E0,1.0795427E-1,7.146333E-2,1.0402865E-1,2.376461E-2,4.7863007E-2,1.21099055E-1,1.3734204E-1,3.823872E-2,1.5970877E-4,0E0,2.3091547E-3,0E0,1.2833462E-3,2.0173336E-3,0E0,6.4456137E-4,4.867562E-4,0E0,0E0,0E0,9.673182E-4,3.3892253E-3,5.0110742E-2,1.0930527E-2,4.464534E-2,3.8814396E-2,2.2278057E-1,2.1009791E-1,2.6858855E-2,3.594494E-2,0E0,0E0,0E0,0E0,0E0,0E0,0E0,0E0,0E0,0E0,0E0,0E0,0E0,0E0,0E0,0E0,0E0,0E0,0E0,0E0,0E0,0E0,0E0,0E0,0E0,0E0,0E0,0E0,0E0,0E0,0E0,0E0,0E0,0E0,0E0,0E0,0E0,0E0,0E0,0E0],"parents":[2147483647,0,0,1,1,2,2,3,3,4,4,5,5,6,6,7,7,8,8,9,9,10,10,11,11,12,12,13,13,14,14,15,15,16,16,17,17,18,18,21,21,22,22,23,23,24,24,25,25,27,27,28,28,29,29,30,30,31,31,32,32,33,33,34,34,35,35,37,37,39,39,40,40,42,42,43,43,47,47,48,48,49,49,50,50,51,51,52,52,53,53,54,54,55,55,56,56],"right_children":[2,4,6,8,10,12,14,16,18,20,22,24,26,28,30,32,34,36,38,-1,-1,40,42,44,46,48,-1,50,52,54,56,58,60,62,64,66,-1,68,-1,70,72,-1,74,76,-1,-1,-1,78,80,82,84,86,88,90,92,94,96,-1,-1,-1,-1,-1,-1,-1,-1,-1,-1,-1,-1,-1,-1,-1,-1,-1,-1,-1,-1,-1,-1,-1,-1,-1,-1,-1,-1,-1,-1,-1,-1,-1,-1,-1,-1,-1,-1,-1,-1],"split_conditions":[1.1892361E-3,4.547934E-1,-9.149724E-1,-6.2394893E-1,-1.1596985E0,-2.2842796E0,1.6829155E-1,-6.2669516E-1,-6.6720897E-1,1.2766416E0,-9.1725695E-1,-1.024555E0,8.3668697E-1,-1.2327081E0,4.547934E-1,2.1967447E0,8.772762E-1,8.025242E0,8.025242E0,3.7542738E-2,8.877862E-3,-6.6720897E-1,4.548086E-1,5.0248945E-1,-1.0245334E0,-1.024555E0,6.0345023E-3,-6.4199823E-1,-9.0068805E-1,4.841527E0,-9.560317E-1,-6.4199823E-1,-1.024555E0,-6.4199823E-1,-1.0245334E0,-2.3957756E0,-1.2363701E-2,-1.4541247E0,-2.2324743E-3,1.2766416E0,8.025242E0,2.1210434E-2,-1.5647585E0,2.221754E0,2.4281833E-2,7.849046E-2,-4.709566E-3,1.5431426E-1,-9.178521E-1,8.772762E-1,3.9889297E0,4.548086E-1,-8.4534436E-1,-9.178521E-1,8.025242E0,4.548086E-1,-9.0068805E-1,-2.0677042E-3,-1.1176266E-2,-6.6054E-3,-8.9132205E-2,-2.2685854E-2,6.458247E-4,2.6611835E-2,-2.3552726E-3,1.3840215E-3,-2.0022849E-3,3.510079E-2,1.3945253E-2,-2.6797662E-3,-1.5256771E-2,6.2881173E-3,-1.3152532E-3,-2.658069E-4,7.994217E-3,-1.1752978E-3,-6.907773E-3,-2.1457572E-3,-5.2661076E-3,-1.3496553E-2,-4.809118E-3,2.3649365E-2,1.0680659E-3,-2.3467667E-2,-9.062656E-3,4.7729526E-2,8.572987E-3,-1.3784941E-3,2.1652643E-2,7.332577E-2,2.0654819E-3,-1.136885E-2,7.558525E-3,1.9385662E-2,4.7287894E-3,-7.4044704E-3,2.083182E-3],"split_indices":[6,1,9,5,2,10,14,2,6,1,8,9,6,5,1,4,4,0,0,0,0,6,9,14,1,9,0,12,10,0,10,12,9,12,1,3,0,10,0,1,0,0,5,0,0,0,0,4,1,4,0,9,10,1,0,9,10,0,0,0,0,0,0,0,0,0,0,0,0,0,0,0,0,0,0,0,0,0,0,0,0,0,0,0,0,0,0,0,0,0,0,0,0,0,0,0,0],"split_type":[0,0,0,0,0,0,0,0,0,0,0,0,0,0,0,0,0,0,0,0,0,0,0,0,0,0,0,0,0,0,0,0,0,0,0,0,0,0,0,0,0,0,0,0,0,0,0,0,0,0,0,0,0,0,0,0,0,0,0,0,0,0,0,0,0,0,0,0,0,0,0,0,0,0,0,0,0,0,0,0,0,0,0,0,0,0,0,0,0,0,0,0,0,0,0,0,0],"sum_hessian":[1.96995E5,9.8542E4,9.8453E4,9.852E4,2.2E1,9E1,9.8363E4,9.8508E4,1.2E1,2E0,2E1,1.7E1,7.3E1,9.9E1,9.8264E4,9.8401E4,1.07E2,5E0,7E0,1E0,1E0,1.4E1,6E0,1.5E1,2E0,6.9E1,4E0,5.8E1,4.1E1,5.59E2,9.7705E4,9.8391E4,1E1,9E1,1.7E1,4E0,1E0,6E0,1E0,3E0,1.1E1,2E0,4E0,1.4E1,1E0,1E0,1E0,4.4E1,2.5E1,3.5E1,2.3E1,1.5E1,2.6E1,3.19E2,2.4E2,1.07E2,9.7598E4,9.834E4,5.1E1,9E0,1E0,4.2E1,4.8E1,1.1E1,6E0,1E0,3E0,3E0,3E0,2E0,1E0,5E0,6E0,1E0,3E0,2E0,1.2E1,1.6E1,2.8E1,5E0,2E1,1.5E1,2E1,8E0,1.5E1,1.1E1,4E0,1.1E1,1.5E1,3E0,3.16E2,1.63E2,7.7E1,1.2E1,9.5E1,3.5E1,9.7563E4],"tree_param":{"num_deleted":"0","num_feature":"16","num_nodes":"97","size_leaf_vector":"0"}},{"base_weights":[-3.1396933E-6,-4.8509454E-3,4.839501E-3,-4.8552146E-3,5.587812E-2,1.5755886E-2,4.8121344E-3,-4.8512286E-3,-1.3403048E-1,2.306039E-2,-1.0509145E-2,-6.8849023E-3,3.157385E-2,-2.4719238E-2,4.8382436E-3,-4.8562107E-3,7.7694885E-2,3.834039E-4,-6.0697123E-2,4.8513886E-2,-1.4114578E-2,7.974482E-2,8.385872E-3,1.2447703E-2,-8.029434E-2,-1.1692502E-2,4.8562223E-3,-4.8438017E-3,-1.3991318E-2,2.7499592E-2,1.1764182E-3,-9.386743E-3,7.863754E-2,2.0705272E-2,-2.018334E-2,1.1706958E-1,1.857837E-2,-3.194041E-2,2.1716153E-2,-1.1550091E-3,1.0200196E-1,-1.3294859E-1,1.9039657E-2,1.9798564E-2,-3.6690477E-2,3.567353E-2,4.8388876E-3,-1.4613386E-3,2.438878E-3,-2.1627566E-2,-2.128897E-3,-5.043582E-3,3.0471059E-3,2.92411E-2,-7.97879E-3,1.06641995E-2,-7.586013E-3,-6.6697304E-3,2.0639554E-2,6.2919766E-2,2.513335E-2,-2.1171043E-2,1.6637355E-2,-7.890449E-2,-3.406005E-3,2.0700261E-2,2.9198285E-3,-1.0244364E-2,5.092534E-3,8.145349E-2,-6.0312715E-3,6.347406E-4,-6.597805E-2,-9.70082E-3,9.396101E-3,-1.0906983E-2,1.0106902E-2,-2.0304516E-2,8.602822E-3,-8.95294E-3,1.5819283E-2,-2.7616305E-2,1.4522444E-3],"categories":[],"categories_nodes":[],"categories_segments":[],"categories_sizes":[],"default_left":[0,0,0,0,0,0,0,0,0,0,0,0,0,0,0,0,0,0,0,0,0,0,0,0,0,0,0,0,0,0,0,0,0,0,0,0,0,0,0,0,0,0,0,0,0,0,0,0,0,0,0,0,0,0,0,0,0,0,0,0,0,0,0,0,0,0,0,0,0,0,0,0,0,0,0,0,0,0,0,0,0,0,0],"id":13,"left_children":[1,3,5,7,9,11,13,15,17,-1,-1,19,21,23,25,27,29,-1,-1,31,33,35,37,39,41,43,45,47,49,-1,-1,51,53,55,57,59,61,63,65,67,69,71,73,75,77,79,81,-1,-1,-1,-1,-1,-1,-1,-1,-1,-1,-1,-1,-1,-1,-1,-1,-1,-1,-1,-1,-1,-1,-1,-1,-1,-1,-1,-1,-1,-1,-1,-1,-1,-1,-1,-1],"loss_changes":[4.624737E0,2.5794268E-2,2.9365301E-2,5.0036907E-2,1.6049828E-2,8.831765E-2,7.591653E-2,4.0861845E-2,2.7980544E-2,0E0,0E0,4.153732E-2,1.6129448E-1,1.8070291E-1,2.9248E-2,1.1090517E-2,5.824428E-3,0E0,0E0,2.1668296E-2,1.9647416E-2,1.05127126E-1,5.3912133E-2,6.468138E-2,1.8559381E-1,8.49582E-2,5.2239895E-2,3.4889698E-2,5.2768633E-2,0E0,0E0,8.9634047E-4,1.8447045E-2,1.0455497E-2,1.5751477E-2,7.1891546E-2,6.6380925E-2,1.15942545E-1,4.182579E-2,2.8693404E-2,1.503458E-1,2.706616E-1,9.214853E-3,3.86676E-2,1.23488255E-1,6.303863E-2,1.8753529E-2,0E0,0E0,0E0,0E0,0E0,0E0,0E0,0E0,0E0,0E0,0E0,0E0,0E0,0E0,0E0,0E0,0E0,0E0,0E0,0E0,0E0,0E0,0E0,0E0,0E0,0E0,0E0,0E0,0E0,0E0,0E0,0E0,0E0,0E0,0E0,0E0],"parents":[2147483647,0,0,1,1,2,2,3,3,4,4,5,5,6,6,7,7,8,8,11,11,12,12,13,13,14,14,15,15,16,16,19,19,20,20,21,21,22,22,23,23,24,24,25,25,26,26,27,27,28,28,31,31,32,32,33,33,34,34,35,35,36,36,37,37,38,38,39,39,40,40,41,41,42,42,43,43,44,44,45,45,46,46],"right_children":[2,4,6,8,10,12,14,16,18,-1,-1,20,22,24,26,28,30,-1,-1,32,34,36,38,40,42,44,46,48,50,-1,-1,52,54,56,58,60,62,64,66,68,70,72,74,76,78,80,82,-1,-1,-1,-1,-1,-1,-1,-1,-1,-1,-1,-1,-1,-1,-1,-1,-1,-1,-1,-1,-1,-1,-1,-1,-1,-1,-1,-1,-1,-1,-1,-1,-1,-1,-1,-1],"split_conditions":[1.5431426E-1,-2.3655675E-1,-1.5647585E0,-2.918985E-1,8.025242E0,-1.024555E0,-6.4200693E-1,-4.0258196E-1,3.1346958E0,2.306039E-2,-1.0509145E-2,6.110262E0,8.772762E-1,-9.149536E-1,-1.066719E0,-6.2669516E-1,4.841527E0,3.834039E-4,-6.0697123E-2,-1.1596985E0,-2.4035716E0,-2.0074925E0,-2.4502263E0,8.025242E0,4.547934E-1,-1.2880937E0,1.6829155E-1,-8.702225E-1,-1.6590631E-1,2.7499592E-2,1.1764182E-3,-1.8029783E0,-1.0245334E0,-2.4490702E0,6.695884E-1,-6.4101624E-1,-6.4101624E-1,-6.4101624E-1,4.548086E-1,4.841527E0,-1.024555E0,-6.4101624E-1,-6.6720897E-1,-6.4101624E-1,4.547934E-1,-9.149536E-1,-3.3300987E-1,-1.4613386E-3,2.438878E-3,-2.1627566E-2,-2.128897E-3,-5.043582E-3,3.0471059E-3,2.92411E-2,-7.97879E-3,1.06641995E-2,-7.586013E-3,-6.6697304E-3,2.0639554E-2,6.2919766E-2,2.513335E-2,-2.1171043E-2,1.6637355E-2,-7.890449E-2,-3.406005E-3,2.0700261E-2,2.9198285E-3,-1.0244364E-2,5.092534E-3,8.145349E-2,-6.0312715E-3,6.347406E-4,-6.597805E-2,-9.70082E-3,9.396101E-3,-1.0906983E-2,1.0106902E-2,-2.0304516E-2,8.602822E-3,-8.95294E-3,1.5819283E-2,-2.7616305E-2,1.4522444E-3],"split_indices":[4,5,5,5,0,9,8,5,0,0,0,13,4,1,10,2,0,0,0,2,12,5,5,0,1,10,14,2,14,0,0,2,1,1,14,9,9,9,9,0,9,9,6,9,1,1,6,0,0,0,0,0,0,0,0,0,0,0,0,0,0,0,0,0,0,0,0,0,0,0,0,0,0,0,0,0,0,0,0,0,0,0,0],"split_type":[0,0,0,0,0,0,0,0,0,0,0,0,0,0,0,0,0,0,0,0,0,0,0,0,0,0,0,0,0,0,0,0,0,0,0,0,0,0,0,0,0,0,0,0,0,0,0,0,0,0,0,0,0,0,0,0,0,0,0,0,0,0,0,0,0,0,0,0,0,0,0,0,0,0,0,0,0,0,0,0,0,0,0],"sum_hessian":[1.96995E5,9.8445E4,9.855E4,9.8439E4,6E0,2.45E2,9.8305E4,9.8437E4,2E0,5E0,1E0,1.01E2,1.44E2,8.6E1,9.8219E4,9.8432E4,5E0,1E0,1E0,1.1E1,9E1,4.6E1,9.8E1,5.2E1,3.4E1,1.06E2,9.8113E4,9.83E4,1.32E2,4E0,1E0,4E0,7E0,1.3E1,7.7E1,2.8E1,1.8E1,2.4E1,7.4E1,4.6E1,6E0,2.2E1,1.2E1,4.7E1,5.9E1,5.4E1,9.8059E4,9.8094E4,2.06E2,1.3E1,1.19E2,3E0,1E0,6E0,1E0,1E1,3E0,7.6E1,1E0,6E0,2.2E1,5E0,1.3E1,1E0,2.3E1,1.4E1,6E1,1.6E1,3E1,2E0,4E0,9E0,1.3E1,2E0,1E1,9E0,3.8E1,4E1,1.9E1,1.1E1,4.3E1,1E0,9.8058E4],"tree_param":{"num_deleted":"0","num_feature":"16","num_nodes":"83","size_leaf_vector":"0"}},{"base_weights":[-2.2491727E-6,-3.3811207E-3,3.4052494E-3,-3.3897206E-3,3.931186E-2,1.6059538E-2,3.3851857E-3,-3.3747277E-3,-3.5534248E-2,7.0441954E-2,-6.5629203E-3,-1.2960846E-2,3.0415311E-2,-6.8247016E-3,3.4031149E-3,-3.3713384E-3,-1.139259E-1,-2.552756E-2,-7.287529E-2,2.3329668E-2,6.7647933E-3,-1.3630604E-2,1.103425E-2,2.774906E-3,-9.985434E-2,9.051231E-2,2.0835385E-2,1.6115617E-2,-1.8038265E-2,2.5245747E-2,3.3910081E-3,-3.3879413E-3,1.7696043E-2,3.2589736E-4,-5.159255E-2,2.7940976E-2,-4.3647997E-2,8.4013045E-3,-1.3546586E-3,-1.3216256E-2,4.3154404E-2,6.134097E-3,-1.4129455E-1,-6.701246E-2,1.2235081E-1,-6.894545E-3,2.9776733E-2,3.2892894E-2,-2.8931957E-2,-5.593864E-2,8.588636E-3,5.798362E-2,1.345121E-2,-2.1924894E-2,3.4036757E-3,-1.0112444E-3,-1.7893905E-2,1.6438011E-2,1.6960868E-3,-8.704271E-3,1.801361E-2,-1.824512E-2,-6.66066E-4,-5.5122975E-4,8.646548E-5,9.697459E-3,-1.1236838E-2,2.6914733E-3,1.9019168E-2,-2.4587752E-2,-5.5678547E-3,5.9150133E-2,4.402003E-3,-5.381522E-3,1.0935309E-2,1.4437272E-2,3.1735399E-3,3.544693E-3,3.265899E-2,-4.292217E-2,6.3114543E-3,-4.26836E-2,1.0898902E-2,6.2130936E-3,-2.2357104E-2,3.304199E-3,2.2701021E-2,-1.564776E-3,8.067328E-3,-1.462853E-2,8.100945E-3,4.7519035E-3,1.0189516E-3],"categories":[],"categories_nodes":[],"categories_segments":[],"categories_sizes":[],"default_left":[0,0,0,0,0,0,0,0,0,0,0,0,0,0,0,0,0,0,0,0,0,0,0,0,0,0,0,0,0,0,0,0,0,0,0,0,0,0,0,0,0,0,0,0,0,0,0,0,0,0,0,0,0,0,0,0,0,0,0,0,0,0,0,0,0,0,0,0,0,0,0,0,0,0,0,0,0,0,0,0,0,0,0,0,0,0,0,0,0,0,0,0,0],"id":14,"left_children":[1,3,5,7,9,11,13,15,17,19,21,23,25,27,29,31,33,35,-1,-1,-1,-1,37,39,41,43,45,47,49,51,53,55,57,-1,-1,59,61,-1,63,65,67,-1,-1,69,71,73,75,77,79,81,83,85,87,89,91,-1,-1,-1,-1,-1,-1,-1,-1,-1,-1,-1,-1,-1,-1,-1,-1,-1,-1,-1,-1,-1,-1,-1,-1,-1,-1,-1,-1,-1,-1,-1,-1,-1,-1,-1,-1,-1,-1],"loss_changes":[2.268125E0,3.644967E-2,2.4848223E-2,4.754114E-2,2.9024031E-2,6.496878E-2,1.7949462E-2,3.6654472E-2,8.925907E-2,2.4553947E-3,6.6577476E-3,7.137848E-2,5.798953E-2,4.453645E-2,2.5766134E-2,3.4635067E-2,2.021595E-2,4.4818863E-2,0E0,0E0,0E0,0E0,1.5096233E-3,2.962752E-2,3.6680722E-1,7.8413956E-2,2.276811E-2,4.403086E-2,1.175441E-1,2.0070966E-2,3.140807E-2,9.496772E-2,3.4536064E-2,0E0,0E0,2.3684315E-2,2.4048366E-2,0E0,4.4952703E-6,3.7639823E-2,8.426666E-3,0E0,0E0,6.5151416E-4,9.3779266E-2,1.1664029E-2,2.37955E-2,6.5966085E-2,9.4269015E-2,3.875585E-1,7.10582E-2,1.0796737E-2,1.0426506E-2,6.5657414E-2,8.653998E-3,0E0,0E0,0E0,0E0,0E0,0E0,0E0,0E0,0E0,0E0,0E0,0E0,0E0,0E0,0E0,0E0,0E0,0E0,0E0,0E0,0E0,0E0,0E0,0E0,0E0,0E0,0E0,0E0,0E0,0E0,0E0,0E0,0E0,0E0,0E0,0E0,0E0,0E0],"parents":[2147483647,0,0,1,1,2,2,3,3,4,4,5,5,6,6,7,7,8,8,9,9,10,10,11,11,12,12,13,13,14,14,15,15,16,16,17,17,22,22,23,23,24,24,25,25,26,26,27,27,28,28,29,29,30,30,31,31,32,32,35,35,36,36,38,38,39,39,40,40,43,43,44,44,45,45,46,46,47,47,48,48,49,49,50,50,51,51,52,52,53,53,54,54],"right_children":[2,4,6,8,10,12,14,16,18,20,22,24,26,28,30,32,34,36,-1,-1,-1,-1,38,40,42,44,46,48,50,52,54,56,58,-1,-1,60,62,-1,64,66,68,-1,-1,70,72,74,76,78,80,82,84,86,88,90,92,-1,-1,-1,-1,-1,-1,-1,-1,-1,-1,-1,-1,-1,-1,-1,-1,-1,-1,-1,-1,-1,-1,-1,-1,-1,-1,-1,-1,-1,-1,-1,-1,-1,-1,-1,-1,-1,-1],"split_conditions":[5.024879E-1,-2.3655675E-1,6.695884E-1,-6.793134E-1,4.841455E0,-9.0068805E-1,8.366873E-1,-3.4724024E-1,4.548086E-1,6.489111E-1,-6.6720897E-1,1.2766773E0,-7.9000074E-1,4.841527E0,-7.3465705E-1,4.548086E-1,3.1346958E0,1.5305475E0,-7.287529E-2,2.3329668E-2,6.7647933E-3,-1.3630604E-2,-1.1459424E0,-1.0113411E0,-1.0113411E0,-9.2368287E-1,-6.793134E-1,4.547934E-1,4.547934E-1,4.547934E-1,-5.1326543E-1,3.3538833E-1,4.547934E-1,3.2589736E-4,-5.159255E-2,-6.4101624E-1,3.3538833E-1,8.4013045E-3,3.1346958E0,-6.410042E-1,-9.149724E-1,6.134097E-3,-1.4129455E-1,6.110352E0,4.548086E-1,4.547934E-1,4.548086E-1,-7.3463243E-1,3.9889297E0,8.025242E0,9.544278E-1,-9.149536E-1,-1.0113753E0,9.178446E-1,-4.025951E-1,-1.0112444E-3,-1.7893905E-2,1.6438011E-2,1.6960868E-3,-8.704271E-3,1.801361E-2,-1.824512E-2,-6.66066E-4,-5.5122975E-4,8.646548E-5,9.697459E-3,-1.1236838E-2,2.6914733E-3,1.9019168E-2,-2.4587752E-2,-5.5678547E-3,5.9150133E-2,4.402003E-3,-5.381522E-3,1.0935309E-2,1.4437272E-2,3.1735399E-3,3.544693E-3,3.265899E-2,-4.292217E-2,6.3114543E-3,-4.26836E-2,1.0898902E-2,6.2130936E-3,-2.2357104E-2,3.304199E-3,2.2701021E-2,-1.564776E-3,8.067328E-3,-1.462853E-2,8.100945E-3,4.7519035E-3,1.0189516E-3],"split_indices":[6,5,14,10,13,10,14,5,9,5,6,9,10,0,10,9,0,0,0,0,0,0,3,5,5,2,10,1,1,1,5,6,1,0,0,9,6,0,0,1,9,0,0,0,9,1,9,5,0,0,12,1,10,9,10,0,0,0,0,0,0,0,0,0,0,0,0,0,0,0,0,0,0,0,0,0,0,0,0,0,0,0,0,0,0,0,0,0,0,0,0,0,0],"split_type":[0,0,0,0,0,0,0,0,0,0,0,0,0,0,0,0,0,0,0,0,0,0,0,0,0,0,0,0,0,0,0,0,0,0,0,0,0,0,0,0,0,0,0,0,0,0,0,0,0,0,0,0,0,0,0,0,0,0,0,0,0,0,0,0,0,0,0,0,0,0,0,0,0,0,0,0,0,0,0,0,0,0,0,0,0,0,0,0,0,0,0,0,0],"sum_hessian":[1.96995E5,9.8913E4,9.8082E4,9.8894E4,1.9E1,1.54E2,9.7928E4,9.8849E4,4.5E1,1.1E1,8E0,5.1E1,1.03E2,1.71E2,9.7757E4,9.8847E4,2E0,4.4E1,1E0,9E0,2E0,2E0,6E0,4.4E1,7E0,1.3E1,9E1,5.6E1,1.15E2,5.3E1,9.7704E4,9.877E4,7.7E1,1E0,1E0,1.1E1,3.3E1,2E0,4E0,3.2E1,1.2E1,6E0,1E0,2E0,1.1E1,2.2E1,6.8E1,4.1E1,1.5E1,4.7E1,6.8E1,1.3E1,4E1,4.8E1,9.7656E4,9.8741E4,2.9E1,1.8E1,5.9E1,4E0,7E0,2.3E1,1E1,3E0,1E0,1.1E1,2.1E1,5E0,7E0,1E0,1E0,6E0,5E0,1.8E1,4E0,3.4E1,3.4E1,3.3E1,8E0,4E0,1.1E1,2.4E1,2.3E1,6E1,8E0,4E0,9E0,1.7E1,2.3E1,3.1E1,1.7E1,5.5E1,9.7601E4],"tree_param":{"num_deleted":"0","num_feature":"16","num_nodes":"93","size_leaf_vector":"0"}},{"base_weights":[-2.5090076E-6,-2.386629E-3,2.379071E-3,-2.3693691E-3,-8.261049E-3,1.09352665E-2,2.3576359E-3,-2.374649E-3,7.20023E-2,-2.0907505E-3,-5.006251E-2,2.8508967E-2,6.138427E-4,-1.7268833E-2,2.3749962E-3,-2.3681938E-3,-2.9812597E-2,-4.8592626E-4,2.5362782E-2,-4.35718E-3,2.7614899E-2,-1.4044195E-1,4.7447663E-3,-2.3541343E-3,5.7452172E-2,-1.3493093E-2,8.648657E-3,1.0372947E-2,-5.8632992E-2,1.9720871E-2,2.362955E-3,-2.3897847E-3,8.007896E-3,-1.5214083E-1,3.9481255E-3,-3.7902123E-3,-1.1404754E-2,7.061995E-2,-6.171948E-3,-4.9245577E-2,-1.3752404E-1,1.7662268E-2,-4.3853667E-2,-1.8352425E-2,4.8763532E-2,1.0812944E-1,2.2268716E-2,2.494224E-2,-3.0451665E-2,7.038797E-2,6.670427E-3,-6.709147E-4,8.304274E-2,-9.675471E-2,1.3323351E-2,-1.7787505E-2,2.9774662E-2,-8.360857E-3,2.3810978E-3,-7.1312045E-4,-5.316589E-3,4.6157885E-2,1.4617637E-4,-2.8751339E-3,-5.5615243E-2,-3.5734158E-3,1.208869E-2,-1.1957685E-3,5.830284E-3,1.0876956E-3,-3.7712273E-3,-1.8253484E-3,3.5357855E-2,-6.2615005E-3,-1.7588082E-4,3.403763E-3,-5.1979486E-2,2.680504E-2,-6.3976547E-4,-3.0578023E-3,-8.959201E-3,1.7418023E-2,-6.630285E-3,1.7434375E-2,5.5670135E-2,-2.2128033E-2,1.3604418E-2,1.1460903E-2,1.0772708E-3,-1.1741399E-2,2.6917715E-2,8.989366E-4,3.077565E-2,3.2829505E-3,-7.452225E-4,-7.374238E-3,3.738779E-3,6.536503E-2,-4.3410673E-3,7.363966E-4,-4.821225E-2,1.825119E-2,1.2882241E-3,-2.2996623E-2,-8.5030036E-4,2.1387655E-2,5.9660664E-3,-1.9870282E-4,-1.0555116E-2,1.4864251E-2,7.1128894E-4],"categories":[],"categories_nodes":[],"categories_segments":[],"categories_sizes":[],"default_left":[0,0,0,0,0,0,0,0,0,0,0,0,0,0,0,0,0,0,0,0,0,0,0,0,0,0,0,0,0,0,0,0,0,0,0,0,0,0,0,0,0,0,0,0,0,0,0,0,0,0,0,0,0,0,0,0,0,0,0,0,0,0,0,0,0,0,0,0,0,0,0,0,0,0,0,0,0,0,0,0,0,0,0,0,0,0,0,0,0,0,0,0,0,0,0,0,0,0,0,0,0,0,0,0,0,0,0,0,0,0,0],"id":15,"left_children":[1,3,5,7,9,11,13,15,17,19,21,23,25,27,29,31,33,-1,-1,35,37,39,41,43,45,47,49,51,53,55,57,59,61,63,65,67,69,71,73,75,-1,77,-1,79,81,83,85,87,89,91,93,95,97,99,101,103,105,107,109,-1,-1,-1,-1,-1,-1,-1,-1,-1,-1,-1,-1,-1,-1,-1,-1,-1,-1,-1,-1,-1,-1,-1,-1,-1,-1,-1,-1,-1,-1,-1,-1,-1,-1,-1,-1,-1,-1,-1,-1,-1,-1,-1,-1,-1,-1,-1,-1,-1,-1,-1,-1],"loss_changes":[1.1185436E0,9.962082E-3,1.8048763E-2,3.8715124E-2,7.417844E-2,4.460336E-2,3.3536255E-2,1.7313778E-2,6.5996386E-3,1.7086415E-2,1.8394406E-1,8.142346E-2,1.7798768E-2,1.0008217E-1,2.0468354E-2,2.2003353E-2,9.558813E-2,0E0,0E0,8.95774E-4,2.6589952E-2,3.8339505E-1,4.9371205E-2,3.769572E-2,8.139317E-2,3.791261E-2,1.1743941E-2,4.259114E-2,9.729756E-2,2.617251E-2,1.91167E-2,1.9051254E-2,2.2369233E-1,2.1918677E-2,1.1432597E-2,1.072736E-3,3.4351088E-4,2.9704995E-2,8.909506E-4,9.214002E-2,0E0,3.2828655E-2,0E0,2.9832134E-3,8.529928E-3,6.280349E-2,6.761706E-2,4.95925E-3,4.5267694E-2,6.202128E-3,3.860435E-3,1.5065311E-2,9.519383E-2,1.463229E-1,5.3159716E-3,1.298666E-2,2.0750083E-2,3.425506E-2,4.672247E-2,0E0,0E0,0E0,0E0,0E0,0E0,0E0,0E0,0E0,0E0,0E0,0E0,0E0,0E0,0E0,0E0,0E0,0E0,0E0,0E0,0E0,0E0,0E0,0E0,0E0,0E0,0E0,0E0,0E0,0E0,0E0,0E0,0E0,0E0,0E0,0E0,0E0,0E0,0E0,0E0,0E0,0E0,0E0,0E0,0E0,0E0,0E0,0E0,0E0,0E0,0E0,0E0],"parents":[2147483647,0,0,1,1,2,2,3,3,4,4,5,5,6,6,7,7,8,8,9,9,10,10,11,11,12,12,13,13,14,14,15,15,16,16,19,19,20,20,21,21,22,22,23,23,24,24,25,25,26,26,27,27,28,28,29,29,30,30,31,31,32,32,33,33,34,34,35,35,36,36,37,37,38,38,39,39,41,41,43,43,44,44,45,45,46,46,47,47,48,48,49,49,50,50,51,51,52,52,53,53,54,54,55,55,56,56,57,57,58,58],"right_children":[2,4,6,8,10,12,14,16,18,20,22,24,26,28,30,32,34,-1,-1,36,38,40,42,44,46,48,50,52,54,56,58,60,62,64,66,68,70,72,74,76,-1,78,-1,80,82,84,86,88,90,92,94,96,98,100,102,104,106,108,110,-1,-1,-1,-1,-1,-1,-1,-1,-1,-1,-1,-1,-1,-1,-1,-1,-1,-1,-1,-1,-1,-1,-1,-1,-1,-1,-1,-1,-1,-1,-1,-1,-1,-1,-1,-1,-1,-1,-1,-1,-1,-1,-1,-1,-1,-1,-1,-1,-1,-1,-1,-1],"split_conditions":[1.5431426E-1,6.110352E0,-1.5647585E0,4.5898524E-1,-6.4101624E-1,8.772762E-1,-6.4200693E-1,1.5431003E-1,-6.410042E-1,-9.149724E-1,-5.001042E-1,-1.024555E0,-1.1596985E0,-9.149536E-1,1.6829155E-1,-6.4101624E-1,-2.2842796E0,-4.8592626E-4,2.5362782E-2,1.1926247E-3,-9.178521E-1,-2.6715934E0,-6.267103E-1,-1.7307837E0,-1.6591032E-1,-2.4035716E0,3.9889297E0,8.025242E0,4.547934E-1,-9.149536E-1,5.024879E-1,-3.3300987E-1,-2.0074925E0,-1.0245334E0,-5.686072E-1,-6.2669516E-1,-3.7785583E0,-3.2803524E0,-3.335694E0,-9.201692E-1,-1.3752404E-1,-2.4036067E0,-4.3853667E-2,8.025242E0,-1.0245334E0,-1.1374569E0,-6.267103E-1,-2.4490702E0,9.479023E-1,3.1346958E0,-1.730843E0,4.841527E0,-1.024555E0,-6.4101624E-1,4.841455E0,-3.3300987E-1,-3.3300987E-1,3.3538833E-1,-6.410042E-1,-7.1312045E-4,-5.316589E-3,4.6157885E-2,1.4617637E-4,-2.8751339E-3,-5.5615243E-2,-3.5734158E-3,1.208869E-2,-1.1957685E-3,5.830284E-3,1.0876956E-3,-3.7712273E-3,-1.8253484E-3,3.5357855E-2,-6.2615005E-3,-1.7588082E-4,3.403763E-3,-5.1979486E-2,2.680504E-2,-6.3976547E-4,-3.0578023E-3,-8.959201E-3,1.7418023E-2,-6.630285E-3,1.7434375E-2,5.5670135E-2,-2.2128033E-2,1.3604418E-2,1.1460903E-2,1.0772708E-3,-1.1741399E-2,2.6917715E-2,8.989366E-4,3.077565E-2,3.2829505E-3,-7.452225E-4,-7.374238E-3,3.738779E-3,6.536503E-2,-4.3410673E-3,7.363966E-4,-4.821225E-2,1.825119E-2,1.2882241E-3,-2.2996623E-2,-8.5030036E-4,2.1387655E-2,5.9660664E-3,-1.9870282E-4,-1.0555116E-2,1.4864251E-2,7.1128894E-4],"split_indices":[4,0,5,12,9,4,8,7,1,9,14,9,2,1,14,9,10,0,0,14,1,5,3,5,6,12,0,0,1,1,6,6,5,1,5,2,10,5,5,8,0,8,0,0,1,8,3,1,1,0,10,0,9,9,13,6,6,6,1,0,0,0,0,0,0,0,0,0,0,0,0,0,0,0,0,0,0,0,0,0,0,0,0,0,0,0,0,0,0,0,0,0,0,0,0,0,0,0,0,0,0,0,0,0,0,0,0,0,0,0,0],"split_type":[0,0,0,0,0,0,0,0,0,0,0,0,0,0,0,0,0,0,0,0,0,0,0,0,0,0,0,0,0,0,0,0,0,0,0,0,0,0,0,0,0,0,0,0,0,0,0,0,0,0,0,0,0,0,0,0,0,0,0,0,0,0,0,0,0,0,0,0,0,0,0,0,0,0,0,0,0,0,0,0,0,0,0,0,0,0,0,0,0,0,0,0,0,0,0,0,0,0,0,0,0,0,0,0,0,0,0,0,0,0,0],"sum_hessian":[1.96995E5,9.8445E4,9.855E4,9.8158E4,2.87E2,2.45E2,9.8305E4,9.8152E4,6E0,2.51E2,3.6E1,9E1,1.55E2,8.6E1,9.8219E4,9.813E4,2.2E1,1E0,5E0,2.34E2,1.7E1,1.3E1,2.3E1,4.4E1,4.6E1,5.6E1,9.9E1,5.2E1,3.4E1,6.7E1,9.8152E4,9.7927E4,2.03E2,4E0,1.8E1,2.18E2,1.6E1,7E0,1E1,1.1E1,2E0,2.2E1,1E0,3.4E1,1E1,1.8E1,2.8E1,1.7E1,3.9E1,2E0,9.7E1,4.6E1,6E0,2.2E1,1.2E1,1.4E1,5.3E1,1.65E2,9.7987E4,9.7847E4,8E1,9E0,1.94E2,1E0,3E0,1.3E1,5E0,2.17E2,1E0,1E0,1.5E1,3E0,4E0,2E0,8E0,8E0,3E0,4E0,1.8E1,2.1E1,1.3E1,9E0,1E0,1.2E1,6E0,5E0,2.3E1,1E1,7E0,3.7E1,2E0,1E0,1E0,6.6E1,3.1E1,1.6E1,3E1,2E0,4E0,9E0,1.3E1,1E0,1.1E1,2E0,1.2E1,9E0,4.4E1,1.29E2,3.6E1,2E1,9.7967E4],"tree_param":{"num_deleted":"0","num_feature":"16","num_nodes":"111","size_leaf_vector":"0"}},{"base_weights":[-1.7252934E-6,-1.6835695E-3,1.6588594E-3,-1.6649471E-3,-1.7096724E-2,1.03322305E-2,1.6440302E-3,-2.7714772E-4,-1.6849184E-3,-2.2727862E-2,6.317239E-2,-4.2184847E-3,4.9331285E-2,-2.597926E-2,1.6579777E-3,-1.6507021E-3,2.7705362E-2,-1.6857707E-3,5.779995E-3,-1.7800132E-2,-6.189829E-2,5.068989E-2,2.3920933E-2,-1.2708493E-3,-1.6447347E-2,7.5529784E-2,-5.2536305E-2,-3.6612733E-3,-1.4269103E-1,-1.3380357E-2,1.6777524E-3,-1.7090236E-3,5.4067983E-3,1.2228902E-1,1.4181662E-2,-1.6797498E-3,-3.1902415E-3,-1.2934084E-2,-4.451213E-2,-9.604208E-2,3.0399814E-2,-6.198407E-2,7.067975E-2,-2.7748505E-3,1.1286874E-2,-5.0154785E-3,-2.2972103E-2,1.2384342E-1,4.377933E-3,8.602804E-2,-1.24210745E-1,-9.813922E-4,-1.13680735E-2,-5.159175E-2,-1.0969329E-2,-1.6727776E-3,-6.501914E-2,6.884959E-2,1.6716147E-3,-4.926757E-4,-1.0966025E-3,-7.907866E-4,1.4951459E-1,1.3313656E-2,-8.638375E-4,-5.0407695E-4,1.3819068E-3,-9.199845E-4,-3.13411E-3,-8.319702E-3,-1.8177904E-3,2.3722287E-2,-2.088242E-2,6.3937606E-4,-3.257405E-2,-1.3813974E-3,2.0311985E-2,-2.7898867E-2,6.0331326E-6,3.3132132E-2,2.2077442E-3,-6.216539E-4,-1.5055235E-3,7.0419577E-3,-8.710312E-3,-4.941592E-3,-5.7369465E-4,-7.3596905E-3,-1.6939851E-4,1.2227327E-2,5.6905497E-2,6.0029463E-3,-1.3639634E-3,2.9327357E-2,7.625789E-3,-5.4803606E-2,4.3918192E-3,2.9371576E-3,-8.4143353E-4,-5.4040663E-3,6.276369E-5,-6.4015957E-3,1.0379355E-2,2.275814E-4,-5.9000835E-2,6.617052E-2,6.6941087E-3,4.5560445E-3,4.9687654E-4],"categories":[],"categories_nodes":[],"categories_segments":[],"categories_sizes":[],"default_left":[0,0,0,0,0,0,0,0,0,0,0,0,0,0,0,0,0,0,0,0,0,0,0,0,0,0,0,0,0,0,0,0,0,0,0,0,0,0,0,0,0,0,0,0,0,0,0,0,0,0,0,0,0,0,0,0,0,0,0,0,0,0,0,0,0,0,0,0,0,0,0,0,0,0,0,0,0,0,0,0,0,0,0,0,0,0,0,0,0,0,0,0,0,0,0,0,0,0,0,0,0,0,0,0,0,0,0,0,0],"id":16,"left_children":[1,3,5,7,9,11,13,15,17,19,21,23,25,27,29,31,33,35,-1,37,39,-1,41,43,45,47,49,51,53,55,57,59,-1,61,63,65,67,69,71,73,75,77,79,81,83,85,87,89,91,93,95,97,99,-1,-1,101,103,105,107,-1,-1,-1,-1,-1,-1,-1,-1,-1,-1,-1,-1,-1,-1,-1,-1,-1,-1,-1,-1,-1,-1,-1,-1,-1,-1,-1,-1,-1,-1,-1,-1,-1,-1,-1,-1,-1,-1,-1,-1,-1,-1,-1,-1,-1,-1,-1,-1,-1,-1],"loss_changes":[5.501821E-1,2.8063744E-2,1.2732416E-2,2.708912E-3,5.4772526E-2,9.6109524E-2,3.8168848E-2,5.3394206E-2,1.7531216E-3,2.0323563E-2,2.9178686E-2,4.4488297E-3,1.2673184E-1,1.2971616E-1,2.9435575E-2,1.5499329E-3,8.14086E-2,8.675456E-4,0E0,1.2422465E-2,4.073655E-2,0E0,3.2498732E-2,1.9388895E-3,1.6749483E-3,1.266492E-1,1.10000834E-1,8.769357E-4,1.857227E-2,7.848471E-2,4.060945E-2,1.6567204E-4,0E0,3.7718087E-1,3.0009266E-2,3.1331182E-4,3.1156559E-4,8.581154E-3,5.2026957E-2,1.1309549E-2,5.535385E-3,5.7705184E-3,1.1775605E-2,1.3306102E-4,6.086572E-3,3.2401402E-4,5.105492E-4,1.1261964E-1,2.3230785E-3,3.5878085E-4,5.950229E-2,6.756252E-4,8.5007166E-4,0E0,0E0,7.7060685E-2,2.0798102E-1,5.8621638E-2,2.0478487E-2,0E0,0E0,0E0,0E0,0E0,0E0,0E0,0E0,0E0,0E0,0E0,0E0,0E0,0E0,0E0,0E0,0E0,0E0,0E0,0E0,0E0,0E0,0E0,0E0,0E0,0E0,0E0,0E0,0E0,0E0,0E0,0E0,0E0,0E0,0E0,0E0,0E0,0E0,0E0,0E0,0E0,0E0,0E0,0E0,0E0,0E0,0E0,0E0,0E0,0E0],"parents":[2147483647,0,0,1,1,2,2,3,3,4,4,5,5,6,6,7,7,8,8,9,9,10,10,11,11,12,12,13,13,14,14,15,15,16,16,17,17,19,19,20,20,22,22,23,23,24,24,25,25,26,26,27,27,28,28,29,29,30,30,31,31,33,33,34,34,35,35,36,36,37,37,38,38,39,39,40,40,41,41,42,42,43,43,44,44,45,45,46,46,47,47,48,48,49,49,50,50,51,51,52,52,55,55,56,56,57,57,58,58],"right_children":[2,4,6,8,10,12,14,16,18,20,22,24,26,28,30,32,34,36,-1,38,40,-1,42,44,46,48,50,52,54,56,58,60,-1,62,64,66,68,70,72,74,76,78,80,82,84,86,88,90,92,94,96,98,100,-1,-1,102,104,106,108,-1,-1,-1,-1,-1,-1,-1,-1,-1,-1,-1,-1,-1,-1,-1,-1,-1,-1,-1,-1,-1,-1,-1,-1,-1,-1,-1,-1,-1,-1,-1,-1,-1,-1,-1,-1,-1,-1,-1,-1,-1,-1,-1,-1,-1,-1,-1,-1,-1,-1],"split_conditions":[-8.3430207E-1,-9.149724E-1,-6.672031E-1,-1.8463815E0,8.025125E0,-9.149724E-1,-6.6720897E-1,-1.8464235E0,8.3668697E-1,-8.343085E-1,-7.056564E-1,-1.024555E0,6.110262E0,-6.4101624E-1,-1.1596985E0,8.772762E-1,-2.3957756E0,2.221754E0,5.779995E-3,-6.4101624E-1,6.6958743E-1,5.068989E-2,-6.4101624E-1,1.5431426E-1,-2.0628343E0,-9.1725695E-1,-6.410042E-1,-9.149724E-1,5.2201885E-1,-2.0074925E0,-1.1459424E0,8.025242E0,5.4067983E-3,-2.948302E0,-2.505654E0,1.5431426E-1,-1.5647585E0,-9.178521E-1,-2.0074925E0,-8.894961E-3,3.9889297E0,-1.0245334E0,9.236846E-1,8.025242E0,-2.4490702E0,-1.0245334E0,-9.149536E-1,-6.4101624E-1,-6.410042E-1,-1.0245334E0,5.024879E-1,-3.3300525E-1,-6.410042E-1,-5.159175E-2,-1.0969329E-2,-1.0245334E0,-6.410042E-1,2.221754E0,-1.9522176E0,-4.926757E-4,-1.0966025E-3,-7.907866E-4,1.4951459E-1,1.3313656E-2,-8.638375E-4,-5.0407695E-4,1.3819068E-3,-9.199845E-4,-3.13411E-3,-8.319702E-3,-1.8177904E-3,2.3722287E-2,-2.088242E-2,6.3937606E-4,-3.257405E-2,-1.3813974E-3,2.0311985E-2,-2.7898867E-2,6.0331326E-6,3.3132132E-2,2.2077442E-3,-6.216539E-4,-1.5055235E-3,7.0419577E-3,-8.710312E-3,-4.941592E-3,-5.7369465E-4,-7.3596905E-3,-1.6939851E-4,1.2227327E-2,5.6905497E-2,6.0029463E-3,-1.3639634E-3,2.9327357E-2,7.625789E-3,-5.4803606E-2,4.3918192E-3,2.9371576E-3,-8.4143353E-4,-5.4040663E-3,6.276369E-5,-6.4015957E-3,1.0379355E-2,2.275814E-4,-5.9000835E-2,6.617052E-2,6.6941087E-3,4.5560445E-3,4.9687654E-4],"split_indices":[14,9,14,1,13,9,6,9,6,6,4,9,13,9,2,4,3,0,0,9,6,0,9,4,5,8,1,9,2,5,3,0,0,5,10,4,5,1,5,0,0,1,3,0,1,1,1,9,1,1,6,14,1,0,0,1,1,0,10,0,0,0,0,0,0,0,0,0,0,0,0,0,0,0,0,0,0,0,0,0,0,0,0,0,0,0,0,0,0,0,0,0,0,0,0,0,0,0,0,0,0,0,0,0,0,0,0,0,0],"split_type":[0,0,0,0,0,0,0,0,0,0,0,0,0,0,0,0,0,0,0,0,0,0,0,0,0,0,0,0,0,0,0,0,0,0,0,0,0,0,0,0,0,0,0,0,0,0,0,0,0,0,0,0,0,0,0,0,0,0,0,0,0,0,0,0,0,0,0,0,0,0,0,0,0,0,0,0,0,0,0,0,0,0,0,0,0,0,0,0,0,0,0,0,0,0,0,0,0,0,0,0,0,0,0,0,0,0,0,0,0],"sum_hessian":[1.96995E5,9.7871E4,9.9124E4,9.7754E4,1.17E2,1.68E2,9.8956E4,1.387E3,9.6367E4,1.1E2,7E0,1.23E2,4.5E1,4.9E1,9.8907E4,1.323E3,6.4E1,9.6364E4,3E0,9.9E1,1.1E1,1E0,6E0,1E2,2.3E1,3.6E1,9E0,4.2E1,7E0,1.29E2,9.8778E4,1.32E3,3E0,7E0,5.7E1,9.5982E4,3.82E2,8.5E1,1.4E1,8E0,3E0,2E0,4E0,9E1,1E1,9E0,1.4E1,2.1E1,1.5E1,3E0,6E0,3.2E1,1E1,5E0,2E0,1.06E2,2.3E1,8E0,9.877E4,1.278E3,4.2E1,6E0,1E0,2E1,3.7E1,9.5975E4,7E0,3.77E2,5E0,2.6E1,5.9E1,2E0,1.2E1,1E0,7E0,2E0,1E0,1E0,1E0,2E0,2E0,7E1,2E1,8E0,2E0,1E0,8E0,1.3E1,1E0,1E1,1.1E1,5E0,1E1,2E0,1E0,4E0,2E0,4E0,2.8E1,6E0,4E0,6.9E1,3.7E1,1.6E1,7E0,1E0,7E0,1.11E2,9.8659E4],"tree_param":{"num_deleted":"0","num_feature":"16","num_nodes":"109","size_leaf_vector":"0"}},{"base_weights":[-1.5475818E-7,-1.1618582E-3,1.1843081E-3,-1.1350182E-3,-1.12037435E-2,2.2183595E-2,1.176543E-3,-1.1652738E-3,7.638888E-3,-3.7562903E-2,-9.861309E-4,4.3967806E-2,2.557837E-3,5.917051E-3,1.1702024E-3,-1.1535216E-3,-3.251975E-2,1.4871749E-3,2.2242095E-2,-9.985082E-3,-8.5198924E-2,1.1914937E-2,-8.156998E-3,5.7398614E-2,1.6581135E-2,-8.775463E-3,7.7172983E-3,1.4032125E-3,1.2448415E-2,-6.630153E-4,1.1707458E-3,-1.1453547E-3,-1.8291438E-2,7.918062E-2,-6.1222527E-2,9.095395E-3,-2.2136409E-2,-8.869938E-3,3.3145867E-2,-4.899637E-3,-3.7350148E-2,-3.850346E-2,-2.1311405E-1,2.8550567E-2,-1.6695937E-2,-1.9222698E-1,-2.004627E-3,2.3920834E-2,2.1933455E-2,2.4574533E-2,4.4424534E-3,1.7133623E-2,2.7776635E-3,6.5573794E-4,-5.297698E-4,2.0649832E-2,8.5309794E-4,9.3982223E-4,1.1705525E-3,-3.5095587E-4,1.5256428E-3,8.5863675E-4,-2.0507352E-2,6.5708025E-3,3.2750055E-2,-2.7160939E-2,9.212356E-3,1.600726E-3,1.013421E-2,-3.7028973E-3,-8.85232E-2,9.0695E-3,-6.444428E-3,2.6596408E-2,6.6660177E-3,-3.8684679E-3,1.5565128E-2,-2.4742259E-2,3.5609316E-2,-9.613127E-2,1.1038936E-2,2.3729544E-2,3.4071328E-3,3.9876017E-4,-7.009866E-2,3.2969357E-3,-1.2028159E-1,-2.0655153E-2,1.3913399E-3,1.3455749E-4,8.903034E-3,8.737743E-3,1.6381056E-3,1.6565145E-3,1.8070043E-4,2.110678E-3,6.1271223E-3,-7.324219E-4,1.6105553E-3,9.187262E-3,-1.0076308E-3,-2.752266E-3,5.241152E-3,3.5142552E-4,2.6082117E-4],"categories":[],"categories_nodes":[],"categories_segments":[],"categories_sizes":[],"default_left":[0,0,0,0,0,0,0,0,0,0,0,0,0,0,0,0,0,0,0,0,0,0,0,0,0,0,0,0,0,0,0,0,0,0,0,0,0,0,0,0,0,0,0,0,0,0,0,0,0,0,0,0,0,0,0,0,0,0,0,0,0,0,0,0,0,0,0,0,0,0,0,0,0,0,0,0,0,0,0,0,0,0,0,0,0,0,0,0,0,0,0,0,0,0,0,0,0,0,0,0,0,0,0,0,0],"id":17,"left_children":[1,3,5,7,9,11,13,15,17,19,21,23,25,27,29,31,33,35,37,39,41,43,45,47,49,-1,51,53,55,-1,57,59,61,63,65,67,69,71,73,75,-1,77,79,81,83,85,87,89,-1,91,93,95,97,-1,-1,99,101,-1,103,-1,-1,-1,-1,-1,-1,-1,-1,-1,-1,-1,-1,-1,-1,-1,-1,-1,-1,-1,-1,-1,-1,-1,-1,-1,-1,-1,-1,-1,-1,-1,-1,-1,-1,-1,-1,-1,-1,-1,-1,-1,-1,-1,-1,-1,-1],"loss_changes":[2.710668E-1,2.6792556E-2,1.5879408E-2,2.6339859E-2,7.1334794E-2,1.5278675E-2,2.9239506E-3,3.6387116E-2,3.060057E-2,9.636292E-2,1.7859463E-2,5.301293E-3,3.5081282E-3,3.8151303E-3,1.8149614E-4,1.3809547E-2,1.2347373E-1,4.351709E-2,3.455708E-2,2.7343357E-2,1.5306689E-1,3.3317916E-2,1.4004055E-1,4.0374734E-3,5.700339E-4,0E0,7.896464E-4,1.973066E-4,5.022579E-3,0E0,3.3289194E-5,1.50823295E-2,4.9972534E-2,1.13493465E-2,8.362541E-2,1.6803598E-2,1.5406631E-1,1.3963914E-2,4.3516003E-2,2.2006929E-2,0E0,1.5494676E-1,1.9953984E-1,3.7341785E-2,1.0199259E-1,1.7406107E-1,5.40456E-2,6.62216E-4,0E0,1.8893881E-4,1.3252051E-5,5.5649085E-5,1.8889079E-4,0E0,0E0,7.5264517E-3,3.992723E-3,0E0,2.4363399E-5,0E0,0E0,0E0,0E0,0E0,0E0,0E0,0E0,0E0,0E0,0E0,0E0,0E0,0E0,0E0,0E0,0E0,0E0,0E0,0E0,0E0,0E0,0E0,0E0,0E0,0E0,0E0,0E0,0E0,0E0,0E0,0E0,0E0,0E0,0E0,0E0,0E0,0E0,0E0,0E0,0E0,0E0,0E0,0E0,0E0,0E0],"parents":[2147483647,0,0,1,1,2,2,3,3,4,4,5,5,6,6,7,7,8,8,9,9,10,10,11,11,12,12,13,13,14,14,15,15,16,16,17,17,18,18,19,19,20,20,21,21,22,22,23,23,24,24,26,26,27,27,28,28,30,30,31,31,32,32,33,33,34,34,35,35,36,36,37,37,38,38,39,39,41,41,42,42,43,43,44,44,45,45,46,46,47,47,49,49,50,50,51,51,52,52,55,55,56,56,58,58],"right_children":[2,4,6,8,10,12,14,16,18,20,22,24,26,28,30,32,34,36,38,40,42,44,46,48,50,-1,52,54,56,-1,58,60,62,64,66,68,70,72,74,76,-1,78,80,82,84,86,88,90,-1,92,94,96,98,-1,-1,100,102,-1,104,-1,-1,-1,-1,-1,-1,-1,-1,-1,-1,-1,-1,-1,-1,-1,-1,-1,-1,-1,-1,-1,-1,-1,-1,-1,-1,-1,-1,-1,-1,-1,-1,-1,-1,-1,-1,-1,-1,-1,-1,-1,-1,-1,-1,-1,-1],"split_conditions":[-2.3655675E-1,4.5898524E-1,-4.025951E-1,5.024879E-1,4.547934E-1,4.841455E0,4.548086E-1,3.3538833E-1,6.110352E0,-7.3465705E-1,9.479023E-1,3.722024E-1,-6.6720897E-1,4.841527E0,4.5898524E-1,-7.9000074E-1,-6.410042E-1,8.772534E-1,-1.0113411E0,-2.918985E-1,2.1967447E0,8.025242E0,5.2201885E-1,4.0151954E-2,3.3538833E-1,-8.775463E-3,3.722024E-1,4.547934E-1,8.025125E0,-6.630153E-4,6.6958743E-1,1.5431426E-1,2.221754E0,-1.0666828E0,4.547934E-1,9.067886E-1,2.1967447E0,-2.4502263E0,-7.9000074E-1,-6.2394893E-1,-3.7350148E-2,9.242156E-1,1.2755752E0,4.548086E-1,-9.0065765E-1,1.2766773E0,9.178446E-1,-3.3300987E-1,2.1933455E-2,3.9889297E0,3.1346958E0,6.110262E0,9.178179E-1,6.5573794E-4,-5.297698E-4,4.547934E-1,4.547934E-1,9.3982223E-4,8.025125E0,-3.5095587E-4,1.5256428E-3,8.5863675E-4,-2.0507352E-2,6.5708025E-3,3.2750055E-2,-2.7160939E-2,9.212356E-3,1.600726E-3,1.013421E-2,-3.7028973E-3,-8.85232E-2,9.0695E-3,-6.444428E-3,2.6596408E-2,6.6660177E-3,-3.8684679E-3,1.5565128E-2,-2.4742259E-2,3.5609316E-2,-9.613127E-2,1.1038936E-2,2.3729544E-2,3.4071328E-3,3.9876017E-4,-7.009866E-2,3.2969357E-3,-1.2028159E-1,-2.0655153E-2,1.3913399E-3,1.3455749E-4,8.903034E-3,8.737743E-3,1.6381056E-3,1.6565145E-3,1.8070043E-4,2.110678E-3,6.1271223E-3,-7.324219E-4,1.6105553E-3,9.187262E-3,-1.0076308E-3,-2.752266E-3,5.241152E-3,3.5142552E-4,2.6082117E-4],"split_indices":[5,12,10,6,1,13,9,6,0,10,1,5,6,0,12,10,1,7,5,5,4,0,2,5,6,0,5,1,13,0,6,4,0,5,1,4,4,5,10,5,0,8,2,9,5,9,9,6,0,0,0,13,1,0,0,1,1,0,13,0,0,0,0,0,0,0,0,0,0,0,0,0,0,0,0,0,0,0,0,0,0,0,0,0,0,0,0,0,0,0,0,0,0,0,0,0,0,0,0,0,0,0,0,0,0],"split_type":[0,0,0,0,0,0,0,0,0,0,0,0,0,0,0,0,0,0,0,0,0,0,0,0,0,0,0,0,0,0,0,0,0,0,0,0,0,0,0,0,0,0,0,0,0,0,0,0,0,0,0,0,0,0,0,0,0,0,0,0,0,0,0,0,0,0,0,0,0,0,0,0,0,0,0,0,0,0,0,0,0,0,0,0,0,0,0,0,0,0,0,0,0,0,0,0,0,0,0,0,0,0,0,0,0],"sum_hessian":[1.96995E5,9.9453E4,9.7542E4,9.9189E4,2.64E2,3.5E1,9.7507E4,9.8849E4,3.4E2,7.3E1,1.91E2,1.6E1,1.9E1,1.29E2,9.7378E4,9.8813E4,3.6E1,2.4E2,1E2,4.7E1,2.6E1,6.8E1,1.23E2,1E1,6E0,2E0,1.7E1,7.7E1,5.2E1,1.5E1,9.7363E4,9.8767E4,4.6E1,7E0,2.9E1,1.82E2,5.8E1,2.6E1,7.4E1,4.6E1,1E0,2E1,6E0,4.3E1,2.5E1,3E0,1.2E2,4E0,6E0,3E0,3E0,5E0,1.2E1,6.2E1,1.5E1,3E1,2.2E1,8E0,9.7355E4,9.8381E4,3.86E2,3.3E1,1.3E1,3E0,4E0,2.2E1,7E0,1.59E2,2.3E1,5.7E1,1E0,6E0,2E1,1.1E1,6.3E1,4.1E1,5E0,1.6E1,4E0,4E0,2E0,1E1,3.3E1,2.4E1,1E0,2E0,1E0,1E1,1.1E2,1E0,3E0,2E0,1E0,2E0,1E0,2E0,3E0,4E0,8E0,2.1E1,9E0,1.4E1,8E0,9.7073E4,2.82E2],"tree_param":{"num_deleted":"0","num_feature":"16","num_nodes":"105","size_leaf_vector":"0"}},{"base_weights":[-1.456223E-6,-8.186291E-4,8.275914E-4,-8.0449134E-4,-1.0817275E-2,1.5709147E-2,8.143314E-4,-8.091472E-4,1.6304288E-2,2.993865E-3,-2.1213055E-2,2.336742E-2,4.210833E-3,-1.51169E-2,8.221537E-4,-8.146589E-4,1.1334558E-2,2.4829024E-2,7.6770214E-3,-1.1310431E-2,7.4953665E-3,-8.999425E-3,-5.509899E-2,3.895342E-2,8.616798E-3,-3.0624483E-2,1.2198713E-2,-3.352871E-2,1.743216E-2,4.8723817E-2,8.206737E-4,-7.9803704E-4,-1.0090474E-2,6.574928E-2,4.4221645E-3,-1.3104673E-3,2.6939243E-2,5.6572217E-3,-4.6377182E-2,4.4480782E-2,2.0332749E-3,-4.4138454E-2,3.0085003E-2,-1.896713E-1,1.137468E-2,-4.2484095E-3,4.503769E-2,8.7217154E-4,1.8870285E-2,-4.534251E-4,-3.1747628E-2,1.7639184E-2,6.7703403E-3,-7.821752E-3,-2.0509526E-1,2.6748966E-2,5.143245E-3,2.1255255E-2,6.7046285E-4,-6.785341E-3,8.2354585E-4,-2.4587754E-4,1.5103905E-3,-8.773724E-3,2.7534517E-3,-3.7283517E-4,2.4842398E-2,5.4061534E-3,-1.5004793E-3,2.2580626E-3,-4.8818965E-3,1.7556341E-2,1.9975277E-3,-1.1957579E-3,1.5313205E-2,-1.8968431E-2,3.153974E-3,1.8424714E-2,6.197816E-3,-3.5919936E-4,4.2035603E-3,5.1778615E-3,-2.7855394E-2,1.7736107E-2,7.723378E-3,-1.02239355E-1,-3.230517E-2,5.7905274E-3,6.077305E-4,-2.157618E-3,6.873812E-4,1.6421182E-2,3.0147794E-3,-6.7000566E-3,1.1155118E-3,-2.92629E-3,6.7077824E-3,-4.0378524E-3,5.111748E-3,-3.2880664E-4,4.4144974E-3,3.1863572E-3,-2.8435057E-2,-8.749203E-2,8.180881E-3,2.2764625E-3,8.410443E-3,-1.229024E-3,2.5105476E-3,4.1773194E-3,2.4536997E-4],"categories":[],"categories_nodes":[],"categories_segments":[],"categories_sizes":[],"default_left":[0,0,0,0,0,0,0,0,0,0,0,0,0,0,0,0,0,0,0,0,0,0,0,0,0,0,0,0,0,0,0,0,0,0,0,0,0,0,0,0,0,0,0,0,0,0,0,0,0,0,0,0,0,0,0,0,0,0,0,0,0,0,0,0,0,0,0,0,0,0,0,0,0,0,0,0,0,0,0,0,0,0,0,0,0,0,0,0,0,0,0,0,0,0,0,0,0,0,0,0,0,0,0,0,0,0,0,0,0,0,0],"id":18,"left_children":[1,3,5,7,9,11,13,15,17,19,21,23,25,27,29,31,33,-1,35,37,39,41,43,45,47,49,51,53,55,57,59,61,63,65,67,69,71,73,75,77,79,81,83,85,87,89,91,93,95,97,-1,-1,99,101,103,105,107,-1,-1,-1,109,-1,-1,-1,-1,-1,-1,-1,-1,-1,-1,-1,-1,-1,-1,-1,-1,-1,-1,-1,-1,-1,-1,-1,-1,-1,-1,-1,-1,-1,-1,-1,-1,-1,-1,-1,-1,-1,-1,-1,-1,-1,-1,-1,-1,-1,-1,-1,-1,-1,-1],"loss_changes":[1.3346058E-1,1.4015347E-2,1.928357E-2,7.904679E-3,2.0164369E-2,7.562585E-3,1.2187906E-2,6.638482E-3,1.484536E-2,4.012616E-3,3.2613765E-2,1.1619313E-2,1.0390951E-2,2.9350264E-2,6.8832487E-3,1.52558535E-2,1.6635366E-2,0E0,4.363278E-3,9.187373E-3,9.404391E-3,8.3731234E-2,1.9001329E-1,6.7626275E-3,2.2070054E-3,1.5834257E-2,7.1905535E-3,1.3511989E-1,1.9233059E-3,2.9276437E-3,6.592475E-3,1.242841E-2,6.559844E-2,5.816903E-3,5.3441823E-3,2.5026056E-3,4.7343946E-3,5.0178086E-3,5.458012E-3,1.1516707E-3,1.6420975E-3,9.7310476E-2,2.1327063E-3,5.003488E-2,1.0725423E-3,9.348109E-5,6.9161393E-3,1.2058613E-3,1.41655E-3,1.5943989E-3,0E0,0E0,1.766002E-3,4.591398E-2,8.839281E-2,3.364263E-5,3.024949E-4,0E0,0E0,0E0,7.210985E-3,0E0,0E0,0E0,0E0,0E0,0E0,0E0,0E0,0E0,0E0,0E0,0E0,0E0,0E0,0E0,0E0,0E0,0E0,0E0,0E0,0E0,0E0,0E0,0E0,0E0,0E0,0E0,0E0,0E0,0E0,0E0,0E0,0E0,0E0,0E0,0E0,0E0,0E0,0E0,0E0,0E0,0E0,0E0,0E0,0E0,0E0,0E0,0E0,0E0,0E0],"parents":[2147483647,0,0,1,1,2,2,3,3,4,4,5,5,6,6,7,7,8,8,9,9,10,10,11,11,12,12,13,13,14,14,15,15,16,16,18,18,19,19,20,20,21,21,22,22,23,23,24,24,25,25,26,26,27,27,28,28,29,29,30,30,31,31,32,32,33,33,34,34,35,35,36,36,37,37,38,38,39,39,40,40,41,41,42,42,43,43,44,44,45,45,46,46,47,47,48,48,49,49,52,52,53,53,54,54,55,55,56,56,60,60],"right_children":[2,4,6,8,10,12,14,16,18,20,22,24,26,28,30,32,34,-1,36,38,40,42,44,46,48,50,52,54,56,58,60,62,64,66,68,70,72,74,76,78,80,82,84,86,88,90,92,94,96,98,-1,-1,100,102,104,106,108,-1,-1,-1,110,-1,-1,-1,-1,-1,-1,-1,-1,-1,-1,-1,-1,-1,-1,-1,-1,-1,-1,-1,-1,-1,-1,-1,-1,-1,-1,-1,-1,-1,-1,-1,-1,-1,-1,-1,-1,-1,-1,-1,-1,-1,-1,-1,-1,-1,-1,-1,-1,-1,-1],"split_conditions":[8.366873E-1,4.5898524E-1,-6.2396973E-1,9.5444286E-1,-1.7307837E0,6.110352E0,-5.1326543E-1,9.479023E-1,1.1195928E0,-1.0245334E0,1.2766773E0,4.548086E-1,1.5431426E-1,9.178446E-1,6.6958743E-1,9.067651E-1,4.548086E-1,2.4829024E-2,1.6829155E-1,-1.024555E0,4.547934E-1,4.548086E-1,-9.0065765E-1,-6.4101624E-1,9.236846E-1,-6.267103E-1,4.841455E0,9.178179E-1,9.2365956E-1,2.221754E0,1.5431003E-1,1.1892361E-3,8.025242E0,6.110352E0,8.025242E0,-6.672031E-1,3.9889297E0,6.6958743E-1,2.8582281E1,4.548086E-1,-2.1735177E0,-6.4101624E-1,4.547934E-1,8.025242E0,9.2365956E-1,2.221754E0,4.547934E-1,-6.6720897E-1,-9.149536E-1,-6.6720897E-1,-3.1747628E-2,1.7639184E-2,-1.066719E0,6.110352E0,6.110352E0,9.178179E-1,-9.0065765E-1,2.1255255E-2,6.7046285E-4,-6.785341E-3,-4.025951E-1,-2.4587754E-4,1.5103905E-3,-8.773724E-3,2.7534517E-3,-3.7283517E-4,2.4842398E-2,5.4061534E-3,-1.5004793E-3,2.2580626E-3,-4.8818965E-3,1.7556341E-2,1.9975277E-3,-1.1957579E-3,1.5313205E-2,-1.8968431E-2,3.153974E-3,1.8424714E-2,6.197816E-3,-3.5919936E-4,4.2035603E-3,5.1778615E-3,-2.7855394E-2,1.7736107E-2,7.723378E-3,-1.02239355E-1,-3.230517E-2,5.7905274E-3,6.077305E-4,-2.157618E-3,6.873812E-4,1.6421182E-2,3.0147794E-3,-6.7000566E-3,1.1155118E-3,-2.92629E-3,6.7077824E-3,-4.0378524E-3,5.111748E-3,-3.2880664E-4,4.4144974E-3,3.1863572E-3,-2.8435057E-2,-8.749203E-2,8.180881E-3,2.2764625E-3,8.410443E-3,-1.229024E-3,2.5105476E-3,4.1773194E-3,2.4536997E-4],"split_indices":[14,12,10,8,5,0,5,1,8,1,9,9,4,9,6,7,9,0,14,9,1,9,5,9,3,3,13,1,2,0,7,6,0,0,0,14,0,6,0,9,5,9,1,0,2,0,1,6,1,6,0,0,10,0,0,1,5,0,0,0,10,0,0,0,0,0,0,0,0,0,0,0,0,0,0,0,0,0,0,0,0,0,0,0,0,0,0,0,0,0,0,0,0,0,0,0,0,0,0,0,0,0,0,0,0,0,0,0,0,0,0],"split_type":[0,0,0,0,0,0,0,0,0,0,0,0,0,0,0,0,0,0,0,0,0,0,0,0,0,0,0,0,0,0,0,0,0,0,0,0,0,0,0,0,0,0,0,0,0,0,0,0,0,0,0,0,0,0,0,0,0,0,0,0,0,0,0,0,0,0,0,0,0,0,0,0,0,0,0,0,0,0,0,0,0,0,0,0,0,0,0,0,0,0,0,0,0,0,0,0,0,0,0,0,0,0,0,0,0,0,0,0,0,0,0],"sum_hessian":[1.96995E5,9.9208E4,9.7787E4,9.9069E4,1.39E2,8.6E1,9.7701E4,9.9043E4,2.6E1,6E1,7.9E1,5.1E1,3.5E1,4.7E1,9.7654E4,9.8999E4,4.4E1,2E0,2.4E1,1.4E1,4.6E1,5.9E1,2E1,2.4E1,2.7E1,6E0,2.9E1,3E1,1.7E1,2E0,9.7652E4,9.8823E4,1.76E2,4E0,4E1,1.7E1,7E0,1E1,4E0,5E0,4.1E1,3.1E1,2.8E1,6E0,1.4E1,3E0,2.1E1,1.6E1,1.1E1,5E0,1E0,2E0,2.7E1,2.7E1,3E0,9E0,8E0,1E0,1E0,1.1E1,9.7641E4,9.846E4,3.63E2,8.8E1,8.8E1,1E0,3E0,1.6E1,2.4E1,1.1E1,6E0,2E0,5E0,9E0,1E0,3E0,1E0,2E0,3E0,3.3E1,8E0,1.4E1,1.7E1,2E0,2.6E1,1E0,5E0,7E0,7E0,2E0,1E0,1.6E1,5E0,1E0,1.5E1,1E0,1E1,3E0,2E0,1.4E1,1.3E1,2.3E1,4E0,2E0,1E0,1E0,8E0,2E0,6E0,4.1E1,9.76E4],"tree_param":{"num_deleted":"0","num_feature":"16","num_nodes":"111","size_leaf_vector":"0"}},{"base_weights":[-1.5330997E-6,-5.743639E-4,5.8252027E-4,-5.55543E-4,-7.61692E-3,1.8111946E-2,5.794587E-4,-5.73635E-4,4.6906425E-3,-2.4032854E-2,-1.2502744E-3,-5.63434E-3,2.7359115E-2,4.502616E-3,5.7397445E-4,-5.659708E-4,-2.1026412E-2,-1.05609826E-4,1.6088724E-2,-4.7887776E-2,8.773226E-3,2.8191417E-2,-3.7242917E-3,3.4703195E-2,7.1991323E-3,1.1257932E-3,9.163023E-3,3.9671063E-3,5.737246E-4,-5.5966584E-4,-1.3803513E-2,5.9745852E-2,-4.18648E-2,5.037233E-3,-1.6055347E-2,2.8295582E-2,1.4617887E-3,-2.6962372E-2,-1.5165238E-1,-9.341475E-3,2.9925985E-2,6.293018E-2,-8.307272E-2,-1.0140318E-2,4.631387E-3,4.515593E-3,4.0974863E-2,3.9208713E-3,-1.071016E-3,5.1308335E-3,7.0706196E-4,1.4613308E-2,4.707186E-4,3.4535408E-3,7.910232E-4,-5.4553454E-4,5.741118E-4,-1.7048413E-4,3.3770797E-3,5.097499E-4,-1.5140074E-2,5.467768E-3,2.4303796E-2,-1.8926213E-2,7.3149586E-3,2.7812936E-3,-3.9391043E-3,-2.3503853E-3,-7.392866E-2,2.7944965E-2,4.07451E-3,9.026407E-3,-1.0383812E-3,-1.7023792E-2,1.7738385E-2,-6.9677E-2,9.971667E-3,1.5730378E-3,-8.468423E-3,1.5480969E-2,4.178113E-3,2.9033063E-2,-1.1431718E-3,-5.540555E-2,3.7079412E-3,-2.4774902E-6,-1.2794101E-2,5.2604675E-3,-3.612689E-5,1.6108848E-2,5.402957E-3,-4.4687392E-4,-3.5083296E-5,3.8969802E-4,-4.5844738E-4,6.223132E-3,-1.9441464E-4,-2.050314E-3,3.7780742E-3,5.394352E-4,-6.36667E-4,-7.3847774E-4,1.7225985E-4],"categories":[],"categories_nodes":[],"categories_segments":[],"categories_sizes":[],"default_left":[0,0,0,0,0,0,0,0,0,0,0,0,0,0,0,0,0,0,0,0,0,0,0,0,0,0,0,0,0,0,0,0,0,0,0,0,0,0,0,0,0,0,0,0,0,0,0,0,0,0,0,0,0,0,0,0,0,0,0,0,0,0,0,0,0,0,0,0,0,0,0,0,0,0,0,0,0,0,0,0,0,0,0,0,0,0,0,0,0,0,0,0,0,0,0,0,0,0,0,0,0,0,0],"id":19,"left_children":[1,3,5,7,9,11,13,15,17,19,21,-1,23,25,27,29,31,33,35,37,39,41,43,45,47,49,51,53,55,57,59,61,63,65,67,69,71,73,75,77,79,81,83,85,87,-1,89,-1,91,-1,93,95,97,-1,99,-1,101,-1,-1,-1,-1,-1,-1,-1,-1,-1,-1,-1,-1,-1,-1,-1,-1,-1,-1,-1,-1,-1,-1,-1,-1,-1,-1,-1,-1,-1,-1,-1,-1,-1,-1,-1,-1,-1,-1,-1,-1,-1,-1,-1,-1,-1,-1],"loss_changes":[6.590806E-2,1.3178166E-2,5.224347E-3,9.417208E-3,2.7666274E-2,6.313497E-3,2.0957962E-3,1.54831745E-2,1.8643511E-2,5.8331538E-2,1.409013E-2,0E0,1.8229587E-3,2.1299664E-3,8.0272555E-5,8.2395375E-3,6.477832E-2,1.9849379E-2,1.7992077E-2,8.92777E-2,1.2541183E-2,6.3205466E-2,9.589588E-3,6.157076E-4,2.5674474E-4,5.2311225E-4,2.6935264E-3,1.5863197E-4,9.124726E-5,1.0060519E-2,2.6799658E-2,5.5874437E-3,4.3716863E-2,1.4197523E-2,1.0980581E-1,5.1219076E-2,6.72779E-3,9.822623E-2,1.12041146E-1,5.10629E-3,4.4835154E-3,2.7476225E-2,4.107119E-2,3.3264972E-2,4.784682E-3,0E0,1.0779519E-3,0E0,1.0238216E-6,0E0,1.0650971E-4,3.2880139E-3,2.1229195E-3,0E0,2.1419484E-5,0E0,2.7321279E-5,0E0,0E0,0E0,0E0,0E0,0E0,0E0,0E0,0E0,0E0,0E0,0E0,0E0,0E0,0E0,0E0,0E0,0E0,0E0,0E0,0E0,0E0,0E0,0E0,0E0,0E0,0E0,0E0,0E0,0E0,0E0,0E0,0E0,0E0,0E0,0E0,0E0,0E0,0E0,0E0,0E0,0E0,0E0,0E0,0E0,0E0],"parents":[2147483647,0,0,1,1,2,2,3,3,4,4,5,5,6,6,7,7,8,8,9,9,10,10,12,12,13,13,14,14,15,15,16,16,17,17,18,18,19,19,20,20,21,21,22,22,23,23,24,24,25,25,26,26,27,27,28,28,29,29,30,30,31,31,32,32,33,33,34,34,35,35,36,36,37,37,38,38,39,39,40,40,41,41,42,42,43,43,44,44,46,46,48,48,50,50,51,51,52,52,54,54,56,56],"right_children":[2,4,6,8,10,12,14,16,18,20,22,-1,24,26,28,30,32,34,36,38,40,42,44,46,48,50,52,54,56,58,60,62,64,66,68,70,72,74,76,78,80,