{"learner":{"attributes":{"best_iteration":"99","best_ntree_limit":"100"},"feature_names":[],"feature_types":[],"gradient_booster":{"model":{"gbtree_model_param":{"num_parallel_tree":"1","num_trees":"100","size_leaf_vector":"0"},"tree_info":[0,0,0,0,0,0,0,0,0,0,0,0,0,0,0,0,0,0,0,0,0,0,0,0,0,0,0,0,0,0,0,0,0,0,0,0,0,0,0,0,0,0,0,0,0,0,0,0,0,0,0,0,0,0,0,0,0,0,0,0,0,0,0,0,0,0,0,0,0,0,0,0,0,0,0,0,0,0,0,0,0,0,0,0,0,0,0,0,0,0,0,0,0,0,0,0,0,0,0,0],"trees":[{"base_weights":[-5.761538E-4,-4.9959883E-1,4.9810722E-1,-4.9963945E-1,1.20000005E-1,2.7180785E-1,4.999335E-1,-4.9989307E-1,-4.0590405E-1,1.888298E-1,4.758772E-1,-0E0,4.9994373E-1,-1.4998929E-1,-4.6134022E-1,-1.7021276E-1,-4.5333335E-1,4.237288E-3,2.3713647E-1,1.03125006E-1,1.4507043E-1,-7.5E-2,7.5E-2,9.375E-2,1.499862E-1,-1.3962767E-1,-2.857143E-1,-2.7631578E-1,2.5E-1,-4.6153846E-1,-0E0,2.3404256E-1,-1.4583333E-1,2.196602E-1,4.3055555E-1,7.5E-2,-1.25E-1,-1.4375E-1,2.0000001E-2,1.25E-1,-0E0,-1.0000001E-1,-1.4307693E-1,-3.75E-2,7.5E-2,8.372094E-2,-6.0000002E-2,-1.2954547E-1,-5.8823535E-3,9.130435E-2,5.5872485E-2,1.367647E-1,-0E0],"categories":[],"categories_nodes":[],"categories_segments":[],"categories_sizes":[],"default_left":[0,0,0,0,0,0,0,0,0,0,0,0,0,0,0,0,0,0,0,0,0,0,0,0,0,0,0,0,0,0,0,0,0,0,0,0,0,0,0,0,0,0,0,0,0,0,0,0,0,0,0,0,0],"id":0,"left_children":[1,3,5,7,-1,9,11,13,15,17,19,21,23,-1,25,27,29,31,33,-1,-1,-1,-1,-1,-1,-1,35,37,39,41,43,45,47,49,51,-1,-1,-1,-1,-1,-1,-1,-1,-1,-1,-1,-1,-1,-1,-1,-1,-1,-1],"loss_changes":[4.902355E4,3.796875E0,4.0585938E1,2.1386719E0,0E0,1.3304363E1,5.019531E-1,3.90625E-2,2.9522552E0,5.0282116E0,6.546402E-2,2.5E-1,3.125E-2,0E0,6.214142E-3,2.1646137E0,8.369217E-1,4.103599E0,1.4163933E0,0E0,0E0,0E0,0E0,0E0,0E0,0E0,5.9523815E-1,2.675768E0,4.1666675E-1,2.7692413E-1,1.875E-1,9.7436905E-1,2.590631E0,1.109335E0,3.9256525E-1,0E0,0E0,0E0,0E0,0E0,0E0,0E0,0E0,0E0,0E0,0E0,0E0,0E0,0E0,0E0,0E0,0E0,0E0],"parents":[2147483647,0,0,1,1,2,2,3,3,5,5,6,6,7,7,8,8,9,9,10,10,11,11,12,12,14,14,15,15,16,16,17,17,18,18,26,26,27,27,28,28,29,29,30,30,31,31,32,32,33,33,34,34],"right_children":[2,4,6,8,-1,10,12,14,16,18,20,22,24,-1,26,28,30,32,34,-1,-1,-1,-1,-1,-1,-1,36,38,40,42,44,46,48,50,52,-1,-1,-1,-1,-1,-1,-1,-1,-1,-1,-1,-1,-1,-1,-1,-1,-1,-1],"split_conditions":[-6.4101624E-1,8.3668697E-1,4.548086E-1,-9.149724E-1,1.20000005E-1,-5.132824E-1,-6.6720897E-1,1.5431003E-1,-1.0245334E0,-3.3300987E-1,-4.5793876E-1,3.9889297E0,-3.1143272E0,-1.4998929E-1,6.6958743E-1,1.1892361E-3,2.1967447E0,-1.1374408E0,4.547934E-1,1.03125006E-1,1.4507043E-1,-7.5E-2,7.5E-2,9.375E-2,1.499862E-1,-1.3962767E-1,-2.2842796E0,4.841455E0,8.025242E0,-9.178521E-1,5.0248945E-1,-9.201692E-1,-6.6720897E-1,-1.2880937E0,8.025242E0,7.5E-2,-1.25E-1,-1.4375E-1,2.0000001E-2,1.25E-1,-0E0,-1.0000001E-1,-1.4307693E-1,-3.75E-2,7.5E-2,8.372094E-2,-6.0000002E-2,-1.2954547E-1,-5.8823535E-3,9.130435E-2,5.5872485E-2,1.367647E-1,-0E0],"split_indices":[15,4,15,15,0,2,4,7,12,4,2,0,10,0,4,4,8,3,12,0,0,0,0,0,0,0,2,6,0,12,1,14,4,2,0,0,0,0,0,0,0,0,0,0,0,0,0,0,0,0,0,0,0],"split_type":[0,0,0,0,0,0,0,0,0,0,0,0,0,0,0,0,0,0,0,0,0,0,0,0,0,0,0,0,0,0,0,0,0,0,0,0,0,0,0,0,0,0,0,0,0,0,0,0,0,0,0,0,0],"sum_hessian":[1.96995E5,9.8464E4,9.8531E4,9.846E4,4E0,7.9E2,9.7741E4,9.819E4,2.7E2,5.63E2,2.27E2,2E0,9.7739E4,9.7997E4,1.93E2,4.6E1,2.24E2,1.17E2,4.46E2,1.5E1,2.12E2,1E0,1E0,7E0,9.7732E4,1.87E2,6E0,3.7E1,9E0,2.2E2,4E0,4.6E1,7.1E1,4.11E2,3.5E1,1E0,5E0,2.3E1,1.4E1,5E0,4E0,2.6E1,1.94E2,3E0,1E0,4.2E1,4E0,2.1E1,5E1,1.14E2,2.97E2,3.3E1,2E0],"tree_param":{"num_deleted":"0","num_feature":"16","num_nodes":"53","size_leaf_vector":"0"}},{"base_weights":[-4.0208784E-4,-3.497235E-1,3.4868178E-1,-3.497531E-1,9.12E-2,1.8551607E-1,3.499297E-1,-3.499286E-1,-2.848868E-1,1.266237E-1,3.2865423E-1,2.9932052E-1,1.0499976E-1,-1.0499359E-1,-9.693737E-2,-2.9818875E-1,1.896875E-1,2.0778662E-2,1.7486235E-1,-0E0,3.3169731E-1,1.0570252E-1,2.6993823E-1,-1.9255355E-1,-1.0037397E-1,1.1100001E-1,7.500005E-3,1.5957344E-1,-1.0721174E-1,3.3526692E-1,1.579596E-1,-6.3750006E-2,6.3750006E-2,1.8126208E-1,1.00760564E-1,2.3845206E-1,9.4475076E-2,-7.5768754E-2,4.568182E-2,-2.90625E-2,6.3750006E-2,-8.3352275E-2,5.3987738E-2,-9.823089E-2,-2.0439321E-2,-7.411765E-2,1.0811994E-1,5.6600228E-2,2.3005484E-2,-2.9997243E-2,8.750345E-2,7.975277E-2,-1.111745E-1],"categories":[],"categories_nodes":[],"categories_segments":[],"categories_sizes":[],"default_left":[0,0,0,0,0,0,0,0,0,0,0,0,0,0,0,0,0,0,0,0,0,0,0,0,0,0,0,0,0,0,0,0,0,0,0,0,0,0,0,0,0,0,0,0,0,0,0,0,0,0,0,0,0],"id":1,"left_children":[1,3,5,7,-1,9,11,13,15,17,19,21,-1,-1,-1,23,25,27,29,31,33,-1,35,37,-1,-1,39,41,43,45,47,-1,-1,49,-1,51,-1,-1,-1,-1,-1,-1,-1,-1,-1,-1,-1,-1,-1,-1,-1,-1,-1],"loss_changes":[2.4022299E4,2.0146484E0,1.9999023E1,1.0195312E0,0E0,6.2806892E0,2.3925781E-1,1.8554688E-2,1.7673187E0,2.7177706E0,2.1802711E-1,1.2455177E-1,0E0,0E0,0E0,9.5044136E-1,2.600305E-1,3.0015268E0,9.3936825E-1,1.80625E-1,7.4661255E-2,0E0,5.944729E-2,1.4869444E0,0E0,0E0,1.2757032E-1,7.722764E-1,7.350656E-1,5.8664703E-1,8.166237E-1,0E0,0E0,2.776039E-1,0E0,1.0994213E0,0E0,0E0,0E0,0E0,0E0,0E0,0E0,0E0,0E0,0E0,0E0,0E0,0E0,0E0,0E0,0E0,0E0],"parents":[2147483647,0,0,1,1,2,2,3,3,5,5,6,6,7,7,8,8,9,9,10,10,11,11,15,15,16,16,17,17,18,18,19,19,20,20,22,22,23,23,26,26,27,27,28,28,29,29,30,30,33,33,35,35],"right_children":[2,4,6,8,-1,10,12,14,16,18,20,22,-1,-1,-1,24,26,28,30,32,34,-1,36,38,-1,-1,40,42,44,46,48,-1,-1,50,-1,52,-1,-1,-1,-1,-1,-1,-1,-1,-1,-1,-1,-1,-1,-1,-1,-1,-1],"split_conditions":[-6.4101624E-1,8.3668697E-1,8.3668697E-1,-9.149724E-1,9.12E-2,4.548086E-1,-4.025951E-1,1.5431426E-1,2.1967447E0,-1.6590631E-1,-6.6720897E-1,-9.0065765E-1,1.0499976E-1,-1.0499359E-1,-9.693737E-2,-9.178521E-1,-1.564812E0,-9.201692E-1,-6.410042E-1,3.9889297E0,3.98887E0,1.0570252E-1,4.547934E-1,1.1892361E-3,-1.0037397E-1,1.1100001E-1,5.0248945E-1,2.2217197E0,-8.3430207E-1,-3.3300987E-1,-7.3465705E-1,-6.3750006E-2,6.3750006E-2,5.0248945E-1,1.00760564E-1,2.1967447E0,9.4475076E-2,-7.5768754E-2,4.568182E-2,-2.90625E-2,6.3750006E-2,-8.3352275E-2,5.3987738E-2,-9.823089E-2,-2.0439321E-2,-7.411765E-2,1.0811994E-1,5.6600228E-2,2.3005484E-2,-2.9997243E-2,8.750345E-2,7.975277E-2,-1.111745E-1],"split_indices":[15,4,4,15,0,15,2,8,8,1,4,10,0,0,0,12,2,14,12,0,6,0,12,4,0,0,1,6,1,4,2,0,0,1,0,8,0,0,0,0,0,0,0,0,0,0,0,0,0,0,0,0,0],"split_type":[0,0,0,0,0,0,0,0,0,0,0,0,0,0,0,0,0,0,0,0,0,0,0,0,0,0,0,0,0,0,0,0,0,0,0,0,0,0,0,0,0,0,0,0,0,0,0,0,0,0,0,0,0],"sum_hessian":[1.96995E5,9.8464E4,9.8531E4,9.846E4,4E0,7.49E2,9.7782E4,9.819E4,2.7E2,5.32E2,2.17E2,1.4E2,9.7642E4,9.7995E4,1.95E2,2.63E2,7E0,1.67E2,3.65E2,2E0,2.15E2,4.6E1,9.4E1,6.9E1,1.94E2,3E0,4E0,8E1,8.7E1,3.3E1,3.32E2,1E0,1E0,7E0,2.08E2,5.9E1,3.5E1,5.9E1,1E1,3E0,1E0,3E0,7.7E1,1.2E1,7.5E1,1E0,3.2E1,2.4E2,9.2E1,2E0,5E0,5.7E1,2E0],"tree_param":{"num_deleted":"0","num_feature":"16","num_nodes":"53","size_leaf_vector":"0"}},{"base_weights":[-2.7994227E-4,-2.448074E-1,2.4408124E-1,-2.4482909E-1,6.9312006E-2,1.3229363E-1,2.4498919E-1,-2.4495207E-1,-1.9936459E-1,8.7229066E-2,2.2592735E-1,-5.4187503E-2,2.4499539E-1,-7.348741E-2,-1.5272473E-1,-2.0922628E-1,1.5099218E-1,-1.4545353E-1,9.88293E-2,-6.4058214E-2,2.2846813E-1,4.2690974E-2,7.350039E-2,8.962134E-2,-7.043085E-2,8.8508695E-2,-2.1420163E-1,8.602501E-2,1.2187505E-2,-2.4444902E-1,1.0784245E-1,7.6879665E-2,2.0421185E-1,1.9281483E-1,2.5643244E-1,-3.7961002E-2,7.829061E-2,8.336532E-2,-6.5145515E-2,-2.2523435E-2,5.41875E-2,-1.9501884E-2,-9.6680485E-2,5.0401133E-2,2.2574235E-2,2.5421403E-2,-8.925365E-2,2.5559403E-2,7.837985E-2,6.8810105E-2,1.0036569E-2,1.0107938E-1,7.410877E-2],"categories":[],"categories_nodes":[],"categories_segments":[],"categories_sizes":[],"default_left":[0,0,0,0,0,0,0,0,0,0,0,0,0,0,0,0,0,0,0,0,0,0,0,0,0,0,0,0,0,0,0,0,0,0,0,0,0,0,0,0,0,0,0,0,0,0,0,0,0,0,0,0,0],"id":2,"left_children":[1,3,5,7,-1,9,11,13,15,17,19,-1,21,-1,23,25,27,29,31,-1,33,-1,-1,35,-1,-1,37,-1,39,41,43,45,47,49,51,-1,-1,-1,-1,-1,-1,-1,-1,-1,-1,-1,-1,-1,-1,-1,-1,-1,-1],"loss_changes":[1.1771166E4,1.0722656E0,9.968262E0,5.0146484E-1,0E0,3.3390646E0,3.022461E-1,1.7089844E-2,9.67927E-1,1.4692287E0,3.3685684E-1,0E0,2.4902344E-2,0E0,1.9998947E-1,7.255306E-1,1.4725578E-1,6.783162E-1,1.1732383E0,0E0,2.0679092E-1,0E0,0E0,1.4413641E-1,0E0,0E0,4.4068718E-1,0E0,8.7055E-2,2.4436843E-1,3.0458122E-3,1.2814877E0,5.752828E-1,6.738448E-1,2.3497581E-2,0E0,0E0,0E0,0E0,0E0,0E0,0E0,0E0,0E0,0E0,0E0,0E0,0E0,0E0,0E0,0E0,0E0,0E0],"parents":[2147483647,0,0,1,1,2,2,3,3,5,5,6,6,7,7,8,8,9,9,10,10,12,12,14,14,15,15,16,16,17,17,18,18,20,20,23,23,26,26,28,28,29,29,30,30,31,31,32,32,33,33,34,34],"right_children":[2,4,6,8,-1,10,12,14,16,18,20,-1,22,-1,24,26,28,30,32,-1,34,-1,-1,36,-1,-1,38,-1,40,42,44,46,48,50,52,-1,-1,-1,-1,-1,-1,-1,-1,-1,-1,-1,-1,-1,-1,-1,-1,-1,-1],"split_conditions":[-6.4101624E-1,8.3668697E-1,4.547934E-1,-9.149724E-1,6.9312006E-2,8.366873E-1,-6.6720897E-1,6.6958743E-1,2.1967447E0,1.530523E0,-6.6720897E-1,-5.4187503E-2,-3.1143272E0,-7.348741E-2,-2.2842796E0,-2.3957148E0,-1.564812E0,-1.6590631E-1,8.025242E0,-6.4058214E-2,-2.3655675E-1,4.2690974E-2,7.350039E-2,8.025242E0,-7.043085E-2,8.8508695E-2,-1.8463815E0,8.602501E-2,5.0248945E-1,-6.410042E-1,-6.410042E-1,4.5898524E-1,-2.6715934E0,6.0580873E0,-4.5793876E-1,-3.7961002E-2,7.829061E-2,8.336532E-2,-6.5145515E-2,-2.2523435E-2,5.41875E-2,-1.9501884E-2,-9.6680485E-2,5.0401133E-2,2.2574235E-2,2.5421403E-2,-8.925365E-2,2.5559403E-2,7.837985E-2,6.8810105E-2,1.0036569E-2,1.0107938E-1,7.410877E-2],"split_indices":[15,4,12,15,0,1,4,4,8,6,4,0,10,0,2,11,2,1,0,0,10,0,0,0,0,0,12,0,1,12,12,3,10,0,2,0,0,0,0,0,0,0,0,0,0,0,0,0,0,0,0,0,0],"split_type":[0,0,0,0,0,0,0,0,0,0,0,0,0,0,0,0,0,0,0,0,0,0,0,0,0,0,0,0,0,0,0,0,0,0,0,0,0,0,0,0,0,0,0,0,0,0,0,0,0,0,0,0,0],"sum_hessian":[1.96995E5,9.8464E4,9.8531E4,9.846E4,4E0,7.95E2,9.7736E4,9.819E4,2.7E2,5.38E2,2.57E2,1E0,9.7735E4,9.8182E4,8E0,2.63E2,7E0,2.5E1,5.13E2,1E0,2.56E2,7E0,9.7728E4,2E0,6E0,2E0,2.61E2,3E0,4E0,1.8E1,7E0,4.26E2,8.7E1,1.16E2,1.4E2,1E0,1E0,1E0,2.6E2,3E0,1E0,6E0,1.2E1,1E0,6E0,4.18E2,8E0,2.9E1,5.8E1,9.4E1,2.2E1,1.1E1,1.29E2],"tree_param":{"num_deleted":"0","num_feature":"16","num_nodes":"53","size_leaf_vector":"0"}},{"base_weights":[-1.9373898E-4,-1.7136326E-1,1.708594E-1,-1.7137913E-1,5.267713E-2,6.795617E-2,1.7136878E-1,-1.715266E-1,-1.473241E-1,-2.1141572E-2,9.7794704E-2,1.3082881E-1,1.7151143E-1,-5.1449694E-2,-1.970867E-1,-1.6400522E-1,-1.0452866E-1,-2.7112827E-1,4.866031E-2,7.667968E-2,1.7450413E-1,9.411269E-2,1.6230139E-1,3.4070767E-2,5.1455215E-2,-6.113128E-2,1.2606263E-2,-5.1510412E-2,-1.5192875E-1,1.0443314E-1,-1.4053188E-1,-3.1280568E-1,-1.07363455E-1,2.3682415E-1,1.6720382E-2,1.4932108E-1,5.266949E-2,-4.6059377E-2,1.8075824E-1,1.5966734E-1,5.2290354E-2,5.469552E-2,1.4547424E-1,-5.7048928E-2,9.313715E-2,-3.4445453E-2,-4.965842E-2,9.641403E-2,-5.2635994E-2,-4.4383246E-2,1.7864767E-2,-6.514406E-2,-1.06490724E-1,6.344989E-4,-5.7000313E-2,8.414503E-2,-4.9611956E-2,3.8948122E-2,-1.0021993E-2,5.122528E-2,-3.3388183E-2,-1.9683046E-3,2.8075444E-2,7.0329875E-2,5.0172724E-2,4.413844E-2,9.2351615E-2,5.5024922E-2,8.186037E-3,3.759659E-2,5.130672E-2],"categories":[],"categories_nodes":[],"categories_segments":[],"categories_sizes":[],"default_left":[0,0,0,0,0,0,0,0,0,0,0,0,0,0,0,0,0,0,0,0,0,0,0,0,0,0,0,0,0,0,0,0,0,0,0,0,0,0,0,0,0,0,0,0,0,0,0,0,0,0,0,0,0,0,0,0,0,0,0,0,0,0,0,0,0,0,0,0,0,0,0],"id":3,"left_children":[1,3,5,7,-1,9,11,13,15,17,19,21,23,-1,25,27,29,31,33,35,37,39,41,-1,-1,-1,43,-1,45,47,49,51,53,55,57,59,61,-1,63,65,67,-1,69,-1,-1,-1,-1,-1,-1,-1,-1,-1,-1,-1,-1,-1,-1,-1,-1,-1,-1,-1,-1,-1,-1,-1,-1,-1,-1,-1,-1],"loss_changes":[5.767891E3,5.722656E-1,5.153076E0,3.2421875E-1,0E0,1.2967799E0,5.4467773E-1,3.515625E-2,4.1617966E-1,2.1594872E0,5.778177E-1,3.8685703E-1,1.4160156E-2,0E0,1.4133072E-1,1.4344215E-2,1.3162072E0,1.5069926E-1,5.7900447E-1,4.944458E-1,1.8777442E-1,4.3853974E-1,3.6127567E-2,0E0,0E0,0E0,3.0061764E-1,0E0,7.082701E-2,1.6351204E0,2.2830224E-1,7.618904E-3,6.3731104E-2,2.9221952E-1,4.80592E-1,4.1553402E-1,5.2892286E-1,0E0,1.665306E-2,7.1759224E-2,3.2613567E-1,0E0,3.3141613E-2,0E0,0E0,0E0,0E0,0E0,0E0,0E0,0E0,0E0,0E0,0E0,0E0,0E0,0E0,0E0,0E0,0E0,0E0,0E0,0E0,0E0,0E0,0E0,0E0,0E0,0E0,0E0,0E0],"parents":[2147483647,0,0,1,1,2,2,3,3,5,5,6,6,7,7,8,8,9,9,10,10,11,11,12,12,14,14,15,15,16,16,17,17,18,18,19,19,20,20,21,21,22,22,26,26,28,28,29,29,30,30,31,31,32,32,33,33,34,34,35,35,36,36,38,38,39,39,40,40,42,42],"right_children":[2,4,6,8,-1,10,12,14,16,18,20,22,24,-1,26,28,30,32,34,36,38,40,42,-1,-1,-1,44,-1,46,48,50,52,54,56,58,60,62,-1,64,66,68,-1,70,-1,-1,-1,-1,-1,-1,-1,-1,-1,-1,-1,-1,-1,-1,-1,-1,-1,-1,-1,-1,-1,-1,-1,-1,-1,-1,-1,-1],"split_conditions":[-6.4101624E-1,8.3668697E-1,5.024879E-1,-8.343085E-1,5.267713E-2,3.146014E0,-5.132824E-1,-9.149724E-1,-9.149724E-1,-5.001042E-1,4.547934E-1,4.548086E-1,1.5431426E-1,-5.1449694E-2,8.025242E0,1.5431003E-1,-2.0074925E0,-6.4199823E-1,-6.410042E-1,-2.0074925E0,-6.6720897E-1,4.841527E0,9.479023E-1,3.4070767E-2,5.1455215E-2,-6.113128E-2,-3.2804654E0,-5.1510412E-2,-2.2842011E0,-9.178521E-1,2.196688E0,-6.410042E-1,-6.410042E-1,3.1346958E0,-6.4200693E-1,1.1217812E0,1.1892361E-3,-4.6059377E-2,4.548086E-1,4.841455E0,-1.2880937E0,5.469552E-2,2.196688E0,-5.7048928E-2,9.313715E-2,-3.4445453E-2,-4.965842E-2,9.641403E-2,-5.2635994E-2,-4.4383246E-2,1.7864767E-2,-6.514406E-2,-1.06490724E-1,6.344989E-4,-5.7000313E-2,8.414503E-2,-4.9611956E-2,3.8948122E-2,-1.0021993E-2,5.122528E-2,-3.3388183E-2,-1.9683046E-3,2.8075444E-2,7.0329875E-2,5.0172724E-2,4.413844E-2,9.2351615E-2,5.5024922E-2,8.186037E-3,3.759659E-2,5.130672E-2],"split_indices":[15,4,4,4,0,6,2,15,15,1,12,15,8,0,0,7,10,3,12,10,4,0,12,0,0,0,2,0,10,12,7,12,12,0,14,8,4,0,15,6,2,0,7,0,0,0,0,0,0,0,0,0,0,0,0,0,0,0,0,0,0,0,0,0,0,0,0,0,0,0,0],"split_type":[0,0,0,0,0,0,0,0,0,0,0,0,0,0,0,0,0,0,0,0,0,0,0,0,0,0,0,0,0,0,0,0,0,0,0,0,0,0,0,0,0,0,0,0,0,0,0,0,0,0,0,0,0,0,0,0,0,0,0,0,0,0,0,0,0,0,0,0,0,0,0],"sum_hessian":[1.96995E5,9.8464E4,9.8531E4,9.846E4,4E0,4.86E2,9.8045E4,9.7854E4,6.06E2,1.22E2,3.64E2,3.47E2,9.7698E4,9.7756E4,9.8E1,4.34E2,1.72E2,2.6E1,9.6E1,2.87E2,7.7E1,1.62E2,1.85E2,1.2E1,9.7686E4,9.5E1,3E0,2.57E2,1.77E2,2.5E1,1.47E2,2E1,6E0,1.3E1,8.3E1,7E1,2.17E2,1E0,7.6E1,6.2E1,1E2,8E1,1.05E2,2E0,1E0,5E1,1.27E2,1.4E1,1.1E1,1.42E2,5E0,8E0,1.2E1,3E0,3E0,1.2E1,1E0,2.5E1,5.8E1,6.5E1,5E0,8.9E1,1.28E2,1.2E1,6.4E1,5.9E1,3E0,1.5E1,8.5E1,6.2E1,4.3E1],"tree_param":{"num_deleted":"0","num_feature":"16","num_nodes":"71","size_leaf_vector":"0"}},{"base_weights":[-1.3438714E-4,-1.1995572E-1,1.19605474E-1,-1.1996737E-1,4.0034607E-2,4.747454E-2,1.1996253E-1,-1.2002451E-1,-8.792276E-2,-1.6136833E-2,6.878063E-2,9.256666E-2,1.2005889E-1,-1.2003106E-1,-1.1006685E-2,-5.169042E-2,-1.1018041E-1,-1.9823425E-1,3.4716435E-2,5.2818693E-2,1.1994997E-1,6.710404E-2,1.14383005E-1,4.596836E-2,1.2005155E-1,-1.20061696E-1,-1.0153501E-1,-3.0004827E-2,7.845746E-2,-1.1818057E-1,9.8750845E-2,-7.318459E-2,-1.3373543E-1,-1.1888439E-1,-2.45357E-1,1.9711195E-2,7.770322E-2,1.0162673E-1,3.7290856E-2,1.292845E-1,-1.0102288E-1,8.377378E-2,-2.3954723E-2,3.9107166E-2,1.0338712E-1,2.2381365E-2,3.601677E-2,-3.6012087E-2,-4.1780174E-2,-3.3424515E-2,1.11039905E-2,-3.918088E-2,7.171384E-2,7.235378E-2,-4.0133033E-2,-4.0786803E-2,-1.2135158E-2,-4.2722907E-2,1.7167568E-4,-6.708249E-2,6.932262E-3,-5.1988456E-2,-8.87272E-2,5.0473075E-2,-2.0581523E-3,-8.575066E-2,3.7276562E-2,7.989547E-2,8.477823E-3,4.020942E-2,-1.3542308E-2,2.1899484E-2,4.8412364E-2,3.7100036E-2,-2.8930398E-2,2.6645469E-2,3.746323E-2],"categories":[],"categories_nodes":[],"categories_segments":[],"categories_sizes":[],"default_left":[0,0,0,0,0,0,0,0,0,0,0,0,0,0,0,0,0,0,0,0,0,0,0,0,0,0,0,0,0,0,0,0,0,0,0,0,0,0,0,0,0,0,0,0,0,0,0,0,0,0,0,0,0,0,0,0,0,0,0,0,0,0,0,0,0,0,0,0,0,0,0,0,0,0,0,0,0],"id":4,"left_children":[1,3,5,7,-1,9,11,13,15,17,19,21,23,25,27,29,31,33,35,37,39,41,43,-1,45,47,49,-1,-1,51,53,55,57,59,61,63,-1,65,67,69,-1,71,73,-1,75,-1,-1,-1,-1,-1,-1,-1,-1,-1,-1,-1,-1,-1,-1,-1,-1,-1,-1,-1,-1,-1,-1,-1,-1,-1,-1,-1,-1,-1,-1,-1,-1],"loss_changes":[2.8263926E3,3.0664062E-1,2.5319824E0,1.697998E-1,0E0,6.611458E-1,2.475586E-1,6.8847656E-2,1.3865864E-1,1.1458925E0,2.917825E-1,1.8563867E-1,5.3710938E-3,4.35791E-2,1.9596177E-1,7.118708E-1,8.607066E-2,7.178891E-2,3.2135677E-1,2.084176E-1,4.101553E-1,2.4942869E-1,1.919341E-2,0E0,1.0498047E-2,2.355957E-2,2.3546147E-1,0E0,0E0,2.4866235E-1,7.6087207E-1,8.696489E-2,7.6972604E-2,1.8360639E-1,6.858051E-3,3.64256E-1,0E0,6.2295103E-1,4.3512192E-1,7.642865E-2,0E0,1.03613675E-1,2.9011527E-1,0E0,2.4913907E-2,0E0,0E0,0E0,0E0,0E0,0E0,0E0,0E0,0E0,0E0,0E0,0E0,0E0,0E0,0E0,0E0,0E0,0E0,0E0,0E0,0E0,0E0,0E0,0E0,0E0,0E0,0E0,0E0,0E0,0E0,0E0,0E0],"parents":[2147483647,0,0,1,1,2,2,3,3,5,5,6,6,7,7,8,8,9,9,10,10,11,11,12,12,13,13,14,14,15,15,16,16,17,17,18,18,19,19,20,20,21,21,22,22,24,24,25,25,26,26,29,29,30,30,31,31,32,32,33,33,34,34,35,35,37,37,38,38,39,39,41,41,42,42,44,44],"right_children":[2,4,6,8,-1,10,12,14,16,18,20,22,24,26,28,30,32,34,36,38,40,42,44,-1,46,48,50,-1,-1,52,54,56,58,60,62,64,-1,66,68,70,-1,72,74,-1,76,-1,-1,-1,-1,-1,-1,-1,-1,-1,-1,-1,-1,-1,-1,-1,-1,-1,-1,-1,-1,-1,-1,-1,-1,-1,-1,-1,-1,-1,-1,-1,-1],"split_conditions":[-6.4101624E-1,8.3668697E-1,5.024879E-1,-6.4200693E-1,4.0034607E-2,3.146014E0,-5.132824E-1,1.1892361E-3,-9.178521E-1,-5.001042E-1,4.548086E-1,4.548086E-1,-6.2669516E-1,8.025242E0,-1.0245334E0,-1.024555E0,1.6829155E-1,-6.410042E-1,8.366873E-1,-2.0074925E0,-7.9000074E-1,4.5899293E-1,4.5899293E-1,4.596836E-2,1.5431003E-1,-5.0010943E-1,-9.149724E-1,-3.0004827E-2,7.845746E-2,6.695884E-1,8.772762E-1,1.5305475E0,2.196688E0,-8.3430207E-1,-6.6720897E-1,-6.410042E-1,7.770322E-2,-1.0245334E0,-9.149536E-1,1.2023284E0,-1.0102288E-1,5.2201885E-1,-9.0068805E-1,3.9107166E-2,9.2365956E-1,2.2381365E-2,3.601677E-2,-3.6012087E-2,-4.1780174E-2,-3.3424515E-2,1.11039905E-2,-3.918088E-2,7.171384E-2,7.235378E-2,-4.0133033E-2,-4.0786803E-2,-1.2135158E-2,-4.2722907E-2,1.7167568E-4,-6.708249E-2,6.932262E-3,-5.1988456E-2,-8.87272E-2,5.0473075E-2,-2.0581523E-3,-8.575066E-2,3.7276562E-2,7.989547E-2,8.477823E-3,4.020942E-2,-1.3542308E-2,2.1899484E-2,4.8412364E-2,3.7100036E-2,-2.8930398E-2,2.6645469E-2,3.746323E-2],"split_indices":[15,4,4,14,0,6,2,4,12,1,15,15,11,0,12,15,1,12,1,10,2,14,14,0,7,4,15,0,0,1,8,0,7,1,4,12,0,12,12,10,0,11,2,0,11,0,0,0,0,0,0,0,0,0,0,0,0,0,0,0,0,0,0,0,0,0,0,0,0,0,0,0,0,0,0,0,0],"split_type":[0,0,0,0,0,0,0,0,0,0,0,0,0,0,0,0,0,0,0,0,0,0,0,0,0,0,0,0,0,0,0,0,0,0,0,0,0,0,0,0,0,0,0,0,0,0,0,0,0,0,0,0,0,0,0,0,0,0,0,0,0,0,0,0,0,0,0,0,0,0,0,0,0,0,0,0,0],"sum_hessian":[1.96995E5,9.8464E4,9.8531E4,9.846E4,4E0,4.86E2,9.8045E4,9.8282E4,1.78E2,1.22E2,3.64E2,3.47E2,9.7698E4,9.8276E4,6E0,6.9E1,1.09E2,2.6E1,9.6E1,2.79E2,8.5E1,1.62E2,1.85E2,1.7E1,9.7681E4,9.8108E4,1.68E2,5E0,1E0,4.8E1,2.1E1,4.4E1,6.5E1,1.1E1,1.5E1,9.1E1,5E0,6.6E1,2.13E2,8.4E1,1E0,1.37E2,2.5E1,7.1E1,1.14E2,1.1E1,9.767E4,9.8006E4,1.02E2,1.57E2,1.1E1,4.7E1,1E0,1.3E1,8E0,1.4E1,3E1,6.1E1,4E0,6E0,5E0,8E0,7E0,1.3E1,7.8E1,3E0,6.3E1,7E0,2.06E2,8.2E1,2E0,1.22E2,1.5E1,8E0,1.7E1,7.1E1,4.3E1],"tree_param":{"num_deleted":"0","num_feature":"16","num_nodes":"77","size_leaf_vector":"0"}},{"base_weights":[-9.338179E-5,-8.396943E-2,8.372563E-2,-8.397799E-2,3.0426307E-2,-4.5989486E-3,8.388913E-2,-8.4060974E-2,-7.046239E-2,4.269344E-2,-5.5027917E-2,5.9552062E-2,8.404367E-2,-2.5211979E-2,-1.0399308E-1,-7.970699E-2,-4.681001E-2,6.2360246E-2,2.9222524E-2,-1.3310516E-1,-1.50721595E-2,1.3110685E-1,5.389772E-2,1.0607412E-1,8.402611E-2,-1.0763946E-1,9.518448E-3,-7.52963E-2,-8.981089E-2,1.14650704E-1,-7.233165E-2,-7.354744E-3,8.8607945E-2,-1.5378176E-1,6.997742E-2,8.298363E-2,-8.748297E-2,-4.701866E-2,1.54548E-1,3.6578882E-2,8.5163094E-2,1.18729375E-1,1.4828643E-3,7.759271E-3,8.403002E-2,-4.203957E-2,-2.7868243E-2,-4.7859944E-2,7.7500984E-2,-2.4208317E-2,6.651155E-3,-2.3967667E-2,-3.134129E-2,1.01286255E-1,-2.9996147E-2,-3.2978516E-2,-1.3378162E-2,1.4371077E-2,-4.4548362E-2,-7.8193685E-3,3.5790965E-2,-1.01911016E-1,-3.5779126E-2,1.882893E-4,9.1929495E-2,-5.0110143E-2,1.3132287E-2,-8.190617E-2,4.0271234E-2,5.5640563E-2,3.193573E-2,1.7404161E-2,-2.026563E-3,-3.8228672E-2,2.6361596E-2,5.2198924E-2,2.4235846E-2,-9.140344E-2,2.3351327E-2,2.238466E-2,2.5212627E-2],"categories":[],"categories_nodes":[],"categories_segments":[],"categories_sizes":[],"default_left":[0,0,0,0,0,0,0,0,0,0,0,0,0,0,0,0,0,0,0,0,0,0,0,0,0,0,0,0,0,0,0,0,0,0,0,0,0,0,0,0,0,0,0,0,0,0,0,0,0,0,0,0,0,0,0,0,0,0,0,0,0,0,0,0,0,0,0,0,0,0,0,0,0,0,0,0,0,0,0,0,0],"id":5,"left_children":[1,3,5,7,-1,9,11,13,15,17,19,21,23,-1,25,27,29,-1,31,33,35,37,39,41,43,45,47,49,51,53,55,57,59,61,-1,63,65,67,69,71,73,75,77,-1,79,-1,-1,-1,-1,-1,-1,-1,-1,-1,-1,-1,-1,-1,-1,-1,-1,-1,-1,-1,-1,-1,-1,-1,-1,-1,-1,-1,-1,-1,-1,-1,-1,-1,-1,-1,-1],"loss_changes":[1.3849692E3,1.6479492E-1,1.4232178E0,1.0449219E-1,0E0,4.3878716E-1,3.6486816E-1,3.2287598E-2,1.2899351E-1,2.0530495E-1,2.7564144E-1,2.4540114E-1,2.8930664E-2,0E0,4.2001367E-2,1.26235485E-2,7.211814E-1,0E0,1.9397363E-1,2.6312512E-1,4.3327755E-1,1.9516271E-1,3.1094337E-1,9.777248E-2,2.0080566E-2,3.2977343E-2,2.0946568E-1,1.643647E-1,1.0120392E-2,1.1823456E0,1.5152538E-1,4.438658E-1,1.2278628E-1,1.4559746E-1,0E0,4.782671E-1,3.7276867E-1,2.824349E-1,3.9742053E-2,3.4871656E-1,1.2983048E-1,1.2434608E-1,2.3410743E-1,0E0,4.9438477E-3,0E0,0E0,0E0,0E0,0E0,0E0,0E0,0E0,0E0,0E0,0E0,0E0,0E0,0E0,0E0,0E0,0E0,0E0,0E0,0E0,0E0,0E0,0E0,0E0,0E0,0E0,0E0,0E0,0E0,0E0,0E0,0E0,0E0,0E0,0E0,0E0],"parents":[2147483647,0,0,1,1,2,2,3,3,5,5,6,6,7,7,8,8,9,9,10,10,11,11,12,12,14,14,15,15,16,16,18,18,19,19,20,20,21,21,22,22,23,23,24,24,25,25,26,26,27,27,28,28,29,29,30,30,31,31,32,32,33,33,35,35,36,36,37,37,38,38,39,39,40,40,41,41,42,42,44,44],"right_children":[2,4,6,8,-1,10,12,14,16,18,20,22,24,-1,26,28,30,-1,32,34,36,38,40,42,44,46,48,50,52,54,56,58,60,62,-1,64,66,68,70,72,74,76,78,-1,80,-1,-1,-1,-1,-1,-1,-1,-1,-1,-1,-1,-1,-1,-1,-1,-1,-1,-1,-1,-1,-1,-1,-1,-1,-1,-1,-1,-1,-1,-1,-1,-1,-1,-1,-1,-1],"split_conditions":[-6.4101624E-1,8.3668697E-1,-1.6591032E-1,-8.343085E-1,3.0426307E-2,-9.201692E-1,4.547934E-1,-9.149724E-1,-9.149724E-1,-2.4035716E0,-1.3433915E0,-6.410042E-1,4.548086E-1,-2.5211979E-2,8.025242E0,-1.0245334E0,-2.0075612E0,6.2360246E-2,1.5431426E-1,1.5431426E-1,-1.0113753E0,-1.1596985E0,1.0037862E0,8.025242E0,-3.1143272E0,-9.178521E-1,-3.2804654E0,-1.024555E0,-6.2669516E-1,-9.178521E-1,-6.4200693E-1,6.110262E0,-2.6715934E0,-1.1374408E0,6.997742E-2,-1.0666828E0,1.5431003E-1,-6.2396973E-1,-1.0113753E0,-7.3463243E-1,1.6828878E-1,-6.2396973E-1,8.366873E-1,7.759271E-3,-9.0068805E-1,-4.203957E-2,-2.7868243E-2,-4.7859944E-2,7.7500984E-2,-2.4208317E-2,6.651155E-3,-2.3967667E-2,-3.134129E-2,1.01286255E-1,-2.9996147E-2,-3.2978516E-2,-1.3378162E-2,1.4371077E-2,-4.4548362E-2,-7.8193685E-3,3.5790965E-2,-1.01911016E-1,-3.5779126E-2,1.882893E-4,9.1929495E-2,-5.0110143E-2,1.3132287E-2,-8.190617E-2,4.0271234E-2,5.5640563E-2,3.193573E-2,1.7404161E-2,-2.026563E-3,-3.8228672E-2,2.6361596E-2,5.2198924E-2,2.4235846E-2,-9.140344E-2,2.3351327E-2,2.238466E-2,2.5212627E-2],"split_indices":[15,4,4,4,0,14,12,15,15,3,10,12,15,0,0,12,2,0,8,8,2,11,1,0,10,12,2,15,11,12,14,6,10,3,0,10,7,2,2,10,4,2,1,0,2,0,0,0,0,0,0,0,0,0,0,0,0,0,0,0,0,0,0,0,0,0,0,0,0,0,0,0,0,0,0,0,0,0,0,0,0],"split_type":[0,0,0,0,0,0,0,0,0,0,0,0,0,0,0,0,0,0,0,0,0,0,0,0,0,0,0,0,0,0,0,0,0,0,0,0,0,0,0,0,0,0,0,0,0,0,0,0,0,0,0,0,0,0,0,0,0,0,0,0,0,0,0,0,0,0,0,0,0,0,0,0,0,0,0,0,0,0,0,0,0],"sum_hessian":[1.96995E5,9.8464E4,9.8531E4,9.846E4,4E0,1.82E2,9.8349E4,9.7854E4,6.06E2,9.4E1,8.8E1,6.23E2,9.7726E4,9.7756E4,9.8E1,4.34E2,1.72E2,6E0,8.8E1,2.9E1,5.9E1,4.4E1,5.79E2,7.3E1,9.7653E4,9.5E1,3E0,3.08E2,1.26E2,2.3E1,1.49E2,5.5E1,3.3E1,2.8E1,1E0,2.5E1,3.4E1,5E0,3.9E1,3.74E2,2.05E2,6.5E1,8E0,7E0,9.7646E4,2.7E1,6.8E1,2E0,1E0,2.92E2,1.6E1,7.9E1,4.7E1,1.1E1,1.2E1,6.2E1,8.7E1,4E1,1.5E1,7E0,2.6E1,3E0,2.5E1,1.9E1,6E0,2.1E1,1.3E1,2E0,3E0,2.2E1,1.7E1,2.5E2,1.24E2,2E0,2.03E2,2.5E1,4E1,1E0,7E0,1.33E2,9.7513E4],"tree_param":{"num_deleted":"0","num_feature":"16","num_nodes":"81","size_leaf_vector":"0"}},{"base_weights":[-6.4981126E-5,-5.8779445E-2,5.8609556E-2,-5.8794443E-2,7.97418E-3,4.503009E-3,5.8739968E-2,-5.884445E-2,-5.0582435E-2,9.4399296E-2,-5.432763E-2,3.4790184E-2,-2.5070459E-2,-1.1352314E-2,5.876077E-2,-1.7648386E-2,-7.573518E-2,-5.6735434E-2,-3.4576647E-2,-1.7901417E-2,1.4508551E-1,-2.4530564E-2,4.5360636E-2,-7.010045E-4,1.0146146E-1,-1.3340428E-1,1.7160962E-3,-1.6795243E-1,1.9199722E-2,1.4791647E-1,5.873567E-2,2.834249E-2,-8.078806E-2,-2.7008548E-2,-5.8031343E-2,9.0366706E-2,-5.375989E-2,1.4452494E-2,-1.6795563E-2,8.10458E-2,4.1028135E-2,1.3069905E-1,-4.229934E-2,3.1238464E-3,1.2520622E-1,3.2335255E-2,-1.4857702E-1,-1.0130469E-1,2.0092236E-2,1.7362727E-2,-1.01338945E-1,-2.898086E-2,5.877064E-2,2.0739628E-1,8.650618E-2,4.1189004E-2,5.8834758E-2,-3.8287953E-2,5.24592E-2,-3.3022985E-2,-1.958564E-2,-1.6844349E-2,5.811081E-4,-1.977577E-2,-1.5548689E-2,7.3432535E-2,-2.147168E-2,-1.2663799E-2,-3.7665464E-2,2.167874E-2,-1.25863785E-2,1.9357184E-2,7.8997344E-2,-1.05629735E-1,-2.3201772E-3,-4.3902777E-2,2.0020388E-2,2.6960911E-2,5.00231E-2,-5.0764915E-2,-2.4707818E-3,-6.283599E-3,-4.5765102E-2,2.159757E-2,-1.4334029E-2,2.4348414E-2,6.7158802E-3,6.979989E-2,1.3682247E-2,2.924259E-2,1.3521868E-2,2.3165222E-2,9.812906E-3,-5.187058E-2,1.7652383E-2],"categories":[],"categories_nodes":[],"categories_segments":[],"categories_sizes":[],"default_left":[0,0,0,0,0,0,0,0,0,0,0,0,0,0,0,0,0,0,0,0,0,0,0,0,0,0,0,0,0,0,0,0,0,0,0,0,0,0,0,0,0,0,0,0,0,0,0,0,0,0,0,0,0,0,0,0,0,0,0,0,0,0,0,0,0,0,0,0,0,0,0,0,0,0,0,0,0,0,0,0,0,0,0,0,0,0,0,0,0,0,0,0,0,0,0],"id":6,"left_children":[1,3,5,7,9,11,13,15,17,19,21,23,25,27,29,-1,31,33,35,37,39,-1,-1,41,43,45,47,49,51,53,55,57,59,61,63,65,67,-1,-1,-1,69,71,73,75,77,-1,79,81,83,-1,-1,-1,85,87,89,91,93,-1,-1,-1,-1,-1,-1,-1,-1,-1,-1,-1,-1,-1,-1,-1,-1,-1,-1,-1,-1,-1,-1,-1,-1,-1,-1,-1,-1,-1,-1,-1,-1,-1,-1,-1,-1,-1,-1],"loss_changes":[6.7866327E2,9.9090576E-2,6.949768E-1,3.744507E-2,1.2897064E-1,2.1404803E-1,1.4398193E-1,2.2857666E-2,5.742395E-2,5.9518248E-2,9.132251E-2,2.7928776E-1,3.5135764E-1,1.4675821E-1,2.1121216E-1,0E0,5.0671697E-2,1.5151858E-2,4.1231728E-1,1.2762845E-2,8.001523E-2,0E0,0E0,4.318784E-1,9.534395E-2,1.0384193E-1,1.8756163E-1,2.1132807E-1,1.2482021E-1,8.0681086E-2,1.68396E-1,1.3658135E-1,3.276992E-2,1.6977824E-2,1.688695E-2,5.926281E-1,1.1739138E-1,0E0,0E0,0E0,1.5991293E-2,1.4976284E-1,6.3977844E-1,9.533522E-2,3.3451855E-2,0E0,6.522703E-2,5.8575794E-2,2.9933405E-1,0E0,0E0,0E0,1.447656E-2,4.2537928E-2,2.4238154E-3,1.6702473E-1,1.5765381E-1,0E0,0E0,0E0,0E0,0E0,0E0,0E0,0E0,0E0,0E0,0E0,0E0,0E0,0E0,0E0,0E0,0E0,0E0,0E0,0E0,0E0,0E0,0E0,0E0,0E0,0E0,0E0,0E0,0E0,0E0,0E0,0E0,0E0,0E0,0E0,0E0,0E0,0E0],"parents":[2147483647,0,0,1,1,2,2,3,3,4,4,5,5,6,6,7,7,8,8,9,9,10,10,11,11,12,12,13,13,14,14,16,16,17,17,18,18,19,19,20,20,23,23,24,24,25,25,26,26,27,27,28,28,29,29,30,30,31,31,32,32,33,33,34,34,35,35,36,36,40,40,41,41,42,42,43,43,44,44,46,46,47,47,48,48,52,52,53,53,54,54,55,55,56,56],"right_children":[2,4,6,8,10,12,14,16,18,20,22,24,26,28,30,-1,32,34,36,38,40,-1,-1,42,44,46,48,50,52,54,56,58,60,62,64,66,68,-1,-1,-1,70,72,74,76,78,-1,80,82,84,-1,-1,-1,86,88,90,92,94,-1,-1,-1,-1,-1,-1,-1,-1,-1,-1,-1,-1,-1,-1,-1,-1,-1,-1,-1,-1,-1,-1,-1,-1,-1,-1,-1,-1,-1,-1,-1,-1,-1,-1,-1,-1,-1,-1],"split_conditions":[-6.4101624E-1,6.6958743E-1,1.1892361E-3,-8.3430207E-1,-9.149536E-1,-1.4541247E0,-2.505568E0,-9.149724E-1,-9.149724E-1,-2.3948846E0,2.196688E0,1.5431426E-1,-1.3433915E0,6.0580873E0,-6.4199823E-1,-1.7648386E-2,-3.169669E0,-2.3957148E0,-2.0074925E0,3.1346958E0,9.067886E-1,-2.4530564E-2,4.5360636E-2,-6.672031E-1,-2.6715934E0,-9.178521E-1,-6.6720897E-1,3.9889297E0,-3.335809E0,-5.132824E-1,-5.1326543E-1,-3.2804654E0,-9.178521E-1,-3.5571837E0,-1.1597273E0,-9.178521E-1,6.110262E0,1.4452494E-2,-1.6795563E-2,8.10458E-2,3.1346958E0,-1.8414673E0,-6.6720897E-1,-1.0245334E0,-1.730843E0,3.2335255E-2,-1.066719E0,1.5305475E0,-6.221153E-1,1.7362727E-2,-1.01338945E-1,-2.898086E-2,8.772534E-1,1.5431003E-1,4.547934E-1,-1.2880498E0,1.6828878E-1,-3.8287953E-2,5.24592E-2,-3.3022985E-2,-1.958564E-2,-1.6844349E-2,5.811081E-4,-1.977577E-2,-1.5548689E-2,7.3432535E-2,-2.147168E-2,-1.2663799E-2,-3.7665464E-2,2.167874E-2,-1.25863785E-2,1.9357184E-2,7.8997344E-2,-1.05629735E-1,-2.3201772E-3,-4.3902777E-2,2.0020388E-2,2.6960911E-2,5.00231E-2,-5.0764915E-2,-2.4707818E-3,-6.283599E-3,-4.5765102E-2,2.159757E-2,-1.4334029E-2,2.4348414E-2,6.7158802E-3,6.979989E-2,1.3682247E-2,2.924259E-2,1.3521868E-2,2.3165222E-2,9.812906E-3,-5.187058E-2,1.7652383E-2],"split_indices":[15,4,4,1,12,2,10,15,15,10,7,8,10,0,3,0,10,11,10,0,8,0,0,1,10,12,4,0,2,2,10,2,12,2,9,12,6,0,0,0,0,10,4,12,2,0,2,0,9,0,0,0,7,7,12,10,4,0,0,0,0,0,0,0,0,0,0,0,0,0,0,0,0,0,0,0,0,0,0,0,0,0,0,0,0,0,0,0,0,0,0,0,0,0,0],"split_type":[0,0,0,0,0,0,0,0,0,0,0,0,0,0,0,0,0,0,0,0,0,0,0,0,0,0,0,0,0,0,0,0,0,0,0,0,0,0,0,0,0,0,0,0,0,0,0,0,0,0,0,0,0,0,0,0,0,0,0,0,0,0,0,0,0,0,0,0,0,0,0,0,0,0,0,0,0,0,0,0,0,0,0,0,0,0,0,0,0,0,0,0,0,0,0],"sum_hessian":[1.96995E5,9.8464E4,9.8531E4,9.8442E4,2.2E1,2.37E2,9.8294E4,9.784E4,6.02E2,9E0,1.3E1,1.17E2,1.2E2,2.9E1,9.8265E4,9.7749E4,9.1E1,4.33E2,1.69E2,3E0,6E0,1.2E1,1E0,7.7E1,4E1,2.3E1,9.7E1,4E0,2.5E1,2.6E1,9.8239E4,4E0,8.7E1,1.9E1,4.14E2,2.2E1,1.47E2,1E0,2E0,2E0,4E0,1.8E1,5.9E1,8E0,3.2E1,1E0,2.2E1,1.4E1,8.3E1,2E0,2E0,6E0,1.9E1,1.2E1,1.4E1,5.54E2,9.7685E4,2E0,2E0,2.8E1,5.9E1,9E0,1E1,1.78E2,2.36E2,1.1E1,1.1E1,1.28E2,1.9E1,3E0,1E0,1.3E1,5E0,5E0,5.4E1,2E0,6E0,1.9E1,1.3E1,1.9E1,3E0,6E0,8E0,4.7E1,3.6E1,1.1E1,8E0,1E1,2E0,1E1,4E0,1.04E2,4.5E2,2E0,9.7683E4],"tree_param":{"num_deleted":"0","num_feature":"16","num_nodes":"95","size_leaf_vector":"0"}},{"base_weights":[-4.5371948E-5,-4.114558E-2,4.102689E-2,-4.1157186E-2,1.0304756E-2,1.3927718E-2,4.1163575E-2,-4.1184857E-2,-3.1810384E-2,9.579578E-2,-2.5503593E-2,2.7138977E-3,4.9431045E-2,-4.34156E-2,4.1168846E-2,-4.117558E-2,-9.2324615E-2,-4.6614513E-2,-1.7188963E-2,4.440829E-3,6.4836636E-2,-5.101839E-2,3.3171482E-2,1.5642105E-1,-2.7530608E-3,-1.4414415E-1,5.7417523E-2,1.9683462E-1,4.1152544E-2,-4.116821E-2,-6.317797E-2,-4.2676717E-2,-2.2855029E-2,-5.406839E-2,-1.8370437E-2,2.3145005E-1,-3.2826725E-2,1.5656864E-2,-1.3436451E-2,1.1200681E-2,-1.7998867E-2,5.6163974E-2,2.091327E-2,-3.532765E-2,1.4914483E-2,-1.158895E-1,4.3817412E-2,1.3556534E-1,4.5242924E-2,6.73139E-2,1.7330898E-2,-5.7565708E-2,4.1159175E-2,-1.2354772E-2,-2.8964719E-3,-1.2971948E-2,-9.919838E-2,-1.2578757E-2,-2.0243356E-2,4.4750128E-2,-1.4289531E-2,1.13434054E-1,-1.3922301E-2,-2.3857886E-3,-1.7276645E-2,-6.087739E-2,-6.7709396E-3,6.983628E-3,-2.3226025E-2,1.6049339E-2,4.322277E-2,-2.2392102E-2,1.6907414E-2,-8.9936905E-2,2.9784543E-2,4.0418137E-2,1.2343903E-2],"categories":[],"categories_nodes":[],"categories_segments":[],"categories_sizes":[],"default_left":[0,0,0,0,0,0,0,0,0,0,0,0,0,0,0,0,0,0,0,0,0,0,0,0,0,0,0,0,0,0,0,0,0,0,0,0,0,0,0,0,0,0,0,0,0,0,0,0,0,0,0,0,0,0,0,0,0,0,0,0,0,0,0,0,0,0,0,0,0,0,0,0,0,0,0,0,0],"id":7,"left_children":[1,3,5,7,9,11,13,15,17,19,21,23,25,-1,27,29,31,33,35,37,-1,39,-1,41,43,45,47,49,51,53,55,-1,-1,57,59,61,63,-1,-1,-1,-1,-1,-1,65,67,-1,-1,69,71,-1,-1,73,75,-1,-1,-1,-1,-1,-1,-1,-1,-1,-1,-1,-1,-1,-1,-1,-1,-1,-1,-1,-1,-1,-1,-1,-1],"loss_changes":[3.3254642E2,5.92041E-2,3.6439514E-1,2.4139404E-2,7.285287E-2,1.973373E-1,1.0197449E-1,4.2785645E-2,6.305367E-2,7.598708E-2,6.466402E-2,3.1806806E-1,1.9224852E-1,0E0,2.4064636E-1,1.3320923E-2,2.863586E-3,2.974382E-2,5.908214E-1,1.4090583E-2,0E0,1.4138404E-2,0E0,2.1659136E-2,2.1116465E-1,4.077903E-1,1.0327977E-1,2.534318E-2,6.651306E-2,4.4006348E-2,1.5102904E-1,0E0,0E0,1.589045E-2,1.6398096E-1,3.8431156E-1,8.700469E-2,0E0,0E0,0E0,0E0,0E0,0E0,2.7124494E-1,1.856125E-1,0E0,0E0,2.7688742E-3,1.3879082E-1,0E0,0E0,2.9570928E-1,1.1213684E-1,0E0,0E0,0E0,0E0,0E0,0E0,0E0,0E0,0E0,0E0,0E0,0E0,0E0,0E0,0E0,0E0,0E0,0E0,0E0,0E0,0E0,0E0,0E0,0E0],"parents":[2147483647,0,0,1,1,2,2,3,3,4,4,5,5,6,6,7,7,8,8,9,9,10,10,11,11,12,12,14,14,15,15,16,16,17,17,18,18,19,19,21,21,23,23,24,24,25,25,26,26,27,27,28,28,29,29,30,30,33,33,34,34,35,35,36,36,43,43,44,44,47,47,48,48,51,51,52,52],"right_children":[2,4,6,8,10,12,14,16,18,20,22,24,26,-1,28,30,32,34,36,38,-1,40,-1,42,44,46,48,50,52,54,56,-1,-1,58,60,62,64,-1,-1,-1,-1,-1,-1,66,68,-1,-1,70,72,-1,-1,74,76,-1,-1,-1,-1,-1,-1,-1,-1,-1,-1,-1,-1,-1,-1,-1,-1,-1,-1,-1,-1,-1,-1,-1,-1],"split_conditions":[-6.4101624E-1,6.6958743E-1,5.0248945E-1,-3.3300525E-1,-1.0245334E0,8.025242E0,-6.6720897E-1,-6.4199823E-1,-1.024555E0,-5.001042E-1,2.1967447E0,-9.149536E-1,-1.0245334E0,-4.34156E-2,-6.221153E-1,8.772534E-1,-9.178521E-1,-1.2880937E0,-2.2288594E0,3.1346958E0,6.4836636E-2,-8.894961E-3,3.3171482E-2,6.110262E0,-1.6591032E-1,8.772534E-1,-6.410042E-1,1.1195753E0,1.6828878E-1,1.5431003E-1,-9.149724E-1,-4.2676717E-2,-2.2855029E-2,1.5431426E-1,-9.201563E-1,-1.0245334E0,3.9889297E0,1.5656864E-2,-1.3436451E-2,1.1200681E-2,-1.7998867E-2,5.6163974E-2,2.091327E-2,-2.228936E0,3.353905E-1,-1.158895E-1,4.3817412E-2,-9.178521E-1,-3.2803524E0,6.73139E-2,1.7330898E-2,-2.3655675E-1,-6.410042E-1,-1.2354772E-2,-2.8964719E-3,-1.2971948E-2,-9.919838E-2,-1.2578757E-2,-2.0243356E-2,4.4750128E-2,-1.4289531E-2,1.13434054E-1,-1.3922301E-2,-2.3857886E-3,-1.7276645E-2,-6.087739E-2,-6.7709396E-3,6.983628E-3,-2.3226025E-2,1.6049339E-2,4.322277E-2,-2.2392102E-2,1.6907414E-2,-8.9936905E-2,2.9784543E-2,4.0418137E-2,1.2343903E-2],"split_indices":[15,4,1,1,12,0,4,3,15,1,8,12,12,0,9,7,12,2,10,0,0,0,0,6,4,7,12,3,4,7,15,0,0,8,3,12,0,0,0,0,0,0,0,2,1,0,0,12,10,0,0,10,12,0,0,0,0,0,0,0,0,0,0,0,0,0,0,0,0,0,0,0,0,0,0,0,0],"split_type":[0,0,0,0,0,0,0,0,0,0,0,0,0,0,0,0,0,0,0,0,0,0,0,0,0,0,0,0,0,0,0,0,0,0,0,0,0,0,0,0,0,0,0,0,0,0,0,0,0,0,0,0,0,0,0,0,0,0,0,0,0,0,0,0,0,0,0,0,0,0,0,0,0,0,0,0,0],"sum_hessian":[1.96995E5,9.8464E4,9.8531E4,9.8442E4,2.2E1,4.95E2,9.8036E4,9.8148E4,2.94E2,6E0,1.6E1,3.77E2,1.18E2,2E0,9.8034E4,9.8132E4,1.6E1,1.45E2,1.49E2,4E0,2E0,1.4E1,2E0,1.2E1,3.65E2,4E0,1.14E2,9E0,9.8025E4,9.8102E4,3E1,2E0,1.4E1,1.14E2,3.1E1,8E0,1.41E2,2E0,2E0,1E0,1.3E1,8E0,4E0,1.28E2,2.37E2,2E0,2E0,1.4E1,1E2,7E0,2E0,6E0,9.8019E4,9.8057E4,4.5E1,2.9E1,1E0,6.2E1,5.2E1,4E0,2.7E1,5E0,3E0,7.1E1,7E1,8E0,1.2E2,2.18E2,1.9E1,2E0,1.2E1,8E0,9.2E1,2E0,4E0,1.2E1,9.8007E4],"tree_param":{"num_deleted":"0","num_feature":"16","num_nodes":"77","size_leaf_vector":"0"}},{"base_weights":[-3.1817497E-5,-2.880213E-2,2.8718932E-2,-2.8811201E-2,1.1275519E-2,1.2450511E-2,2.8851133E-2,-2.8796311E-2,-4.610919E-2,7.663662E-2,-1.6301142E-2,2.6899872E-2,3.9736167E-4,5.4553185E-2,2.8830573E-2,-2.8813E-2,1.8910019E-2,-3.362687E-4,-5.789409E-2,3.5526543E-3,5.186931E-2,-3.6166087E-2,8.845729E-2,1.1942956E-2,5.287069E-2,-1.4679478E-2,4.1985217E-2,3.5438955E-2,3.315471E-2,-2.5711862E-2,2.8832624E-2,-2.8816992E-2,2.3863245E-2,-1.6454156E-2,1.00232184E-1,1.1395506E-1,-5.3060245E-2,-5.323661E-2,-5.4094534E-2,1.2525488E-2,-1.0749159E-2,9.520582E-3,-1.2984897E-2,6.2249606E-3,3.358082E-2,-6.1551984E-2,2.4502981E-2,1.5631028E-1,3.409492E-2,-2.5092458E-2,6.816438E-2,-6.42267E-2,4.93954E-2,4.405821E-2,-3.231563E-2,3.706557E-2,2.8821101E-2,-8.641282E-3,-1.2714538E-2,-9.381674E-3,6.1471753E-2,1.1120574E-1,1.8048294E-2,-7.7516055E-3,7.8708515E-2,-6.732471E-3,-1.697614E-2,-1.9796662E-2,-1.2540832E-2,-4.2979807E-2,8.433407E-4,3.5393946E-2,5.1889834E-3,1.8580064E-2,9.6820116E-2,-3.3624265E-2,1.8344318E-2,-4.8680264E-3,-7.333618E-2,3.0372662E-2,1.191489E-2,-9.27116E-2,2.0665117E-2,2.40394E-2,5.3284136E-3,-1.7705356E-3,2.144639E-2,-8.1016436E-2,9.347584E-3,6.575895E-3,1.2215012E-2,1.8630243E-3,8.649304E-3],"categories":[],"categories_nodes":[],"categories_segments":[],"categories_sizes":[],"default_left":[0,0,0,0,0,0,0,0,0,0,0,0,0,0,0,0,0,0,0,0,0,0,0,0,0,0,0,0,0,0,0,0,0,0,0,0,0,0,0,0,0,0,0,0,0,0,0,0,0,0,0,0,0,0,0,0,0,0,0,0,0,0,0,0,0,0,0,0,0,0,0,0,0,0,0,0,0,0,0,0,0,0,0,0,0,0,0,0,0,0,0,0,0],"id":8,"left_children":[1,3,5,7,9,11,13,15,17,19,21,23,25,27,29,31,33,35,37,39,-1,41,43,45,47,49,51,-1,53,-1,55,57,59,-1,61,63,65,67,-1,-1,-1,-1,-1,-1,-1,69,71,73,75,77,79,81,83,85,87,89,91,-1,-1,-1,-1,-1,-1,-1,-1,-1,-1,-1,-1,-1,-1,-1,-1,-1,-1,-1,-1,-1,-1,-1,-1,-1,-1,-1,-1,-1,-1,-1,-1,-1,-1,-1,-1],"loss_changes":[1.6294963E2,3.6117554E-2,2.1154785E-1,2.4024963E-2,4.270541E-2,1.3862094E-1,5.0079346E-2,7.884979E-2,4.4753164E-2,4.8631746E-2,3.85765E-2,1.3998505E-1,2.7336714E-1,1.0083759E-1,2.5405884E-2,2.1369934E-2,2.154308E-1,1.1451257E-1,2.803208E-2,9.017969E-3,0E0,8.622307E-3,2.4464037E-3,2.1474393E-1,2.5103548E-1,2.7775887E-1,9.447028E-2,0E0,4.354126E-2,0E0,8.201599E-3,1.574707E-2,8.6262845E-2,0E0,1.6193506E-1,1.31257E-1,1.3395399E-4,6.7189634E-3,0E0,0E0,0E0,0E0,0E0,0E0,0E0,1.7922132E-1,1.3133785E-1,2.9414198E-1,4.5370817E-1,5.5029947E-1,2.9855058E-2,2.8198388E-1,1.04557574E-1,7.031179E-2,1.4422736E-1,6.4623803E-3,2.166748E-2,0E0,0E0,0E0,0E0,0E0,0E0,0E0,0E0,0E0,0E0,0E0,0E0,0E0,0E0,0E0,0E0,0E0,0E0,0E0,0E0,0E0,0E0,0E0,0E0,0E0,0E0,0E0,0E0,0E0,0E0,0E0,0E0,0E0,0E0,0E0,0E0],"parents":[2147483647,0,0,1,1,2,2,3,3,4,4,5,5,6,6,7,7,8,8,9,9,10,10,11,11,12,12,13,13,14,14,15,15,16,16,17,17,18,18,19,19,21,21,22,22,23,23,24,24,25,25,26,26,28,28,30,30,31,31,32,32,34,34,35,35,36,36,37,37,45,45,46,46,47,47,48,48,49,49,50,50,51,51,52,52,53,53,54,54,55,55,56,56],"right_children":[2,4,6,8,10,12,14,16,18,20,22,24,26,28,30,32,34,36,38,40,-1,42,44,46,48,50,52,-1,54,-1,56,58,60,-1,62,64,66,68,-1,-1,-1,-1,-1,-1,-1,70,72,74,76,78,80,82,84,86,88,90,92,-1,-1,-1,-1,-1,-1,-1,-1,-1,-1,-1,-1,-1,-1,-1,-1,-1,-1,-1,-1,-1,-1,-1,-1,-1,-1,-1,-1,-1,-1,-1,-1,-1,-1,-1,-1],"split_conditions":[-6.4101624E-1,6.6958743E-1,4.547934E-1,-6.410042E-1,-1.0245334E0,3.9889297E0,4.548086E-1,-9.0068805E-1,2.2217197E0,-5.001042E-1,2.1967447E0,3.146014E0,8.025242E0,6.6958743E-1,-6.6720897E-1,5.024879E-1,2.221754E0,-1.0666828E0,5.312234E-1,3.1346958E0,5.186931E-2,-8.894961E-3,-8.894961E-3,-1.066719E0,-3.3300525E-1,4.548086E-1,-1.0245334E0,3.5438955E-2,8.025242E0,-2.5711862E-2,4.5898524E-1,8.772534E-1,-9.149724E-1,-1.6454156E-2,-3.3300987E-1,-8.3430207E-1,-1.0113753E0,3.98887E0,-5.4094534E-2,1.2525488E-2,-1.0749159E-2,9.520582E-3,-1.2984897E-2,6.2249606E-3,3.358082E-2,2.221754E0,-1.0113411E0,-9.172441E-1,-1.2327081E0,2.1967447E0,5.312234E-1,8.772534E-1,2.196688E0,3.9889297E0,8.366873E-1,-1.2880498E0,6.695884E-1,-8.641282E-3,-1.2714538E-2,-9.381674E-3,6.1471753E-2,1.1120574E-1,1.8048294E-2,-7.7516055E-3,7.8708515E-2,-6.732471E-3,-1.697614E-2,-1.9796662E-2,-1.2540832E-2,-4.2979807E-2,8.433407E-4,3.5393946E-2,5.1889834E-3,1.8580064E-2,9.6820116E-2,-3.3624265E-2,1.8344318E-2,-4.8680264E-3,-7.333618E-2,3.0372662E-2,1.191489E-2,-9.27116E-2,2.0665117E-2,2.40394E-2,5.3284136E-3,-1.7705356E-3,2.144639E-2,-8.1016436E-2,9.347584E-3,6.575895E-3,1.2215012E-2,1.8630243E-3,8.649304E-3],"split_indices":[15,4,12,12,12,0,15,2,6,1,8,6,0,4,4,4,0,10,9,0,0,0,0,2,1,15,12,0,0,0,3,7,15,0,4,1,2,6,0,0,0,0,0,0,0,0,10,3,10,8,9,7,7,0,1,10,1,0,0,0,0,0,0,0,0,0,0,0,0,0,0,0,0,0,0,0,0,0,0,0,0,0,0,0,0,0,0,0,0,0,0,0,0],"split_type":[0,0,0,0,0,0,0,0,0,0,0,0,0,0,0,0,0,0,0,0,0,0,0,0,0,0,0,0,0,0,0,0,0,0,0,0,0,0,0,0,0,0,0,0,0,0,0,0,0,0,0,0,0,0,0,0,0,0,0,0,0,0,0,0,0,0,0,0,0,0,0,0,0,0,0,0,0,0,0,0,0,0,0,0,0,0,0,0,0,0,0,0,0],"sum_hessian":[1.96995E5,9.8464E4,9.8531E4,9.8442E4,2.2E1,7.95E2,9.7736E4,9.836E4,8.2E1,6E0,1.6E1,3.61E2,4.34E2,7.6E1,9.766E4,9.8326E4,3.4E1,1.7E1,6.5E1,4E0,2E0,1.4E1,2E0,2.3E2,1.31E2,3.19E2,1.15E2,1.8E1,5.8E1,1E0,9.7659E4,9.8319E4,7E0,1.8E1,1.6E1,5E0,1.2E1,6.4E1,1E0,2E0,2E0,1E0,1.3E1,1E0,1E0,3.3E1,1.97E2,1.9E1,1.12E2,2.84E2,3.5E1,7E0,1.08E2,5E1,8E0,1.32E2,9.7527E4,9.823E4,8.9E1,6E0,1E0,1E0,1.5E1,3E0,2E0,2E0,1E1,2.8E1,3.6E1,1.4E1,1.9E1,1.3E1,1.84E2,1.3E1,6E0,1.7E1,9.5E1,2.74E2,1E1,1.5E1,2E1,2E0,5E0,5.4E1,5.4E1,1.8E1,3.2E1,1E0,7E0,2.7E1,1.05E2,4.3E1,9.7484E4],"tree_param":{"num_deleted":"0","num_feature":"16","num_nodes":"93","size_leaf_vector":"0"}},{"base_weights":[-2.1243173E-5,-2.0159516E-2,2.0103337E-2,-2.016678E-2,1.1805341E-2,7.0293434E-3,2.020341E-2,-2.0195907E-2,-1.5407302E-2,6.130929E-2,-9.273069E-3,4.3485362E-2,2.117538E-3,6.709599E-2,2.0183053E-2,-2.0183899E-2,-3.273529E-2,-1.2751823E-2,-3.3653166E-2,2.842119E-3,4.1495442E-2,-2.5547214E-2,7.5188674E-2,-4.9164608E-2,6.604389E-2,-8.5159065E-3,2.3519803E-2,1.1366059E-1,1.5118981E-2,3.5775166E-2,2.0175664E-2,-2.0202054E-2,-1.8437114E-2,3.947086E-2,-3.6465917E-2,-1.8573713E-2,1.0878968E-2,8.207412E-3,-4.3237932E-2,1.0020388E-2,-8.599328E-3,8.092493E-3,-9.3676755E-3,5.291212E-3,2.8543694E-2,4.2925015E-2,-9.71531E-2,1.6154793E-1,4.6173528E-2,-4.1149436E-3,-1.1855681E-1,3.4603693E-2,5.508875E-3,1.5200366E-1,2.755975E-2,-3.2694135E-2,3.3917893E-2,6.733155E-2,2.8190266E-2,-4.7944537E-3,2.0187732E-2,-6.0602967E-3,-8.132986E-3,-6.1130463E-3,-4.514336E-3,-2.6431153E-2,4.616658E-2,-3.6385145E-2,-9.294935E-3,-8.738749E-3,-4.6805153E-3,3.9915618E-2,-2.8137008E-3,6.29668E-2,-1.1689774E-2,-1.1676472E-2,-4.5980357E-2,-1.03759326E-1,-1.6405022E-2,1.1976515E-2,5.929628E-2,-4.712613E-2,1.7818622E-2,-1.1976411E-2,1.125525E-3,-5.2745413E-2,4.717532E-3,-5.04874E-3,1.1257525E-2,-5.7369205E-3,8.668795E-3,4.9911987E-2,1.172024E-2,-3.0056348E-2,3.727376E-2,1.647102E-2,7.398459E-3,2.3172809E-2,-3.069699E-4,5.9968107E-3,9.800873E-3,-9.708088E-3,1.2883923E-2,-6.9889874E-4,6.0570883E-3],"categories":[],"categories_nodes":[],"categories_segments":[],"categories_sizes":[],"default_left":[0,0,0,0,0,0,0,0,0,0,0,0,0,0,0,0,0,0,0,0,0,0,0,0,0,0,0,0,0,0,0,0,0,0,0,0,0,0,0,0,0,0,0,0,0,0,0,0,0,0,0,0,0,0,0,0,0,0,0,0,0,0,0,0,0,0,0,0,0,0,0,0,0,0,0,0,0,0,0,0,0,0,0,0,0,0,0,0,0,0,0,0,0,0,0,0,0,0,0,0,0,0,0,0,0],"id":9,"left_children":[1,3,5,7,9,11,13,15,17,19,21,23,25,27,29,31,33,35,37,39,-1,41,43,45,47,49,51,53,55,57,59,61,63,65,67,69,71,73,75,-1,-1,-1,-1,-1,-1,-1,77,79,81,83,85,87,89,91,93,-1,95,97,99,101,103,-1,-1,-1,-1,-1,-1,-1,-1,-1,-1,-1,-1,-1,-1,-1,-1,-1,-1,-1,-1,-1,-1,-1,-1,-1,-1,-1,-1,-1,-1,-1,-1,-1,-1,-1,-1,-1,-1,-1,-1,-1,-1,-1,-1],"loss_changes":[7.9837814E1,2.3097992E-2,1.2877274E-1,1.3336182E-2,2.456821E-2,1.342066E-1,9.198761E-2,1.4072418E-2,2.8787121E-2,3.1124314E-2,2.5288088E-2,1.8926123E-1,1.5085812E-1,9.99337E-2,1.0540009E-2,2.7275085E-3,2.6221804E-2,7.284212E-2,3.0847877E-2,5.7714987E-3,0E0,5.3159157E-3,1.7675273E-3,1.7996344E-1,1.2917519E-1,2.1405083E-1,4.3728232E-2,6.8441E-2,5.2688003E-2,8.872751E-3,2.9529572E-2,1.6784668E-4,6.3794553E-3,8.654222E-2,3.716576E-2,1.2846738E-2,2.6112068E-1,1.5088864E-1,2.3480132E-2,0E0,0E0,0E0,0E0,0E0,0E0,0E0,1.3952737E-1,4.4807017E-2,1.7326695E-1,1.20426334E-1,1.3348027E-1,2.1066219E-2,4.951853E-2,1.7842948E-2,1.1125925E-1,0E0,2.3367386E-3,5.498834E-3,7.4286386E-4,6.455857E-2,5.6762695E-3,0E0,0E0,0E0,0E0,0E0,0E0,0E0,0E0,0E0,0E0,0E0,0E0,0E0,0E0,0E0,0E0,0E0,0E0,0E0,0E0,0E0,0E0,0E0,0E0,0E0,0E0,0E0,0E0,0E0,0E0,0E0,0E0,0E0,0E0,0E0,0E0,0E0,0E0,0E0,0E0,0E0,0E0,0E0,0E0],"parents":[2147483647,0,0,1,1,2,2,3,3,4,4,5,5,6,6,7,7,8,8,9,9,10,10,11,11,12,12,13,13,14,14,15,15,16,16,17,17,18,18,19,19,21,21,22,22,23,23,24,24,25,25,26,26,27,27,28,28,29,29,30,30,31,31,32,32,33,33,34,34,35,35,36,36,37,37,38,38,46,46,47,47,48,48,49,49,50,50,51,51,52,52,53,53,54,54,56,56,57,57,58,58,59,59,60,60],"right_children":[2,4,6,8,10,12,14,16,18,20,22,24,26,28,30,32,34,36,38,40,-1,42,44,46,48,50,52,54,56,58,60,62,64,66,68,70,72,74,76,-1,-1,-1,-1,-1,-1,-1,78,80,82,84,86,88,90,92,94,-1,96,98,100,102,104,-1,-1,-1,-1,-1,-1,-1,-1,-1,-1,-1,-1,-1,-1,-1,-1,-1,-1,-1,-1,-1,-1,-1,-1,-1,-1,-1,-1,-1,-1,-1,-1,-1,-1,-1,-1,-1,-1,-1,-1,-1,-1,-1,-1],"split_conditions":[-6.4101624E-1,6.6958743E-1,8.366873E-1,-8.3430207E-1,-1.0245334E0,-6.410042E-1,8.3668697E-1,-9.149724E-1,-6.410042E-1,-5.001042E-1,2.1967447E0,-8.3430207E-1,4.548086E-1,2.6151893E-1,-9.0068805E-1,2.221754E0,-3.169669E0,-9.149724E-1,2.2217197E0,3.1346958E0,4.1495442E-2,-8.894961E-3,-8.894961E-3,-2.0075612E0,-6.672031E-1,4.5898524E-1,1.2766773E0,6.0580873E0,-6.6720897E-1,4.548086E-1,-5.1326543E-1,1.5431426E-1,-1.8464235E0,-3.2804654E0,-1.8029783E0,3.98887E0,-2.0074925E0,-1.0666828E0,5.312234E-1,1.0020388E-2,-8.599328E-3,8.092493E-3,-9.3676755E-3,5.291212E-3,2.8543694E-2,4.2925015E-2,-1.8415302E0,1.5305475E0,-2.6716852E0,-3.3300987E-1,4.547934E-1,3.9889297E0,-9.0068805E-1,4.547934E-1,-2.3655675E-1,-3.2694135E-2,4.548086E-1,4.547934E-1,-1.2880937E0,9.178446E-1,1.5431003E-1,-6.0602967E-3,-8.132986E-3,-6.1130463E-3,-4.514336E-3,-2.6431153E-2,4.616658E-2,-3.6385145E-2,-9.294935E-3,-8.738749E-3,-4.6805153E-3,3.9915618E-2,-2.8137008E-3,6.29668E-2,-1.1689774E-2,-1.1676472E-2,-4.5980357E-2,-1.03759326E-1,-1.6405022E-2,1.1976515E-2,5.929628E-2,-4.712613E-2,1.7818622E-2,-1.1976411E-2,1.125525E-3,-5.2745413E-2,4.717532E-3,-5.04874E-3,1.1257525E-2,-5.7369205E-3,8.668795E-3,4.9911987E-2,1.172024E-2,-3.0056348E-2,3.727376E-2,1.647102E-2,7.398459E-3,2.3172809E-2,-3.069699E-4,5.9968107E-3,9.800873E-3,-9.708088E-3,1.2883923E-2,-6.9889874E-4,6.0570883E-3],"split_indices":[15,4,1,1,12,12,4,15,12,1,8,1,15,10,2,0,10,15,6,0,0,0,0,2,1,3,15,0,4,15,10,8,15,2,11,6,10,10,9,0,0,0,0,0,0,0,2,0,2,4,12,0,2,12,10,0,15,12,2,15,7,0,0,0,0,0,0,0,0,0,0,0,0,0,0,0,0,0,0,0,0,0,0,0,0,0,0,0,0,0,0,0,0,0,0,0,0,0,0,0,0,0,0,0,0],"split_type":[0,0,0,0,0,0,0,0,0,0,0,0,0,0,0,0,0,0,0,0,0,0,0,0,0,0,0,0,0,0,0,0,0,0,0,0,0,0,0,0,0,0,0,0,0,0,0,0,0,0,0,0,0,0,0,0,0,0,0,0,0,0,0,0,0,0,0,0,0,0,0,0,0,0,0,0,0,0,0,0,0,0,0,0,0,0,0,0,0,0,0,0,0,0,0,0,0,0,0,0,0,0,0,0,0],"sum_hessian":[1.96995E5,9.8464E4,9.8531E4,9.8442E4,2.2E1,7.49E2,9.7782E4,9.784E4,6.02E2,6E0,1.6E1,8.8E1,6.61E2,4.1E1,9.7741E4,9.7749E4,9.1E1,5.27E2,7.5E1,4E0,2E0,1.4E1,2E0,1.7E1,7.1E1,4.42E2,2.19E2,2.1E1,2E1,4.4E1,9.7697E4,9.6733E4,1.016E3,4E0,8.7E1,4.23E2,1.04E2,1.4E1,6.1E1,2E0,2E0,1E0,1.3E1,1E0,1E0,3E0,1.4E1,1.1E1,6E1,4.26E2,1.6E1,1.35E2,8.4E1,1.4E1,7E0,2E0,1.8E1,7E0,3.7E1,4.7E1,9.765E4,9.6722E4,1.1E1,6.43E2,3.73E2,2E0,2E0,4E0,8.3E1,9.1E1,3.32E2,1.4E1,9E1,2E0,1.2E1,6E1,1E0,1E0,1.3E1,3E0,8E0,3E0,5.7E1,7.6E1,3.5E2,1.1E1,5E0,7E0,1.28E2,4.1E1,4.3E1,1.2E1,2E0,3E0,4E0,4E0,1.4E1,6E0,1E0,1.5E1,2.2E1,3E1,1.7E1,1.1E1,9.7639E4],"tree_param":{"num_deleted":"0","num_feature":"16","num_nodes":"105","size_leaf_vector":"0"}},{"base_weights":[-1.4542072E-5,-1.4111235E-2,1.4072565E-2,-1.4119395E-2,7.39716E-3,1.8900698E-3,1.4132933E-2,-1.4106736E-2,-2.6551105E-2,6.466528E-2,-1.2605541E-2,1.908587E-2,-7.902685E-3,2.5026264E-2,1.4104718E-2,-1.4126555E-2,8.436331E-3,-1.5786748E-2,-8.1404544E-2,-1.5697783E-3,1.3121429E-1,-2.0640437E-2,6.3910365E-2,8.000718E-2,1.08155925E-2,-6.6016726E-2,-5.1217917E-3,2.0161226E-2,7.2588526E-2,2.7483313E-3,1.4130412E-2,-1.4115903E-2,-4.448038E-2,5.701245E-2,-1.9472102E-2,2.4840703E-2,-2.2248976E-2,-1.6410339E-1,4.8365884E-2,-6.718634E-3,8.0163125E-3,5.1233787E-2,-4.056856E-3,6.878615E-3,-2.3198048E-2,4.497528E-3,2.4262138E-2,1.1903895E-1,-6.870224E-2,-6.6634096E-2,1.9939011E-2,6.0578376E-2,-7.134953E-3,2.5616063E-2,-4.176438E-2,4.4647012E-2,5.371213E-2,7.105251E-2,-2.9017627E-3,3.362848E-2,1.4120671E-2,-4.238953E-3,1.688451E-3,-2.15268E-2,-9.037712E-3,-5.0372444E-3,7.424594E-2,-1.1837508E-2,6.4575765E-3,1.5177764E-2,-1.1793336E-2,-9.800213E-3,-6.477826E-4,2.970636E-2,-6.1302543E-2,2.9955825E-2,-3.9083302E-2,-1.3550087E-2,-5.845605E-3,-1.1687416E-2,6.262823E-2,-9.7307846E-2,2.289058E-2,3.745799E-3,4.1091546E-2,-2.6423013E-2,-7.9800864E-4,1.9201811E-2,6.1816834E-3,-3.399774E-2,6.174792E-3,1.7828045E-2,4.7990084E-3,-6.1862793E-2,3.6530413E-2,-7.929911E-3,6.5469467E-3,1.4840919E-2,-9.454574E-3,9.6686155E-4,4.238741E-3],"categories":[],"categories_nodes":[],"categories_segments":[],"categories_sizes":[],"default_left":[0,0,0,0,0,0,0,0,0,0,0,0,0,0,0,0,0,0,0,0,0,0,0,0,0,0,0,0,0,0,0,0,0,0,0,0,0,0,0,0,0,0,0,0,0,0,0,0,0,0,0,0,0,0,0,0,0,0,0,0,0,0,0,0,0,0,0,0,0,0,0,0,0,0,0,0,0,0,0,0,0,0,0,0,0,0,0,0,0,0,0,0,0,0,0,0,0,0,0,0,0],"id":10,"left_children":[1,3,5,7,9,11,13,15,17,19,21,23,25,27,29,31,33,35,37,39,41,43,45,47,49,-1,51,53,55,57,59,61,63,65,67,69,71,73,75,-1,-1,-1,-1,-1,77,-1,-1,79,81,-1,83,-1,85,87,89,-1,91,93,95,97,99,-1,-1,-1,-1,-1,-1,-1,-1,-1,-1,-1,-1,-1,-1,-1,-1,-1,-1,-1,-1,-1,-1,-1,-1,-1,-1,-1,-1,-1,-1,-1,-1,-1,-1,-1,-1,-1,-1,-1,-1],"loss_changes":[3.9119984E1,1.738739E-2,7.243729E-2,1.5117645E-2,4.434479E-2,8.215883E-2,2.9781342E-2,4.4052124E-2,5.7170622E-2,4.4284754E-2,1.914826E-2,8.831368E-2,1.823551E-1,5.6847334E-2,2.8495789E-2,3.1137466E-2,1.190546E-1,2.2606364E-2,1.7964685E-1,4.133481E-3,3.0942053E-2,3.5405913E-3,1.2770407E-3,1.3007046E-1,3.3807117E-1,0E0,1.2982269E-1,7.8762464E-2,2.5104277E-2,8.588154E-2,1.8058777E-2,2.7109146E-2,1.1150412E-2,4.539988E-1,4.6734832E-2,2.1813182E-2,1.520855E-2,1.2611136E-1,7.739316E-2,0E0,0E0,0E0,0E0,0E0,1.2405682E-3,0E0,0E0,2.4912114E-1,2.1010607E-1,0E0,1.3087137E-1,0E0,1.1060142E-1,3.945957E-2,8.710372E-2,0E0,3.3599958E-3,2.6415488E-1,1.20429456E-1,5.109304E-2,8.9530945E-3,0E0,0E0,0E0,0E0,0E0,0E0,0E0,0E0,0E0,0E0,0E0,0E0,0E0,0E0,0E0,0E0,0E0,0E0,0E0,0E0,0E0,0E0,0E0,0E0,0E0,0E0,0E0,0E0,0E0,0E0,0E0,0E0,0E0,0E0,0E0,0E0,0E0,0E0,0E0,0E0],"parents":[2147483647,0,0,1,1,2,2,3,3,4,4,5,5,6,6,7,7,8,8,9,9,10,10,11,11,12,12,13,13,14,14,15,15,16,16,17,17,18,18,19,19,20,20,21,21,22,22,23,23,24,24,26,26,27,27,28,28,29,29,30,30,31,31,32,32,33,33,34,34,35,35,36,36,37,37,38,38,44,44,47,47,48,48,50,50,52,52,53,53,54,54,56,56,57,57,58,58,59,59,60,60],"right_children":[2,4,6,8,10,12,14,16,18,20,22,24,26,28,30,32,34,36,38,40,42,44,46,48,50,-1,52,54,56,58,60,62,64,66,68,70,72,74,76,-1,-1,-1,-1,-1,78,-1,-1,80,82,-1,84,-1,86,88,90,-1,92,94,96,98,100,-1,-1,-1,-1,-1,-1,-1,-1,-1,-1,-1,-1,-1,-1,-1,-1,-1,-1,-1,-1,-1,-1,-1,-1,-1,-1,-1,-1,-1,-1,-1,-1,-1,-1,-1,-1,-1,-1,-1,-1],"split_conditions":[-6.4101624E-1,5.024879E-1,5.024879E-1,8.772762E-1,-1.0245334E0,-1.4541247E0,8.772534E-1,1.1892361E-3,-9.149724E-1,-5.001042E-1,2.1967447E0,-6.672031E-1,-2.505568E0,9.067886E-1,4.547934E-1,-6.221153E-1,-9.178521E-1,-2.3957756E0,2.196688E0,8.3668697E-1,9.067651E-1,-8.894961E-3,-8.894961E-3,6.0580873E0,-6.6720897E-1,-6.6016726E-2,-2.0628343E0,4.841455E0,-5.132824E-1,9.067886E-1,4.548086E-1,1.5431426E-1,-9.178521E-1,-1.024555E0,-9.0068805E-1,-2.4490702E0,-1.2880498E0,-1.85308E0,-6.410042E-1,-6.718634E-3,8.0163125E-3,5.1233787E-2,-4.056856E-3,6.878615E-3,1.5431003E-1,4.497528E-3,2.4262138E-2,-8.3430207E-1,8.025242E0,-6.6634096E-2,-1.454075E0,6.0578376E-2,-1.3987333E0,-9.559994E-1,4.547934E-1,4.4647012E-2,4.547934E-1,-1.0113411E0,-2.3656411E-1,8.027138E0,-9.0068805E-1,-4.238953E-3,1.688451E-3,-2.15268E-2,-9.037712E-3,-5.0372444E-3,7.424594E-2,-1.1837508E-2,6.4575765E-3,1.5177764E-2,-1.1793336E-2,-9.800213E-3,-6.477826E-4,2.970636E-2,-6.1302543E-2,2.9955825E-2,-3.9083302E-2,-1.3550087E-2,-5.845605E-3,-1.1687416E-2,6.262823E-2,-9.7307846E-2,2.289058E-2,3.745799E-3,4.1091546E-2,-2.6423013E-2,-7.9800864E-4,1.9201811E-2,6.1816834E-3,-3.399774E-2,6.174792E-3,1.7828045E-2,4.7990084E-3,-6.1862793E-2,3.6530413E-2,-7.929911E-3,6.5469467E-3,1.4840919E-2,-9.454574E-3,9.6686155E-4,4.238741E-3],"split_indices":[15,4,4,8,12,2,7,4,15,1,8,1,10,8,12,9,12,9,7,4,7,0,0,0,4,0,10,6,2,8,15,8,12,15,2,12,10,3,12,0,0,0,0,0,7,0,0,1,0,0,10,0,10,10,12,0,12,10,2,6,2,0,0,0,0,0,0,0,0,0,0,0,0,0,0,0,0,0,0,0,0,0,0,0,0,0,0,0,0,0,0,0,0,0,0,0,0,0,0,0,0],"split_type":[0,0,0,0,0,0,0,0,0,0,0,0,0,0,0,0,0,0,0,0,0,0,0,0,0,0,0,0,0,0,0,0,0,0,0,0,0,0,0,0,0,0,0,0,0,0,0,0,0,0,0,0,0,0,0,0,0,0,0,0,0,0,0,0,0,0,0,0,0,0,0,0,0,0,0,0,0,0,0,0,0,0,0,0,0,0,0,0,0,0,0,0,0,0,0,0,0,0,0,0,0],"sum_hessian":[1.96995E5,9.8464E4,9.8531E4,9.8427E4,3.7E1,4.86E2,9.8045E4,9.8329E4,9.8E1,9E0,2.8E1,1.76E2,3.1E2,2.51E2,9.7794E4,9.8243E4,8.6E1,8.3E1,1.5E1,5E0,4E0,2.6E1,2E0,2E1,1.56E2,3E0,3.07E2,2.29E2,2.2E1,2.21E2,9.7573E4,9.821E4,3.3E1,3.1E1,5.5E1,1.1E1,7.2E1,9E0,6E0,3E0,2E0,3E0,1E0,1E0,2.5E1,1E0,1E0,1.6E1,4E0,5E0,1.51E2,2E0,3.05E2,2.11E2,1.8E1,3E0,1.9E1,1.6E1,2.05E2,4.7E1,9.7526E4,9.8141E4,6.9E1,1E1,2.3E1,2.3E1,8E0,3.7E1,1.8E1,8E0,3E0,4.7E1,2.5E1,1E0,8E0,5E0,1E0,2E0,2.3E1,6E0,1E1,1E0,3E0,1.43E2,8E0,1.5E1,2.9E2,2.3E1,1.88E2,8E0,1E1,1.6E1,3E0,2E0,1.4E1,1.05E2,1E2,3.8E1,9E0,7.6E1,9.745E4],"tree_param":{"num_deleted":"0","num_feature":"16","num_nodes":"101","size_leaf_vector":"0"}},{"base_weights":[-1.0077656E-5,-9.871816E-3,9.860576E-3,-9.880546E-3,4.130078E-2,-4.1182443E-2,9.868773E-3,-9.8889405E-3,3.416291E-2,-3.0647222E-2,8.333126E-2,-5.339619E-2,8.807847E-3,3.8329016E-2,9.844076E-3,-9.873042E-3,-2.4282739E-2,6.6898115E-2,1.3908345E-2,-4.081915E-3,-1.9412097E-2,3.700022E-2,1.0661078E-2,-3.663636E-3,-7.034332E-2,-2.9361984E-3,9.689007E-3,-2.5658801E-2,5.713852E-2,-7.3261927E-3,9.891942E-3,-9.853842E-3,-4.599808E-2,4.7821965E-2,-4.12136E-2,-4.530191E-3,1.0271774E-1,-1.8638E-3,9.785945E-3,2.5509563E-3,-2.8061965E-3,1.5670389E-2,-1.4064253E-3,-9.164334E-3,-2.3204852E-2,-1.1889415E-2,-3.8239244E-2,2.9476123E-2,1.4174125E-1,3.0046832E-3,-4.3448836E-2,3.5863467E-2,9.881776E-3,-2.96765E-3,4.3469034E-3,-5.188654E-3,-2.0994777E-2,-1.2788556E-4,3.78836E-2,-2.7186597E-2,1.1446354E-3,4.1200347E-2,1.0158528E-2,5.2024573E-3,-2.1254336E-3,2.8503838E-4,6.07813E-3,-1.93951E-4,-5.4664733E-3,-7.059185E-4,-1.2589544E-2,-1.3494912E-2,2.1436E-2,4.939191E-2,9.565795E-3,-1.2291276E-3,2.1629028E-2,-1.5501869E-2,1.7698554E-2,8.022062E-4,1.8781135E-2,2.9228695E-2,2.963431E-3],"categories":[],"categories_nodes":[],"categories_segments":[],"categories_sizes":[],"default_left":[0,0,0,0,0,0,0,0,0,0,0,0,0,0,0,0,0,0,0,0,0,0,0,0,0,0,0,0,0,0,0,0,0,0,0,0,0,0,0,0,0,0,0,0,0,0,0,0,0,0,0,0,0,0,0,0,0,0,0,0,0,0,0,0,0,0,0,0,0,0,0,0,0,0,0,0,0,0,0,0,0,0,0],"id":11,"left_children":[1,3,5,7,9,11,13,15,17,19,21,23,25,27,29,31,33,35,37,39,-1,-1,41,-1,43,-1,-1,45,47,49,51,53,55,57,59,-1,61,63,-1,-1,-1,65,-1,-1,-1,67,69,71,73,75,77,79,81,-1,-1,-1,-1,-1,-1,-1,-1,-1,-1,-1,-1,-1,-1,-1,-1,-1,-1,-1,-1,-1,-1,-1,-1,-1,-1,-1,-1,-1,-1],"loss_changes":[1.9176044E1,4.442501E-2,4.1596413E-2,3.6766052E-2,5.3962022E-2,1.0239409E-2,6.881237E-2,2.2302628E-2,1.166727E-2,6.0695293E-3,3.0662261E-2,8.214332E-3,2.0632148E-3,1.0377033E-1,8.0908775E-2,6.779957E-2,1.3381678E-1,2.211126E-2,3.8973575E-3,4.1128657E-4,0E0,0E0,4.5790774E-4,0E0,1.4647841E-4,0E0,0E0,3.0098567E-3,1.5028279E-1,1.0238148E-1,2.5544167E-2,9.1900826E-2,3.45873E-2,7.95472E-2,1.9612926E-1,0E0,7.26746E-3,9.250255E-4,0E0,0E0,0E0,2.5101658E-4,0E0,0E0,0E0,7.7133137E-4,1.2383368E-3,1.6261916E-1,3.4998536E-2,1.0530014E-1,5.444128E-2,3.355745E-2,3.0561447E-2,0E0,0E0,0E0,0E0,0E0,0E0,0E0,0E0,0E0,0E0,0E0,0E0,0E0,0E0,0E0,0E0,0E0,0E0,0E0,0E0,0E0,0E0,0E0,0E0,0E0,0E0,0E0,0E0,0E0,0E0],"parents":[2147483647,0,0,1,1,2,2,3,3,4,4,5,5,6,6,7,7,8,8,9,9,10,10,11,11,12,12,13,13,14,14,15,15,16,16,17,17,18,18,19,19,22,22,24,24,27,27,28,28,29,29,30,30,31,31,32,32,33,33,34,34,36,36,37,37,41,41,45,45,46,46,47,47,48,48,49,49,50,50,51,51,52,52],"right_children":[2,4,6,8,10,12,14,16,18,20,22,24,26,28,30,32,34,36,38,40,-1,-1,42,-1,44,-1,-1,46,48,50,52,54,56,58,60,-1,62,64,-1,-1,-1,66,-1,-1,-1,68,70,72,74,76,78,80,82,-1,-1,-1,-1,-1,-1,-1,-1,-1,-1,-1,-1,-1,-1,-1,-1,-1,-1,-1,-1,-1,-1,-1,-1,-1,-1,-1,-1,-1,-1],"split_conditions":[1.1892361E-3,8.366873E-1,-3.335694E0,4.547934E-1,-6.6720897E-1,1.5431426E-1,1.6828878E-1,-6.2669516E-1,4.548086E-1,1.1195753E0,1.5431426E-1,-1.024555E0,8.025242E0,-9.149724E-1,5.024879E-1,-6.4199823E-1,-1.5647585E0,-6.6720897E-1,-1.564812E0,-3.3911529E0,-1.9412097E-2,3.700022E-2,8.025242E0,-3.663636E-3,-6.4101624E-1,-2.9361984E-3,9.689007E-3,-1.024555E0,4.841455E0,-9.0361583E-1,-6.410042E-1,-9.172441E-1,-6.4101624E-1,-6.4101624E-1,-6.4199823E-1,-4.530191E-3,-1.6590631E-1,-2.837716E0,9.785945E-3,2.5509563E-3,-2.8061965E-3,-2.837716E0,-1.4064253E-3,-9.164334E-3,-2.3204852E-2,3.9889297E0,-8.894961E-3,-1.23275E0,4.548086E-1,-9.559994E-1,5.0248945E-1,-9.149724E-1,-8.3430207E-1,-2.96765E-3,4.3469034E-3,-5.188654E-3,-2.0994777E-2,-1.2788556E-4,3.78836E-2,-2.7186597E-2,1.1446354E-3,4.1200347E-2,1.0158528E-2,5.2024573E-3,-2.1254336E-3,2.8503838E-4,6.07813E-3,-1.93951E-4,-5.4664733E-3,-7.059185E-4,-1.2589544E-2,-1.3494912E-2,2.1436E-2,4.939191E-2,9.565795E-3,-1.2291276E-3,2.1629028E-2,-1.5501869E-2,1.7698554E-2,8.022062E-4,1.8781135E-2,2.9228695E-2,2.963431E-3],"split_indices":[4,1,10,12,4,8,4,11,15,3,8,15,0,15,4,3,10,4,2,2,0,0,0,0,15,0,0,15,6,2,12,3,15,15,3,0,1,2,0,0,0,2,0,0,0,0,0,2,15,10,1,15,1,0,0,0,0,0,0,0,0,0,0,0,0,0,0,0,0,0,0,0,0,0,0,0,0,0,0,0,0,0,0],"split_type":[0,0,0,0,0,0,0,0,0,0,0,0,0,0,0,0,0,0,0,0,0,0,0,0,0,0,0,0,0,0,0,0,0,0,0,0,0,0,0,0,0,0,0,0,0,0,0,0,0,0,0,0,0,0,0,0,0,0,0,0,0,0,0,0,0,0,0,0,0,0,0,0,0,0,0,0,0,0,0,0,0,0,0],"sum_hessian":[1.96995E5,9.8542E4,9.8453E4,9.8526E4,1.6E1,1.5E1,9.8438E4,9.8508E4,1.8E1,6E0,1E1,1.2E1,3E0,8.4E1,9.8354E4,9.8401E4,1.07E2,6E0,1.2E1,4E0,2E0,6E0,4E0,4E0,8E0,2E0,1E0,1.9E1,6.5E1,2.73E2,9.8081E4,9.835E4,5.1E1,2E1,8.7E1,2E0,4E0,7E0,5E0,1E0,3E0,3E0,1E0,2E0,6E0,1E1,9E0,5E1,1.5E1,2.13E2,6E1,3.7E1,9.8044E4,9.8196E4,1.54E2,2.4E1,2.7E1,1.3E1,7E0,4.1E1,4.6E1,2E0,2E0,1E0,6E0,1E0,2E0,4E0,6E0,1E0,8E0,1.8E1,3.2E1,1.2E1,3E0,1.94E2,1.9E1,5.6E1,4E0,1.7E1,2E1,3E0,9.8041E4],"tree_param":{"num_deleted":"0","num_feature":"16","num_nodes":"83","size_leaf_vector":"0"}},{"base_weights":[-6.22882E-6,-6.917249E-3,6.900092E-3,-6.9337E-3,-9.529545E-4,6.91747E-2,6.893069E-3,-6.924485E-3,-2.7331986E-2,-2.374326E-2,3.7908389E-3,9.6441224E-2,1.7166615E-2,-5.2657004E-2,6.905695E-3,-6.929382E-3,1.5560058E-1,-1.6256424E-2,-3.5099156E-2,-3.4967165E-2,1.5252975E-1,2.148985E-2,-8.298789E-3,3.004691E-3,3.2752868E-2,2.1403626E-2,3.2785538E-5,-9.727829E-2,6.154239E-3,-9.359662E-2,6.9107264E-3,-6.9260607E-3,-2.2120077E-2,9.493074E-2,-2.4910474E-2,8.0981373E-4,-1.931575E-2,-7.999059E-3,-1.2604738E-2,-2.3828808E-2,-7.875824E-2,7.180423E-2,-3.1658437E-3,8.132732E-3,6.626236E-2,-5.7208806E-2,-4.76738E-3,1.4630199E-3,7.586104E-3,-4.14781E-2,-1.0666206E-1,6.1255652E-2,-4.5834216E-3,3.4769833E-2,-5.722926E-2,3.019728E-2,6.8891225E-3,-2.078739E-3,3.6976694E-3,-1.1883667E-3,-9.897015E-3,-1.1216165E-3,2.168313E-3,-6.1953203E-3,-1.8601737E-3,6.117263E-3,-1.1755983E-2,2.6041778E-2,-5.025725E-4,1.3958997E-1,-6.931643E-5,-2.7181437E-2,-1.0417067E-2,-6.449702E-3,1.4030379E-3,1.0077677E-2,-2.2148557E-2,2.3142958E-2,4.4220868E-3,1.4183406E-2,1.4630199E-3,3.6707774E-2,3.5554436E-3,-2.1497758E-2,2.0703082E-3],"categories":[],"categories_nodes":[],"categories_segments":[],"categories_sizes":[],"default_left":[0,0,0,0,0,0,0,0,0,0,0,0,0,0,0,0,0,0,0,0,0,0,0,0,0,0,0,0,0,0,0,0,0,0,0,0,0,0,0,0,0,0,0,0,0,0,0,0,0,0,0,0,0,0,0,0,0,0,0,0,0,0,0,0,0,0,0,0,0,0,0,0,0,0,0,0,0,0,0,0,0,0,0,0,0],"id":12,"left_children":[1,3,5,7,9,11,13,15,17,19,21,23,25,27,29,31,33,35,37,39,41,43,45,-1,-1,47,-1,49,51,53,55,57,59,-1,-1,61,63,-1,-1,65,-1,-1,-1,67,69,71,73,-1,-1,75,-1,77,-1,79,-1,81,83,-1,-1,-1,-1,-1,-1,-1,-1,-1,-1,-1,-1,-1,-1,-1,-1,-1,-1,-1,-1,-1,-1,-1,-1,-1,-1,-1,-1],"loss_changes":[9.402613E0,9.654522E-3,4.2616367E-2,1.8268585E-2,2.9496606E-2,1.3943318E-2,7.443857E-2,7.919788E-2,3.2145455E-3,9.83217E-2,4.8536573E-2,6.6109374E-3,3.5902136E-4,5.5707578E-2,5.045843E-2,4.798889E-3,1.4141819E-1,1.0598656E-3,3.3836626E-4,1.0780346E-1,4.5001134E-2,5.4480024E-2,2.3044635E-2,0E0,0E0,1.3340334E-4,0E0,1.5818565E-1,1.2745375E-2,6.8998136E-2,4.9344063E-2,5.8836937E-3,4.0144296E-3,0E0,0E0,1.437905E-4,1.6967114E-4,0E0,0E0,3.0680196E-2,0E0,0E0,0E0,5.5702392E-2,5.573082E-1,3.6121346E-3,2.0168625E-2,0E0,0E0,2.9194195E-2,0E0,1.0799309E-3,0E0,8.91163E-4,0E0,1.5241131E-1,9.251356E-2,0E0,0E0,0E0,0E0,0E0,0E0,0E0,0E0,0E0,0E0,0E0,0E0,0E0,0E0,0E0,0E0,0E0,0E0,0E0,0E0,0E0,0E0,0E0,0E0,0E0,0E0,0E0,0E0],"parents":[2147483647,0,0,1,1,2,2,3,3,4,4,5,5,6,6,7,7,8,8,9,9,10,10,11,11,12,12,13,13,14,14,15,15,16,16,17,17,18,18,19,19,20,20,21,21,22,22,25,25,27,27,28,28,29,29,30,30,31,31,32,32,35,35,36,36,39,39,43,43,44,44,45,45,46,46,49,49,51,51,53,53,55,55,56,56],"right_children":[2,4,6,8,10,12,14,16,18,20,22,24,26,28,30,32,34,36,38,40,42,44,46,-1,-1,48,-1,50,52,54,56,58,60,-1,-1,62,64,-1,-1,66,-1,-1,-1,68,70,72,74,-1,-1,76,-1,78,-1,80,-1,82,84,-1,-1,-1,-1,-1,-1,-1,-1,-1,-1,-1,-1,-1,-1,-1,-1,-1,-1,-1,-1,-1,-1,-1,-1,-1,-1,-1,-1],"split_conditions":[-6.4101624E-1,1.5431426E-1,-2.4035716E0,-9.0065765E-1,-1.1597273E0,-2.837716E0,-2.7822769E0,-9.0068805E-1,-6.6720897E-1,-1.0245334E0,-1.0245334E0,-3.5571837E0,3.1687248E-1,4.547934E-1,-7.056386E-1,1.6828878E-1,3.1346958E0,-1.8531069E0,-3.3300987E-1,-9.17871E-1,8.025242E0,-1.024555E0,3.146014E0,3.004691E-3,3.2752868E-2,3.9889297E0,3.2785538E-5,1.5431003E-1,-1.6590631E-1,3.1346958E0,-2.0074925E0,-6.221153E-1,-1.024555E0,9.493074E-2,-2.4910474E-2,6.0580873E0,3.9889297E0,-7.999059E-3,-1.2604738E-2,-2.8930597E0,-7.875824E-2,7.180423E-2,-3.1658437E-3,-5.0010943E-1,-2.505654E0,-9.178521E-1,-9.560317E-1,1.4630199E-3,7.586104E-3,-6.410042E-1,-1.0666206E-1,1.2766416E0,-4.5834216E-3,-8.894961E-3,-5.722926E-2,6.0580873E0,-1.1596985E0,-2.078739E-3,3.6976694E-3,-1.1883667E-3,-9.897015E-3,-1.1216165E-3,2.168313E-3,-6.1953203E-3,-1.8601737E-3,6.117263E-3,-1.1755983E-2,2.6041778E-2,-5.025725E-4,1.3958997E-1,-6.931643E-5,-2.7181437E-2,-1.0417067E-2,-6.449702E-3,1.4030379E-3,1.0077677E-2,-2.2148557E-2,2.3142958E-2,4.4220868E-3,1.4183406E-2,1.4630199E-3,3.6707774E-2,3.5554436E-3,-2.1497758E-2,2.0703082E-3],"split_indices":[15,8,3,10,9,2,10,2,4,12,12,2,2,12,7,4,0,14,4,15,0,15,6,0,0,0,0,7,1,0,10,9,15,0,0,0,0,0,0,2,0,0,0,4,2,12,2,0,0,12,0,12,0,0,0,0,11,0,0,0,0,0,0,0,0,0,0,0,0,0,0,0,0,0,0,0,0,0,0,0,0,0,0,0,0],"split_type":[0,0,0,0,0,0,0,0,0,0,0,0,0,0,0,0,0,0,0,0,0,0,0,0,0,0,0,0,0,0,0,0,0,0,0,0,0,0,0,0,0,0,0,0,0,0,0,0,0,0,0,0,0,0,0,0,0,0,0,0,0,0,0,0,0,0,0,0,0,0,0,0,0,0,0,0,0,0,0,0,0,0,0,0,0],"sum_hessian":[1.96995E5,9.8464E4,9.8531E4,9.8193E4,2.71E2,1E1,9.8521E4,9.815E4,4.3E1,4.6E1,2.25E2,6E0,4E0,2E1,9.8501E4,9.8148E4,2E0,1.9E1,2.4E1,4.4E1,2E0,9.1E1,1.34E2,1E0,5E0,3E0,1E0,1.1E1,9E0,4E0,9.8497E4,9.8128E4,2E1,1E0,1E0,3E0,1.6E1,1.3E1,1.1E1,4.3E1,1E0,1E0,1E0,7.1E1,2E1,8E0,1.26E2,1E0,2E0,1E1,1E0,2E0,7E0,2E0,2E0,9E1,9.8407E4,9.8113E4,1.5E1,8E0,1.2E1,2E0,1E0,1.4E1,2E0,1.1E1,3.2E1,7E0,6.4E1,2E0,1.8E1,2E0,6E0,4.5E1,8.1E1,3E0,7E0,1E0,1E0,1E0,1E0,1.4E1,7.6E1,1.4E1,9.8393E4],"tree_param":{"num_deleted":"0","num_feature":"16","num_nodes":"85","size_leaf_vector":"0"}},{"base_weights":[-4.0150007E-6,-4.8422557E-3,4.8385994E-3,-4.8480756E-3,2.9172583E-2,1.5859844E-2,4.8182514E-3,-4.8454427E-3,-6.848681E-2,6.423562E-2,-1.8302785E-2,-2.068248E-2,2.157767E-2,-2.1201856E-2,4.843645E-3,-4.851006E-3,2.4253469E-2,-1.8110914E-3,-3.8375452E-2,-1.0696275E-3,8.1631556E-2,-3.1254854E-2,2.462998E-3,-2.4880696E-2,-1.0454461E-2,-5.060235E-3,2.9544815E-2,1.926441E-2,-4.580269E-2,3.9659757E-2,4.83047E-3,-4.8301737E-3,-1.5170084E-2,5.0009694E-2,8.519081E-3,2.8783903E-2,3.227501E-2,1.054377E-3,-1.5943741E-2,3.0520768E-3,-3.4983952E-3,-1.3967795E-2,-1.15425475E-2,-5.924262E-4,-3.3802742E-3,1.4403084E-1,-1.7694892E-2,2.363306E-2,2.5362222E-2,-3.902134E-2,4.880242E-2,-7.821473E-2,2.8255636E-2,-1.9328231E-2,4.948064E-2,-9.478017E-3,4.849837E-3,-1.4542829E-3,7.7545187E-3,6.381973E-3,-8.287728E-3,-3.1449245E-3,2.2891028E-2,-9.6335786E-4,6.8218797E-3,-1.5891016E-3,1.2572963E-2,-1.3685963E-3,1.8430661E-3,-6.827116E-5,-1.5060068E-3,-2.6799026E-3,-6.163626E-3,-5.4345187E-3,7.0248395E-2,-1.3002879E-3,-1.5198889E-2,2.246752E-3,1.1983035E-2,3.340222E-2,-1.8248972E-2,3.533849E-2,-4.1459803E-3,5.4528675E-4,-4.332223E-2,1.53012825E-2,4.9463883E-3,-8.1048644E-4,-6.6339686E-3,7.734713E-3,3.2153446E-2,2.960419E-3,-9.742352E-3,4.06404E-3,1.4483712E-3],"categories":[],"categories_nodes":[],"categories_segments":[],"categories_sizes":[],"default_left":[0,0,0,0,0,0,0,0,0,0,0,0,0,0,0,0,0,0,0,0,0,0,0,0,0,0,0,0,0,0,0,0,0,0,0,0,0,0,0,0,0,0,0,0,0,0,0,0,0,0,0,0,0,0,0,0,0,0,0,0,0,0,0,0,0,0,0,0,0,0,0,0,0,0,0,0,0,0,0,0,0,0,0,0,0,0,0,0,0,0,0,0,0,0,0],"id":13,"left_children":[1,3,5,7,9,11,13,15,17,19,21,23,25,27,29,31,33,-1,-1,-1,35,37,39,41,43,45,47,49,51,53,55,57,59,61,63,65,-1,67,-1,-1,69,71,-1,-1,-1,73,75,-1,77,79,81,83,85,87,89,91,93,-1,-1,-1,-1,-1,-1,-1,-1,-1,-1,-1,-1,-1,-1,-1,-1,-1,-1,-1,-1,-1,-1,-1,-1,-1,-1,-1,-1,-1,-1,-1,-1,-1,-1,-1,-1,-1,-1],"loss_changes":[4.615587E0,1.964879E-2,2.2002935E-2,1.61767E-2,2.9474411E-2,3.8264878E-2,6.5036535E-2,1.6067982E-2,1.40736755E-2,1.2085676E-2,2.2286603E-3,8.1337243E-4,3.346932E-2,9.645074E-2,4.4843674E-2,2.1103144E-2,7.273875E-3,0E0,0E0,0E0,7.875271E-3,3.5924343E-3,2.194547E-4,1.9846223E-3,3.9804494E-5,7.2246045E-2,2.2918075E-2,6.560521E-2,1.4623286E-1,2.2390991E-2,2.7243137E-2,5.271244E-2,9.046506E-2,1.1933958E-2,2.2415586E-3,2.011377E-3,0E0,1.13774826E-4,0E0,0E0,1.3788518E-5,1.8075388E-4,0E0,0E0,0E0,4.8084714E-2,1.5196971E-2,0E0,2.9149897E-2,4.94022E-2,1.0963981E-1,2.227599E-1,4.2453157E-3,2.1808874E-4,4.0991284E-2,5.9491094E-2,1.8630266E-2,0E0,0E0,0E0,0E0,0E0,0E0,0E0,0E0,0E0,0E0,0E0,0E0,0E0,0E0,0E0,0E0,0E0,0E0,0E0,0E0,0E0,0E0,0E0,0E0,0E0,0E0,0E0,0E0,0E0,0E0,0E0,0E0,0E0,0E0,0E0,0E0,0E0,0E0],"parents":[2147483647,0,0,1,1,2,2,3,3,4,4,5,5,6,6,7,7,8,8,9,9,10,10,11,11,12,12,13,13,14,14,15,15,16,16,20,20,21,21,22,22,23,23,24,24,25,25,26,26,27,27,28,28,29,29,30,30,31,31,32,32,33,33,34,34,35,35,37,37,40,40,41,41,45,45,46,46,48,48,49,49,50,50,51,51,52,52,53,53,54,54,55,55,56,56],"right_children":[2,4,6,8,10,12,14,16,18,20,22,24,26,28,30,32,34,-1,-1,-1,36,38,40,42,44,46,48,50,52,54,56,58,60,62,64,66,-1,68,-1,-1,70,72,-1,-1,-1,74,76,-1,78,80,82,84,86,88,90,92,94,-1,-1,-1,-1,-1,-1,-1,-1,-1,-1,-1,-1,-1,-1,-1,-1,-1,-1,-1,-1,-1,-1,-1,-1,-1,-1,-1,-1,-1,-1,-1,-1,-1,-1,-1,-1,-1,-1],"split_conditions":[1.1892361E-3,8.366873E-1,-1.2880937E0,5.2201885E-1,2.196688E0,-3.1143272E0,-1.066719E0,4.547934E-1,-8.343085E-1,-8.343085E-1,-6.6720897E-1,4.547934E-1,-1.0245334E0,3.9889297E0,1.6828878E-1,-6.410042E-1,4.548086E-1,-1.8110914E-3,-3.8375452E-2,-1.0696275E-3,3.1346958E0,1.1195753E0,4.548086E-1,-6.4101624E-1,-2.4491272E0,-2.560998E0,1.6829155E-1,-1.2327081E0,4.547934E-1,-9.149724E-1,5.024879E-1,-6.4101624E-1,2.221754E0,-6.6720897E-1,-1.564812E0,-1.6591032E-1,3.227501E-2,1.0037862E0,-1.5943741E-2,3.0520768E-3,3.9889297E0,1.6829155E-1,-1.15425475E-2,-5.924262E-4,-3.3802742E-3,-2.4490702E0,-1.024555E0,2.363306E-2,9.067886E-1,-5.001042E-1,1.6828878E-1,-6.4101624E-1,4.548086E-1,-8.894961E-3,3.9889297E0,-9.0361583E-1,8.772534E-1,-1.4542829E-3,7.7545187E-3,6.381973E-3,-8.287728E-3,-3.1449245E-3,2.2891028E-2,-9.6335786E-4,6.8218797E-3,-1.5891016E-3,1.2572963E-2,-1.3685963E-3,1.8430661E-3,-6.827116E-5,-1.5060068E-3,-2.6799026E-3,-6.163626E-3,-5.4345187E-3,7.0248395E-2,-1.3002879E-3,-1.5198889E-2,2.246752E-3,1.1983035E-2,3.340222E-2,-1.8248972E-2,3.533849E-2,-4.1459803E-3,5.4528675E-4,-4.332223E-2,1.53012825E-2,4.9463883E-3,-8.1048644E-4,-6.6339686E-3,7.734713E-3,3.2153446E-2,2.960419E-3,-9.742352E-3,4.06404E-3,1.4483712E-3],"split_indices":[4,1,2,11,7,10,2,12,4,4,4,12,12,0,4,12,15,0,0,0,0,3,15,15,15,2,1,10,12,15,4,15,0,4,2,4,0,1,0,0,0,1,0,0,0,12,15,0,8,1,4,15,15,0,0,2,7,0,0,0,0,0,0,0,0,0,0,0,0,0,0,0,0,0,0,0,0,0,0,0,0,0,0,0,0,0,0,0,0,0,0,0,0,0,0],"split_type":[0,0,0,0,0,0,0,0,0,0,0,0,0,0,0,0,0,0,0,0,0,0,0,0,0,0,0,0,0,0,0,0,0,0,0,0,0,0,0,0,0,0,0,0,0,0,0,0,0,0,0,0,0,0,0,0,0,0,0,0,0,0,0,0,0,0,0,0,0,0,0,0,0,0,0,0,0,0,0,0,0,0,0,0,0,0,0,0,0,0,0,0,0,0,0],"sum_hessian":[1.96995E5,9.8542E4,9.8453E4,9.8526E4,1.6E1,1.8E2,9.8273E4,9.8523E4,3E0,9E0,7E0,2.4E1,1.56E2,9.5E1,9.8178E4,9.8505E4,1.8E1,2E0,1E0,2E0,7E0,4E0,3E0,1.6E1,8E0,3.6E1,1.2E2,3.6E1,5.9E1,3.6E1,9.8142E4,9.8308E4,1.97E2,6E0,1.2E1,3E0,4E0,2E0,2E0,1E0,2E0,1E1,6E0,1E0,7E0,2E0,3.4E1,8E0,1.12E2,1.2E1,2.4E1,4.1E1,1.8E1,5E0,3.1E1,1.32E2,9.801E4,9.8253E4,5.5E1,5E1,1.47E2,2E0,4E0,7E0,5E0,1E0,2E0,1E0,1E0,1E0,1E0,7E0,3E0,1E0,1E0,2.5E1,9E0,5.1E1,6.1E1,1E0,1.1E1,1.1E1,1.3E1,1.9E1,2.2E1,5E0,1.3E1,1E0,4E0,2.3E1,8E0,7.2E1,6E1,2.45E2,9.7765E4],"tree_param":{"num_deleted":"0","num_feature":"16","num_nodes":"95","size_leaf_vector":"0"}},{"base_weights":[-2.1368069E-6,-3.3961723E-3,3.3882826E-3,-3.3995246E-3,4.423297E-2,1.145338E-2,3.3679015E-3,-3.3952002E-3,-1.4416434E-1,2.1273982E-2,-1.4978516E-2,-7.924463E-3,2.5045602E-2,-2.5557766E-2,3.3931944E-3,-3.4028918E-3,1.7152745E-2,-1.3507426E-3,-6.352321E-2,5.537242E-4,-7.2940565E-3,4.005076E-2,-1.4095965E-2,7.3516816E-2,2.0136756E-3,1.5136156E-2,-8.528709E-2,2.6278714E-2,3.377538E-3,-3.3855103E-3,-2.0120818E-2,-1.4560798E-2,3.2957677E-2,-5.9868037E-3,6.227035E-2,7.012239E-3,-2.164904E-2,1.3610493E-1,2.9975748E-2,-5.672924E-2,2.1310506E-2,-4.2531782E-4,1.1523496E-1,-1.3935746E-1,1.6936425E-2,-2.1979347E-2,3.944083E-2,-3.2619134E-2,3.379788E-3,-1.0106853E-3,-6.7438777E-3,-2.636753E-2,-2.7702425E-3,-7.4986233E-3,-6.138217E-4,2.2128174E-2,-3.1141287E-3,2.2492215E-2,-5.9038852E-3,9.552935E-3,-3.4993654E-3,-7.223468E-3,2.1165956E-2,1.3864627E-2,4.9472168E-2,-2.0992808E-2,1.6114412E-2,-3.7140075E-2,-1.1285639E-3,2.176603E-2,2.2561166E-3,-1.165151E-2,2.9904249E-3,8.706571E-2,-3.8407396E-3,1.3831179E-4,-6.878211E-2,-9.957446E-3,8.7204E-3,-2.1454295E-2,-2.6572442E-3,2.7155457E-2,8.080788E-3,-8.091999E-4,1.0229794E-3],"categories":[],"categories_nodes":[],"categories_segments":[],"categories_sizes":[],"default_left":[0,0,0,0,0,0,0,0,0,0,0,0,0,0,0,0,0,0,0,0,0,0,0,0,0,0,0,0,0,0,0,0,0,0,0,0,0,0,0,0,0,0,0,0,0,0,0,0,0,0,0,0,0,0,0,0,0,0,0,0,0,0,0,0,0,0,0,0,0,0,0,0,0,0,0,0,0,0,0,0,0,0,0,0,0],"id":14,"left_children":[1,3,5,7,9,11,13,15,17,-1,19,21,23,25,27,29,31,-1,-1,-1,-1,33,35,37,39,41,43,45,47,49,51,53,55,-1,57,59,61,63,65,67,69,71,73,75,77,79,81,-1,83,-1,-1,-1,-1,-1,-1,-1,-1,-1,-1,-1,-1,-1,-1,-1,-1,-1,-1,-1,-1,-1,-1,-1,-1,-1,-1,-1,-1,-1,-1,-1,-1,-1,-1,-1,-1],"loss_changes":[2.2668846E0,1.586926E-2,1.6160727E-2,5.9434414E-2,1.2120637E-2,6.551868E-2,7.200718E-2,1.5616417E-2,2.736155E-2,0E0,5.160403E-4,3.106071E-2,1.6284421E-1,2.1032429E-1,3.510356E-2,2.8526068E-2,1.9025415E-2,0E0,0E0,0E0,0E0,1.7242579E-2,1.481954E-2,1.2400234E-1,1.14564136E-1,8.1048645E-2,1.9581446E-1,4.3423828E-2,2.5125504E-2,3.1005144E-2,7.444404E-2,1.6464798E-3,4.497368E-2,0E0,1.0845069E-2,1.1965462E-2,1.6929183E-2,4.1570216E-2,7.256851E-2,8.834865E-2,5.315946E-2,1.8752286E-2,1.6054708E-1,2.8926075E-1,8.870505E-3,9.11643E-3,3.1413734E-2,0E0,1.7989159E-2,0E0,0E0,0E0,0E0,0E0,0E0,0E0,0E0,0E0,0E0,0E0,0E0,0E0,0E0,0E0,0E0,0E0,0E0,0E0,0E0,0E0,0E0,0E0,0E0,0E0,0E0,0E0,0E0,0E0,0E0,0E0,0E0,0E0,0E0,0E0,0E0],"parents":[2147483647,0,0,1,1,2,2,3,3,4,4,5,5,6,6,7,7,8,8,10,10,11,11,12,12,13,13,14,14,15,15,16,16,21,21,22,22,23,23,24,24,25,25,26,26,27,27,28,28,29,29,30,30,31,31,32,32,34,34,35,35,36,36,37,37,38,38,39,39,40,40,41,41,42,42,43,43,44,44,45,45,46,46,48,48],"right_children":[2,4,6,8,10,12,14,16,18,-1,20,22,24,26,28,30,32,-1,-1,-1,-1,34,36,38,40,42,44,46,48,50,52,54,56,-1,58,60,62,64,66,68,70,72,74,76,78,80,82,-1,84,-1,-1,-1,-1,-1,-1,-1,-1,-1,-1,-1,-1,-1,-1,-1,-1,-1,-1,-1,-1,-1,-1,-1,-1,-1,-1,-1,-1,-1,-1,-1,-1,-1,-1,-1,-1],"split_conditions":[1.5431426E-1,-2.3655675E-1,-1.454075E0,-2.918985E-1,9.2420095E-1,-1.024555E0,-6.4200693E-1,-6.7929065E-1,3.1346958E0,2.1273982E-2,8.025242E0,6.110262E0,8.772762E-1,-9.149536E-1,1.6829155E-1,-6.2669516E-1,-6.4101624E-1,-1.3507426E-3,-6.352321E-2,5.537242E-4,-7.2940565E-3,-1.85308E0,-6.672031E-1,-1.6591032E-1,-2.4502263E0,8.025242E0,4.547934E-1,-9.149536E-1,-3.3300987E-1,-6.4199823E-1,-1.6590631E-1,3.353905E-1,-6.2396973E-1,-5.9868037E-3,-1.0245334E0,-2.4490702E0,6.695884E-1,-1.0245334E0,-9.201692E-1,4.5899293E-1,4.548086E-1,3.98887E0,-1.024555E0,-6.4101624E-1,-6.6720897E-1,-3.3300987E-1,-3.3300987E-1,-3.2619134E-2,-5.1326543E-1,-1.0106853E-3,-6.7438777E-3,-2.636753E-2,-2.7702425E-3,-7.4986233E-3,-6.138217E-4,2.2128174E-2,-3.1141287E-3,2.2492215E-2,-5.9038852E-3,9.552935E-3,-3.4993654E-3,-7.223468E-3,2.1165956E-2,1.3864627E-2,4.9472168E-2,-2.0992808E-2,1.6114412E-2,-3.7140075E-2,-1.1285639E-3,2.176603E-2,2.2561166E-3,-1.165151E-2,2.9904249E-3,8.706571E-2,-3.8407396E-3,1.3831179E-4,-6.878211E-2,-9.957446E-3,8.7204E-3,-2.1454295E-2,-2.6572442E-3,2.7155457E-2,8.080788E-3,-8.091999E-4,1.0229794E-3],"split_indices":[8,10,10,10,3,15,14,10,0,0,0,6,8,12,1,11,15,0,0,0,0,3,1,4,10,0,12,12,4,3,1,1,2,0,12,12,1,12,14,14,15,6,15,15,4,4,4,0,10,0,0,0,0,0,0,0,0,0,0,0,0,0,0,0,0,0,0,0,0,0,0,0,0,0,0,0,0,0,0,0,0,0,0,0,0],"split_type":[0,0,0,0,0,0,0,0,0,0,0,0,0,0,0,0,0,0,0,0,0,0,0,0,0,0,0,0,0,0,0,0,0,0,0,0,0,0,0,0,0,0,0,0,0,0,0,0,0,0,0,0,0,0,0,0,0,0,0,0,0,0,0,0,0,0,0,0,0,0,0,0,0,0,0,0,0,0,0,0,0,0,0,0,0],"sum_hessian":[1.96995E5,9.8445E4,9.855E4,9.8439E4,6E0,2.47E2,9.8303E4,9.8437E4,2E0,4E0,2E0,1.02E2,1.45E2,8.5E1,9.8218E4,9.8401E4,3.6E1,1E0,1E0,1E0,1E0,1.1E1,9.1E1,4.6E1,9.9E1,5.1E1,3.4E1,6.6E1,9.8152E4,9.83E4,1.01E2,1.2E1,2.4E1,3E0,8E0,2.4E1,6.7E1,1.8E1,2.8E1,2.4E1,7.5E1,4.5E1,6E0,2.2E1,1.2E1,1.4E1,5.2E1,1E0,9.8151E4,9.8216E4,8.4E1,1.3E1,8.8E1,6E0,6E0,1.2E1,1.2E1,7E0,1E0,1E1,1.4E1,6.6E1,1E0,5E0,1.3E1,5E0,2.3E1,1E1,1.4E1,1.5E1,6E1,9E0,3.6E1,2E0,4E0,9E0,1.3E1,2E0,1E1,2E0,1.2E1,9E0,4.3E1,4.84E2,9.7667E4],"tree_param":{"num_deleted":"0","num_feature":"16","num_nodes":"85","size_leaf_vector":"0"}},{"base_weights":[-1.5953195E-6,-2.3977533E-3,2.3642739E-3,-2.3783573E-3,-1.844564E-2,-2.867073E-3,2.3876275E-3,-1.0836775E-3,-2.3969803E-3,-2.447623E-2,6.75345E-2,-1.1496961E-2,-9.519954E-4,3.941148E-2,2.3703375E-3,-2.472125E-3,2.7214602E-2,-2.3976238E-3,5.724073E-3,-1.750334E-2,-8.0543965E-2,5.5993922E-2,2.3854742E-2,-3.4780216E-3,-2.281248E-2,-5.4275305E-3,3.8614483E-3,6.633241E-2,-6.413708E-2,-6.6346854E-2,2.3828554E-3,-2.3914145E-3,-1.4462806E-3,1.215465E-1,1.3734088E-2,-2.3908806E-3,-4.0135086E-3,-1.2992953E-2,-4.2195998E-2,-1.1139613E-1,9.009391E-3,-6.2649526E-2,7.098635E-2,-6.3633043E-3,5.7081017E-3,-7.828321E-3,-3.4864374E-2,-2.8466422E-3,-1.2304689E-2,3.654029E-2,-1.179109E-4,-3.2991623E-3,1.0418697E-1,6.671654E-2,-1.2974814E-1,-1.2168815E-2,-1.325483E-1,2.6015455E-2,2.3777E-3,-7.127041E-4,-1.6024882E-3,-1.0149063E-3,1.4940798E-1,1.306923E-2,-9.3370234E-4,-7.1717263E-4,-2.3317086E-3,-1.1570631E-3,-4.089019E-3,-8.09515E-3,-1.9441528E-3,-3.8308103E-3,-4.6693824E-2,1.0444156E-2,-4.0207237E-2,-6.302667E-3,1.4859635E-2,-2.8172301E-2,-1.99856E-5,3.1350616E-2,4.1425647E-3,-9.5373386E-4,-2.1819766E-3,7.7971094E-3,4.5044985E-4,-6.0589765E-3,4.8368901E-4,-1.4615339E-2,-8.227923E-3,-1.1159631E-3,3.7475186E-4,3.6805284E-3,-5.579209E-3,-5.3660832E-3,7.353424E-2,2.3245884E-3,-2.7137706E-3,7.569886E-3,-6.5861996E-3,1.3369319E-2,4.1096866E-2,2.5658341E-2,1.5424133E-3,-5.4358087E-2,-2.2688508E-4,-5.590453E-3,-2.0478433E-4,-4.7504406E-2,-1.1029841E-2,-6.9965157E-3,7.171355E-4],"categories":[],"categories_nodes":[],"categories_segments":[],"categories_sizes":[],"default_left":[0,0,0,0,0,0,0,0,0,0,0,0,0,0,0,0,0,0,0,0,0,0,0,0,0,0,0,0,0,0,0,0,0,0,0,0,0,0,0,0,0,0,0,0,0,0,0,0,0,0,0,0,0,0,0,0,0,0,0,0,0,0,0,0,0,0,0,0,0,0,0,0,0,0,0,0,0,0,0,0,0,0,0,0,0,0,0,0,0,0,0,0,0,0,0,0,0,0,0,0,0,0,0,0,0,0,0,0,0,0,0],"id":15,"left_children":[1,3,5,7,9,11,13,15,17,19,21,23,25,27,29,31,33,35,-1,37,39,-1,41,43,45,47,49,51,53,55,57,59,-1,61,63,65,67,69,71,73,75,77,79,81,83,85,87,89,91,93,95,97,99,101,103,105,107,-1,109,-1,-1,-1,-1,-1,-1,-1,-1,-1,-1,-1,-1,-1,-1,-1,-1,-1,-1,-1,-1,-1,-1,-1,-1,-1,-1,-1,-1,-1,-1,-1,-1,-1,-1,-1,-1,-1,-1,-1,-1,-1,-1,-1,-1,-1,-1,-1,-1,-1,-1,-1,-1],"loss_changes":[1.1167754E0,3.0420065E-2,1.2117147E-2,2.3543239E-3,6.283729E-2,7.277421E-3,6.307894E-2,5.4602735E-2,1.3781786E-3,4.198613E-2,3.7169833E-2,7.1797343E-3,7.819429E-3,1.32485E-1,8.500677E-2,2.3946632E-4,8.098743E-2,1.0403991E-3,0E0,1.0589095E-2,3.415858E-2,0E0,3.298686E-2,1.3085413E-3,5.686458E-3,3.3018189E-3,2.2761455E-2,9.787102E-2,9.451079E-2,6.294701E-2,4.267162E-2,4.682038E-5,0E0,3.7795264E-1,2.928228E-2,1.3911724E-4,5.484265E-4,7.6610055E-3,4.80893E-2,3.444182E-2,5.9063053E-3,5.8624214E-3,8.13875E-3,8.408341E-5,9.848083E-4,1.9007883E-3,5.1858835E-4,4.9821846E-4,8.114321E-3,2.2007419E-1,1.1096576E-2,8.00563E-3,4.083374E-2,4.193494E-3,4.6315305E-2,8.042505E-4,1.3947353E-2,0E0,3.2372892E-2,0E0,0E0,0E0,0E0,0E0,0E0,0E0,0E0,0E0,0E0,0E0,0E0,0E0,0E0,0E0,0E0,0E0,0E0,0E0,0E0,0E0,0E0,0E0,0E0,0E0,0E0,0E0,0E0,0E0,0E0,0E0,0E0,0E0,0E0,0E0,0E0,0E0,0E0,0E0,0E0,0E0,0E0,0E0,0E0,0E0,0E0,0E0,0E0,0E0,0E0,0E0,0E0],"parents":[2147483647,0,0,1,1,2,2,3,3,4,4,5,5,6,6,7,7,8,8,9,9,10,10,11,11,12,12,13,13,14,14,15,15,16,16,17,17,19,19,20,20,22,22,23,23,24,24,25,25,26,26,27,27,28,28,29,29,30,30,31,31,33,33,34,34,35,35,36,36,37,37,38,38,39,39,40,40,41,41,42,42,43,43,44,44,45,45,46,46,47,47,48,48,49,49,50,50,51,51,52,52,53,53,54,54,55,55,56,56,58,58],"right_children":[2,4,6,8,10,12,14,16,18,20,22,24,26,28,30,32,34,36,-1,38,40,-1,42,44,46,48,50,52,54,56,58,60,-1,62,64,66,68,70,72,74,76,78,80,82,84,86,88,90,92,94,96,98,100,102,104,106,108,-1,110,-1,-1,-1,-1,-1,-1,-1,-1,-1,-1,-1,-1,-1,-1,-1,-1,-1,-1,-1,-1,-1,-1,-1,-1,-1,-1,-1,-1,-1,-1,-1,-1,-1,-1,-1,-1,-1,-1,-1,-1,-1,-1,-1,-1,-1,-1,-1,-1,-1,-1,-1,-1],"split_conditions":[-8.3430207E-1,-9.149724E-1,-9.149724E-1,-1.8463815E0,8.027138E0,3.9889297E0,-6.672031E-1,-1.8464235E0,5.312234E-1,-8.343085E-1,-7.056564E-1,-1.1220627E0,-1.1597273E0,6.110262E0,-6.6720897E-1,8.025242E0,-2.3957756E0,2.2217197E0,5.724073E-3,-6.4101624E-1,-6.2396973E-1,5.5993922E-2,-6.4101624E-1,-6.2669516E-1,3.146014E0,1.5431003E-1,-2.505654E0,2.2217197E0,-2.3957756E0,-6.4101624E-1,-2.4036067E0,1.5431426E-1,-1.4462806E-3,-2.9484034E0,-2.505654E0,-9.172441E-1,-1.23275E0,-9.178521E-1,3.9889297E0,-8.894961E-3,3.9889297E0,-1.0245334E0,-5.132824E-1,-9.201692E-1,-3.3300525E-1,-9.149536E-1,-9.178521E-1,-5.001042E-1,-6.672031E-1,-1.024555E0,-1.6591032E-1,-6.410042E-1,-6.4101624E-1,-1.0245334E0,-8.4534436E-1,8.366873E-1,1.6829155E-1,2.6015455E-2,-2.3948846E0,-7.127041E-4,-1.6024882E-3,-1.0149063E-3,1.4940798E-1,1.306923E-2,-9.3370234E-4,-7.1717263E-4,-2.3317086E-3,-1.1570631E-3,-4.089019E-3,-8.09515E-3,-1.9441528E-3,-3.8308103E-3,-4.6693824E-2,1.0444156E-2,-4.0207237E-2,-6.302667E-3,1.4859635E-2,-2.8172301E-2,-1.99856E-5,3.1350616E-2,4.1425647E-3,-9.5373386E-4,-2.1819766E-3,7.7971094E-3,4.5044985E-4,-6.0589765E-3,4.8368901E-4,-1.4615339E-2,-8.227923E-3,-1.1159631E-3,3.7475186E-4,3.6805284E-3,-5.579209E-3,-5.3660832E-3,7.353424E-2,2.3245884E-3,-2.7137706E-3,7.569886E-3,-6.5861996E-3,1.3369319E-2,4.1096866E-2,2.5658341E-2,1.5424133E-3,-5.4358087E-2,-2.2688508E-4,-5.590453E-3,-2.0478433E-4,-4.7504406E-2,-1.1029841E-2,-6.9965157E-3,7.171355E-4],"split_indices":[1,15,15,12,6,0,1,15,9,4,8,2,9,6,4,0,9,6,0,15,2,0,15,11,6,7,2,6,9,15,14,8,0,2,2,3,2,12,0,0,0,12,2,14,1,12,12,1,1,15,4,12,15,12,2,1,1,0,10,0,0,0,0,0,0,0,0,0,0,0,0,0,0,0,0,0,0,0,0,0,0,0,0,0,0,0,0,0,0,0,0,0,0,0,0,0,0,0,0,0,0,0,0,0,0,0,0,0,0,0,0],"split_type":[0,0,0,0,0,0,0,0,0,0,0,0,0,0,0,0,0,0,0,0,0,0,0,0,0,0,0,0,0,0,0,0,0,0,0,0,0,0,0,0,0,0,0,0,0,0,0,0,0,0,0,0,0,0,0,0,0,0,0,0,0,0,0,0,0,0,0,0,0,0,0,0,0,0,0,0,0,0,0,0,0,0,0,0,0,0,0,0,0,0,0,0,0,0,0,0,0,0,0,0,0,0,0,0,0,0,0,0,0,0,0],"sum_hessian":[1.96995E5,9.7871E4,9.9124E4,9.7754E4,1.17E2,4.4E2,9.8684E4,1.387E3,9.6367E4,1.1E2,7E0,7.9E1,3.61E2,4.5E1,9.8639E4,1.323E3,6.4E1,9.6365E4,2E0,9.9E1,1.1E1,1E0,6E0,4.7E1,3.2E1,1.87E2,1.74E2,3.6E1,9E0,1.7E1,9.8622E4,1.281E3,4.2E1,7E0,5.7E1,9.5967E4,3.98E2,8.5E1,1.4E1,8E0,3E0,2E0,4E0,3.6E1,1.1E1,1.5E1,1.7E1,1.37E2,5E1,1.8E1,1.56E2,1.3E1,2.3E1,3E0,6E0,1E1,7E0,5E0,9.8617E4,1.276E3,5E0,6E0,1E0,2E1,3.7E1,9.5963E4,4E0,3.93E2,5E0,2.6E1,5.9E1,1.2E1,2E0,1E0,7E0,2E0,1E0,1E0,1E0,2E0,2E0,9E0,2.7E1,1E0,1E1,6E0,9E0,4E0,1.3E1,1.13E2,2.4E1,1E1,4E1,1.5E1,3E0,8.3E1,7.3E1,5E0,8E0,9E0,1.4E1,2E0,1E0,4E0,2E0,6E0,4E0,5E0,2E0,4.8E1,9.8569E4],"tree_param":{"num_deleted":"0","num_feature":"16","num_nodes":"111","size_leaf_vector":"0"}},{"base_weights":[-3.131238E-7,-1.6700467E-3,1.662434E-3,-1.6528694E-3,-3.232088E-2,1.1094348E-2,1.6393318E-3,-1.6713777E-3,1.4724044E-2,-7.182271E-2,2.9914002E-3,-4.186906E-3,1.9001579E-2,-2.2799922E-2,1.6544648E-3,-1.6627139E-3,-6.693173E-2,6.6551596E-2,-4.4168164E-3,-2.4234349E-2,-1.17546886E-1,-5.407574E-3,2.6764527E-2,-5.7337484E-3,1.839813E-2,9.462236E-2,1.541761E-2,-3.2356875E-3,-3.157337E-2,5.3023398E-2,1.647661E-3,-1.674233E-3,1.8183187E-2,1.6209972E-3,-6.647419E-2,-1.8991712E-2,9.852151E-2,-1.1978147E-2,4.0689122E-2,-1.8522596E-2,-1.4773072E-2,-4.468322E-2,-2.3791695E-2,2.91635E-2,-1.0088796E-2,2.334989E-2,8.35004E-3,-2.3476197E-4,-9.432357E-3,1.6650692E-2,8.436786E-2,9.409462E-3,4.7319345E-2,-1.0246871E-2,1.9496523E-2,-4.1417986E-2,-3.5103285E-3,1.1026533E-1,3.4640245E-3,2.6862493E-2,1.635081E-3,-4.9739884E-4,-6.1778743E-3,-4.548435E-3,3.6504548E-2,7.123046E-4,-7.73875E-4,-2.0308313E-3,-1.2353937E-2,9.914576E-4,3.7899602E-2,-3.20464E-4,-1.9658891E-2,-1.7681368E-2,3.6081295E-2,-6.375776E-3,-2.971229E-3,1.2630693E-2,4.9288274E-4,-1.7695561E-2,-5.511963E-4,4.527855E-3,-1.7013968E-3,-6.8513514E-4,1.1136279E-3,-2.7711663E-4,-3.397112E-3,-1.2049024E-2,1.652958E-2,1.951159E-2,1.9991961E-3,2.2745203E-2,-2.5804383E-3,-2.3168138E-4,-7.9136165E-3,3.1590668E-4,-1.4324697E-2,-3.1124277E-3,2.4524475E-3,6.9187656E-2,-2.2713402E-3,-9.821202E-3,9.519693E-3,-4.238287E-3,3.910407E-2,-1.9630345E-2,4.9563544E-4],"categories":[],"categories_nodes":[],"categories_segments":[],"categories_sizes":[],"default_left":[0,0,0,0,0,0,0,0,0,0,0,0,0,0,0,0,0,0,0,0,0,0,0,0,0,0,0,0,0,0,0,0,0,0,0,0,0,0,0,0,0,0,0,0,0,0,0,0,0,0,0,0,0,0,0,0,0,0,0,0,0,0,0,0,0,0,0,0,0,0,0,0,0,0,0,0,0,0,0,0,0,0,0,0,0,0,0,0,0,0,0,0,0,0,0,0,0,0,0,0,0,0,0,0,0,0,0],"id":16,"left_children":[1,3,5,7,9,11,13,15,17,19,21,23,25,27,29,31,33,35,37,39,41,43,45,47,-1,49,51,53,55,57,59,61,63,65,-1,67,69,71,73,75,-1,-1,-1,77,79,-1,81,83,85,87,-1,89,91,93,-1,95,97,99,101,103,105,-1,-1,-1,-1,-1,-1,-1,-1,-1,-1,-1,-1,-1,-1,-1,-1,-1,-1,-1,-1,-1,-1,-1,-1,-1,-1,-1,-1,-1,-1,-1,-1,-1,-1,-1,-1,-1,-1,-1,-1,-1,-1,-1,-1,-1,-1],"loss_changes":[5.469316E-1,5.1697224E-2,2.1489382E-2,2.9801458E-2,7.693434E-2,2.9200163E-2,3.6453754E-2,5.537045E-2,1.1040861E-1,5.3725734E-2,6.134828E-3,8.762843E-3,4.1633714E-2,1.0368232E-2,3.430581E-2,2.2460282E-2,1.3818003E-1,8.391547E-2,2.8454375E-2,1.0877317E-3,3.7965626E-3,4.0164255E-3,6.8732845E-3,1.6655503E-3,0E0,9.716607E-2,2.8880317E-2,1.0232561E-2,1.1457942E-2,3.6497403E-2,3.1166464E-2,3.0088007E-2,1.9855896E-1,3.776996E-5,0E0,2.1619347E-3,5.7839006E-2,4.1411266E-2,1.0223056E-1,9.53814E-5,0E0,0E0,0E0,9.990779E-4,8.364443E-3,0E0,7.4740004E-4,2.8344212E-4,7.780879E-4,1.5319246E-2,0E0,1.9421294E-2,3.889928E-2,2.8836417E-3,0E0,8.385684E-3,1.0473548E-3,8.6843E-2,9.225634E-3,2.0969157E-1,1.1248398E-1,0E0,0E0,0E0,0E0,0E0,0E0,0E0,0E0,0E0,0E0,0E0,0E0,0E0,0E0,0E0,0E0,0E0,0E0,0E0,0E0,0E0,0E0,0E0,0E0,0E0,0E0,0E0,0E0,0E0,0E0,0E0,0E0,0E0,0E0,0E0,0E0,0E0,0E0,0E0,0E0,0E0,0E0,0E0,0E0,0E0,0E0],"parents":[2147483647,0,0,1,1,2,2,3,3,4,4,5,5,6,6,7,7,8,8,9,9,10,10,11,11,12,12,13,13,14,14,15,15,16,16,17,17,18,18,19,19,20,20,21,21,22,22,23,23,25,25,26,26,27,27,28,28,29,29,30,30,31,31,32,32,33,33,35,35,36,36,37,37,38,38,39,39,43,43,44,44,46,46,47,47,48,48,49,49,51,51,52,52,53,53,55,55,56,56,57,57,58,58,59,59,60,60],"right_children":[2,4,6,8,10,12,14,16,18,20,22,24,26,28,30,32,34,36,38,40,42,44,46,48,-1,50,52,54,56,58,60,62,64,66,-1,68,70,72,74,76,-1,-1,-1,78,80,-1,82,84,86,88,-1,90,92,94,-1,96,98,100,102,104,106,-1,-1,-1,-1,-1,-1,-1,-1,-1,-1,-1,-1,-1,-1,-1,-1,-1,-1,-1,-1,-1,-1,-1,-1,-1,-1,-1,-1,-1,-1,-1,-1,-1,-1,-1,-1,-1,-1,-1,-1,-1,-1,-1,-1,-1,-1],"split_conditions":[-3.3300525E-1,-9.0068805E-1,-1.5647585E0,-9.0698135E-1,-7.9000074E-1,-1.024555E0,-1.3987333E0,-5.001042E-1,-1.23275E0,-6.4101624E-1,6.110262E0,6.695884E-1,-9.17871E-1,-9.178521E-1,-9.201563E-1,1.5431003E-1,-6.4101624E-1,-1.0245334E0,-6.4199823E-1,1.5305475E0,-5.001042E-1,-3.169669E0,-5.132824E-1,1.5431003E-1,1.839813E-2,8.025242E0,-1.675442E0,-6.4101624E-1,3.353905E-1,-1.0245334E0,-6.2669516E-1,-6.672031E-1,-1.0245334E0,-6.410042E-1,-6.647419E-2,-1.024555E0,-6.6720897E-1,-6.2669516E-1,-6.4101624E-1,-5.001042E-1,-1.4773072E-2,-4.468322E-2,-2.3791695E-2,-8.3430207E-1,-8.3430207E-1,2.334989E-2,3.8091898E0,-6.4199823E-1,-1.1596985E0,1.6829155E-1,8.436786E-2,-2.4036067E0,4.548086E-1,4.841527E0,1.9496523E-2,-9.17871E-1,4.548086E-1,-1.024555E0,-6.410042E-1,-1.066719E0,-6.4199823E-1,-4.9739884E-4,-6.1778743E-3,-4.548435E-3,3.6504548E-2,7.123046E-4,-7.73875E-4,-2.0308313E-3,-1.2353937E-2,9.914576E-4,3.7899602E-2,-3.20464E-4,-1.9658891E-2,-1.7681368E-2,3.6081295E-2,-6.375776E-3,-2.971229E-3,1.2630693E-2,4.9288274E-4,-1.7695561E-2,-5.511963E-4,4.527855E-3,-1.7013968E-3,-6.8513514E-4,1.1136279E-3,-2.7711663E-4,-3.397112E-3,-1.2049024E-2,1.652958E-2,1.951159E-2,1.9991961E-3,2.2745203E-2,-2.5804383E-3,-2.3168138E-4,-7.9136165E-3,3.1590668E-4,-1.4324697E-2,-3.1124277E-3,2.4524475E-3,6.9187656E-2,-2.2713402E-3,-9.821202E-3,9.519693E-3,-4.238287E-3,3.910407E-2,-1.9630345E-2,4.9563544E-4],"split_indices":[1,2,10,11,2,15,10,1,2,15,6,1,15,12,3,7,15,12,3,0,1,10,2,7,0,0,10,15,1,12,11,1,12,12,0,15,4,11,15,1,0,0,0,1,1,0,8,3,11,1,0,14,15,0,0,15,15,15,12,2,3,0,0,0,0,0,0,0,0,0,0,0,0,0,0,0,0,0,0,0,0,0,0,0,0,0,0,0,0,0,0,0,0,0,0,0,0,0,0,0,0,0,0,0,0,0,0],"split_type":[0,0,0,0,0,0,0,0,0,0,0,0,0,0,0,0,0,0,0,0,0,0,0,0,0,0,0,0,0,0,0,0,0,0,0,0,0,0,0,0,0,0,0,0,0,0,0,0,0,0,0,0,0,0,0,0,0,0,0,0,0,0,0,0,0,0,0,0,0,0,0,0,0,0,0,0,0,0,0,0,0,0,0,0,0,0,0,0,0,0,0,0,0,0,0,0,0,0,0,0,0,0,0,0,0,0,0],"sum_hessian":[1.96995E5,9.8291E4,9.8704E4,9.8237E4,5.4E1,2.4E2,9.8464E4,9.8127E4,1.1E2,2.5E1,2.9E1,8.2E1,1.58E2,6E1,9.8404E4,9.8115E4,1.2E1,2.9E1,8.1E1,1.3E1,1.2E1,2.2E1,7E0,8.1E1,1E0,6E0,1.52E2,1.9E1,4.1E1,1.2E1,9.8392E4,9.8059E4,5.6E1,9E0,3E0,8E0,2.1E1,7E1,1.1E1,1.2E1,1E0,5E0,7E0,2E0,2E1,1E0,6E0,3.3E1,4.8E1,5E0,1E0,1.29E2,2.3E1,1.8E1,1E0,3E1,1.1E1,5E0,7E0,4.8E1,9.8344E4,9.7976E4,8.3E1,4.3E1,1.3E1,8E0,1E0,6E0,2E0,5E0,1.6E1,5.9E1,1.1E1,5E0,6E0,8E0,4E0,1E0,1E0,2E0,1.8E1,4E0,2E0,2.2E1,1.1E1,9E0,3.9E1,2E0,3E0,5E0,1.24E2,1.5E1,8E0,1.2E1,6E0,4E0,2.6E1,7E0,4E0,2E0,3E0,3E0,4E0,3.5E1,1.3E1,2.4E1,9.832E4],"tree_param":{"num_deleted":"0","num_feature":"16","num_nodes":"107","size_leaf_vector":"0"}},{"base_weights":[4.7663494E-7,-1.1792013E-3,1.1652427E-3,-1.1728248E-3,-2.4243819E-2,3.821386E-3,1.1412485E-3,-1.1658808E-3,-8.538355E-3,2.7741538E-2,-4.268626E-2,1.4966678E-2,1.2345826E-3,-1.6346248E-2,1.1624455E-3,-1.2178185E-4,-1.1818641E-3,-1.0613073E-2,3.97587E-2,-7.6705396E-2,-2.2308739E-2,4.5392346E-2,-5.364871E-3,3.615894E-3,-6.7488123E-3,-2.8248248E-4,-4.1832604E-2,1.2805994E-1,1.1585538E-3,-1.1823893E-3,4.489996E-3,-1.1827853E-3,1.6791916E-2,-4.7802527E-2,-7.830337E-3,-5.2920498E-2,4.7669444E-2,3.7763555E-2,-3.4766275E-2,1.0250261E-2,1.4048746E-1,-5.1938143E-2,9.0450794E-4,-2.7559968E-3,9.386219E-3,5.7267915E-2,-1.2562443E-2,9.306218E-3,-3.562316E-2,-1.0931794E-1,-8.891581E-3,7.9610094E-2,-2.198312E-2,4.996073E-2,1.1490901E-3,-3.4830824E-4,-8.377713E-4,1.2990766E-2,-4.536943E-4,-3.5285688E-4,-7.4013247E-4,5.6508426E-3,1.2922526E-3,-4.331961E-3,-2.290557E-2,1.8807572E-3,-3.012241E-3,-2.3871846E-2,5.7622066E-5,-1.8033909E-2,8.44073E-3,7.3031355E-5,7.50877E-2,2.8974847E-3,8.107305E-2,1.3464976E-2,-3.8252454E-2,-4.8818365E-3,5.5330256E-3,9.1263396E-4,-1.6193379E-2,-8.357806E-4,5.5541387E-3,8.649788E-3,2.711286E-2,-8.334224E-3,5.8028637E-3,-3.3847571E-4,1.5080573E-2,-7.67832E-3,-2.790818E-2,1.6602915E-3,-4.5475658E-2,-7.915195E-3,1.4065086E-2,-1.5700918E-2,2.707012E-2,-1.5517299E-2,3.469875E-4],"categories":[],"categories_nodes":[],"categories_segments":[],"categories_sizes":[],"default_left":[0,0,0,0,0,0,0,0,0,0,0,0,0,0,0,0,0,0,0,0,0,0,0,0,0,0,0,0,0,0,0,0,0,0,0,0,0,0,0,0,0,0,0,0,0,0,0,0,0,0,0,0,0,0,0,0,0,0,0,0,0,0,0,0,0,0,0,0,0,0,0,0,0,0,0,0,0,0,0,0,0,0,0,0,0,0,0,0,0,0,0,0,0,0,0,0,0,0,0],"id":17,"left_children":[1,3,5,7,9,11,13,15,17,-1,19,21,23,25,27,29,31,33,35,-1,37,39,41,43,45,47,49,51,53,55,57,59,61,63,65,67,-1,-1,69,71,73,75,77,79,81,83,85,87,89,91,93,-1,-1,95,97,-1,-1,-1,-1,-1,-1,-1,-1,-1,-1,-1,-1,-1,-1,-1,-1,-1,-1,-1,-1,-1,-1,-1,-1,-1,-1,-1,-1,-1,-1,-1,-1,-1,-1,-1,-1,-1,-1,-1,-1,-1,-1,-1,-1],"loss_changes":[2.706835E-1,1.4365956E-2,6.3130707E-3,4.994422E-3,6.206534E-2,2.5554337E-2,3.6434487E-2,1.6311854E-3,9.640615E-3,0E0,9.84651E-2,1.0354988E-1,1.3731296E-2,4.8707597E-2,4.8309058E-2,7.219956E-3,1.6139746E-3,8.8361595E-3,5.257596E-2,0E0,4.6835426E-2,2.224633E-1,2.953751E-2,2.046881E-2,6.2499575E-2,2.540798E-2,1.0128767E-1,1.02380276E-1,4.525885E-2,3.8033468E-5,6.4363815E-2,8.126646E-4,4.6467874E-5,4.612386E-3,2.680936E-3,4.262004E-3,0E0,0E0,3.6767296E-2,1.2004198E-1,3.0295566E-1,9.352453E-2,2.7414521E-2,7.886666E-2,3.2493442E-2,1.057443E-2,7.4825734E-2,2.5274526E-2,6.8300944E-3,7.365681E-2,3.2457523E-2,0E0,0E0,8.299893E-2,3.914264E-2,0E0,0E0,0E0,0E0,0E0,0E0,0E0,0E0,0E0,0E0,0E0,0E0,0E0,0E0,0E0,0E0,0E0,0E0,0E0,0E0,0E0,0E0,0E0,0E0,0E0,0E0,0E0,0E0,0E0,0E0,0E0,0E0,0E0,0E0,0E0,0E0,0E0,0E0,0E0,0E0,0E0,0E0,0E0,0E0],"parents":[2147483647,0,0,1,1,2,2,3,3,4,4,5,5,6,6,7,7,8,8,10,10,11,11,12,12,13,13,14,14,15,15,16,16,17,17,18,18,20,20,21,21,22,22,23,23,24,24,25,25,26,26,27,27,28,28,29,29,30,30,31,31,32,32,33,33,34,34,35,35,38,38,39,39,40,40,41,41,42,42,43,43,44,44,45,45,46,46,47,47,48,48,49,49,50,50,53,53,54,54],"right_children":[2,4,6,8,10,12,14,16,18,-1,20,22,24,26,28,30,32,34,36,-1,38,40,42,44,46,48,50,52,54,56,58,60,62,64,66,68,-1,-1,70,72,74,76,78,80,82,84,86,88,90,92,94,-1,-1,96,98,-1,-1,-1,-1,-1,-1,-1,-1,-1,-1,-1,-1,-1,-1,-1,-1,-1,-1,-1,-1,-1,-1,-1,-1,-1,-1,-1,-1,-1,-1,-1,-1,-1,-1,-1,-1,-1,-1,-1,-1,-1,-1,-1,-1],"split_conditions":[-8.3430207E-1,-6.4101624E-1,-1.0113411E0,-9.149724E-1,-2.0075612E0,3.9889297E0,-3.3300987E-1,-1.0818936E0,8.025242E0,2.7741538E-2,-1.8415302E0,-3.3300987E-1,-1.2880937E0,-6.410042E-1,-9.178521E-1,-1.8464235E0,8.3668697E-1,-1.8029783E0,-3.2804654E0,-7.6705396E-2,-1.1374569E0,-6.4101624E-1,2.221754E0,-3.3300987E-1,-9.1725695E-1,8.772534E-1,-6.4199823E-1,3.9889297E0,-6.221153E-1,8.025242E0,-1.8463815E0,2.2217197E0,-9.2062575E-1,3.98887E0,-1.0245334E0,-1.0245334E0,4.7669444E-2,3.7763555E-2,-6.2396973E-1,-9.0068805E-1,-1.3433915E0,-6.4101624E-1,-1.23275E0,-1.1374569E0,-6.410042E-1,-6.4101624E-1,4.547934E-1,4.841527E0,-6.6720897E-1,-6.4101624E-1,-6.221153E-1,7.9610094E-2,-2.198312E-2,-6.4101624E-1,-6.4199823E-1,-3.4830824E-4,-8.377713E-4,1.2990766E-2,-4.536943E-4,-3.5285688E-4,-7.4013247E-4,5.6508426E-3,1.2922526E-3,-4.331961E-3,-2.290557E-2,1.8807572E-3,-3.012241E-3,-2.3871846E-2,5.7622066E-5,-1.8033909E-2,8.44073E-3,7.3031355E-5,7.50877E-2,2.8974847E-3,8.107305E-2,1.3464976E-2,-3.8252454E-2,-4.8818365E-3,5.5330256E-3,9.1263396E-4,-1.6193379E-2,-8.357806E-4,5.5541387E-3,8.649788E-3,2.711286E-2,-8.334224E-3,5.8028637E-3,-3.3847571E-4,1.5080573E-2,-7.67832E-3,-2.790818E-2,1.6602915E-3,-4.5475658E-2,-7.915195E-3,1.4065086E-2,-1.5700918E-2,2.707012E-2,-1.5517299E-2,3.469875E-4],"split_indices":[1,15,10,15,2,0,4,8,0,0,2,4,2,12,12,15,4,11,2,0,14,15,0,4,14,7,3,0,9,0,12,6,7,6,12,12,0,0,2,2,10,15,2,14,12,15,12,0,4,15,9,0,0,15,3,0,0,0,0,0,0,0,0,0,0,0,0,0,0,0,0,0,0,0,0,0,0,0,0,0,0,0,0,0,0,0,0,0,0,0,0,0,0,0,0,0,0,0,0],"split_type":[0,0,0,0,0,0,0,0,0,0,0,0,0,0,0,0,0,0,0,0,0,0,0,0,0,0,0,0,0,0,0,0,0,0,0,0,0,0,0,0,0,0,0,0,0,0,0,0,0,0,0,0,0,0,0,0,0,0,0,0,0,0,0,0,0,0,0,0,0,0,0,0,0,0,0,0,0,0,0,0,0,0,0,0,0,0,0,0,0,0,0,0,0,0,0,0,0,0,0],"sum_hessian":[1.96995E5,9.7871E4,9.9124E4,9.7845E4,2.6E1,8.86E2,9.8238E4,9.7754E4,9.1E1,3E0,2.3E1,1.66E2,7.2E2,1.18E2,9.812E4,1.474E3,9.628E4,8.8E1,3E0,1E0,2.2E1,6.6E1,1E2,5.55E2,1.65E2,7.3E1,4.5E1,2E0,9.8118E4,1.199E3,2.75E2,9.6276E4,4E0,5E0,8.3E1,2E0,1E0,1E0,2.1E1,4.9E1,1.7E1,1.1E1,8.9E1,2.64E2,2.91E2,1.3E1,1.52E2,5.8E1,1.5E1,1.4E1,3.1E1,1E0,1E0,1.8E1,9.81E4,1.185E3,1.4E1,3.6E1,2.39E2,9.5786E4,4.9E2,3E0,1E0,3E0,2E0,1.1E1,7.2E1,1E0,1E0,1.5E1,6E0,4.8E1,1E0,9E0,8E0,5E0,6E0,4.5E1,4.4E1,2.38E2,2.6E1,1.25E2,1.66E2,8E0,5E0,1.03E2,4.9E1,4.7E1,1.1E1,1.4E1,1E0,4E0,1E1,2.4E1,7E0,5E0,1.3E1,1.3E1,9.8087E4],"tree_param":{"num_deleted":"0","num_feature":"16","num_nodes":"99","size_leaf_vector":"0"}},{"base_weights":[1.083401E-6,-8.1363734E-4,8.3176565E-4,-7.797779E-4,-1.3484229E-2,2.9658502E-2,8.267323E-4,-8.1069133E-4,8.183776E-3,-3.7025567E-2,-3.821968E-3,-1.7997393E-2,5.7288755E-2,6.1114565E-3,8.1934413E-4,-7.9875323E-4,-3.2671183E-2,8.785606E-4,2.5534006E-2,-1.1835321E-2,-8.894787E-2,1.7175645E-2,-8.874842E-3,4.449213E-3,-7.7821594E-3,2.2011211E-2,2.3316275E-2,3.2677175E-3,1.6963461E-2,-7.901752E-3,8.1989344E-4,-7.8930287E-4,-2.744754E-2,7.699531E-2,-6.0826544E-2,8.854258E-3,-2.387451E-2,-1.25842085E-2,4.0327076E-2,-3.1971153E-2,5.6358874E-2,5.237872E-3,-1.5208755E-1,3.4220155E-2,8.648345E-3,-6.7461364E-2,-4.306124E-3,9.973729E-3,5.614698E-3,7.766608E-4,7.223054E-3,3.3720054E-2,9.772213E-3,-5.3353347E-3,8.2190806E-4,-2.3964615E-4,7.6015643E-3,4.597845E-4,-2.2982635E-2,2.0074334E-4,3.679716E-2,-2.7505884E-2,1.0649553E-2,4.3125893E-3,-4.470772E-3,-4.277529E-3,-8.7241076E-2,-8.5216835E-3,6.1380904E-4,1.7598348E-2,2.6299637E-3,-1.152491E-3,-2.4060903E-2,8.709616E-3,-1.34253505E-5,-5.9593625E-2,7.68237E-3,-2.0070076E-3,1.665345E-2,4.320071E-3,-5.984116E-4,-9.072226E-2,5.50492E-3,-1.1100494E-2,7.7966077E-4,1.9262733E-4,2.3339868E-3,1.2168228E-3,-1.5078529E-3,3.6744452E-3,-1.4786826E-3,3.337562E-4,1.1465803E-2,3.767125E-3,-3.3368112E-3,-2.0553276E-3,2.0496547E-5,-1.109408E-3,2.4714117E-4],"categories":[],"categories_nodes":[],"categories_segments":[],"categories_sizes":[],"default_left":[0,0,0,0,0,0,0,0,0,0,0,0,0,0,0,0,0,0,0,0,0,0,0,0,0,0,0,0,0,0,0,0,0,0,0,0,0,0,0,0,0,0,0,0,0,0,0,0,0,0,0,0,0,0,0,0,0,0,0,0,0,0,0,0,0,0,0,0,0,0,0,0,0,0,0,0,0,0,0,0,0,0,0,0,0,0,0,0,0,0,0,0,0,0,0,0,0,0,0],"id":18,"left_children":[1,3,5,7,9,11,13,15,17,19,21,23,25,27,29,31,33,35,37,39,41,43,45,-1,-1,-1,47,49,51,-1,53,55,57,59,61,63,65,67,69,71,-1,73,75,77,79,81,83,-1,85,87,89,91,93,95,97,-1,-1,-1,-1,-1,-1,-1,-1,-1,-1,-1,-1,-1,-1,-1,-1,-1,-1,-1,-1,-1,-1,-1,-1,-1,-1,-1,-1,-1,-1,-1,-1,-1,-1,-1,-1,-1,-1,-1,-1,-1,-1,-1,-1],"loss_changes":[1.3332245E-1,4.265719E-2,1.41284615E-2,2.7491607E-2,6.013606E-2,2.3415703E-2,3.8028806E-3,3.7571795E-2,4.3198347E-2,9.965831E-2,2.0205006E-2,2.210023E-3,4.299052E-3,4.141565E-3,1.474537E-3,2.4863712E-2,1.1892825E-1,4.7790337E-2,5.745992E-2,2.1912394E-1,1.4946808E-1,5.0817663E-3,4.066229E-2,0E0,0E0,0E0,6.921729E-4,1.0683635E-3,3.0445037E-3,0E0,1.2121126E-3,2.4584249E-2,4.9981914E-2,2.779949E-2,9.2431694E-2,2.4216946E-2,1.4729548E-1,6.770774E-3,4.172598E-2,6.6172086E-2,0E0,1.3839517E-3,1.2918371E-1,1.0823766E-2,1.6203837E-3,2.2732E-1,3.2380182E-2,0E0,2.730549E-5,1.3144203E-3,2.6250992E-3,1.1311658E-3,1.3616511E-3,2.6256818E-4,8.3729625E-4,0E0,0E0,0E0,0E0,0E0,0E0,0E0,0E0,0E0,0E0,0E0,0E0,0E0,0E0,0E0,0E0,0E0,0E0,0E0,0E0,0E0,0E0,0E0,0E0,0E0,0E0,0E0,0E0,0E0,0E0,0E0,0E0,0E0,0E0,0E0,0E0,0E0,0E0,0E0,0E0,0E0,0E0,0E0,0E0],"parents":[2147483647,0,0,1,1,2,2,3,3,4,4,5,5,6,6,7,7,8,8,9,9,10,10,11,11,12,12,13,13,14,14,15,15,16,16,17,17,18,18,19,19,20,20,21,21,22,22,26,26,27,27,28,28,30,30,31,31,32,32,33,33,34,34,35,35,36,36,37,37,38,38,39,39,41,41,42,42,43,43,44,44,45,45,46,46,48,48,49,49,50,50,51,51,52,52,53,53,54,54],"right_children":[2,4,6,8,10,12,14,16,18,20,22,24,26,28,30,32,34,36,38,40,42,44,46,-1,-1,-1,48,50,52,-1,54,56,58,60,62,64,66,68,70,72,-1,74,76,78,80,82,84,-1,86,88,90,92,94,96,98,-1,-1,-1,-1,-1,-1,-1,-1,-1,-1,-1,-1,-1,-1,-1,-1,-1,-1,-1,-1,-1,-1,-1,-1,-1,-1,-1,-1,-1,-1,-1,-1,-1,-1,-1,-1,-1,-1,-1,-1,-1,-1,-1,-1],"split_conditions":[-2.3655675E-1,4.5898524E-1,3.3538833E-1,5.024879E-1,4.548086E-1,-6.221153E-1,4.548086E-1,3.3538833E-1,6.0580873E0,-5.686072E-1,9.178179E-1,9.2420095E-1,3.722024E-1,9.544278E-1,-3.1144345E0,-6.793134E-1,-6.410042E-1,8.772534E-1,-8.453159E-1,-6.2394893E-1,4.841527E0,4.547934E-1,9.178446E-1,4.449213E-3,-7.7821594E-3,2.2011211E-2,4.548086E-1,3.98887E0,-1.8122046E-1,-7.901752E-3,4.547934E-1,-8.4534436E-1,2.221754E0,-1.066719E0,4.547934E-1,4.547934E-1,6.110262E0,4.547934E-1,9.178446E-1,-9.0065765E-1,5.6358874E-2,3.146014E0,4.547934E-1,-6.410042E-1,1.0037862E0,6.0580873E0,5.2201885E-1,9.973729E-3,2.221754E0,3.146014E0,4.547934E-1,-1.398781E0,3.722024E-1,8.025242E0,8.772534E-1,-2.3964615E-4,7.6015643E-3,4.597845E-4,-2.2982635E-2,2.0074334E-4,3.679716E-2,-2.7505884E-2,1.0649553E-2,4.3125893E-3,-4.470772E-3,-4.277529E-3,-8.7241076E-2,-8.5216835E-3,6.1380904E-4,1.7598348E-2,2.6299637E-3,-1.152491E-3,-2.4060903E-2,8.709616E-3,-1.34253505E-5,-5.9593625E-2,7.68237E-3,-2.0070076E-3,1.665345E-2,4.320071E-3,-5.984116E-4,-9.072226E-2,5.50492E-3,-1.1100494E-2,7.7966077E-4,1.9262733E-4,2.3339868E-3,1.2168228E-3,-1.5078529E-3,3.6744452E-3,-1.4786826E-3,3.337562E-4,1.1465803E-2,3.767125E-3,-3.3368112E-3,-2.0553276E-3,2.0496547E-5,-1.109408E-3,2.4714117E-4],"split_indices":[10,3,4,4,15,9,15,4,0,10,12,3,10,3,2,2,12,7,10,10,0,12,15,0,0,0,15,6,2,0,12,2,0,2,12,12,6,12,15,10,0,6,12,12,1,0,11,0,0,6,12,2,10,0,7,0,0,0,0,0,0,0,0,0,0,0,0,0,0,0,0,0,0,0,0,0,0,0,0,0,0,0,0,0,0,0,0,0,0,0,0,0,0,0,0,0,0,0,0],"split_type":[0,0,0,0,0,0,0,0,0,0,0,0,0,0,0,0,0,0,0,0,0,0,0,0,0,0,0,0,0,0,0,0,0,0,0,0,0,0,0,0,0,0,0,0,0,0,0,0,0,0,0,0,0,0,0,0,0,0,0,0,0,0,0,0,0,0,0,0,0,0,0,0,0,0,0,0,0,0,0,0,0,0,0,0,0,0,0,0,0,0,0,0,0,0,0,0,0,0,0],"sum_hessian":[1.96995E5,9.9453E4,9.7542E4,9.9189E4,2.64E2,1.6E1,9.7526E4,9.8849E4,3.4E2,7.6E1,1.88E2,6E0,1E1,1.35E2,9.7391E4,9.8813E4,3.6E1,2.4E2,1E2,5.2E1,2.4E1,3.6E1,1.52E2,1E0,5E0,6E0,4E0,1.08E2,2.7E1,1E0,9.739E4,9.8779E4,3.4E1,7E0,2.9E1,1.82E2,5.8E1,2.8E1,7.2E1,4.8E1,4E0,1E1,1.4E1,1.1E1,2.5E1,1E1,1.42E2,2E0,2E0,6.7E1,4.1E1,7E0,2E1,3.1E1,9.7359E4,9.8744E4,3.5E1,2.2E1,1.2E1,3E0,4E0,2.2E1,7E0,1.48E2,3.4E1,5.7E1,1E0,1.3E1,1.5E1,4.5E1,2.7E1,3.1E1,1.7E1,1E0,9E0,1.1E1,3E0,4E0,7E0,1.6E1,9E0,2E0,8E0,2.4E1,1.18E2,1E0,1E0,4.3E1,2.4E1,2.9E1,1.2E1,1E0,6E0,1.8E1,2E0,2.4E1,7E0,4E1,9.7319E4],"tree_param":{"num_deleted":"0","num_feature":"16","num_nodes":"99","size_leaf_vector":"0"}},{"base_weights":[1.13076354E-7,-5.861302E-4,5.7894585E-4,-5.7867967E-4,-1.1963336E-2,3.52361E-3,5.523526E-4,-5.794826E-4,1.169318E-2,-1.7708981E-2,1.4410211E-2,1.9329637E-3,1.4741784E-2,-1.398633E-2,5.667163E-4,-5.7027617E-4,-2.3845816E-3,-8.535548E-3,-4.834025E-2,2.8859442E-2,-1.15906E-2,-2.3330936E-2,2.664632E-3,4.197869E-2,-9.513485E-3,2.0616986E-3,-4.006588E-2,5.737263E-2,5.5918517E-4,-5.8839534E-4,2.4631969E-3,-1.8818951E-3,-6.374454E-2,-6.813428E-3,-1.187137E-2,-1.9002618E-2,-2.5683725E-2,6.609655E-3,1.9121762E-2,-2.040565E-4,-8.5705165E-3,9.270235E-3,-9.451491E-2,1.3200562E-2,5.798675E-4,4.6860844E-2,-2.8322387E-2,-3.3617694E-2,9.198953E-3,-4.49804E-3,4.608222E-2,-7.437621E-2,-1.3291738E-2,-3.1555254E-2,1.3810442E-1,6.4440526E-2,5.5592443E-4,-1.7600495E-4,-1.2553937E-2,5.737288E-4,3.221686E-2,-4.921867E-4,-5.5196276E-3,1.794461E-2,-6.516364E-2,-2.6369826E-3,-9.5272646E-4,-7.4265487E-3,-3.4899713E-4,-5.7964533E-4,3.4090788E-3,-1.5463114E-3,2.1970333E-3,-7.70869E-3,5.080626E-2,2.6644878E-2,-4.196184E-2,-2.5570386E-3,7.28884E-3,7.949785E-4,-7.2437874E-3,1.0604773E-2,4.2327937E-2,-1.0124965E-2,-1.805985E-3,-1.4990622E-2,5.370631E-3,6.6381334E-3,-2.595556E-3,1.2796226E-2,-3.384205E-3,4.1655004E-2,3.89819E-3,1.3193366E-3,-3.0300207E-2,9.169112E-3,-1.0738558E-2,-1.1715776E-2,2.0143122E-3,4.8818473E-2,-1.4457643E-3,-9.687066E-3,6.770453E-2,-1.1337968E-2,1.6829997E-4],"categories":[],"categories_nodes":[],"categories_segments":[],"categories_sizes":[],"default_left":[0,0,0,0,0,0,0,0,0,0,0,0,0,0,0,0,0,0,0,0,0,0,0,0,0,0,0,0,0,0,0,0,0,0,0,0,0,0,0,0,0,0,0,0,0,0,0,0,0,0,0,0,0,0,0,0,0,0,0,0,0,0,0,0,0,0,0,0,0,0,0,0,0,0,0,0,0,0,0,0,0,0,0,0,0,0,0,0,0,0,0,0,0,0,0,0,0,0,0,0,0,0,0,0,0],"id":19,"left_children":[1,3,5,7,9,11,13,15,-1,17,19,21,23,25,27,29,31,33,35,37,39,41,43,45,47,49,51,53,55,57,59,61,63,65,-1,67,-1,69,-1,71,-1,73,75,77,79,81,83,85,87,89,91,93,95,97,99,101,103,-1,-1,-1,-1,-1,-1,-1,-1,-1,-1,-1,-1,-1,-1,-1,-1,-1,-1,-1,-1,-1,-1,-1,-1,-1,-1,-1,-1,-1,-1,-1,-1,-1,-1,-1,-1,-1,-1,-1,-1,-1,-1,-1,-1,-1,-1,-1,-1],"loss_changes":[6.684834E-2,8.2893E-3,7.760361E-3,3.1290762E-3,9.953307E-3,1.5799262E-2,2.0523151E-2,1.6240701E-3,0E0,1.4480069E-2,4.842798E-3,1.4443336E-2,7.30696E-2,4.0679563E-2,4.1955095E-2,5.350165E-3,1.5179069E-2,1.9751654E-3,1.1494866E-2,5.787244E-3,9.60762E-4,5.193115E-2,1.6619802E-2,1.9174688E-2,2.6921114E-2,1.782183E-2,3.3000708E-2,9.768893E-2,2.0404862E-2,6.8088435E-3,3.319727E-2,1.9344555E-3,8.8842385E-2,2.6687165E-4,0E0,7.9217204E-4,0E0,2.6559964E-4,0E0,1.8680173E-4,0E0,9.391127E-2,7.063161E-2,3.0337147E-2,3.2463428E-2,4.8165947E-2,2.8101285E-4,2.279701E-2,8.037893E-3,1.7751234E-2,2.275198E-2,3.4001254E-2,2.2805812E-2,2.2706557E-3,2.5419503E-2,8.527224E-2,1.9120764E-2,0E0,0E0,0E0,0E0,0E0,0E0,0E0,0E0,0E0,0E0,0E0,0E0,0E0,0E0,0E0,0E0,0E0,0E0,0E0,0E0,0E0,0E0,0E0,0E0,0E0,0E0,0E0,0E0,0E0,0E0,0E0,0E0,0E0,0E0,0E0,0E0,0E0,0E0,0E0,0E0,0E0,0E0,0E0,0E0,0E0,0E0,0E0,0E0],"parents":[2147483647,0,0,1,1,2,2,3,3,4,4,5,5,6,6,7,7,9,9,10,10,11,11,12,12,13,13,14,14,15,15,16,16,17,17,18,18,19,19,20,20,21,21,22,22,23,23,24,24,25,25,26,26,27,27,28,28,29,29,30,30,31,31,32,32,33,33,35,35,37,37,39,39,41,41,42,42,43,43,44,44,45,45,46,46,47,47,48,48,49,49,50,50,51,51,52,52,53,53,54,54,55,55,56,56],"right_children":[2,4,6,8,10,12,14,16,-1,18,20,22,24,26,28,30,32,34,36,38,40,42,44,46,48,50,52,54,56,58,60,62,64,66,-1,68,-1,70,-1,72,-1,74,76,78,80,82,84,86,88,90,92,94,96,98,100,102,104,-1,-1,-1,-1,-1,-1,-1,-1,-1,-1,-1,-1,-1,-1,-1,-1,-1,-1,-1,-1,-1,-1,-1,-1,-1,-1,-1,-1,-1,-1,-1,-1,-1,-1,-1,-1,-1,-1,-1,