{"learner":{"attributes":{"best_iteration":"99","best_ntree_limit":"100"},"feature_names":[],"feature_types":[],"gradient_booster":{"model":{"gbtree_model_param":{"num_parallel_tree":"1","num_trees":"100","size_leaf_vector":"0"},"tree_info":[0,0,0,0,0,0,0,0,0,0,0,0,0,0,0,0,0,0,0,0,0,0,0,0,0,0,0,0,0,0,0,0,0,0,0,0,0,0,0,0,0,0,0,0,0,0,0,0,0,0,0,0,0,0,0,0,0,0,0,0,0,0,0,0,0,0,0,0,0,0,0,0,0,0,0,0,0,0,0,0,0,0,0,0,0,0,0,0,0,0,0,0,0,0,0,0,0,0,0,0],"trees":[{"base_weights":[2.4461539E0,6.733871E0,-1.93875E1,1.1731482E1,-2.4E1,7.54902E0,1.86375E1,3.375E0,-1.1475E1,1.2727273E1,-1.8421053E0,-4.125E0,4.1000004E0,4E0,2.9818182E1,-7.529412E0,9.3E0,7.5750003E0,5.659091E-1,1.2918751E1,-1.2375001E0,-4.3375E0,2.275E0],"categories":[],"categories_nodes":[],"categories_segments":[],"categories_sizes":[],"default_left":[0,0,0,0,0,0,0,0,0,0,0,0,0,0,0,0,0,0,0,0,0,0,0],"id":0,"left_children":[1,3,-1,5,7,9,-1,11,-1,13,15,-1,-1,17,19,21,-1,-1,-1,-1,-1,-1,-1],"loss_changes":[1.9128016E4,9.804502E3,0E0,1.0912542E4,3.6399375E3,2.5035557E3,0E0,8.928959E2,0E0,4.8029097E3,3.782291E3,0E0,0E0,9.8540906E2,5.1227305E3,1.8897981E3,0E0,0E0,0E0,0E0,0E0,0E0,0E0],"parents":[2147483647,0,0,1,1,3,3,4,4,5,5,7,7,9,9,10,10,13,13,14,14,15,15],"right_children":[2,4,-1,6,8,10,-1,12,-1,14,16,-1,-1,18,20,22,-1,-1,-1,-1,-1,-1,-1],"split_conditions":[2.971876E0,1.0419251E0,-1.93875E1,8.0332065E-1,1.867942E-1,-2.332692E-1,1.86375E1,1.1494681E0,-1.1475E1,-2.9916167E-1,1.1162657E0,-4.125E0,4.1000004E0,-1.4761562E0,2.317855E-1,5.931991E-1,9.3E0,7.5750003E0,5.659091E-1,1.2918751E1,-1.2375001E0,-4.3375E0,2.275E0],"split_indices":[3,8,0,8,0,3,0,1,0,1,3,0,0,7,4,1,0,0,0,0,0,0,0],"split_type":[0,0,0,0,0,0,0,0,0,0,0,0,0,0,0,0,0,0,0,0,0,0,0],"sum_hessian":[6.4E1,6.1E1,3E0,5.3E1,8E0,5E1,3E0,3E0,5E0,3.2E1,1.8E1,1E0,2E0,2.2E1,1E1,1.6E1,2E0,1E0,2.1E1,7E0,3E0,1.1E1,5E0],"tree_param":{"num_deleted":"0","num_feature":"23","num_nodes":"23","size_leaf_vector":"0"}},{"base_weights":[1.9401484E0,5.2652764E0,-5.0084377E1,9.058281E0,-1.8077778E1,-4.5168753E0,-1.7022501E1,5.814895E0,1.4444062E1,2.3562498E0,-2.86875E1,7.821326E0,-7.9142857E0,-3.5062501E0,3.2800002E0,-1.80375E0,-9.606001E0,1.7983736E1,2.140663E0,-1.1104167E1,1.6837502E0,7.849398E0,1.1182791E0,-6.081307E-1,2.8571434E0,-9.39375E-1,-3.62175E0],"categories":[],"categories_nodes":[],"categories_segments":[],"categories_sizes":[],"default_left":[0,0,0,0,0,0,0,0,0,0,0,0,0,0,0,0,0,0,0,0,0,0,0,0,0,0,0],"id":1,"left_children":[1,3,5,7,9,-1,-1,11,-1,13,15,17,19,-1,-1,-1,-1,21,23,25,-1,-1,-1,-1,-1,-1,-1],"loss_changes":[1.1507941E4,5.6532524E3,7.8453125E1,6.566117E3,2.0187893E3,0E0,0E0,1.4667792E3,0E0,6.09601E2,2.608667E2,2.5593179E3,3.64364E2,0E0,0E0,0E0,0E0,1.768523E3,9.424426E2,8.520569E0,0E0,0E0,0E0,0E0,0E0,0E0,0E0],"parents":[2147483647,0,0,1,1,2,2,3,3,4,4,7,7,9,9,10,10,11,11,12,12,17,17,18,18,19,19],"right_children":[2,4,6,8,10,-1,-1,12,-1,14,16,18,20,-1,-1,-1,-1,22,24,26,-1,-1,-1,-1,-1,-1,-1],"split_conditions":[2.971876E0,1.0419251E0,3.869996E-1,8.0332065E-1,1.867942E-1,-4.5168753E0,-1.7022501E1,6.9189984E-1,1.4444062E1,1.1494681E0,3.1231132E-1,-2.502354E-1,2.1476288E-1,-3.5062501E0,3.2800002E0,-1.80375E0,-9.606001E0,1E0,1.70405E-1,8.969072E-1,1.6837502E0,7.849398E0,1.1182791E0,-6.081307E-1,2.8571434E0,-9.39375E-1,-3.62175E0],"split_indices":[3,8,5,8,0,0,0,11,0,1,1,2,0,0,0,0,0,18,9,11,0,0,0,0,0,0,0],"split_type":[0,0,0,0,0,0,0,0,0,0,0,0,0,0,0,0,0,0,0,0,0,0,0,0,0,0,0],"sum_hessian":[6.4E1,6.1E1,3E0,5.3E1,8E0,1E0,2E0,5E1,3E0,3E0,5E0,4.4E1,6E0,1E0,2E0,1E0,4E0,1.5E1,2.9E1,5E0,1E0,9E0,6E0,1.9E1,1E1,1E0,4E0],"tree_param":{"num_deleted":"0","num_feature":"23","num_nodes":"27","size_leaf_vector":"0"}},{"base_weights":[1.1982273E0,3.8654902E0,-1.2133172E1,6.762711E0,-1.3947333E1,4.2339425E0,1.1194149E1,-2.2224499E1,1.9552498E0,8.033796E0,-2.588643E0,-1.5331875E0,-7.387545E0,2.6239998E0,-2.7628498E0,1.2343915E0,1.611079E1,-6.6398635E0,6.369346E0,6.0101786E0,-2.7690697E-1,6.3570266E0,-9.464409E-1,-3.7531726E0,4.585529E-1],"categories":[],"categories_nodes":[],"categories_segments":[],"categories_sizes":[],"default_left":[0,0,0,0,0,0,0,0,0,0,0,0,0,0,0,0,0,0,0,0,0,0,0,0,0],"id":2,"left_children":[1,3,-1,5,7,9,-1,11,13,15,17,-1,-1,-1,-1,19,21,23,-1,-1,-1,-1,-1,-1,-1],"loss_changes":[7.3759185E3,3.293998E3,0E0,4.0138774E3,1.2281095E3,1.3429629E3,0E0,1.2065674E2,3.8385028E2,1.7924319E3,1.9744576E3,0E0,0E0,0E0,0E0,7.891013E2,1.534686E3,8.3434326E2,0E0,0E0,0E0,0E0,0E0,0E0,0E0],"parents":[2147483647,0,0,1,1,3,3,4,4,5,5,7,7,8,8,9,9,10,10,15,15,16,16,17,17],"right_children":[2,4,-1,6,8,10,-1,12,14,16,18,-1,-1,-1,-1,20,22,24,-1,-1,-1,-1,-1,-1,-1],"split_conditions":[2.971876E0,1.0419251E0,-1.2133172E1,8.0332065E-1,1.7279129E0,-2.332692E-1,1.1194149E1,3.1231132E-1,1.867942E-1,-5.984804E-1,1.1162657E0,-1.5331875E0,-7.387545E0,2.6239998E0,-2.7628498E0,-1.4761562E0,2.317855E-1,5.750572E-2,6.369346E0,6.0101786E0,-2.7690697E-1,6.3570266E0,-9.464409E-1,-3.7531726E0,4.585529E-1],"split_indices":[3,8,0,8,8,3,0,1,0,8,3,0,0,0,0,7,4,5,0,0,0,0,0,0,0],"split_type":[0,0,0,0,0,0,0,0,0,0,0,0,0,0,0,0,0,0,0,0,0,0,0,0,0],"sum_hessian":[6.4E1,6.1E1,3E0,5.3E1,8E0,5E1,3E0,5E0,3E0,3.2E1,1.8E1,1E0,4E0,2E0,1E0,1.8E1,1.4E1,1.6E1,2E0,1E0,1.7E1,1.1E1,3E0,9E0,7E0],"tree_param":{"num_deleted":"0","num_feature":"23","num_nodes":"25","size_leaf_vector":"0"}},{"base_weights":[9.036817E-1,2.9696035E0,-3.1344025E1,-6.9410366E-1,1.1963893E1,-2.019368E0,-1.1191365E1,4.9315314E0,-1.1198789E1,2.1026522E1,2.611138E0,3.400356E-1,1.408052E1,-5.9029417E0,-2.1669062E1,2.6188147E1,-3.0399709E0,-5.2260594E0,4.702035E0,-1.3692287E0,3.2887435E0,7.4802628E0,-1.7600081E0,-8.911815E0,9.184351E-2,-1.8721808E0,-7.1898084E0,9.578102E0,3.7402604E0,4.0929146E0,-3.9715557E0,-4.8835304E-2,-1.0524815E0,2.6043184E0,-5.048577E-1,-1.042949E0,7.658916E-1,1.2898403E-1,-3.092332E0,1.1990118E0,-2.329141E0,-5.4692185E-1,2.0017805E0],"categories":[],"categories_nodes":[],"categories_segments":[],"categories_sizes":[],"default_left":[0,0,0,0,0,0,0,0,0,0,0,0,0,0,0,0,0,0,0,0,0,0,0,0,0,0,0,0,0,0,0,0,0,0,0,0,0,0,0,0,0,0,0],"id":3,"left_children":[1,3,5,7,9,-1,-1,11,13,15,17,19,21,23,25,27,-1,29,-1,31,33,-1,35,37,39,-1,-1,-1,-1,41,-1,-1,-1,-1,-1,-1,-1,-1,-1,-1,-1,-1,-1],"loss_changes":[4.42346E3,2.0513557E3,3.3571558E2,2.7145256E3,1.4707869E3,0E0,0E0,1.2554386E3,7.5927246E2,1.712885E3,1.1056296E3,1.1034559E2,1.7631656E3,2.1726904E2,2.7630615E1,2.31875E2,0E0,5.7685944E2,0E0,3.555782E1,2.2907666E2,0E0,4.589129E1,1.0875751E2,1.8440573E2,0E0,0E0,0E0,0E0,7.321021E1,0E0,0E0,0E0,0E0,0E0,0E0,0E0,0E0,0E0,0E0,0E0,0E0,0E0],"parents":[2147483647,0,0,1,1,2,2,3,3,4,4,7,7,8,8,9,9,10,10,11,11,12,12,13,13,14,14,15,15,17,17,19,19,20,20,22,22,23,23,24,24,29,29],"right_children":[2,4,6,8,10,-1,-1,12,14,16,18,20,22,24,26,28,-1,30,-1,32,34,-1,36,38,40,-1,-1,-1,-1,42,-1,-1,-1,-1,-1,-1,-1,-1,-1,-1,-1,-1,-1],"split_conditions":[2.971876E0,3.3762857E-1,3.869996E-1,-2.332692E-1,6.8973273E-1,-2.019368E0,-1.1191365E1,-2.9916167E-1,4.91488E-1,1E0,1E0,-4.084495E-1,8.1227206E-2,-2.434667E-2,1.867942E-1,2.1476288E-1,-3.0399709E0,7.226513E-1,4.702035E0,-6.328693E-1,-1.2065038E-1,7.4802628E0,-1.0926069E0,-6.5237105E-1,2.4056938E-1,-1.8721808E0,-7.1898084E0,9.578102E0,3.7402604E0,-1.5513843E0,-3.9715557E0,-4.8835304E-2,-1.0524815E0,2.6043184E0,-5.048577E-1,-1.042949E0,7.658916E-1,1.2898403E-1,-3.092332E0,1.1990118E0,-2.329141E0,-5.4692185E-1,2.0017805E0],"split_indices":[3,9,5,3,6,0,0,1,10,12,16,4,4,7,0,0,0,3,0,1,5,0,2,4,0,0,0,0,0,1,0,0,0,0,0,0,0,0,0,0,0,0,0],"split_type":[0,0,0,0,0,0,0,0,0,0,0,0,0,0,0,0,0,0,0,0,0,0,0,0,0,0,0,0,0,0,0,0,0,0,0,0,0,0,0,0,0,0,0],"sum_hessian":[6.4E1,6.1E1,3E0,4.4E1,1.7E1,1E0,2E0,2.9E1,1.5E1,8E0,9E0,2E1,9E0,1.1E1,4E0,7E0,1E0,6E0,3E0,1.3E1,7E0,5E0,4E0,7E0,4E0,1E0,3E0,4E0,3E0,3E0,3E0,9E0,4E0,3E0,4E0,3E0,1E0,1E0,6E0,3E0,1E0,1E0,2E0],"tree_param":{"num_deleted":"0","num_feature":"23","num_nodes":"43","size_leaf_vector":"0"}},{"base_weights":[5.4486775E-1,2.1998453E0,-2.5243502E1,-5.9596395E-1,9.067155E0,-1.7164627E0,-8.953093E0,3.7254503E0,-8.661368E0,1.5860609E1,2.046331E0,2.8555557E-1,1.0576684E1,-4.473182E0,-5.094222E0,1.9996498E1,-2.583975E0,-4.01777E0,1.2146924E1,-1.1839514E0,2.3764484E0,5.6101966E0,-1.2874172E0,1.1825528E0,-5.596534E0,7.2793574E0,2.8987017E0,3.2287545E0,-3.0779555E0,4.1793733E0,1.0190947E0,-3.564977E-2,-1.0652282E0,1.6669741E0,-3.836919E-1,-8.0828536E-1,6.510078E-1,-2.2956548E0,-4.797959E-1,-4.6488357E-1,1.6014243E0],"categories":[],"categories_nodes":[],"categories_segments":[],"categories_sizes":[],"default_left":[0,0,0,0,0,0,0,0,0,0,0,0,0,0,0,0,0,0,0,0,0,0,0,0,0,0,0,0,0,0,0,0,0,0,0,0,0,0,0,0,0],"id":4,"left_children":[1,3,5,7,9,-1,-1,11,13,15,17,19,21,23,-1,25,-1,27,29,31,33,-1,35,-1,37,-1,-1,39,-1,-1,-1,-1,-1,-1,-1,-1,-1,-1,-1,-1,-1],"loss_changes":[2.829678E3,1.1957843E3,1.8846338E2,1.6006953E3,8.260657E2,0E0,0E0,7.040055E2,4.8153125E2,1.0832251E3,6.6131366E2,6.733781E1,9.8791174E2,1.3549704E2,0E0,1.1839966E2,0E0,3.497603E2,1.5126648E1,3.235018E1,1.117292E2,0E0,3.0167482E1,0E0,7.814725E1,0E0,0E0,4.8588493E1,0E0,0E0,0E0,0E0,0E0,0E0,0E0,0E0,0E0,0E0,0E0,0E0,0E0],"parents":[2147483647,0,0,1,1,2,2,3,3,4,4,7,7,8,8,9,9,10,10,11,11,12,12,13,13,15,15,17,17,18,18,19,19,20,20,22,22,24,24,27,27],"right_children":[2,4,6,8,10,-1,-1,12,14,16,18,20,22,24,-1,26,-1,28,30,32,34,-1,36,-1,38,-1,-1,40,-1,-1,-1,-1,-1,-1,-1,-1,-1,-1,-1,-1,-1],"split_conditions":[2.971876E0,3.3762857E-1,3.869996E-1,-2.332692E-1,6.8973273E-1,-1.7164627E0,-8.953093E0,-2.9916167E-1,4.91488E-1,1E0,1E0,-4.1464546E-1,8.1227206E-2,-1.2034452E0,-5.094222E0,2.1476288E-1,-2.583975E0,7.226513E-1,3.2348204E-1,-6.328693E-1,-1.2065038E-1,5.6101966E0,-1.0926069E0,1.1825528E0,6.3928014E-1,7.2793574E0,2.8987017E0,-1.5513843E0,-3.0779555E0,4.1793733E0,1.0190947E0,-3.564977E-2,-1.0652282E0,1.6669741E0,-3.836919E-1,-8.0828536E-1,6.510078E-1,-2.2956548E0,-4.797959E-1,-4.6488357E-1,1.6014243E0],"split_indices":[3,9,5,3,6,0,0,1,10,12,16,4,4,2,0,0,0,3,1,1,5,0,2,0,8,0,0,1,0,0,0,0,0,0,0,0,0,0,0,0,0],"split_type":[0,0,0,0,0,0,0,0,0,0,0,0,0,0,0,0,0,0,0,0,0,0,0,0,0,0,0,0,0,0,0,0,0,0,0,0,0,0,0,0,0],"sum_hessian":[6.4E1,6.1E1,3E0,4.4E1,1.7E1,1E0,2E0,2.9E1,1.5E1,8E0,9E0,2E1,9E0,1.1E1,4E0,7E0,1E0,6E0,3E0,1.2E1,8E0,5E0,4E0,1E0,1E1,4E0,3E0,3E0,3E0,2E0,1E0,9E0,3E0,4E0,4E0,3E0,1E0,6E0,4E0,1E0,2E0],"tree_param":{"num_deleted":"0","num_feature":"23","num_nodes":"41","size_leaf_vector":"0"}},{"base_weights":[3.6801946E-1,1.6979456E0,-2.0337841E1,-4.405479E-1,6.949849E0,-1.4589936E0,-7.1624746E0,2.7998548E0,-6.4887686E0,1.5259907E1,3.4855535E0,-3.8456163E-1,6.9936733E0,-3.2744575E0,-1.2905362E1,-3.9515102E-1,5.920041E0,9.880444E0,-2.5456696E0,-2.444492E0,3.7859648E-1,1.1219079E1,1.9418718E-1,-2.0778868E0,-5.827557E-1,-8.272202E-1,-4.425901E0,7.3242635E-1,1.0713377E1,1.9164109E0,-6.588244E0,-9.324666E-1,3.1564254E-2,-5.7112025E-3,8.321755E-1,-3.4713343E-1,3.9457223E0,-8.229412E-1,1.2137672E0,-1.1152545E0,1.0444146E0,3.5103238E0,8.6623055E-1,1.03779E0,-2.7868838E0],"categories":[],"categories_nodes":[],"categories_segments":[],"categories_sizes":[],"default_left":[0,0,0,0,0,0,0,0,0,0,0,0,0,0,0,0,0,0,0,0,0,0,0,0,0,0,0,0,0,0,0,0,0,0,0,0,0,0,0,0,0,0,0,0,0],"id":5,"left_children":[1,3,5,7,9,-1,-1,11,13,15,17,19,21,23,25,-1,-1,27,29,31,33,35,37,-1,39,-1,-1,-1,41,-1,43,-1,-1,-1,-1,-1,-1,-1,-1,-1,-1,-1,-1,-1,-1],"loss_changes":[1.8244548E3,6.993938E2,1.0282703E2,9.001078E2,4.6500378E2,0E0,0E0,4.033355E2,2.8774078E2,3.9678516E2,5.6511847E2,2.9222424E1,3.7131903E2,1.1391937E2,5.306903E1,0E0,0E0,1.7217651E1,3.3100735E2,8.788614E0,1.338726E1,2.066369E2,7.8980644E1,0E0,1.1486283E2,0E0,0E0,0E0,1.2592041E1,0E0,1.9498828E2,0E0,0E0,0E0,0E0,0E0,0E0,0E0,0E0,0E0,0E0,0E0,0E0,0E0,0E0],"parents":[2147483647,0,0,1,1,2,2,3,3,4,4,7,7,8,8,9,9,10,10,11,11,12,12,13,13,14,14,17,17,18,18,19,19,20,20,21,21,22,22,24,24,28,28,30,30],"right_children":[2,4,6,8,10,-1,-1,12,14,16,18,20,22,24,26,-1,-1,28,30,32,34,36,38,-1,40,-1,-1,-1,42,-1,44,-1,-1,-1,-1,-1,-1,-1,-1,-1,-1,-1,-1,-1,-1],"split_conditions":[2.971876E0,3.3762857E-1,3.869996E-1,-1.6882073E-2,-2.8282908E-1,-1.4589936E0,-7.1624746E0,-5.984804E-1,4.91488E-1,-1.5513843E0,1E0,-3.1673843E-1,1E0,-1.3635571E-1,1.867942E-1,-3.9515102E-1,5.920041E0,-1.3204767E-1,5.048522E-1,-8.6580294E-1,2.2563183E-1,-1.1147745E0,-2.865471E-2,-2.0778868E0,5.931991E-1,-8.272202E-1,-4.425901E0,7.3242635E-1,1.3737626E0,1.9164109E0,-1.9020621E-1,-9.324666E-1,3.1564254E-2,-5.7112025E-3,8.321755E-1,-3.4713343E-1,3.9457223E0,-8.229412E-1,1.2137672E0,-1.1152545E0,1.0444146E0,3.5103238E0,8.6623055E-1,1.03779E0,-2.7868838E0],"split_indices":[3,9,5,8,7,0,0,8,10,1,13,2,14,7,0,0,0,7,9,6,0,2,7,0,1,0,0,0,1,0,7,0,0,0,0,0,0,0,0,0,0,0,0,0,0],"split_type":[0,0,0,0,0,0,0,0,0,0,0,0,0,0,0,0,0,0,0,0,0,0,0,0,0,0,0,0,0,0,0,0,0,0,0,0,0,0,0,0,0,0,0,0,0],"sum_hessian":[6.4E1,6.1E1,3E0,4.4E1,1.7E1,1E0,2E0,2.9E1,1.5E1,4E0,1.3E1,1.7E1,1.2E1,1.1E1,4E0,1E0,3E0,6E0,7E0,4E0,1.3E1,7E0,5E0,4E0,7E0,1E0,3E0,1E0,5E0,2E0,5E0,3E0,1E0,1.2E1,1E0,1E0,6E0,3E0,2E0,4E0,3E0,4E0,1E0,1E0,4E0],"tree_param":{"num_deleted":"0","num_feature":"23","num_nodes":"45","size_leaf_vector":"0"}},{"base_weights":[2.3750363E-1,1.3065348E0,-1.6391855E1,-3.8586944E-1,5.46496E0,-1.2401447E0,-5.729979E0,8.0628693E-1,-1.0084377E1,-1.0686951E0,8.060112E0,2.0922954E0,-2.4759247E0,-7.0313704E-1,-3.430073E0,1.9112737E0,-6.3812265E0,1.1990138E1,-6.2595785E-1,8.698415E-2,6.0942197E0,-5.26398E0,-4.2389995E-1,-3.3587837E-1,-2.3285718E0,1.3686764E0,4.4831114E0,8.8850236E-1,-1.2014813E0,1.7059161E-1,-8.9774686E-1,3.2212176E0,-2.0892914E-1,-6.838646E-1,-1.9481254E0,-8.510091E-1,8.094214E-1],"categories":[],"categories_nodes":[],"categories_segments":[],"categories_sizes":[],"default_left":[0,0,0,0,0,0,0,0,0,0,0,0,0,0,0,0,0,0,0,0,0,0,0,0,0,0,0,0,0,0,0,0,0,0,0,0,0],"id":6,"left_children":[1,3,5,7,9,-1,-1,11,13,15,17,19,21,-1,-1,-1,23,25,27,29,31,33,35,-1,-1,-1,-1,-1,-1,-1,-1,-1,-1,-1,-1,-1,-1],"loss_changes":[1.1769413E3,4.3844843E2,5.382715E1,5.284272E2,3.1381866E2,0E0,0E0,1.7823943E2,2.5420074E1,2.777931E2,4.512796E2,2.4022302E2,6.642249E1,0E0,0E0,0E0,2.0368332E1,1.2927173E2,7.247401E1,3.284974E1,3.227794E2,3.5480194E0,6.791507E1,0E0,0E0,0E0,0E0,0E0,0E0,0E0,0E0,0E0,0E0,0E0,0E0,0E0,0E0],"parents":[2147483647,0,0,1,1,2,2,3,3,4,4,7,7,8,8,9,9,10,10,11,11,12,12,16,16,17,17,18,18,19,19,20,20,21,21,22,22],"right_children":[2,4,6,8,10,-1,-1,12,14,16,18,20,22,-1,-1,-1,24,26,28,30,32,34,36,-1,-1,-1,-1,-1,-1,-1,-1,-1,-1,-1,-1,-1,-1],"split_conditions":[2.971876E0,3.3762857E-1,3.869996E-1,4.91488E-1,3.6898209E-3,-1.2401447E0,-5.729979E0,-2.332692E-1,1.867942E-1,-3.3303258E-1,1.0419251E0,-2.9916167E-1,-1.3635571E-1,-7.0313704E-1,-3.430073E0,1.9112737E0,-1.5513843E0,3.1775057E-1,1.867942E-1,-4.6426538E-1,8.1227206E-2,-1.9882229E-1,5.931991E-1,-3.3587837E-1,-2.3285718E0,1.3686764E0,4.4831114E0,8.8850236E-1,-1.2014813E0,1.7059161E-1,-8.9774686E-1,3.2212176E0,-2.0892914E-1,-6.838646E-1,-1.9481254E0,-8.510091E-1,8.094214E-1],"split_indices":[3,9,5,10,1,0,0,3,0,0,8,1,7,0,0,0,1,1,0,8,4,7,1,0,0,0,0,0,0,0,0,0,0,0,0,0,0],"split_type":[0,0,0,0,0,0,0,0,0,0,0,0,0,0,0,0,0,0,0,0,0,0,0,0,0,0,0,0,0,0,0,0,0,0,0,0,0],"sum_hessian":[6.4E1,6.1E1,3E0,4.4E1,1.7E1,1E0,2E0,4E1,4E0,5E0,1.2E1,2.9E1,1.1E1,1E0,3E0,2E0,3E0,8E0,4E0,2E1,9E0,4E0,7E0,1E0,2E0,3E0,5E0,2E0,2E0,1.8E1,2E0,5E0,4E0,2E0,2E0,4E0,3E0],"tree_param":{"num_deleted":"0","num_feature":"23","num_nodes":"37","size_leaf_vector":"0"}},{"base_weights":[6.3081026E-2,9.18832E-1,-1.3216829E1,6.83863E0,1.624495E-1,-1.0541234E0,-4.583983E0,1.3886119E0,4.092736E0,-2.9837174E0,5.270658E-1,1.4053357E0,-6.064611E-1,1.9838755E0,-1.1741402E0,-5.225337E-2,-2.8549662E-1,1.1624901E0,2.6966548E0,-2.0269356E0,1.8118806E0,-1.0560408E-1,8.106413E-1,-2.1170623E0,-2.9169935E-1],"categories":[],"categories_nodes":[],"categories_segments":[],"categories_sizes":[],"default_left":[0,0,0,0,0,0,0,0,0,0,0,0,0,0,0,0,0,0,0,0,0,0,0,0,0],"id":7,"left_children":[1,3,5,7,9,-1,-1,11,-1,-1,13,-1,15,17,19,-1,-1,21,-1,23,-1,-1,-1,-1,-1],"loss_changes":[7.5082324E2,2.765023E2,2.638446E1,2.4062259E2,2.1163596E2,0E0,0E0,3.5718147E1,0E0,0E0,1.386377E2,0E0,4.3112946E-1,1.6216406E2,1.7218987E2,0E0,0E0,6.624164E1,0E0,1.2044866E2,0E0,0E0,0E0,0E0,0E0],"parents":[2147483647,0,0,1,1,2,2,3,3,4,4,7,7,10,10,12,12,13,13,14,14,17,17,19,19],"right_children":[2,4,6,8,10,-1,-1,12,-1,-1,14,-1,16,18,20,-1,-1,22,-1,24,-1,-1,-1,-1,-1],"split_conditions":[2.971876E0,-2.8282908E-1,3.869996E-1,-9.9445117E-1,-1.4694573E0,-1.0541234E0,-4.583983E0,-3.3303258E-1,4.092736E0,-2.9837174E0,-2.332692E-1,1.4053357E0,1.4198156E-1,-4.728744E-1,1.425534E0,-5.225337E-2,-2.8549662E-1,-5.984804E-1,2.6966548E0,3.6898209E-3,1.8118806E0,-1.0560408E-1,8.106413E-1,-2.1170623E0,-2.9169935E-1],"split_indices":[3,7,5,1,2,0,0,0,0,0,3,0,0,10,3,0,0,8,0,1,0,0,0,0,0],"split_type":[0,0,0,0,0,0,0,0,0,0,0,0,0,0,0,0,0,0,0,0,0,0,0,0,0],"sum_hessian":[6.4E1,6.1E1,3E0,6E0,5.5E1,1E0,2E0,4E0,2E0,1E0,5.4E1,1E0,3E0,2.9E1,2.5E1,2E0,1E0,2.7E1,2E0,2.3E1,2E0,1.4E1,1.3E1,3E0,2E1],"tree_param":{"num_deleted":"0","num_feature":"23","num_nodes":"25","size_leaf_vector":"0"}},{"base_weights":[3.405354E-2,7.235275E-1,-1.0661306E1,-5.128759E-1,3.3456185E0,-8.960049E-1,-3.667186E0,3.465655E-1,-7.113944E0,7.817528E0,1.7390457E0,-1.0742582E0,1.8987094E0,-2.7277226E0,-8.2924956E-1,-2.4267213E-1,3.0529091E0,3.9889705E0,-1.0095004E0,-1.7799935E-1,-1.4516577E0,4.62783E0,-1.6478504E0,-4.2375514E-1,4.840721E0,1.054307E0,-3.1031787E0,-2.194935E-1,8.5023314E-1,5.8096856E-1,2.241012E0,4.1742268E-1,-8.144949E-1,1.5650363E0,3.3123866E-1,7.2057486E-1,-1.4053743E0],"categories":[],"categories_nodes":[],"categories_segments":[],"categories_sizes":[],"default_left":[0,0,0,0,0,0,0,0,0,0,0,0,0,0,0,0,0,0,0,0,0,0,0,0,0,0,0,0,0,0,0,0,0,0,0,0,0],"id":8,"left_children":[1,3,5,7,9,-1,-1,11,13,15,17,19,21,-1,-1,-1,-1,23,25,27,-1,29,31,-1,33,-1,35,-1,-1,-1,-1,-1,-1,-1,-1,-1,-1],"loss_changes":[4.8703494E2,2.0271754E2,1.1461853E1,2.464144E2,1.3009392E2,0E0,0E0,8.80473E1,1.7896515E1,1.0997342E2,1.0297123E2,6.999387E1,1.915268E2,0E0,0E0,0E0,0E0,4.824408E1,8.6677704E1,3.2091103E1,0E0,6.967445E1,3.2967285E1,0E0,5.481659E0,0E0,6.3486588E1,0E0,0E0,0E0,0E0,0E0,0E0,0E0,0E0,0E0,0E0],"parents":[2147483647,0,0,1,1,2,2,3,3,4,4,7,7,8,8,9,9,10,10,11,11,12,12,17,17,18,18,19,19,21,21,22,22,24,24,26,26],"right_children":[2,4,6,8,10,-1,-1,12,14,16,18,20,22,-1,-1,-1,-1,24,26,28,-1,30,32,-1,34,-1,36,-1,-1,-1,-1,-1,-1,-1,-1,-1,-1],"split_conditions":[2.971876E0,1.982756E-1,3.869996E-1,4.91488E-1,-2.8282908E-1,-8.960049E-1,-3.667186E0,-2.0332128E-1,2.0183763E-1,-1.5513843E0,1E0,-3.751712E-1,2.7598217E-1,-2.7277226E0,-8.2924956E-1,-2.4267213E-1,3.0529091E0,-2.989769E-1,5.048522E-1,3.3909926E-1,-1.4516577E0,1E0,1.6169912E-1,-4.2375514E-1,1.3737626E0,1.054307E0,-1.9020621E-1,-2.194935E-1,8.5023314E-1,5.8096856E-1,2.241012E0,4.1742268E-1,-8.144949E-1,1.5650363E0,3.3123866E-1,7.2057486E-1,-1.4053743E0],"split_indices":[3,9,5,10,7,0,0,4,6,1,13,4,4,0,0,0,0,5,9,1,0,13,0,0,1,0,7,0,0,0,0,0,0,0,0,0,0],"split_type":[0,0,0,0,0,0,0,0,0,0,0,0,0,0,0,0,0,0,0,0,0,0,0,0,0,0,0,0,0,0,0,0,0,0,0,0,0],"sum_hessian":[6.4E1,6.1E1,3E0,4.2E1,1.9E1,1E0,2E0,3.8E1,4E0,4E0,1.5E1,2E1,1.8E1,2E0,2E0,1E0,3E0,8E0,7E0,1.7E1,3E0,1E1,8E0,1E0,7E0,2E0,5E0,1.5E1,2E0,6E0,4E0,2E0,6E0,6E0,1E0,1E0,4E0],"tree_param":{"num_deleted":"0","num_feature":"23","num_nodes":"37","size_leaf_vector":"0"}},{"base_weights":[-4.838315E-3,5.500059E-1,-8.603714E0,-1.2676697E-3,4.2712607E0,-7.6160437E-1,-2.9337494E0,3.4628317E-1,-1.842273E0,3.3539782E0,1.0505128E-1,2.4968185E0,-2.7640033E-1,7.628862E-1,-1.7496386E0,8.3845896E-1,5.603923E0,1.9156786E0,-1.2170879E0,2.81553E-1,-8.8755745E-1,-3.36448E-2,6.16427E-1,2.009042E0,3.4879076E-1,6.277065E-2,1.71086E0,8.658463E-2,-6.7107725E-1],"categories":[],"categories_nodes":[],"categories_segments":[],"categories_sizes":[],"default_left":[0,0,0,0,0,0,0,0,0,0,0,0,0,0,0,0,0,0,0,0,0,0,0,0,0,0,0,0,0],"id":9,"left_children":[1,3,5,7,9,-1,-1,11,-1,-1,13,15,17,-1,19,21,23,25,27,-1,-1,-1,-1,-1,-1,-1,-1,-1,-1],"loss_changes":[3.1484946E2,1.27194046E2,3.6903992E0,1.1948757E2,2.2908916E2,0E0,0E0,7.1662575E1,0E0,0E0,3.1578571E1,5.7133698E1,8.893813E1,0E0,1.5775268E1,1.0636443E1,1.1629295E1,8.282083E1,4.6712746E1,0E0,0E0,0E0,0E0,0E0,0E0,0E0,0E0,0E0,0E0],"parents":[2147483647,0,0,1,1,2,2,3,3,4,4,7,7,10,10,11,11,12,12,14,14,15,15,16,16,17,17,18,18],"right_children":[2,4,6,8,10,-1,-1,12,-1,-1,14,16,18,-1,20,22,24,26,28,-1,-1,-1,-1,-1,-1,-1,-1,-1,-1],"split_conditions":[2.971876E0,8.671699E-1,3.869996E-1,1.7566239E0,1.201617E0,-7.6160437E-1,-2.9337494E0,1.8380669E-1,-1.842273E0,3.3539782E0,7.226513E-1,1E0,-7.7447444E-1,7.628862E-1,1.867942E-1,1.4699839E-1,1.5243696E-1,-4.6426538E-1,-3.0840066E-1,2.81553E-1,-8.8755745E-1,-3.36448E-2,6.16427E-1,2.009042E0,3.4879076E-1,6.277065E-2,1.71086E0,8.658463E-2,-6.7107725E-1],"split_indices":[3,9,5,1,9,0,0,0,0,0,3,13,6,0,0,1,1,8,4,0,0,0,0,0,0,0,0,0,0],"split_type":[0,0,0,0,0,0,0,0,0,0,0,0,0,0,0,0,0,0,0,0,0,0,0,0,0,0,0,0,0],"sum_hessian":[6.4E1,6.1E1,3E0,5.4E1,7E0,1E0,2E0,5.2E1,2E0,2E0,5E0,1.1E1,4.1E1,2E0,3E0,8E0,3E0,1.2E1,2.9E1,1E0,2E0,5E0,3E0,2E0,1E0,9E0,3E0,1.2E1,1.7E1],"tree_param":{"num_deleted":"0","num_feature":"23","num_nodes":"29","size_leaf_vector":"0"}},{"base_weights":[2.896682E-2,4.7852585E-1,-2.083932E0,-3.5155672E-1,2.2392771E0,2.4316233E-1,-4.920054E0,-1.2763054E0,3.1979418E0,-7.2908556E-1,1.4179564E0,-1.9308431E0,-5.29184E-1,4.3524286E-1,-6.9623595E-1,4.4907784E0,-5.444546E-1,-2.0106402E-1,-1.2018603E0,5.521138E0,-1.4874831E-1,5.416299E0,-9.121513E-2,4.3781853E-1,-7.100458E-1,6.71521E-1,-1.3418032E-1,4.0800592E-1,2.3525631E0,-5.7456493E-1,3.1362742E-1,1.1566312E0,2.9196076E0,2.9647207E-1,-3.375189E-1],"categories":[],"categories_nodes":[],"categories_segments":[],"categories_sizes":[],"default_left":[0,0,0,0,0,0,0,0,0,0,0,0,0,0,0,0,0,0,0,0,0,0,0,0,0,0,0,0,0,0,0,0,0,0,0],"id":10,"left_children":[1,3,-1,5,7,9,11,13,15,17,19,-1,-1,-1,-1,21,23,25,-1,27,29,31,33,-1,-1,-1,-1,-1,-1,-1,-1,-1,-1,-1,-1],"loss_changes":[2.0715475E2,9.1404495E1,0E0,1.1802619E2,7.148685E1,4.557926E1,1.2571686E1,1.760912E1,7.985794E1,3.7263027E1,1.1653379E2,0E0,0E0,0E0,0E0,5.1382797E1,2.1712852E1,1.3013285E1,0E0,3.7619247E1,3.1534775E1,2.9841278E1,4.4598103E0,0E0,0E0,0E0,0E0,0E0,0E0,0E0,0E0,0E0,0E0,0E0,0E0],"parents":[2147483647,0,0,1,1,3,3,4,4,5,5,6,6,7,7,8,8,9,9,10,10,15,15,16,16,17,17,19,19,20,20,21,21,22,22],"right_children":[2,4,-1,6,8,10,12,14,16,18,20,-1,-1,-1,-1,22,24,26,-1,28,30,32,34,-1,-1,-1,-1,-1,-1,-1,-1,-1,-1,-1,-1],"split_conditions":[2.971876E0,1.982756E-1,-2.083932E0,4.91488E-1,-2.989769E-1,-1.1245936E-1,2.0183763E-1,-3.3303258E-1,1.2294877E0,2.2861935E-1,8.1227206E-2,-1.9308431E0,-5.29184E-1,4.3524286E-1,-6.9623595E-1,9.864016E-1,1.867942E-1,-1.7247955E0,-1.2018603E0,1.5421692E-1,-8.681325E-2,9.673612E-1,1.6289411E-1,4.3781853E-1,-7.100458E-1,6.71521E-1,-1.3418032E-1,4.0800592E-1,2.3525631E0,-5.7456493E-1,3.1362742E-1,1.1566312E0,2.9196076E0,2.9647207E-1,-3.375189E-1],"split_indices":[3,9,0,10,5,4,6,0,9,0,4,0,0,0,0,5,0,9,0,5,7,8,0,0,0,0,0,0,0,0,0,0,0,0,0],"split_type":[0,0,0,0,0,0,0,0,0,0,0,0,0,0,0,0,0,0,0,0,0,0,0,0,0,0,0,0,0,0,0,0,0,0,0],"sum_hessian":[6.4E1,6.1E1,3E0,4.2E1,1.9E1,3.8E1,4E0,4E0,1.5E1,2.1E1,1.7E1,2E0,2E0,1E0,3E0,1.1E1,4E0,1.9E1,2E0,4E0,1.3E1,9E0,2E0,2E0,2E0,1E0,1.8E1,2E0,2E0,5E0,8E0,8E0,1E0,1E0,1E0],"tree_param":{"num_deleted":"0","num_feature":"23","num_nodes":"35","size_leaf_vector":"0"}},{"base_weights":[3.247877E-2,3.8137236E-1,-5.3834915E0,-1.5610337E0,5.5822915E-1,-3.3477402E-1,-1.9302139E0,2.094532E-1,2.842688E0,-5.004079E-1,1.0529083E0,2.2755582E0,-2.3460388E-3,2.8413653E-1,-2.693422E0,4.416911E0,2.0181684E-1,4.5086423E-1,-1.1306796E0,-2.5374372E-2,8.311346E-1,2.0826446E-2,-9.2940944E-1,3.2640478E-1,1.8820508E0,3.5003728E-1,-3.643376E-1,1.7364722E-1,-5.680367E-1],"categories":[],"categories_nodes":[],"categories_segments":[],"categories_sizes":[],"default_left":[0,0,0,0,0,0,0,0,0,0,0,0,0,0,0,0,0,0,0,0,0,0,0,0,0,0,0,0,0],"id":11,"left_children":[1,3,5,-1,7,-1,-1,9,11,13,15,-1,17,19,21,23,25,-1,27,-1,-1,-1,-1,-1,-1,-1,-1,-1,-1],"loss_changes":[1.24876945E2,6.4142914E1,1.0753456E1,0E0,4.800721E1,0E0,0E0,3.2858624E1,1.0795853E2,5.2380806E1,7.068545E1,0E0,1.1889664E1,2.131952E1,9.158047E0,2.4076324E1,3.0117067E1,0E0,6.3118505E0,0E0,0E0,0E0,0E0,0E0,0E0,0E0,0E0,0E0,0E0],"parents":[2147483647,0,0,1,1,2,2,4,4,7,7,8,8,9,9,10,10,12,12,13,13,14,14,15,15,16,16,18,18],"right_children":[2,4,6,-1,8,-1,-1,10,12,14,16,-1,18,20,22,24,26,-1,28,-1,-1,-1,-1,-1,-1,-1,-1,-1,-1],"split_conditions":[2.971876E0,-1.4694573E0,3.869996E-1,-1.5610337E0,8.671699E-1,-3.3477402E-1,-1.9302139E0,-1.1245936E-1,1.201617E0,-3.0840066E-1,8.1227206E-2,2.2755582E0,7.226513E-1,8.5508354E-2,-6.060411E-1,1.5421692E-1,1E0,4.5086423E-1,1.867942E-1,-2.5374372E-2,8.311346E-1,2.0826446E-2,-9.2940944E-1,3.2640478E-1,1.8820508E0,3.5003728E-1,-3.643376E-1,1.7364722E-1,-5.680367E-1],"split_indices":[3,2,5,0,9,0,0,4,9,4,4,0,3,7,1,5,13,0,0,0,0,0,0,0,0,0,0,0,0],"split_type":[0,0,0,0,0,0,0,0,0,0,0,0,0,0,0,0,0,0,0,0,0,0,0,0,0,0,0,0,0],"sum_hessian":[6.4E1,6.1E1,3E0,1E0,6E1,1E0,2E0,5.3E1,7E0,2.9E1,2.4E1,2E0,5E0,2.2E1,7E0,4E0,2E1,2E0,3E0,2E1,2E0,1E0,6E0,2E0,2E0,1.2E1,8E0,1E0,2E0],"tree_param":{"num_deleted":"0","num_feature":"23","num_nodes":"29","size_leaf_vector":"0"}},{"base_weights":[3.1925183E-2,3.1312743E-1,-4.334691E0,-3.64233E0,5.056815E-1,-2.8455794E-1,-1.5441712E0,-3.1217015E-1,-1.3268784E0,1.6358501E0,-1.4481562E-1,3.46292E-1,5.951089E0,-6.602985E-1,1.6468273E0,9.598061E-1,-3.7386724E-1,2.1993968E0,6.452312E-2,4.732511E-1,-1.505265E0,1.994039E0,-1.6963005E-1,4.9374537E-3,4.7578853E-1,5.7459927E-1,-2.6983002E-1,1.4063904E-2,3.6940312E-1,-7.2173405E-1,-1.6328248E-1,-5.9856113E-2,7.0077235E-1],"categories":[],"categories_nodes":[],"categories_segments":[],"categories_sizes":[],"default_left":[0,0,0,0,0,0,0,0,0,0,0,0,0,0,0,0,0,0,0,0,0,0,0,0,0,0,0,0,0,0,0,0,0],"id":12,"left_children":[1,3,5,7,9,-1,-1,-1,-1,11,13,15,17,19,21,23,25,-1,-1,27,29,31,-1,-1,-1,-1,-1,-1,-1,-1,-1,-1,-1],"loss_changes":[8.117097E1,4.9063507E1,6.123375E0,1.4904366E0,4.434718E1,0E0,0E0,0E0,0E0,1.2036371E2,3.710629E1,8.311742E0,3.8008377E1,3.0404522E1,8.040602E0,5.880724E0,1.25508375E1,0E0,0E0,4.467481E0,1.4267548E1,6.465334E0,0E0,0E0,0E0,0E0,0E0,0E0,0E0,0E0,0E0,0E0,0E0],"parents":[2147483647,0,0,1,1,2,2,3,3,4,4,9,9,10,10,11,11,12,12,13,13,14,14,15,15,16,16,19,19,20,20,21,21],"right_children":[2,4,6,8,10,-1,-1,-1,-1,12,14,16,18,20,22,24,26,-1,-1,28,30,32,-1,-1,-1,-1,-1,-1,-1,-1,-1,-1,-1],"split_conditions":[2.971876E0,-1.2699482E0,3.869996E-1,1.7185666E-1,-3.3890608E-1,-2.8455794E-1,-1.5441712E0,-3.1217015E-1,-1.3268784E0,-5.3841513E-1,4.027393E-2,1E0,2.2264433E-1,-6.060411E-1,2.1069428E-1,5.750572E-2,-7.393448E-1,2.1993968E0,6.452312E-2,-7.3962194E-1,3.6898209E-3,-4.665627E-2,-1.6963005E-1,4.9374537E-3,4.7578853E-1,5.7459927E-1,-2.6983002E-1,1.4063904E-2,3.6940312E-1,-7.2173405E-1,-1.6328248E-1,-5.9856113E-2,7.0077235E-1],"split_indices":[3,2,5,0,2,0,0,0,0,2,7,13,0,1,0,5,3,0,0,4,1,6,0,0,0,0,0,0,0,0,0,0,0],"split_type":[0,0,0,0,0,0,0,0,0,0,0,0,0,0,0,0,0,0,0,0,0,0,0,0,0,0,0,0,0,0,0,0,0],"sum_hessian":[6.4E1,6.1E1,3E0,2E0,5.9E1,1E0,2E0,1E0,1E0,2.1E1,3.8E1,1.7E1,4E0,3E1,8E0,9E0,8E0,3E0,1E0,1.3E1,1.7E1,7E0,1E0,4E0,5E0,1E0,7E0,9E0,4E0,8E0,9E0,1E0,6E0],"tree_param":{"num_deleted":"0","num_feature":"23","num_nodes":"33","size_leaf_vector":"0"}},{"base_weights":[1.54458545E-2,2.4144901E-1,-3.4914646E0,-3.0959806E0,4.0429634E-1,-2.4187432E-1,-1.2353364E0,-2.653446E-1,-1.1278467E0,1.2837046E0,-1.0214669E-1,2.860428E-1,4.6185465E0,-1.0493177E0,5.3355676E-1,4.9388227E-1,-2.7533457E-1,1.7045326E0,5.484465E-2,-5.442892E-2,-2.0374029E0,7.681676E-1,-4.0943253E-1,2.3787352E-1,-1.804302E-1,-1.9235863E-1,3.9985076E-1,-7.343707E-1,1.2541395E-1,8.09858E-2,4.37345E-1],"categories":[],"categories_nodes":[],"categories_segments":[],"categories_sizes":[],"default_left":[0,0,0,0,0,0,0,0,0,0,0,0,0,0,0,0,0,0,0,0,0,0,0,0,0,0,0,0,0,0,0],"id":13,"left_children":[1,3,5,7,9,-1,-1,-1,-1,11,13,15,17,19,21,23,-1,-1,-1,25,27,29,-1,-1,-1,-1,-1,-1,-1,-1,-1],"loss_changes":[5.2360245E1,3.494817E1,3.407299E0,1.0768433E0,2.6853344E1,0E0,0E0,0E0,0E0,7.187387E1,2.4042545E1,4.956917E0,2.2542282E1,1.56176605E1,1.1737239E1,5.717394E0,0E0,0E0,0E0,8.180613E0,9.087025E0,7.165516E0,0E0,0E0,0E0,0E0,0E0,0E0,0E0,0E0,0E0],"parents":[2147483647,0,0,1,1,2,2,3,3,4,4,9,9,10,10,11,11,12,12,13,13,14,14,15,15,19,19,20,20,21,21],"right_children":[2,4,6,8,10,-1,-1,-1,-1,12,14,16,18,20,22,24,-1,-1,-1,26,28,30,-1,-1,-1,-1,-1,-1,-1,-1,-1],"split_conditions":[2.971876E0,-1.2699482E0,3.869996E-1,1.7185666E-1,-3.3890608E-1,-2.4187432E-1,-1.2353364E0,-2.653446E-1,-1.1278467E0,-5.3841513E-1,-1.2989365E-1,1.1453722E0,2.2264433E-1,-1.9020621E-1,1E0,1.6100194E-2,-2.7533457E-1,1.7045326E0,5.484465E-2,1E0,2.3459436E-1,1.70405E-1,-4.0943253E-1,2.3787352E-1,-1.804302E-1,-1.9235863E-1,3.9985076E-1,-7.343707E-1,1.2541395E-1,8.09858E-2,4.37345E-1],"split_indices":[3,2,5,0,2,0,0,0,0,2,7,5,0,7,12,7,0,0,0,19,0,9,0,0,0,0,0,0,0,0,0],"split_type":[0,0,0,0,0,0,0,0,0,0,0,0,0,0,0,0,0,0,0,0,0,0,0,0,0,0,0,0,0,0,0],"sum_hessian":[6.4E1,6.1E1,3E0,2E0,5.9E1,1E0,2E0,1E0,1E0,2.1E1,3.8E1,1.7E1,4E0,1.5E1,2.3E1,1.5E1,2E0,3E0,1E0,8E0,7E0,2.1E1,2E0,1.2E1,3E0,6E0,2E0,6E0,1E0,1.3E1,8E0],"tree_param":{"num_deleted":"0","num_feature":"23","num_nodes":"31","size_leaf_vector":"0"}},{"base_weights":[-1.4133717E-2,3.5385582E-1,-1.5133115E0,1.23143405E-1,3.149297E0,3.5734862E-1,-2.3844213E0,5.8178896E-1,-2.5799912E-1,2.2322284E-1,1.554744E0,-3.5369912E-1,5.323734E-1,-1.2332479E0,-1.3039023E0,7.8735137E-1,-5.9108764E-1,1.7953038E-1,-1.2016203E0,1.0649071E-1,-4.9186268E-1,1.2449771E0,-3.7112907E-1,-3.2748E-2,8.2291514E-1,2.2278976E-1,-1.6404217E0,6.260021E-2,5.537689E-1,4.117176E-2,-2.3601452E-1,4.742634E-2,-2.737197E-1,-8.427325E-2,3.5072982E-1,1.569829E-1,-5.6727506E-2,-6.096816E-1,1.06601864E-1],"categories":[],"categories_nodes":[],"categories_segments":[],"categories_sizes":[],"default_left":[0,0,0,0,0,0,0,0,0,0,0,0,0,0,0,0,0,0,0,0,0,0,0,0,0,0,0,0,0,0,0,0,0,0,0,0,0,0,0],"id":14,"left_children":[1,3,5,7,9,11,13,15,17,-1,-1,-1,-1,-1,19,21,-1,23,25,-1,-1,27,29,31,33,35,37,-1,-1,-1,-1,-1,-1,-1,-1,-1,-1,-1,-1],"loss_changes":[3.639481E1,3.3794167E1,2.2036224E1,8.890567E0,1.5704853E1,1.2978994E1,1.1428604E1,1.3617388E1,1.17758665E1,0E0,0E0,0E0,0E0,0E0,4.479473E0,1.2125356E1,0E0,2.7584825E0,5.9907675E0,0E0,0E0,9.578634E0,1.5868632E0,2.8301415E0,2.2390482E0,4.702417E-1,6.1964245E0,0E0,0E0,0E0,0E0,0E0,0E0,0E0,0E0,0E0,0E0,0E0,0E0],"parents":[2147483647,0,0,1,1,2,2,3,3,4,4,5,5,6,6,7,7,8,8,14,14,15,15,17,17,18,18,21,21,22,22,23,23,24,24,25,25,26,26],"right_children":[2,4,6,8,10,12,14,16,18,-1,-1,-1,-1,-1,20,22,-1,24,26,-1,-1,28,30,32,34,36,38,-1,-1,-1,-1,-1,-1,-1,-1,-1,-1,-1,-1],"split_conditions":[7.226513E-1,8.671699E-1,7.13844E-1,-2.0590006E-1,2.1069428E-1,1.1162657E0,5.637435E-1,2.4056938E-1,-4.86307E-1,2.2322284E-1,1.554744E0,-3.5369912E-1,5.323734E-1,-1.2332479E0,1.867942E-1,4.2258245E-1,-5.9108764E-1,1.70405E-1,1.867942E-1,1.0649071E-1,-4.9186268E-1,-3.751712E-1,4.868925E-1,-4.1861564E-1,-1.5513843E0,1.6169912E-1,2.2563183E-1,6.260021E-2,5.537689E-1,4.117176E-2,-2.3601452E-1,4.742634E-2,-2.737197E-1,-8.427325E-2,3.5072982E-1,1.569829E-1,-5.6727506E-2,-6.096816E-1,1.06601864E-1],"split_indices":[3,9,8,2,0,3,4,0,3,0,0,0,0,0,0,4,0,9,0,0,0,4,11,1,1,0,0,0,0,0,0,0,0,0,0,0,0,0,0],"split_type":[0,0,0,0,0,0,0,0,0,0,0,0,0,0,0,0,0,0,0,0,0,0,0,0,0,0,0,0,0,0,0,0,0,0,0,0,0,0,0],"sum_hessian":[6.4E1,5.2E1,1.2E1,4.9E1,3E0,4E0,8E0,2.2E1,2.7E1,2E0,1E0,2E0,2E0,2E0,6E0,2.1E1,1E0,1.9E1,8E0,1E0,5E0,1.5E1,6E0,1.5E1,4E0,2E0,6E0,6E0,9E0,3E0,3E0,1.3E1,2E0,1E0,3E0,1E0,1E0,5E0,1E0],"tree_param":{"num_deleted":"0","num_feature":"23","num_nodes":"39","size_leaf_vector":"0"}},{"base_weights":[-1.2881277E-2,2.7120376E-1,-1.1700833E0,7.555592E-2,2.649001E0,2.8587875E-1,-1.8489418E0,3.0776882E-1,-3.543653E-1,1.7857848E-1,1.3215328E0,-2.8295937E-1,4.2589876E-1,-9.8659825E-1,-9.677849E-1,1.468038E-1,1.8684845E0,-1.0912194E0,7.031048E-1,9.0517044E-2,-1.2296568E0,4.9680877E-1,-2.123764E-1,6.7176133E-1,1.6905671E-1,1.3343547E-1,-1.2892983E0,2.1649121E-1,3.406787E-1,-1.7225361E-1,-5.081227E-1,4.741908E-2,4.4205853E-1,2.6736593E-1,-1.3010748E-1,-4.4990203E-1,9.061161E-2,1.0529334E-1,-4.8218254E-2],"categories":[],"categories_nodes":[],"categories_segments":[],"categories_sizes":[],"default_left":[0,0,0,0,0,0,0,0,0,0,0,0,0,0,0,0,0,0,0,0,0,0,0,0,0,0,0,0,0,0,0,0,0,0,0,0,0,0,0],"id":15,"left_children":[1,3,5,7,9,11,13,15,17,-1,-1,-1,-1,-1,19,21,23,25,27,-1,29,31,33,-1,-1,-1,35,37,-1,-1,-1,-1,-1,-1,-1,-1,-1,-1,-1],"loss_changes":[2.1685675E1,2.445603E1,1.3377674E1,5.100725E0,1.1804163E1,8.306559E0,8.234848E0,8.015981E0,1.4792864E1,0E0,0E0,0E0,0E0,0E0,2.6981578E0,4.0026712E0,1.8948364E-1,3.9202118E0,1.4378004E0,0E0,8.5267544E-1,5.060833E0,4.2943954E0,0E0,0E0,0E0,3.8007374E0,3.1006598E-1,0E0,0E0,0E0,0E0,0E0,0E0,0E0,0E0,0E0,0E0,0E0],"parents":[2147483647,0,0,1,1,2,2,3,3,4,4,5,5,6,6,7,7,8,8,14,14,15,15,16,16,17,17,18,18,20,20,21,21,22,22,26,26,27,27],"right_children":[2,4,6,8,10,12,14,16,18,-1,-1,-1,-1,-1,20,22,24,26,28,-1,30,32,34,-1,-1,-1,36,38,-1,-1,-1,-1,-1,-1,-1,-1,-1,-1,-1],"split_conditions":[7.226513E-1,8.671699E-1,7.13844E-1,-2.332692E-1,2.1069428E-1,1.1162657E0,5.637435E-1,-4.728744E-1,5.931991E-1,1.7857848E-1,1.3215328E0,-2.8295937E-1,4.2589876E-1,-9.8659825E-1,1.867942E-1,1E0,1.7484416E-1,1.6169912E-1,1.6100194E-2,9.0517044E-2,1.3235118E0,2.1069428E-1,-1.2844682E0,6.7176133E-1,1.6905671E-1,1.3343547E-1,2.5251943E-1,1.1129496E0,3.406787E-1,-1.7225361E-1,-5.081227E-1,4.741908E-2,4.4205853E-1,2.6736593E-1,-1.3010748E-1,-4.4990203E-1,9.061161E-2,1.0529334E-1,-4.8218254E-2],"split_indices":[3,9,8,3,0,3,4,10,1,0,0,0,0,0,0,14,0,0,7,0,4,0,8,0,0,0,0,1,0,0,0,0,0,0,0,0,0,0,0],"split_type":[0,0,0,0,0,0,0,0,0,0,0,0,0,0,0,0,0,0,0,0,0,0,0,0,0,0,0,0,0,0,0,0,0,0,0,0,0,0,0],"sum_hessian":[6.4E1,5.2E1,1.2E1,4.9E1,3E0,4E0,8E0,3.2E1,1.7E1,2E0,1E0,2E0,2E0,2E0,6E0,3E1,2E0,1E1,7E0,1E0,5E0,1.5E1,1.5E1,1E0,1E0,1E0,9E0,4E0,3E0,3E0,2E0,1.2E1,3E0,2E0,1.3E1,8E0,1E0,3E0,1E0],"tree_param":{"num_deleted":"0","num_feature":"23","num_nodes":"39","size_leaf_vector":"0"}},{"base_weights":[1.7229741E-2,1.3692424E-1,-1.8423424E0,-5.308781E-1,2.2996806E-1,-1.05975725E-1,-6.6628647E-1,1.2552527E0,9.2802115E-2,2.1634728E-1,1.1233029E0,-4.4989353E-1,2.2636688E-1,1.9865228E-1,-5.2529513E-3,-4.3802947E-1,-6.317049E-2,5.45092E-1,-1.8335783E-1,3.8938653E-2,-4.156513E-2,-6.1614044E-2,1.6117603E-1,4.9487424E-1,3.2845806E-2,3.088444E-1,-1.373838E-1],"categories":[],"categories_nodes":[],"categories_segments":[],"categories_sizes":[],"default_left":[0,0,0,0,0,0,0,0,0,0,0,0,0,0,0,0,0,0,0,0,0,0,0,0,0,0,0],"id":16,"left_children":[1,3,5,-1,7,-1,-1,9,11,13,-1,15,17,-1,19,-1,21,23,25,-1,-1,-1,-1,-1,-1,-1,-1],"loss_changes":[1.4719997E1,1.1405111E1,1.4705954E0,0E0,8.321558E0,0E0,0E0,1.7291428E1,4.0160317E0,5.9625053E-1,0E0,4.2051287E0,5.845887E0,0E0,1.0799132E-1,0E0,8.788158E-1,1.1847443E1,7.132071E0,0E0,0E0,0E0,0E0,0E0,0E0,0E0,0E0],"parents":[2147483647,0,0,1,1,2,2,4,4,7,7,8,8,9,9,11,11,12,12,14,14,16,16,17,17,18,18],"right_children":[2,4,6,-1,8,-1,-1,10,12,14,-1,16,18,-1,20,-1,22,24,26,-1,-1,-1,-1,-1,-1,-1,-1],"split_conditions":[2.971876E0,-1.2699482E0,3.869996E-1,-5.308781E-1,-2.8282908E-1,-1.05975725E-1,-6.6628647E-1,2.0770678E-1,-1.6004993E-1,-3.3303258E-1,1.1233029E0,-4.0153873E-1,-1.4892328E-1,1.9865228E-1,-2.8558705E-2,-4.3802947E-1,3.94029E-1,-8.035119E-2,-2.8868422E-1,3.8938653E-2,-4.156513E-2,-6.1614044E-2,1.6117603E-1,4.9487424E-1,3.2845806E-2,3.088444E-1,-1.373838E-1],"split_indices":[3,2,5,0,7,0,0,0,7,0,0,1,3,0,2,0,6,7,4,0,0,0,0,0,0,0,0],"split_type":[0,0,0,0,0,0,0,0,0,0,0,0,0,0,0,0,0,0,0,0,0,0,0,0,0,0,0],"sum_hessian":[6.4E1,6.1E1,3E0,2E0,5.9E1,1E0,2E0,6E0,5.3E1,5E0,1E0,1E1,4.3E1,1E0,4E0,2E0,8E0,2.4E1,1.9E1,2E0,2E0,7E0,1E0,6E0,1.8E1,3E0,1.6E1],"tree_param":{"num_deleted":"0","num_feature":"23","num_nodes":"27","size_leaf_vector":"0"}},{"base_weights":[1.7859273E-2,1.1438183E-1,-1.4827051E0,-1.5204848E-1,6.814879E-1,-9.007931E-2,-5.330292E-1,-3.3041474E-3,-6.402615E-1,6.252422E-2,1.1822287E0,3.8111466E-1,-2.9148057E-1,3.9853692E-1,-2.5630534E-1,9.548069E-1,6.639136E-1,6.4342856E-1,-2.5075126E-1,-7.92367E-1,6.187572E-2,-4.588137E-2,4.991673E-1,3.5054907E-1,1.327753E-1,4.887921E-2,3.5305628E-1,-2.3369746E-2,-9.531076E-2,-4.052636E-1,-5.8463834E-2,-1.3901467E-2,2.3653065E-1,1.8917938E-1,-4.3412447E-2,1.19650416E-1,-7.9868704E-2],"categories":[],"categories_nodes":[],"categories_segments":[],"categories_sizes":[],"default_left":[0,0,0,0,0,0,0,0,0,0,0,0,0,0,0,0,0,0,0,0,0,0,0,0,0,0,0,0,0,0,0,0,0,0,0,0,0],"id":17,"left_children":[1,3,5,7,9,-1,-1,11,-1,13,15,17,19,21,-1,-1,23,25,27,29,31,-1,33,-1,35,-1,-1,-1,-1,-1,-1,-1,-1,-1,-1,-1,-1],"loss_changes":[9.5840845E0,9.471463E0,8.5732937E-1,1.2670834E1,6.1248903E0,0E0,0E0,4.653085E0,0E0,3.4213078E0,9.29253E0,3.1447911E0,4.2968206E0,5.203028E-1,0E0,0E0,2.5248876E0,3.140283E0,4.468727E-2,3.073779E0,1.2158931E0,0E0,6.8362725E-1,0E0,7.431344E-1,0E0,0E0,0E0,0E0,0E0,0E0,0E0,0E0,0E0,0E0,0E0,0E0],"parents":[2147483647,0,0,1,1,2,2,3,3,4,4,7,7,9,9,10,10,11,11,12,12,13,13,16,16,17,17,18,18,19,19,20,20,22,22,24,24],"right_children":[2,4,6,8,10,-1,-1,12,-1,14,16,18,20,22,-1,-1,24,26,28,30,32,-1,34,-1,36,-1,-1,-1,-1,-1,-1,-1,-1,-1,-1,-1,-1],"split_conditions":[2.971876E0,1.982756E-1,3.869996E-1,2.4056938E-1,2.9341772E-1,-9.007931E-2,-5.330292E-1,-3.3890608E-1,-6.402615E-1,1.6034512E-1,7.599919E-2,2.7598217E-1,-1.3635571E-1,-1.4352149E0,-2.5630534E-1,9.548069E-1,7.13844E-1,1E0,-6.5499884E-1,1E0,2.2563183E-1,-4.588137E-2,2.4654986E-1,3.5054907E-1,1.867942E-1,4.887921E-2,3.5305628E-1,-2.3369746E-2,-9.531076E-2,-4.052636E-1,-5.8463834E-2,-1.3901467E-2,2.3653065E-1,1.8917938E-1,-4.3412447E-2,1.19650416E-1,-7.9868704E-2],"split_indices":[3,9,5,0,1,0,0,2,0,3,3,4,7,4,0,0,8,13,3,18,0,0,1,0,0,0,0,0,0,0,0,0,0,0,0,0,0],"split_type":[0,0,0,0,0,0,0,0,0,0,0,0,0,0,0,0,0,0,0,0,0,0,0,0,0,0,0,0,0,0,0,0,0,0,0,0,0],"sum_hessian":[6.4E1,6.1E1,3E0,4.2E1,1.9E1,1E0,2E0,4E1,2E0,9E0,1E1,1.7E1,2.3E1,7E0,2E0,1E0,9E0,1.2E1,5E0,9E0,1.4E1,1E0,6E0,4E0,5E0,7E0,5E0,2E0,3E0,4E0,5E0,1.3E1,1E0,5E0,1E0,3E0,2E0],"tree_param":{"num_deleted":"0","num_feature":"23","num_nodes":"37","size_leaf_vector":"0"}},{"base_weights":[1.2001575E-2,9.5943356E-1,-1.0060903E-1,2.1757653E-1,8.1158644E-1,5.7148166E-2,-7.232537E-1,1.3151342E-1,-2.4187304E-3,-1.7440383E-1,2.9596698E-1,2.2990417E-1,-1.066518E0,2.5031952E-2,-3.8999163E-2,5.312066E-2,-7.6705545E-1,-4.116037E-2,6.365244E-1,-2.297373E-2,1.0727749E-1,-3.647663E-1,-1.554966E0,-5.710886E-1,2.0585294E-1,1.9814301E-2,-9.169139E-1,5.2139485E-1,-7.8437394E-1,1.9898169E-1,1.0409034E0,-3.3428382E-2,-1.4895478E-1,-7.656727E-2,-5.4482865E-1,1.9395282E-2,-2.4136563E-1,-2.8681936E-2,1.3528329E-1,-4.7075156E-2,-3.1125897E-1,3.8927079E-3,2.0661159E-1,-4.3455125E-3,-3.4970915E-1,1.486815E-1,-4.421611E-2,1.0244522E-1,3.9157262E-1],"categories":[],"categories_nodes":[],"categories_segments":[],"categories_sizes":[],"default_left":[0,0,0,0,0,0,0,0,0,0,0,0,0,0,0,0,0,0,0,0,0,0,0,0,0,0,0,0,0,0,0,0,0,0,0,0,0,0,0,0,0,0,0,0,0,0,0,0,0],"id":18,"left_children":[1,3,5,7,-1,9,11,-1,13,15,17,19,21,-1,-1,23,25,27,29,-1,-1,31,33,35,37,-1,39,41,43,45,47,-1,-1,-1,-1,-1,-1,-1,-1,-1,-1,-1,-1,-1,-1,-1,-1,-1,-1],"loss_changes":[7.031436E0,8.477613E0,5.8367076E0,2.9251206E-1,0E0,2.7059686E0,4.1714168E0,0E0,5.4661766E-2,3.4118156E0,2.7816687E0,1.8392032E-1,2.517724E0,0E0,0E0,1.9289614E0,9.3449306E-1,5.844251E0,1.9160767E0,0E0,0E0,1.11560404E-1,1.2334919E0,6.4570284E-1,1.2252747E0,0E0,3.8719988E-1,6.7157435E-1,1.7445738E0,7.92233E-1,6.635823E-1,0E0,0E0,0E0,0E0,0E0,0E0,0E0,0E0,0E0,0E0,0E0,0E0,0E0,0E0,0E0,0E0,0E0,0E0],"parents":[2147483647,0,0,1,1,2,2,3,3,5,5,6,6,8,8,9,9,10,10,11,11,12,12,15,15,16,16,17,17,18,18,21,21,22,22,23,23,24,24,26,26,27,27,28,28,29,29,30,30],"right_children":[2,4,6,8,-1,10,12,-1,14,16,18,20,22,-1,-1,24,26,28,30,-1,-1,32,34,36,38,-1,40,42,44,46,48,-1,-1,-1,-1,-1,-1,-1,-1,-1,-1,-1,-1,-1,-1,-1,-1,-1,-1],"split_conditions":[-2.8282908E-1,2.0770678E-1,8.7788457E-1,3.263868E-2,8.1158644E-1,3.6898209E-3,1.867942E-1,1.3151342E-1,1.8380669E-1,-3.5987595E-1,9.253196E-2,1.1494681E0,1.425534E0,2.5031952E-2,-3.8999163E-2,-1.2696557E0,-3.667094E0,-2.8868422E-1,-9.152655E-1,-2.297373E-2,1.0727749E-1,5.7371664E-1,-1.8589817E-1,-6.328693E-1,-1.5183859E0,1.9814301E-2,-5.0726376E-2,1.9874424E-1,-4.86307E-1,2.7598217E-1,1.4039733E-1,-3.3428382E-2,-1.4895478E-1,-7.656727E-2,-5.4482865E-1,1.9395282E-2,-2.4136563E-1,-2.8681936E-2,1.3528329E-1,-4.7075156E-2,-3.1125897E-1,3.8927079E-3,2.0661159E-1,-4.3455125E-3,-3.4970915E-1,1.486815E-1,-4.421611E-2,1.0244522E-1,3.9157262E-1],"split_indices":[7,0,8,0,0,1,0,0,0,8,5,1,3,0,0,6,0,4,2,0,0,4,7,1,1,0,2,0,3,4,5,0,0,0,0,0,0,0,0,0,0,0,0,0,0,0,0,0,0],"split_type":[0,0,0,0,0,0,0,0,0,0,0,0,0,0,0,0,0,0,0,0,0,0,0,0,0,0,0,0,0,0,0,0,0,0,0,0,0,0,0,0,0,0,0,0,0,0,0,0,0],"sum_hessian":[6.4E1,6E0,5.8E1,5E0,1E0,4.7E1,1.1E1,2E0,3E0,2.4E1,2.3E1,3E0,8E0,2E0,1E0,1.8E1,6E0,1.2E1,1.1E1,1E0,2E0,4E0,4E0,3E0,1.5E1,1E0,5E0,7E0,5E0,6E0,5E0,2E0,2E0,1E0,3E0,1E0,2E0,7E0,8E0,1E0,4E0,2E0,5E0,2E0,3E0,3E0,3E0,2E0,3E0],"tree_param":{"num_deleted":"0","num_feature":"23","num_nodes":"49","size_leaf_vector":"0"}},{"base_weights":[1.164287E-2,8.0433726E-1,-8.260295E-2,1.7189488E-1,6.898487E-1,4.0025454E-2,-5.66233E-1,1.0521091E-1,-5.1849373E-3,-2.504003E-1,1.5505217E-1,1.8200922E-1,-8.358703E-1,2.002555E-2,-3.3149287E-2,1.879381E-1,-6.0264635E-1,-2.4848279E-2,5.019321E-1,-1.9527627E-2,8.5822105E-2,-2.918125E-1,-1.212754E0,2.1884824E-1,-2.3903593E-2,7.014656E-2,-8.3860177E-1,5.1125344E-2,-2.6583624E-1,-2.8121185E-2,7.7047384E-1,-2.6742745E-2,-1.1916351E-1,-6.5081984E-2,-4.222418E-1,2.6228806E-2,-8.708525E-2,-3.7484553E-2,6.9050506E-2,6.07373E-2,-3.2619157E-1,6.969502E-2,-7.696227E-2,5.0370313E-2,-1.21831514E-1,-2.2258831E-2,2.7052215E-1],"categories":[],"categories_nodes":[],"categories_segments":[],"categories_sizes":[],"default_left":[0,0,0,0,0,0,0,0,0,0,0,0,0,0,0,0,0,0,0,0,0,0,0,0,0,0,0,0,0,0,0,0,0,0,0,0,0,0,0,0,0,0,0,0,0,0,0],"id":19,"left_children":[1,3,5,7,-1,9,11,-1,13,15,17,19,21,-1,-1,23,25,27,29,-1,-1,31,33,-1,35,37,39,41,-1,43,45,-1,-1,-1,-1,-1,-1,-1,-1,-1,-1,-1,-1,-1,-1,-1,-1],"loss_changes":[4.9224696E0,6.2239394E0,3.521764E0,1.9179827E-1,0E0,1.6423479E0,2.5731843E0,0E0,3.7679337E-2,2.2749019E0,2.1966069E0,1.2147899E-1,1.4915223E0,0E0,0E0,8.205066E-1,1.3288181E0,1.6157191E0,1.729764E0,0E0,0E0,7.139784E-2,6.6418076E-1,0E0,2.0332094E-1,1.2241756E-1,1.773624E0,1.3417675E0,0E0,4.3865162E-1,9.539213E-1,0E0,0E0,0E0,0E0,0E0,0E0,0E0,0E0,0E0,0E0,0E0,0E0,0E0,0E0,0E0,0E0],"parents":[2147483647,0,0,1,1,2,2,3,3,5,5,6,6,8,8,9,9,10,10,11,11,12,12,15,15,16,16,17,17,18,18,21,21,22,22,24,24,25,25,26,26,27,27,29,29,30,30],"right_children":[2,4,6,8,-1,10,12,-1,14,16,18,20,22,-1,-1,24,26,28,30,-1,-1,32,34,-1,36,38,40,42,-1,44,46,-1,-1,-1,-1,-1,-1,-1,-1,-1,-1,-1,-1,-1,-1,-1,-1],"split_conditions":[-2.8282908E-1,2.0770678E-1,8.7788457E-1,3.263868E-2,6.898487E-1,-1.3635571E-1,1.867942E-1,1.0521091E-1,1.8380669E-1,-3.3890608E-1,1E0,1.1494681E0,1.425534E0,2.002555E-2,-3.3149287E-2,-5.083082E-1,-1.9020621E-1,2.3459436E-1,1.4699839E-1,-1.9527627E-2,8.5822105E-2,5.7371664E-1,-1.8589817E-1,2.1884824E-1,2.7090624E-1,1.9874424E-1,-3.967576E-1,-1.2065038E-1,-2.6583624E-1,-4.86307E-1,-4.728744E-1,-2.6742745E-2,-1.1916351E-1,-6.5081984E-2,-4.222418E-1,2.6228806E-2,-8.708525E-2,-3.7484553E-2,6.9050506E-2,6.07373E-2,-3.2619157E-1,6.969502E-2,-7.696227E-2,5.0370313E-2,-1.21831514E-1,-2.2258831E-2,2.7052215E-1],"split_indices":[7,0,8,0,0,7,0,0,0,2,16,1,3,0,0,4,7,0,1,0,0,4,7,0,1,0,5,5,0,3,10,0,0,0,0,0,0,0,0,0,0,0,0,0,0,0,0],"split_type":[0,0,0,0,0,0,0,0,0,0,0,0,0,0,0,0,0,0,0,0,0,0,0,0,0,0,0,0,0,0,0,0,0,0,0,0,0,0,0,0,0,0,0,0,0,0,0],"sum_hessian":[6.4E1,6E0,5.8E1,5E0,1E0,4.7E1,1.1E1,2E0,3E0,1.3E1,3.4E1,3E0,8E0,2E0,1E0,6E0,7E0,2.3E1,1.1E1,1E0,2E0,4E0,4E0,1E0,5E0,2E0,5E0,2.2E1,1E0,4E0,7E0,2E0,2E0,1E0,3E0,4E0,1E0,1E0,1E0,1E0,4E0,1.4E1,8E0,3E0,1E0,1E0,6E0],"tree_param":{"num_deleted":"0","num_feature":"23","num_nodes":"47","size_leaf_vector":"0"}},{"base_weights":[8.808388E-3,6.74741E-1,-7.0349865E-2,1.3567427E-1,5.8637124E-1,1.20884374E-1,-2.592391E-1,1.0496922E-1,2.2850167E-2,4.5858897E-2,3.444935E-1,-4.888543E-1,-5.4894894E-2,7.5524196E-2,-2.8176894E-2,-2.8572807E-1,1.2684485E-1,-2.7537346E-1,-3.5394785E-1,1.2611982E-1,-6.747227E-1,6.247444E-3,2.6044717E-2,-1.8355E-1,3.0282903E-2,5.2644825E-1,-6.021732E-3,-4.9053082E-1,8.327219E-2,-2.7056846E-1,3.1185198E-1,-5.5319596E-2,-2.3300935E-1,-3.304828E-2,6.774216E-2,2.3755008E-1,5.873915E-2,-3.777302E-2,4.235326E-2,-2.2503577E-1,-7.071503E-2,-1.08115844E-1,1.3305331E-2,1.7119566E-1,1.326294E-2],"categories":[],"categories_nodes":[],"categories_segments":[],"categories_sizes":[],"default_left":[0,0,0,0,0,0,0,0,0,0,0,0,0,0,0,0,0,0,0,0,0,0,0,0,0,0,0,0,0,0,0,0,0,0,0,0,0,0,0,0,0,0,0,0,0],"id":20,"left_children":[1,3,5,7,-1,9,11,-1,13,15,-1,17,19,21,-1,23,25,27,-1,29,31,-1,-1,-1,33,35,37,39,-1,41,43,-1,-1,-1,-1,-1,-1,-1,-1,-1,-1,-1,-1,-1,-1],"loss_changes":[3.4738822E0,4.564211E0,2.1625414E0,1.3702196E-1,0E0,2.2598364E0,1.3807805E0,0E0,3.784802E-2,8.1500584E-1,0E0,1.7402365E0,1.9924611E0,6.626379E-4,0E0,6.3684523E-1,1.2774246E0,1.5638069E0,0E0,1.1158661E0,5.678141E-2,0E0,0E0,0E0,1.3471584E-1,3.714609E-1,3.5307768E-1,4.185052E-1,0E0,1.574102E-1,6.6743016E-1,0E0,0E0,0E0,0E0,0E0,0E0,0E0,0E0,0E0,0E0,0E0,0E0,0E0,0E0],"parents":[2147483647,0,0,1,1,2,2,3,3,5,5,6,6,8,8,9,9,11,11,12,12,13,13,15,15,16,16,17,17,19,19,20,20,24,24,25,25,26,26,27,27,29,29,30,30],"right_children":[2,4,6,8,-1,10,12,-1,14,16,-1,18,20,22,-1,24,26,28,-1,30,32,-1,-1,-1,34,36,38,40,-1,42,44,-1,-1,-1,-1,-1,-1,-1,-1,-1,-1,-1,-1,-1,-1],"split_conditions":[-2.8282908E-1,2.0770678E-1,-2.332692E-1,-3.3303258E-1,5.8637124E-1,-4.445108E-1,1.70405E-1,1.0496922E-1,1.8380669E-1,-1.6004993E-1,3.444935E-1,2.4056938E-1,2.971876E0,-1.557046E0,-2.8176894E-2,-4.0153873E-1,-8.035119E-2,-2.8064689E-3,-3.5394785E-1,2.9341772E-1,3.869996E-1,6.247444E-3,2.6044717E-2,-1.8355E-1,1.9575673E-1,-1.1772232E0,-7.326954E-1,2.0471926E-1,8.327219E-2,2.136818E-1,7.13844E-1,-5.5319596E-2,-2.3300935E-1,-3.304828E-2,6.774216E-2,2.3755008E-1,5.873915E-2,-3.777302E-2,4.235326E-2,-2.2503577E-1,-7.071503E-2,-1.08115844E-1,1.3305331E-2,1.7119566E-1,1.326294E-2],"split_indices":[7,0,3,0,0,10,9,0,0,7,0,0,3,1,0,1,7,7,0,1,5,0,0,0,0,6,8,0,0,0,8,0,0,0,0,0,0,0,0,0,0,0,0,0,0],"split_type":[0,0,0,0,0,0,0,0,0,0,0,0,0,0,0,0,0,0,0,0,0,0,0,0,0,0,0,0,0,0,0,0,0,0,0,0,0,0,0,0,0,0,0,0,0],"sum_hessian":[6.4E1,6E0,5.8E1,5E0,1E0,2.9E1,2.9E1,1E0,4E0,2.8E1,1E0,1.3E1,1.6E1,3E0,1E0,5E0,2.3E1,1.1E1,2E0,1.3E1,3E0,1E0,2E0,2E0,3E0,5E0,1.8E1,8E0,3E0,4E0,9E0,1E0,2E0,2E0,1E0,2E0,3E0,1E1,8E0,3E0,5E0,3E0,1E0,4E0,5E0],"tree_param":{"num_deleted":"0","num_feature":"23","num_nodes":"45","size_leaf_vector":"0"}},{"base_weights":[1.2733024E-2,5.716691E-1,-5.379724E-2,1.1315243E-1,4.9841538E-1,1.01169616E-1,-2.0697086E-1,8.922386E-2,1.6817762E-2,3.734329E-2,2.9281998E-1,-1.4099075E-1,-2.261385E-1,6.093947E-2,-2.3950363E-2,-2.2481886E-1,1.0132785E-1,-3.211696E-1,1.2601186E-1,5.310327E-3,2.0835571E-2,-4.1696098E-1,1.06310286E-1,4.1789567E-1,-3.9739823E-3,-1.9145471E-1,-5.941944E-1,-1.7286845E-1,2.4223624E-1,-5.166027E-2,-1.726862E-1,-9.741318E-3,5.758095E-2,1.9004022E-1,4.552291E-2,3.1035367E-2,-4.9384512E-2,-1.03940085E-1,-1.5379108E-2,-5.122967E-2,-2.4586754E-1,1.17923014E-1,-3.6001112E-2],"categories":[],"categories_nodes":[],"categories_segments":[],"categories_sizes":[],"default_left":[0,0,0,0,0,0,0,0,0,0,0,0,0,0,0,0,0,0,0,0,0,0,0,0,0,0,0,0,0,0,0,0,0,0,0,0,0,0,0,0,0,0,0],"id":21,"left_children":[1,3,5,7,-1,9,11,-1,13,15,-1,17,-1,19,-1,21,23,25,27,-1,-1,29,31,33,35,37,39,-1,41,-1,-1,-1,-1,-1,-1,-1,-1,-1,-1,-1,-1,-1,-1],"loss_changes":[2.4478552E0,3.3095796E0,1.4214125E0,1.0150219E-1,0E0,1.6387944E0,9.761076E-1,0E0,2.6187396E-2,5.0923604E-1,0E0,1.3875017E0,0E0,2.4288148E-4,0E0,4.260704E-1,8.017048E-1,4.8830044E-1,1.1189922E0,0E0,0E0,5.621183E-2,4.1882336E-2,2.4812555E-1,3.4491068E-1,2.6474607E-1,3.3717597E-1,0E0,6.482154E-1,0E0,0E0,0E0,0E0,0E0,0E0,0E0,0E0,0E0,0E0,0E0,0E0,0E0,0E0],"parents":[2147483647,0,0,1,1,2,2,3,3,5,5,6,6,8,8,9,9,11,11,13,13,15,15,16,16,17,17,18,18,21,21,22,22,23,23,24,24,25,25,26,26,28,28],"right_children":[2,4,6,8,-1,10,12,-1,14,16,-1,18,-1,20,-1,22,24,26,28,-1,-1,30,32,34,36,38,40,-1,42,-1,-1,-1,-1,-1,-1,-1,-1,-1,-1,-1,-1,-1,-1],"split_conditions":[-2.8282908E-1,2.0770678E-1,-2.332692E-1,-3.3303258E-1,4.9841538E-1,-4.445108E-1,1E0,8.922386E-2,1.8380669E-1,-1.6004993E-1,2.9281998E-1,-2.8064689E-3,-2.261385E-1,-1.557046E0,-2.3950363E-2,-3.8688385E-1,-8.035119E-2,5.0346535E-1,-1.2080797E-1,5.310327E-3,2.0835571E-2,2.0770678E-1,1.9575673E-1,-1.1772232E0,-1.6555466E-1,1.1466382E-1,8.83268E-2,-1.7286845E-1,1.201617E0,-5.166027E-2,-1.726862E-1,-9.741318E-3,5.758095E-2,1.9004022E-1,4.552291E-2,3.1035367E-2,-4.9384512E-2,-1.03940085E-1,-1.5379108E-2,-5.122967E-2,-2.4586754E-1,1.17923014E-1,-3.6001112E-2],"split_indices":[7,0,3,0,0,10,12,0,0,7,0,7,0,1,0,1,7,2,3,0,0,0,0,6,5,9,4,0,9,0,0,0,0,0,0,0,0,0,0,0,0,0,0],"split_type":[0,0,0,0,0,0,0,0,0,0,0,0,0,0,0,0,0,0,0,0,0,0,0,0,0,0,0,0,0,0,0,0,0,0,0,0,0,0,0,0,0,0,0],"sum_hessian":[6.4E1,6E0,5.8E1,5E0,1E0,2.9E1,2.9E1,1E0,4E0,2.8E1,1E0,2.7E1,2E0,3E0,1E0,5E0,2.3E1,1.6E1,1.1E1,1E0,2E0,3E0,2E0,5E0,1.8E1,1.2E1,4E0,1E0,1E1,2E0,1E0,1E0,1E0,2E0,3E0,1.1E1,7E0,5E0,7E0,2E0,2E0,7E0,3E0],"tree_param":{"num_deleted":"0","num_feature":"23","num_nodes":"43","size_leaf_vector":"0"}},{"base_weights":[1.1833947E-2,4.844305E-1,-4.4437405E-2,9.44429E-2,4.2365342E-1,-2.1794815E-1,-2.0152057E-2,7.584E-2,1.2211481E-2,1.29360575E-2,-1.4102268E-1,4.9194027E-2,-2.0357806E-2,-4.9826503E-2,1.561598E-1,4.513778E-3,1.6668426E-2,8.974406E-2,-1.3157578E-1,-1.18302025E-1,2.8037742E-1,-2.1451816E-2,8.527353E-2,1.061657E-1,-4.9964577E-2,5.7082366E-2,-9.604769E-2,2.4889757E-1,4.6505783E-2],"categories":[],"categories_nodes":[],"categories_segments":[],"categories_sizes":[],"default_left":[0,0,0,0,0,0,0,0,0,0,0,0,0,0,0,0,0,0,0,0,0,0,0,0,0,0,0,0,0],"id":22,"left_children":[1,3,5,7,-1,-1,9,-1,11,13,-1,15,-1,17,19,-1,-1,21,23,25,27,-1,-1,-1,-1,-1,-1,-1,-1],"loss_changes":[1.750114E0,2.3993E0,9.626344E-1,7.50445E-2,0E0,0E0,8.69534E-1,0E0,1.814439E-2,5.021808E-1,0E0,3.37651E-5,0E0,4.567901E-1,6.1275005E-1,0E0,0E0,4.9077487E-1,4.8338777E-1,4.3464804E-1,6.9766927E-1,0E0,0E0,0E0,0E0,0E0,0E0,0E0,0E0],"parents":[2147483647,0,0,1,1,2,2,3,3,6,6,8,8,9,9,11,11,13,13,14,14,17,17,18,18,19,19,20,20],"right_children":[2,4,6,8,-1,-1,10,-1,12,14,-1,16,-1,18,20,-1,-1,22,24,26,28,-1,-1,-1,-1,-1,-1,-1,-1],"split_conditions":[-2.8282908E-1,2.0770678E-1,-1.4694573E0,-3.3303258E-1,4.2365342E-1,-2.1794815E-1,2.971876E0,7.584E-2,1.8380669E-1,1E0,-1.4102268E-1,-1.557046E0,-2.0357806E-2,-2.7521962E-1,-1.4335291E-1,4.513778E-3,1.6668426E-2,-6.133931E-1,-1.2844682E0,-2.8868422E-1,-2.3192E-2,-2.1451816E-2,8.527353E-2,1.061657E-1,-4.9964577E-2,5.7082366E-2,-9.604769E-2,2.4889757E-1,4.6505783E-2],"split_indices":[7,0,2,0,0,0,3,0,0,16,0,1,0,5,4,0,0,8,8,4,4,0,0,0,0,0,0,0,0],"split_type":[0,0,0,0,0,0,0,0,0,0,0,0,0,0,0,0,0,0,0,0,0,0,0,0,0,0,0,0,0],"sum_hessian":[6.4E1,6E0,5.8E1,5E0,1E0,1E0,5.7E1,1E0,4E0,5.4E1,3E0,3E0,1E0,3.8E1,1.6E1,1E0,2E0,1.4E1,2.4E1,5E0,1.1E1,8E0,6E0,1E0,2.3E1,2E0,3E0,1E0,1E1],"tree_param":{"num_deleted":"0","num_feature":"23","num_nodes":"29","size_leaf_vector":"0"}},{"base_weights":[1.6249971E-2,4.1057518E-1,-3.0809797E-2,7.888713E-2,3.601055E-1,-1.8525583E-1,-1.0047229E-2,6.4464E-2,8.712555E-3,1.5899962E-2,-3.643093E-1,1.1919277E-2,-1.7304135E-2,-3.4940444E-2,1.4200723E-1,-2.3561098E-2,-1.3001633E-1,4.9188532E-2,-1.9469343E-1,3.3603573E-1,4.932809E-2,-9.4990706E-4,2.1156235E-1,-1.2892757E-1,-4.90522E-3,-2.6128722E-2,1.3907777E-1,-4.253097E-2,3.8633887E-2],"categories":[],"categories_nodes":[],"categories_segments":[],"categories_sizes":[],"default_left":[0,0,0,0,0,0,0,0,0,0,0,0,0,0,0,0,0,0,0,0,0,0,0,0,0,0,0,0,0],"id":23,"left_children":[1,3,5,7,-1,-1,9,-1,11,13,15,-1,-1,17,19,-1,-1,21,23,25,27,-1,-1,-1,-1,-1,-1,-1,-1],"loss_changes":[1.2188452E0,1.7390238E0,7.1250993E-1,5.5387285E-2,0E0,0E0,5.389347E-1,0E0,1.25887105E-2,3.5758576E-1,4.4925928E-2,0E0,0E0,5.4717094E-1,2.711423E-1,0E0,0E0,9.2957E-1,5.798834E-1,3.1024343E-1,2.0045342E-1,0E0,0E0,0E0,0E0,0E0,0E0,0E0,0E0],"parents":[2147483647,0,0,1,1,2,2,3,3,6,6,8,8,9,9,10,10,13,13,14,14,17,17,18,18,19,19,20,20],"right_children":[2,4,6,8,-1,-1,10,-1,12,14,16,-1,-1,18,20,-1,-1,22,24,26,28,-1,-1,-1,-1,-1,-1,-1,-1],"split_conditions":[-2.8282908E-1,2.0770678E-1,-1.4694573E0,-3.3303258E-1,3.601055E-1,-1.8525583E-1,2.971876E0,6.4464E-2,1.8380669E-1,1.982756E-1,3.869996E-1,1.1919277E-2,-1.7304135E-2,-1.6882073E-2,3.811828E-1,-2.3561098E-2,-1.3001633E-1,-4.6707626E-2,5.647162E-1,1.9874424E-1,3.6898209E-3,-9.4990706E-4,2.1156235E-1,-1.2892757E-1,-4.90522E-3,-2.6128722E-2,1.3907777E-1,-4.253097E-2,3.8633887E-2],"split_indices":[7,0,2,0,0,0,3,0,0,9,5,0,0,8,6,0,0,8,8,0,1,0,0,0,0,0,0,0,0],"split_type":[0,0,0,0,0,0,0,0,0,0,0,0,0,0,0,0,0,0,0,0,0,0,0,0,0,0,0,0,0],"sum_hessian":[6.4E1,6E0,5.8E1,5E0,1E0,1E0,5.7E1,1E0,4E0,5.4E1,3E0,3E0,1E0,3.9E1,1.5E1,1E0,2E0,2.6E1,1.3E1,4E0,1.1E1,2.5E1,1E0,5E0,8E0,1E0,3E0,3E0,8E0],"tree_param":{"num_deleted":"0","num_feature":"23","num_nodes":"29","size_leaf_vector":"0"}},{"base_weights":[1.5470088E-2,3.472861E-1,-2.4160117E-2,6.5067776E-2,3.060894E-1,4.3104902E-2,-1.5748215E-1,5.4794315E-2,5.0222497E-3,-4.792999E-2,2.1559326E-1,-1.9250937E-1,-3.4285378E-2,3.0792003E-2,-1.4708515E-2,1.7369052E-2,-1.7283362E-1,1.651083E-1,1.1393523E-1,-7.247811E-2,5.043202E-2,2.0488198E-3,1.0950922E-2,-5.0122812E-2,1.15269616E-1,2.9224795E-1,-1.1752129E-2,-1.3521388E-2,-1.5865962E-1,1.0923386E-1,-2.615611E-2,9.77618E-2,2.3662377E-2,-4.6505164E-2,1.8551731E-2,-1.5683344E-2,2.8300857E-2,-7.2183614E-3,-5.423012E-2],"categories":[],"categories_nodes":[],"categories_segments":[],"categories_sizes":[],"default_left":[0,0,0,0,0,0,0,0,0,0,0,0,0,0,0,0,0,0,0,0,0,0,0,0,0,0,0,0,0,0,0,0,0,0,0,0,0,0,0],"id":24,"left_children":[1,3,5,7,-1,9,11,-1,13,15,17,-1,19,21,-1,23,-1,-1,25,27,-1,-1,-1,29,-1,31,33,35,37,-1,-1,-1,-1,-1,-1,-1,-1,-1,-1],"loss_changes":[8.6313635E-1,1.2631654E0,5.358949E-1,4.144359E-2,0E0,6.384318E-1,1.1710755E0,0E0,8.474039E-3,9.412306E-1,4.1374004E-1,0E0,1.4359246E-1,2.9811426E-4,0E0,6.3826555E-1,0E0,0E0,2.723744E-1,7.4069396E-2,0E0,0E0,0E0,3.6951897E-1,0E0,1.0170013E-2,9.3930565E-2,4.6733428E-2,1.3504282E-2,0E0,0E0,0E0,0E0,0E0,0E0,0E0,0E0,0E0,0E0],"parents":[2147483647,0,0,1,1,2,2,3,3,5,5,6,6,8,8,9,9,10,10,12,12,13,13,15,15,18,18,19,19,23,23,25,25,26,26,27,27,28,28],"right_children":[2,4,6,8,-1,10,12,-1,14,16,18,-1,20,22,-1,24,-1,-1,26,28,-1,-1,-1,30,-1,32,34,36,38,-1,-1,-1,-1,-1,-1,-1,-1,-1,-1],"split_conditions":[-2.8282908E-1,2.0770678E-1,2.9869068E-1,-3.3303258E-1,3.060894E-1,-1.1245936E-1,5.637435E-1,5.4794315E-2,1.8380669E-1,2.2861935E-1,-2.3192E-2,-1.9250937E-1,1.693127E0,-1.557046E0,-1.4708515E-2,8.5508354E-2,-1.7283362E-1,1.651083E-1,-7.7447444E-1,8.7788457E-1,5.043202E-2,2.0488198E-3,1.0950922E-2,-1.3722165E0,1.15269616E-1,1E0,1.8978171E-1,2.894528E-1,-6.935888E-1,1.0923386E-1,-2.615611E-2,9.77618E-2,2.3662377E-2,-4.6505164E-2,1.8551731E-2,-1.5683344E-2,2.8300857E-2,-7.2183614E-3,-5.423012E-2],"split_indices":[7,0,4,0,0,4,4,0,0,0,4,0,1,1,0,7,0,0,6,8,0,0,0,6,0,13,0,6,2,0,0,0,0,0,0,0,0,0,0],"split_type":[0,0,0,0,0,0,0,0,0,0,0,0,0,0,0,0,0,0,0,0,0,0,0,0,0,0,0,0,0,0,0,0,0,0,0,0,0,0,0],"sum_hessian":[6.4E1,6E0,5.8E1,5E0,1E0,3.9E1,1.9E1,1E0,4E0,2.6E1,1.3E1,3E0,1.6E1,3E0,1E0,2.4E1,2E0,2E0,1.1E1,1.4E1,2E0,1E0,2E0,2.1E1,3E0,4E0,7E0,9E0,5E0,1E0,2E1,3E0,1E0,2E0,5E0,7E0,2E0,1E0,4E0],"tree_param":{"num_deleted":"0","num_feature":"23","num_nodes":"39","size_leaf_vector":"0"}},{"base_weights":[1.7788611E-2,2.944111E-1,-1.5332508E-2,5.439549E-2,2.601757E-1,-1.285904E-1,-8.163563E-4,4.6575166E-2,3.1743688E-3,-9.998672E-2,4.274176E-2,2.4805022E-2,-1.2502237E-2,9.284878E-2,-1.4227958E-1,1.6552117E-1,1.2595376E-2,1.7414966E-3,8.761011E-3,1.2916237E-2,-2.5220826E-1,1.538538E-1,-3.5728086E-2,-3.560692E-2,1.0393349E-1,-1.758712E-2,2.026949E-2,2.7262269E-2,-9.012771E-2,-3.6061194E-2,1.5623653E-3,-2.6058834E-3,-9.417916E-2,8.14214E-2,-4.1182996E-3],"categories":[],"categories_nodes":[],"categories_segments":[],"categories_sizes":[],"default_left":[0,0,0,0,0,0,0,0,0,0,0,0,0,0,0,0,0,0,0,0,0,0,0,0,0,0,0,0,0,0,0,0,0,0,0],"id":25,"left_children":[1,3,5,7,-1,-1,9,-1,11,13,15,17,-1,-1,19,21,23,-1,-1,25,27,-1,29,31,33,-1,-1,-1,-1,-1,-1,-1,-1,-1,-1],"loss_changes":[6.0004705E-1,9.1526127E-1,3.536239E-1,3.0502634E-2,0E0,0E0,2.548147E-1,0E0,5.884238E-3,3.5576236E-1,1.4967078E-1,1.6475003E-4,0E0,0E0,2.932856E-1,5.7751393E-1,1.533928E-1,0E0,0E0,3.5237458E-2,1.927265E-1,0E0,2.1374622E-2,1.6960406E-1,2.4018396E-1,0E0,0E0,0E0,0E0,0E0,0E0,0E0,0E0,0E0,0E0],"parents":[2147483647,0,0,1,1,2,2,3,3,6,6,8,8,9,9,10,10,11,11,14,14,15,15,16,16,19,19,20,20,22,22,23,23,24,24],"right_children":[2,4,6,8,-1,-1,10,-1,12,14,16,18,-1,-1,20,22,24,-1,-1,26,28,-1,30,32,34,-1,-1,-1,-1,-1,-1,-1,-1,-1,-1],"split_conditions":[-2.8282908E-1,2.0770678E-1,-1.4694573E0,-3.3303258E-1,2.601757E-1,-1.285904E-1,-1.3635571E-1,4.6575166E-2,1.8380669E-1,-5.083082E-1,-8.035119E-2,-1.557046E0,-1.2502237E-2,9.284878E-2,-1.8589817E-1,-1.5354076E-1,1.70405E-1,1.7414966E-3,8.761011E-3,1.9874424E-1,-3.967576E-1,1.538538E-1,1.8978171E-1,2.4056938E-1,5.048522E-1,-1.758712E-2,2.026949E-2,2.7262269E-2,-9.012771E-2,-3.6061194E-2,1.5623653E-3,-2.6058834E-3,-9.417916E-2,8.14214E-2,-4.1182996E-3],"split_indices":[7,0,2,0,0,0,7,0,0,4,7,1,0,0,7,6,9,0,0,0,5,0,0,0,9,0,0,0,0,0,0,0,0,0,0],"split_type":[0,0,0,0,0,0,0,0,0,0,0,0,0,0,0,0,0,0,0,0,0,0,0,0,0,0,0,0,0,0,0,0,0,0,0],"sum_hessian":[6.4E1,6E0,5.8E1,5E0,1E0,1E0,5.7E1,1E0,4E0,1.7E1,4E1,3E0,1E0,1E0,1.6E1,7E0,3.3E1,1E0,2E0,7E0,9E0,2E0,5E0,2.2E1,1.1E1,3E0,4E0,1E0,8E0,1E0,4E0,2.1E1,1E0,4E0,7E0],"tree_param":{"num_deleted":"0","num_feature":"23","num_nodes":"35","size_leaf_vector":"0"}},{"base_weights":[1.7201249E-2,2.4962394E-1,-1.066587E-2,4.550675E-2,2.2114907E-1,3.752131E-2,-1.0650694E-1,3.9589122E-2,1.8226057E-3,-2.3537217E-2,1.5259695E-1,-1.2603079E-1,-2.6454614E-2,1.9989759E-2,-1.0626901E-2,2.2514252E-2,-1.1983612E-1,1.1696187E-1,8.0561556E-2,-5.1725417E-2,3.261528E-2,1.4802722E-3,7.0090555E-3,-2.1342902E-2,7.743001E-2,6.37738E-2,-1.2019753E-2,-4.2753653E-3,-1.22187935E-1,6.2425505E-2,-1.6406983E-2,-3.3337597E-2,1.1860895E-2,-9.11488E-3,1.2744517E-2,-5.517769E-3,-4.1780546E-2],"categories":[],"categories_nodes":[],"categories_segments":[],"categories_sizes":[],"default_left":[0,0,0,0,0,0,0,0,0,0,0,0,0,0,0,0,0,0,0,0,0,0,0,0,0,0,0,0,0,0,0,0,0,0,0,0,0],"id":26,"left_children":[1,3,5,7,-1,9,11,-1,13,15,17,-1,19,21,-1,23,-1,-1,25,27,-1,-1,-1,29,-1,-1,31,33,35,-1,-1,-1,-1,-1,-1,-1,-1],"loss_changes":[4.236643E-1,6.6306055E-1,2.7647662E-1,2.242028E-2,0E0,2.8464568E-1,4.9096757E-1,0E0,4.0913303E-3,4.764041E-1,2.0788291E-1,0E0,6.369394E-2,8.78938E-5,0E0,2.6381165E-1,0E0,0E0,1.492237E-1,4.962935E-2,0E0,0E0,0E0,1.796965E-1,0E0,0E0,4.5269433E-2,1.3497856E-2,8.075796E-3,0E0,0E0,0E0,0E0,0E0,0E0,0E0,0E0],"parents":[2147483647,0,0,1,1,2,2,3,3,5,5,6,6,8,8,9,9,10,10,12,12,13,13,15,15,18,18,19,19,23,23,26,26,27,27,28,28],"right_children":[2,4,6,8,-1,10,12,-1,14,16,18,-1,20,22,-1,24,-1,-1,26,28,-1,-1,-1,30,-1,-1,32,34,36,-1,-1,-1,-1,-1,-1,-1,-1],"split_conditions":[-2.8282908E-1,2.0770678E-1,2.9869068E-1,-3.3303258E-1,2.2114907E-1,-1.1245936E-1,5.637435E-1,3.9589122E-2,1.8380669E-1,2.2861935E-1,-2.3192E-2,-1.2603079E-1,1.693127E0,-1.557046E0,-1.0626901E-2,8.5508354E-2,-1.1983612E-1,1.1696187E-1,-7.7447444E-1,8.7788457E-1,3.261528E-2,1.4802722E-3,7.0090555E-3,-1.3132124E0,7.743001E-2,6.37738E-2,1.8978171E-1,1.9682366E-2,-6.935888E-1,6.2425505E-2,-1.6406983E-2,-3.3337597E-2,1.1860895E-2,-9.11488E-3,1.2744517E-2,-5.517769E-3,-4.1780546E-2],"split_indices":[7,0,4,0,0,4,4,0,0,0,4,0,1,1,0,7,0,0,6,8,0,0,0,6,0,0,0,6,2,0,0,0,0,0,0,0,0],"split_type":[0,0,0,0,0,0,0,0,0,0,0,0,0,0,0,0,0,0,0,0,0,0,0,0,0,0,0,0,0,0,0,0,0,0,0,0,0],"sum_hessian":[6.4E1,6E0,5.8E1,5E0,1E0,3.9E1,1.9E1,1E0,4E0,2.6E1,1.3E1,3E0,1.6E1,3E0,1E0,2.4E1,2E0,2E0,1.1E1,1.4E1,2E0,1E0,2E0,2.1E1,3E0,4E0,7E0,9E0,5E0,2E0,1.9E1,2E0,5E0,6E0,3E0,1E0,4E0],"tree_param":{"num_deleted":"0","num_feature":"23","num_nodes":"37","size_leaf_vector":"0"}},{"base_weights":[1.641619E-2,2.1167988E-1,-7.0289285E-3,3.8096286E-2,1.8797722E-1,9.682802E-3,-1.8945217E-1,3.3650782E-2,8.478377E-4,9.36329E-2,-3.3688404E-2,-1.016491E-1,2.3076693E-2,1.6114574E-2,-9.032866E-3,4.6335597E-2,2.5941387E-1,-1.2916276E-1,1.7305797E-2,-3.9509297E-3,1.4335442E-2,1.2582312E-3,5.607009E-3,6.955776E-2,1.8510077E-2,1.1443978E-1,2.7472368E-2,5.1115355E-3,-2.1372314E-1,6.544403E-2,-4.029762E-2,3.5103405E-4,3.9190438E-2,-9.926892E-3,2.9417612E-2,2.5633976E-2,-8.06005E-2,-1.1460765E-2,6.300197E-2,-2.2334788E-2,2.6092147E-2],"categories":[],"categories_nodes":[],"categories_segments":[],"categories_sizes":[],"default_left":[0,0,0,0,0,0,0,0,0,0,0,0,0,0,0,0,0,0,0,0,0,0,0,0,0,0,0,0,0,0,0,0,0,0,0,0,0,0,0,0,0],"id":27,"left_children":[1,3,5,7,-1,9,11,-1,13,15,17,-1,19,21,-1,23,25,27,29,-1,-1,-1,-1,-1,31,-1,-1,33,35,37,39,-1,-1,-1,-1,-1,-1,-1,-1,-1,-1],"loss_changes":[2.9905662E-1,4.8028123E-1,1.817023E-1,1.645952E-2,0E0,2.0341027E-1,1.6655491E-1,0E0,2.8482939E-3,1.3695876E-1,1.8237491E-1,0E0,3.3160592E-3,4.4414657E-5,0E0,7.8304924E-2,4.700795E-2,1.4869815E-1,7.1960405E-2,0E0,0E0,0E0,0E0,0E0,2.9010717E-2,0E0,0E0,2.4548871E-2,1.5446031E-1,2.1779056E-1,5.8633536E-2,0E0,0E0,0E0,0E0,0E0,0E0,0E0,0E0,0E0,0E0],"parents":[2147483647,0,0,1,1,2,2,3,3,5,5,6,6,8,8,9,9,10,10,12,12,13,13,15,15,16,16,17,17,18,18,24,24,27,27,28,28,29,29,30,30],"right_children":[2,4,6,8,-1,10,12,-1,14,16,18,-1,20,22,-1,24,26,28,30,-1,-1,-1,-1,-1,32,-1,-1,34,36,38,40,-1,-1,-1,-1,-1,-1,-1,-1,-1,-1],"split_conditions":[-2.8282908E-1,2.0770678E-1,2.4056938E-1,-3.3303258E-1,1.8797722E-1,-3.3890608E-1,2.7641952E-1,3.3650782E-2,1.8380669E-1,-5.3841513E-1,-1.2989365E-1,-1.016491E-1,2.4654986E-1,-1.557046E0,-9.032866E-3,-1.3722165E0,1.7484416E-1,-1.8589817E-1,-1.2065038E-1,-3.9509297E-3,1.4335442E-2,1.2582312E-3,5.607009E-3,6.955776E-2,2.2861935E-1,1.1443978E-1,2.7472368E-2,1E0,-3.967576E-1,-4.3277502E-1,1.693127E0,3.5103405E-4,3.9190438E-2,-9.926892E-3,2.9417612E-2,2.5633976E-2,-8.06005E-2,-1.1460765E-2,6.300197E-2,-2.2334788E-2,2.6092147E-2],"split_indices":[7,0,0,0,0,2,0,0,0,2,7,0,1,1,0,6,0,7,5,0,0,0,0,0,0,0,0,19,5,5,1,0,0,0,0,0,0,0,0,0,0],"split_type":[0,0,0,0,0,0,0,0,0,0,0,0,0,0,0,0,0,0,0,0,0,0,0,0,0,0,0,0,0,0,0,0,0,0,0,0,0,0,0,0,0],"sum_hessian":[6.4E1,6E0,5.8E1,5E0,1E0,5.4E1,4E0,1E0,4E0,1.8E1,3.6E1,2E0,2E0,3E0,1E0,1.5E1,3E0,1.2E1,2.4E1,1E0,1E0,1E0,2E0,1E0,1.4E1,1E0,2E0,5E0,7E0,1.3E1,1.1E1,1.3E1,1E0,4E0,1E0,1E0,6E0,8E0,5E0,9E0,2E0],"tree_param":{"num_deleted":"0","num_feature":"23","num_nodes":"41","size_leaf_vector":"0"}},{"base_weights":[1.7629977E-2,1.7952701E-1,-1.8769599E-3,3.1914715E-2,1.5978013E-1,-7.514992E-2,6.7286002E-3,2.8603364E-2,1.598415E-4,6.02555E-2,-2.3029124E-2,1.29963625E-2,-7.6779365E-3,2.2060934E-2,2.1706718E-1,-6.636599E-2,-5.873526E-3,1.0694966E-3,4.4855475E-3,1.4418839E-1,-1.1977116E-2,9.727364E-2,2.1977784E-2,1.0428333E-1,-2.2901988E-2,5.4012682E-2,5.4940134E-3,-3.0179102E-2,8.818043E-3,5.753832E-2,-5.396652E-3,-1.5175387E-2,8.235337E-3],"categories":[],"categories_nodes":[],"categories_segments":[],"categories_sizes":[],"default_left":[0,0,0,0,0,0,0,0,0,0,0,0,0,0,0,0,0,0,0,0,0,0,0,0,0,0,0,0,0,0,0,0,0],"id":28,"left_children":[1,3,5,7,-1,-1,9,-1,11,13,15,17,-1,19,21,-1,23,-1,-1,25,27,-1,-1,29,31,-1,-1,-1,-1,-1,-1,-1,-1],"loss_changes":[2.0561448E-1,3.4782803E-1,1.2791827E-1,1.2069998E-2,0E0,0E0,9.3772285E-2,0E0,1.9855096E-3,1.2098775E-1,1.2790379E-1,2.0467734E-5,0E0,7.6552615E-2,3.7898332E-2,0E0,6.9917165E-2,0E0,0E0,1.4755249E-2,5.7950754E-2,0E0,0E0,5.6951E-2,4.599362E-2,0E0,0E0,0E0,0E0,0E0,0E0,0E0,0E0],"parents":[2147483647,0,0,1,1,2,2,3,3,6,6,8,8,9,9,10,10,11,11,13,13,14,14,16,16,19,19,20,20,23,23,24,24],"right_children":[2,4,6,8,-1,-1,10,-1,12,14,16,18,-1,20,22,-1,24,-1,-1,26,28,-1,-1,30,32,-1,-1,-1,-1,-1,-1,-1,-1],"split_conditions":[-2.8282908E-1,2.0770678E-1,-1.4694573E0,-3.3303258E-1,1.5978013E-1,-7.514992E-2,-3.3890608E-1,2.8603364E-2,1.8380669E-1,-5.3841513E-1,-2.9457074E-1,-1.557046E0,-7.6779365E-3,-3.976763E-1,1.7484416E-1,-6.636599E-2,-2.0590006E-1,1.0694966E-3,4.4855475E-3,3.9585602E-1,5.750572E-2,9.727364E-2,2.1977784E-2,6.705386E-1,-1.3576569E-2,5.4012682E-2,5.4940134E-3,-3.0179102E-2,8.818043E-3,5.753832E-2,-5.396652E-3,-1.5175387E-2,8.235337E-3],"split_indices":[7,0,2,0,0,0,2,0,0,2,2,1,0,4,0,0,2,0,0,1,5,0,0,1,7,0,0,0,0,0,0,0,0],"split_type":[0,0,0,0,0,0,0,0,0,0,0,0,0,0,0,0,0,0,0,0,0,0,0,0,0,0,0,0,0,0,0,0,0],"sum_hessian":[6.4E1,6E0,5.8E1,5E0,1E0,1E0,5.7E1,1E0,4E0,2E1,3.7E1,3E0,1E0,1.7E1,3E0,2E0,3.5E1,1E0,2E0,3E0,1.4E1,1E0,2E0,4E0,3.1E1,2E0,1E0,4E0,1E1,2E0,2E0,2E1,1.1E1],"tree_param":{"num_deleted":"0","num_feature":"23","num_nodes":"33","size_leaf_vector":"0"}},{"base_weights":[1.6146256E-2,1.5227728E-1,-2.785462E-4,2.675375E-2,1.3581276E-1,2.946667E-2,-5.9755053E-2,2.4312975E-2,-3.1279717E-4,1.9751906E-3,1.2394008E-1,-7.004829E-2,-1.53602315E-2,1.048608E-2,-6.526246E-3,-1.0096888E-1,2.4778496E-2,1.6653879E-1,-1.677025E-2,-3.1134687E-2,2.0589639E-2,4.441872E-3,1.2331844E-3,-5.192321E-2,-2.1645308E-2,7.136666E-2,-4.947398E-2,2.0722179E-1,4.3220837E-2,-7.375809E-3,-1.7080308E-4,-5.299596E-3,-6.900406E-2,4.737282E-3,-1.1816312E-2,1.5741999E-3,4.3528493E-2,-4.2486336E-2,7.023934E-3,1.3463402E-2,7.097647E-2,1.6648293E-2,2.8010847E-3,-8.13153E-3,1.025548E-2,-7.3112487E-3,-2.556839E-2],"categories":[],"categories_nodes":[],"categories_segments":[],"categories_sizes":[],"default_left":[0,0,0,0,0,0,0,0,0,0,0,0,0,0,0,0,0,0,0,0,0,0,0,0,0,0,0,0,0,0,0,0,0,0,0,0,0,0,0,0,0,0,0,0,0,0,0],"id":29,"left_children":[1,3,5,7,-1,9,11,-1,13,15,17,-1,19,21,-1,23,25,27,29,31,-1,-1,-1,-1,33,35,37,39,41,-1,-1,43,45,-1,-1,-1,-1,-1,-1,-1,-1,-1,-1,-1,-1,-1,-1],"loss_changes":[1.4537755E-1,2.5186723E-1,1.06140144E-1,8.841924E-3,0E0,1.0364376E-1,1.5067592E-1,0E0,1.3858287E-3,7.7620745E-2,5.67396E-2,0E0,2.4660714E-2,4.930937E-5,0E0,3.0573096E-2,9.6931525E-2,2.6162326E-2,3.6587025E-4,1.4309687E-2,0E0,0E0,0E0,0E0,3.2788038E-3,8.2111366E-2,7.7195495E-2,1.3219684E-2,7.2947145E-4,0E0,0E0,9.5363865E-3,2.2676755E-3,0E0,0E0,0E0,0E0,0E0,0E0,0E0,0E0,0E0,0E0,0E0,0E0,0E0,0E0],"parents":[2147483647,0,0,1,1,2,2,3,3,5,5,6,6,8,8,9,9,10,10,12,12,13,13,15,15,16,16,17,17,18,18,19,19,24,24,25,25,26,26,27,27,28,28,31,31,32,32],"right_children":[2,4,6,8,-1,10,12,-1,14,16,18,-1,20,22,-1,24,26,28,30,32,-1,-1,-1,-1,34,36,38,40,42,-1,-1,44,46,-1,-1,-1,-1,-1,-1,-1,-1,-1,-1,-1,-1,-1,-1],"split_conditions":[-2.8282908E-1,2.0770678E-1,2.9869068E-1,-3.3303258E-1,1.3581276E-1,1.0072183E-1,5.637435E-1,2.4312975E-2,1.8380669E-1,-1.6004993E-1,1E0,-7.004829E-2,1.693127E0,3.263868E-2,-6.526246E-3,-4.0153873E-1,-2.8868422E-1,1E0,2.0471926E-1,8.7788457E-1,2.0589639E-2,4.441872E-3,1.2331844E-3,-5.192321E-2,1.867942E-1,-6.133931E-1,-1.1245936E-1,-5.144223E-1,2.2264433E-1,-7.375809E-3,-1.7080308E-4,1.9682366E-2,6.008004E-1,4.737282E-3,-1.1816312E-2,1.5741999E-3,4.3528493E-2,-4.2486336E-2,7.023934E-3,1.3463402E-2,7.097647E-2,1.6648293E-2,2.8010847E-3,-8.13153E-3,1.025548E-2,-7.3112487E-3,-2.556839E-2],"split_indices":[7,0,4,0,0,5,4,0,0,7,14,0,1,0,0,1,4,20,0,8,0,0,0,0,0,8,4,3,0,0,0,6,4,0,0,0,0,0,0,0,0,0,0,0,0,0,0],"split_type":[0,0,0,0,0,0,0,0,0,0,0,0,0,0,0,0,0,0,0,0,0,0,0,0,0,0,0,0,0,0,0,0,0,0,0,0,0,0,0,0,0,0,0,0,0,0,0],"sum_hessian":[6.4E1,6E0,5.8E1,5E0,1E0,3.9E1,1.9E1,1E0,4E0,3.1E1,8E0,3E0,1.6E1,3E0,1E0,5E0,2.6E1,6E0,2E0,1.4E1,2E0,1E0,2E0,2E0,3E0,1.6E1,1E1,4E0,2E0,1E0,1E0,9E0,5E0,1E0,2E0,9E0,7E0,4E0,6E0,1E0,3E0,1E0,1E0,6E0,3E0,2E0,3E0],"tree_param":{"num_deleted":"0","num_feature":"23","num_nodes":"47","size_leaf_vector":"0"}},{"base_weights":[1.32414345E-2,1.293472E-1,-7.582571E-4,2.2637142E-2,1.15441136E-1,-5.337067E-2,5.3632287E-3,2.0665742E-2,-3.897515E-4,2.3551228E-2,-3.988731E-2,8.758325E-3,-5.5473093E-3,-1.6003239E-4,9.038842E-2,-1.0686076E-1,-1.7902944E-2,3.775591E-3,9.862697E-4,-8.0512114E-2,1.7701913E-2,6.2155727E-2,4.1412815E-2,-8.9113E-3,-3.680344E-2,-3.3463597E-2,8.8093765E-3,-8.227152E-3,-5.1893026E-2,1.5782883E-2,-1.1356683E-2,2.5429172E-2,-3.066253E-3,-3.0328634E-3,-1.7839966E-2],"categories":[],"categories_nodes":[],"categories_segments":[],"categories_sizes":[],"default_left":[0,0,0,0,0,0,0,0,0,0,0,0,0,0,0,0,0,0,0,0,0,0,0,0,0,0,0,0,0,0,0,0,0,0,0],"id":30,"left_children":[1,3,5,7,-1,-1,9,-1,11,13,15,17,-1,19,21,23,25,-1,-1,27,29,-1,31,-1,-1,33,-1,-1,-1,-1,-1,-1,-1,-1,-1],"loss_changes":[1.05752E-1,1.8210764E-1,6.493281E-2,6.4166263E-3,0E0,0E0,4.867436E-2,0E0,9.8991E-4,6.657582E-2,2.3117147E-2,4.237087E-5,0E0,4.7353044E-2,5.434227E-2,1.237575E-3,1.1279834E-2,0E0,0E0,2.4709042E-2,5.435497E-2,0E0,2.1011738E-2,0E0,0E0,6.0788384E-3,0E0,0E0,0E0,0E0,0E0,0E0,0E0,0E0,0E0],"parents":[2147483647,0,0,1,1,2,2,3,3,6,6,8,8,9,9,10,10,11,11,13,13,14,14,15,15,16,16,19,19,20,20,22,22,25,25],"right_children":[2,4,6,8,-1,-1,10,-1,12,14,16,18,-1,20,22,24,26,-1,-1,28,30,-1,32,-1,-1,34,-1,-1,-1,-1,-1,-1,-1,-1,-1],"split_conditions":[-2.8282908E-1,2.0770678E-1,-1.4694573E0,-3.3303258E-1,1.15441136E-1,-5.337067E-2,5.0920874E-1,2.0665742E-2,1.8380669E-1,1.0072183E-1,-1.3635571E-1,3.263868E-2,-5.5473093E-3,-1.6004993E-1,1.867942E-1,-1.1147745E0,1.841319E0,3.775591E-3,9.862697E-4,2.1476288E-1,-2.8868422E-1,6.2155727E-2,1E0,-8.9113E-3,-3.680344E-2,8.2058966E-1,8.8093765E-3,-8.227152E-3,-5.1893026E-2,1.5782883E-2,-1.1356683E-2,2.5429172E-2,-3.066253E-3,-3.0328634E-3,-1.7839966E-2],"split_indices":[7,0,2,0,0,0,5,0,0,5,7,0,0,7,0,2,4,0,0,0,4,0,14,0,0,1,0,0,0,0,0,0,0,0,0],"split_type":[0,0,0,0,0,0,0,0,0,0,0,0,0,0,0,0,0,0,0,0,0,0,0,0,0,0,0,0,0,0,0,0,0,0,0],"sum_hessian":[6.4E1,6E0,5.8E1,5E0,1E0,1E0,5.7E1,1E0,4E0,4.1E1,1.6E1,3E0,1E0,3.1E1,1E1,3E0,1.3E1,1E0,2E0,5E0,2.6E1,2E0,8E0,1E0,2E0,1E1,3E0,4E0,1E0,1.6E1,1E1,4E0,4E0,6E0,4E0],"tree_param":{"num_deleted":"0","num_feature":"23","num_nodes":"35","size_leaf_vector":"0"}},{"base_weights":[1.0084407E-2,1.0987529E-1,-1.9261116E-3,1.9159982E-2,9.812508E-2,6.6636032E-3,-9.6027754E-2,1.756611E-2,-4.2950053E-4,2.5674483E-2,-3.7341565E-2,-5.3061105E-2,1.6824087E-2,7.321812E-3,-4.715213E-3,-2.7982697E-3,6.2686175E-2,-4.4622958E-2,1.1874104E-2,-4.320145E-4,8.002854E-3,3.2092524E-3,7.892235E-4,-7.237765E-2,1.5659371E-2,1.3691266E-1,-1.8505441E-2,-1.9162005E-2,-6.2296808E-2,-5.087085E-3,-4.4109073E-2,-7.080922E-4,2.5146976E-2,1.4208985E-2,5.2138045E-2,-8.935571E-4,-1.1150837E-2,3.4629824E-3,-7.559254E-3,-2.0193101E-3,-2.316335E-2],"categories":[],"categories_nodes":[],"categories_segments":[],"categories_sizes":[],"default_left":[0,0,0,0,0,0,0,0,0,0,0,0,0,0,0,0,0,0,0,0,0,0,0,0,0,0,0,0,0,0,0,0,0,0,0,0,0,0,0,0,0],"id":31,"left_children":[1,3,5,7,-1,9,11,-1,13,15,17,-1,19,21,-1,23,25,27,-1,-1,-1,-1,-1,29,31,33,35,37,39,-1,-1,-1,-1,-1,-1,-1,-1,-1,-1,-1,-1],"loss_changes":[7.811676E-2,1.3166192E-1,4.8329964E-2,4.655364E-3,0E0,4.6970453E-2,4.8591863E-2,0E0,7.075852E-4,4.1274577E-2,1.1287866E-2,0E0,5.782348E-4,3.5200035E-5,0E0,3.067163E-2,1.04985304E-1,6.006159E-3,0E0,0E0,0E0,0E0,0E0,1.8193308E-2,2.353538E-2,2.1492451E-2,2.4974416E-3,1.7734375E-3,6.938841E-3,0E0,0E0,0E0,0E0,0E0,0E0,0E0,0E0,0E0,0E0,0E0,0E0],"parents":[2147483647,0,0,1,1,2,2,3,3,5,5,6,6,8,8,9,9,10,10,12,12,13,13,15,15,16,16,17,17,23,23,24,24,25,25,26,26,27,27,28,28],"right_children":[2,4,6,8,-1,10,12,-1,14,16,18,-1,20,22,-1,24,26,28,-1,-1,-1,-1,-1,30,32,34,36,38,40,-1,-1,-1,-1,-1,-1,-1,-1,-1,-1,-1,-1],"split_conditions":[-2.8282908E-1,2.0770678E-1,2.4056938E-1,-3.3303258E-1,9.812508E-2,2.8178868E-1,2.7641952E-1,1.756611E-2,1.8380669E-1,1E0,1.1738168E0,-5.3061105E-2,2.4654986E-1,3.263868E-2,-4.715213E-3,-4.4436553E-1,8.1227206E-2,-1.5668995E0,1.1874104E-2,-4.320145E-4,8.002854E-3,3.2092524E-3,7.892235E-4,2.2563183E-1,2.2563183E-1,-1.4783211E-1,3.852676E-1,-3.667094E0,-1.8589817E-1,-5.087085E-3,-4.4109073E-2,-7.080922E-4,2.5146976E-2,1.4208985E-2,5.2138045E-2,-8.935571E-4,-1.1150837E-2,3.4629824E-3,-7.559254E-3,-2.0193101E-3,-2.316335E-2],"split_indices":[7,0,0,0,0,2,0,0,0,13,1,0,1,0,0,4,4,1,0,0,0,0,0,0,0,7,3,0,7,0,0,0,0,0,0,0,0,0,0,0,0],"split_type":[0,0,0,0,0,0,0,0,0,0,0,0,0,0,0,0,0,0,0,0,0,0,0,0,0,0,0,0,0,0,0,0,0,0,0,0,0,0,0,0,0],"sum_hessian":[6.4E1,6E0,5.8E1,5E0,1E0,5.4E1,4E0,1E0,4E0,3.8E1,1.6E1,2E0,2E0,3E0,1E0,2.2E1,1.6E1,1.5E1,1E0,1E0,1E0,1E0,2E0,4E0,1.8E1,8E0,8E0,7E0,8E0,3E0,1E0,1.5E1,3E0,3E0,5E0,5E0,3E0,1E0,6E0,2E0,6E0],"tree_param":{"num_deleted":"0","num_feature":"23","num_nodes":"41","size_leaf_vector":"0"}},{"base_weights":[8.314859E-3,9.333852E-2,-1.9136243E-3,1.6220687E-2,8.3406836E-2,-3.740616E-2,2.3529406E-3,1.4931107E-2,-4.4331845E-4,3.4304813E-2,-1.6180382E-3,6.1257365E-3,-4.007931E-3,3.7790827E-2,-1.0806963E-2,2.7278645E-3,6.317184E-4,4.9755187E-3,5.489159E-2,-3.8089377E-3,-5.799198E-2,-9.188097E-3,7.3827063E-3,-6.9599827E-3,6.2656305E-3,-7.5460915E-3,-2.4733735E-2],"categories":[],"categories_nodes":[],"categories_segments":[],"categories_sizes":[],"default_left":[0,0,0,0,0,0,0,0,0,0,0,0,0,0,0,0,0,0,0,0,0,0,0,0,0,0,0],"id":32,"left_children":[1,3,5,7,-1,-1,9,-1,11,-1,13,15,-1,17,19,-1,-1,21,-1,23,25,-1,-1,-1,-1,-1,-1],"loss_changes":[5.670672E-2,9.5187426E-2,3.1198844E-2,3.376495E-3,0E0,0E0,2.5979677E-2,0E0,5.060828E-4,0E0,2.1049535E-2,2.8564653E-5,0E0,5.149542E-2,1.5298605E-2,0E0,0E0,7.74372E-3,0E0,2.0596186E-2,2.7443245E-3,0E0,0E0,0E0,0E0,0E0,0E0],"parents":[2147483647,0,0,1,1,2,2,3,3,6,6,8,8,10,10,11,11,13,13,14,14,17,17,19,19,20,20],"right_children":[2,4,6,8,-1,-1,10,-1,12,-1,14,16,-1,18,20,-1,-1,22,-1,24,26,-1,-1,-1,-1,-1,-1],"split_conditions":[-2.8282908E-1,2.0770678E-1,-1.4694573E0,-3.3303258E-1,8.3406836E-2,-3.740616E-2,-1.3722165E0,1.4931107E-2,1.8380669E-1,3.4304813E-2,1.867942E-1,3.263868E-2,-4.007931E-3,1E0,1.2294877E0,2.7278645E-3,6.317184E-4,-4.665627E-2,5.489159E-2,-1.1245936E-1,5.2192575E-1,-9.188097E-3,7.3827063E-3,-6.9599827E-3,6.2656305E-3,-7.5460915E-3,-2.4733735E-2],"split_indices":[7,0,2,0,0,0,6,0,0,0,0,0,0,12,9,0,0,6,0,4,5,0,0,0,0,0,0],"split_type":[0,0,0,0,0,0,0,0,0,0,0,0,0,0,0,0,0,0,0,0,0,0,0,0,0,0,0],"sum_hessian":[6.4E1,6E0,5.8E1,5E0,1E0,1E0,5.7E1,1E0,4E0,1E0,5.6E1,3E0,1E0,1E1,4.6E1,1E0,2E0,9E0,1E0,4.1E1,5E0,3E0,6E0,2.3E1,1.8E1,3E0,2E0],"tree_param":{"num_deleted":"0","num_feature":"23","num_nodes":"27","size_leaf_vector":"0"}},{"base_weights":[7.5851963E-3,7.929278E-2,-1.0510465E-3,1.373475E-2,7.089615E-2,5.2315965E-3,-6.994991E-2,1.2691499E-2,-4.4029695E-4,1.8951893E-2,-2.9396117E-2,-3.8012125E-2,1.0123889E-2,5.127531E-3,-3.4067414E-3,2.0310956E-4,5.018632E-2,-2.1412559E-2,-1.4218238E-2,-1.3070584E-3,5.8628083E-3,2.318685E-3,5.0522253E-4,-1.3236309E-2,3.2295227E-2,1.1950239E-1,3.0329822E-2,-1.4198874E-3,-3.441162E-2,2.2799602E-2,-7.4409195E-3,4.6657562E-2,7.1185115E-3,4.6172384E-3,2.2498894E-2,-4.197299E-3,2.15925E-3,-3.5453797E-3,-1.3660432E-2],"categories":[],"categories_nodes":[],"categories_segments":[],"categories_sizes":[],"default_left":[0,0,0,0,0,0,0,0,0,0,0,0,0,0,0,0,0,0,0,0,0,0,0,0,0,0,0,0,0,0,0,0,0,0,0,0,0,0,0],"id":33,"left_children":[1,3,5,7,-1,9,11,-1,13,15,17,-1,19,21,-1,23,25,-1,27,-1,-1,-1,-1,29,-1,31,33,35,37,-1,-1,-1,-1,-1,-1,-1,-1,-1,-1],"loss_changes":[4.033681E-2,6.8815194E-2,2.5905102E-2,2.4485337E-3,0E0,2.6687747E-2,2.4006577E-2,0E0,3.6210555E-4,2.3414109E-2,9.179624E-3,0E0,4.943189E-4,2.2815344E-5,0E0,3.896978E-2,1.7021134E-2,0E0,3.3108853E-3,0E0,0E0,0E0,0E0,2.6656823E-2,0E0,6.659791E-3,7.520308E-3,1.075671E-3,7.184376E-4,0E0,0E0,0E0,0E0,0E0,0E0,0E0,0E0,0E0,0E0],"parents":[2147483647,0,0,1,1,2,2,3,3,5,5,6,6,8,8,9,9,10,10,12,12,13,13,15,15,16,16,18,18,23,23,25,25,26,26,27,27,28,28],"right_children":[2,4,6,8,-1,10,12,-1,14,16,18,-1,20,22,-1,24,26,-1,28,-1,-1,-1,-1,30,-1,32,34,36,38,-1,-1,-1,-1,-1,-1,-1,-1,-1,-1],"split_conditions":[-2.8282908E-1,2.0770678E-1,2.4056938E-1,-3.3303258E-1,7.089615E-2,5.0920874E-1,2.7641952E-1,1.2691499E-2,1.8380669E-1,-1.1245936E-1,-1.3635571E-1,-3.8012125E-2,2.4654986E-1,3.263868E-2,-3.4067414E-3,8.766238E-2,-2.3192E-2,-2.1412559E-2,4.4149822E-1,-1.3070584E-3,5.8628083E-3,2.318685E-3,5.0522253E-4,-1.3132124E0,3.2295227E-2,1.7484416E-1,2.2563183E-1,4.2769033E-2,1.3235118E0,2.2799602E-2,-7.4409195E-3,4.6657562E-2,7.1185115E-3,4.6172384E-3,2.2498894E-2,-4.197299E-3,2.15925E-3,-3.5453797E-3,-1.3660432E-2],"split_indices":[7,0,0,0,0,5,0,0,0,4,7,0,1,0,0,7,4,0,3,0,0,0,0,6,0,0,0,8,4,0,0,0,0,0,0,0,0,0,0],"split_type":[0,0,0,0,0,0,0,0,0,0,0,0,0,0,0,0,0,0,0,0,0,0,0,0,0,0,0,0,0,0,0,0,0,0,0,0,0,0,0],"sum_hessian":[6.4E1,6E0,5.8E1,5E0,1E0,5.4E1,4E0,1E0,4E0,3.9E1,1.5E1,2E0,2E0,3E0,1E0,2.5E1,1.4E1,3E0,1.2E1,1E0,1E0,1E0,2E0,2.3E1,2E0,2E0,1.2E1,8E0,4E0,2E0,2.1E1,1E0,1E0,1E1,2E0,3E0,5E0,2E0,2E0],"tree_param":{"num_deleted":"0","num_feature":"23","num_nodes":"39","size_leaf_vector":"0"}},{"base_weights":[7.4241864E-3,6.736357E-2,1.8690136E-4,1.1632716E-2,6.02623E-2,1.7262712E-2,-1.689514E-2,1.0787774E-2,-4.244383E-4,8.741114E-3,3.9658356E-2,-9.166552E-3,-2.5019074E-2,4.295669E-3,-2.8957303E-3,-4.351973E-2,2.1442113E-2,-2.5580553E-2,1.4850497E-2,1.970882E-3,4.043463E-4,-5.113582E-3,-3.533257E-2,8.115042E-2,1.4583264E-3,9.374809E-3,-3.7057187E-2,-1.9521333E-2,2.8031653E-2,5.060584E-3,-7.617375E-3,3.0365346E-2,8.203126E-3,4.4532046E-3,-5.640749E-3,-3.4421922E-3,8.129597E-3,-1.6836466E-2,-3.809682E-3,1.8683512E-2,-1.3044222E-4],"categories":[],"categories_nodes":[],"categories_segments":[],"categories_sizes":[],"default_left":[0,0,0,0,0,0,0,0,0,0,0,0,0,0,0,0,0,0,0,0,0,0,0,0,0,0,0,0,0,0,0,0,0,0,0,0,0,0,0,0,0],"id":34,"left_children":[1,3,5,7,-1,9,11,-1,13,15,-1,17,-1,19,-1,21,23,25,27,-1,-1,29,-1,31,33,35,37,-1,39,-1,-1,-1,-1,-1,-1,-1,-1,-1,-1,-1,-1],"loss_changes":[2.8184306E-2,4.9747963E-2,1.750135E-2,1.7751148E-3,0E0,2.822655E-2,1.4654481E-2,0E0,2.5924933E-4,2.0182338E-2,0E0,1.1417929E-2,0E0,1.7958242E-5,0E0,1.6508954E-2,2.8518412E-2,7.1672937E-3,1.446556E-2,0E0,0E0,2.657053E-3,0E0,3.7108846E-3,5.4320004E-3,2.1585324E-3,5.324185E-3,0E0,1.0750788E-2,0E0,0E0,0E0,0E0,0E0,0E0,0E0,0E0,0E0,0E0,0E0,0E0],"parents":[2147483647,0,0,1,1,2,2,3,3,5,5,6,6,8,8,9,9,11,11,13,13,15,15,16,16,17,17,18,18,21,21,23,23,24,24,25,25,26,26,28,28],"right_children":[2,4,6,8,-1,10,12,-1,14,16,-1,18,-1,20,-1,22,24,26,28,-1,-1,30,-1,32,34,36,38,-1,40,-1,-1,-1,-1,-1,-1,-1,-1,-1,-1,-1,-1],"split_conditions":[-2.8282908E-1,2.0770678E-1,-2.332692E-1,-3.3303258E-1,6.02623E-2,-4.445108E-1,1E0,1.0787774E-2,1.8380669E-1,-1.6004993E-1,3.9658356E-2,-2.8064689E-3,-2.5019074E-2,3.263868E-2,-2.8957303E-3,2.1069428E-1,-8.035119E-2,-1.9020621E-1,-1.2080797E-1,1.970882E-3,4.043463E-4,-7.7447444E-1,-3.533257E-2,-1.2065038E-1,-1.6555466E-1,3.1231132E-1,2.1069428E-1,-1.9521333E-2,5.0920874E-1,5.060584E-3,-7.617375E-3,3.0365346E-2,8.203126E-3,4.4532046E-3,-5.640749E-3,-3.4421922E-3,8.129597E-3,-1.6836466E-2,-3.809682E-3,1.8683512E-2,-1.3044222E-4],"split_indices":[7,0,3,0,0,10,12,0,0,7,0,7,0,0,0,0,7,7,3,0,0,6,0,5,5,1,0,0,5,0,0,0,0,0,0,0,0,0,0,0,0],"split_type":[0,0,0,0,0,0,0,0,0,0,0,0,0,0,0,0,0,0,0,0,0,0,0,0,0,0,0,0,0,0,0,0,0,0,0,0,0,0,0,0,0],"sum_hessian":[6.4E1,6E0,5.8E1,5E0,1E0,2.9E1,2.9E1,1E0,4E0,2.8E1,1E0,2.7E1,2E0,3E0,1E0,5E0,2.3E1,1.6E1,1.1E1,1E0,2E0,4E0,1E0,5E0,1.8E1,4E0,1.2E1,1E0,1E1,2E0,2E0,3E0,2E0,1.1E1,7E0,2E0,2E0,6E0,6E0,4E0,6E0],"tree_param":{"num_deleted":"0","num_feature":"23","num_nodes":"41","size_leaf_vector":"0"}},{"base_weights":[6.2389215E-3,5.722979E-2,8.341281E-5,9.854079E-3,5.122261E-2,5.846209E-3,-3.7385188E-2,9.169579E-3,-4.0120972E-4,1.7826578E-2,-1.5900042E-2,-3.1083843E-2,1.959483E-3,3.6007725E-3,-2.4613708E-3,4.9714938E-2,4.1410376E-4,-1.5280581E-2,-6.1474824E-3,3.213959E-2,-2.2341156E-2,1.6752497E-3,3.234759E-4,8.5067746E-5,7.451924E-2,-3.9766035E-3,1.455145E-2,-1.0762735E-2,5.2318573E-3,1.2322069E-2,-5.394459E-4,-4.6712877E-3,4.7138217E-3,4.2269253E-3,3.2387696E-2,3.8257127E-3,-3.314098E-3,-4.6205427E-3,1.4056206E-3],"categories":[],"categories_nodes":[],"categories_segments":[],"categories_sizes":[],"default_left":[0,0,0,0,0,0,0,0,0,0,0,0,0,0,0,0,0,0,0,0,0,0,0,0,0,0,0,0,0,0,0,0,0,0,0,0,0,0,0],"id":35,"left_children":[1,3,5,7,-1,9,11,-1,13,15,17,-1,19,21,-1,23,25,-1,27,29,-1,-1,-1,31,33,35,-1,37,-1,-1,-1,-1,-1,-1,-1,-1,-1,-1,-1],"loss_changes":[2.0397084E-2,3.5961557E-2,1.2958072E-2,1.2866581E-3,0E0,1.3830905E-2,2.104866E-2,0E0,1.8568731E-4,1.8858092E-2,6.178856E-3,0E0,1.6233444E-2,1.3991448E-5,0E0,1.4766071E-2,5.049387E-3,0E0,1.9294571E-3,1.589851E-3,0E0,0E0,0E0,1.4679985E-3,1.46448575E-2,2.7430446E-3,0E0,1.0754742E-3,0E0,0E0,0E0,0E0,0E0,0E0,0E0,0E0,0E0,0E0,0E0],"parents":[2147483647,0,0,1,1,2,2,3,3,5,5,6,6,8,8,9,9,10,10,12,12,13,13,15,15,16,16,18,18,19,19,23,23,24,24,25,25,27,27],"right_children":[2,4,6,8,-1,10,12,-1,14,16,18,-1,20,22,-1,24,26,-1,28,30,-1,-1,-1,32,34,36,-1,38,-1,-1,-1,-1,-1,-1,-1,-1,-1,-1,-1],"split_conditions":[-2.8282908E-1,2.0770678E-1,2.2861935E-1,-3.3303258E-1,5.122261E-2,1.4450325E-1,-2.672283E-1,9.169579E-3,1.8380669E-1,-2.502354E-1,5.637435E-1,-3.1083843E-2,1.3737626E0,3.263868E-2,-2.4613708E-3,-9.152655E-1,8.766238E-2,-1.5280581E-2,2.0099418E0,-2.0590006E-1,-2.2341156E-2,1.6752497E-3,3.234759E-4,-2.8275257E-1,1E0,-1.4783211E-1,1.455145E-2,1.8379654E0,5.2318573E-3,1.2322069E-2,-5.394459E-4,-4.6712877E-3,4.7138217E-3,4.2269253E-3,3.2387696E-2,3.8257127E-3,-3.314098E-3,-4.6205427E-3,1.4056206E-3],"split_indices":[7,0,0,0,0,4,4,0,0,2,4,0,1,0,0,2,7,0,6,2,0,0,0,4,13,7,0,5,0,0,0,0,0,0,0,0,0,0,0],"split_type":[0,0,0,0,0,0,0,0,0,0,0,0,0,0,0,0,0,0,0,0,0,0,0,0,0,0,0,0,0,0,0,0,0,0,0,0,0,0,0],"sum_hessian":[6.4E1,6E0,5.8E1,5E0,1E0,5.1E1,7E0,1E0,4E0,3.3E1,1.8E1,2E0,5E0,3E0,1E0,1.1E1,2.2E1,3E0,1.5E1,4E0,1E0,1E0,2E0,4E0,7E0,2.1E1,1E0,1.3E1,2E0,3E0,1E0,2E0,2E0,3E0,4E0,6E0,1.5E1,1E1,3E0],"tree_param":{"num_deleted":"0","num_feature":"23","num_nodes":"39","size_leaf_vector":"0"}},{"base_weights":[5.2402928E-3,4.862235E-2,4.450238E-6,8.349359E-3,4.3539047E-2,4.831997E-3,-3.1375162E-2,7.793999E-3,-3.7276762E-4,1.6015805E-2,-8.883105E-3,-2.4867052E-2,-3.8846335E-4,3.0209823E-3,-2.0921652E-3,2.8851701E-2,9.718346E-3,-5.2483045E-3,-1.3872528E-2,2.4854278E-2,-1.8990327E-2,1.4239622E-3,2.5908483E-4,3.224149E-3,1.8828582E-2,-7.7411407E-3,4.185295E-3,9.5495945E-3,-4.5847896E-4,1.6326142E-2,-3.001568E-4,-7.5475045E-4,-5.3497045E-3],"categories":[],"categories_nodes":[],"categories_segments":[],"categories_sizes":[],"default_left":[0,0,0,0,0,0,0,0,0,0,0,0,0,0,0,0,0,0,0,0,0,0,0,0,0,0,0,0,0,0,0,0,0],"id":36,"left_children":[1,3,5,7,-1,9,11,-1,13,15,17,-1,19,21,-1,-1,23,25,-1,27,-1,-1,-1,29,-1,31,-1,-1,-1,-1,-1,-1,-1],"loss_changes":[1.4763992E-2,2.5994867E-2,9.089312E-3,9.323444E-4,0E0,8.118398E-3,1.273804E-2,0E0,1.3308066E-4,1.3704056E-2,3.0162993E-3,0E0,1.1101825E-2,1.0791457E-5,0E0,0E0,9.442964E-3,1.2087922E-3,0E0,9.690947E-4,0E0,0E0,0E0,5.6779278E-3,0E0,1.0624592E-3,0E0,0E0,0E0,0E0,0E0,0E0,0E0],"parents":[2147483647,0,0,1,1,2,2,3,3,5,5,6,6,8,8,9,9,10,10,12,12,13,13,16,16,17,17,19,19,23,23,25,25],"right_children":[2,4,6,8,-1,10,12,-1,14,16,18,-1,20,22,-1,-1,24,26,-1,28,-1,-1,-1,30,-1,32,-1,-1,-1,-1,-1,-1,-1],"split_conditions":[-2.8282908E-1,2.0770678E-1,2.2861935E-1,-3.3303258E-1,4.3539047E-2,2.7995382E-2,-2.672283E-1,7.793999E-3,1.8380669E-1,1.7484416E-1,2.9999914E0,-2.4867052E-2,1.3737626E0,3.263868E-2,-2.0921652E-3,2.8851701E-2,8.766238E-2,2.0099418E0,-1.3872528E-2,-2.0590006E-1,-1.8990327E-2,1.4239622E-3,2.5908483E-4,-1.3722165E0,1.8828582E-2,4.4149822E-1,4.185295E-3,9.5495945E-3,-4.5847896E-4,1.6326142E-2,-3.001568E-4,-7.5475045E-4,-5.3497045E-3],"split_indices":[7,0,0,0,0,4,4,0,0,0,3,0,1,0,0,0,7,6,0,2,0,0,0,6,0,3,0,0,0,0,0,0,0],"split_type":[0,0,0,0,0,0,0,0,0,0,0,0,0,0,0,0,0,0,0,0,0,0,0,0,0,0,0,0,0,0,0,0,0],"sum_hessian":[6.4E1,6E0,5.8E1,5E0,1E0,5.1E1,7E0,1E0,4E0,2.8E1,2.3E1,2E0,5E0,3E0,1E0,1E0,2.7E1,2.2E1,1E0,4E0,1E0,1E0,2E0,2.5E1,2E0,2E1,2E0,3E0,1E0,1E0,2.4E1,1.4E1,6E0],"tree_param":{"num_deleted":"0","num_feature":"23","num_nodes":"33","size_leaf_vector":"0"}},{"base_weights":[4.653738E-3,4.131026E-2,2.257822E-4,7.0754075E-3,3.7007906E-2,4.303605E-3,-2.6308289E-2,6.624985E-3,-3.4282397E-4,1.1557333E-2,-1.1310385E-2,-4.5446385E-2,2.073733E-2,2.5353706E-3,-1.7783404E-3,2.127071E-2,-7.2640777E-3,-4.3157837E-3,-2.7234267E-2,-2.2991247E-2,3.3871653E-3,9.72147E-3,-3.8967133E-4,1.2103678E-3,2.072364E-4,5.588271E-3,4.2667292E-2,9.840641E-4,-1.4474494E-2,-1.1077934E-2,1.3668537E-2,-9.958268E-4,-1.2621309E-2,8.036042E-3,-3.4561187E-3,-1.7803193E-3,1.6667856E-2,1.4176159E-3,-3.2195807E-3,1.7040969E-3,-7.101746E-3,-4.584299E-3,-2.1280868E-3,9.4413763E-4,4.83799E-3],"categories":[],"categories_nodes":[],"categories_segments":[],"categories_sizes":[],"default_left":[0,0,0,0,0,0,0,0,0,0,0,0,0,0,0,0,0,0,0,0,0,0,0,0,0,0,0,0,0,0,0,0,0,0,0,0,0,0,0,0,0,0,0,0,0],"id":37,"left_children":[1,3,5,7,-1,9,11,-1,13,15,17,19,21,23,-1,25,27,29,31,-1,-1,-1,-1,-1,-1,33,35,37,39,41,43,-1,-1,-1,-1,-1,-1,-1,-1,-1,-1,-1,-1,-1,-1],"loss_changes":[1.0541047E-2,1.8789828E-2,6.4970935E-3,6.75562E-4,0E0,6.020219E-3,8.145345E-3,0E0,9.540243E-5,6.736011E-3,1.7759434E-3,1.1483404E-2,8.1341877E-4,8.274483E-6,0E0,7.814778E-3,7.873867E-4,1.7323841E-3,1.6344425E-3,0E0,0E0,0E0,0E0,0E0,0E0,5.7487744E-3,6.59555E-3,3.5754588E-4,1.4321542E-3,5.9065525E-5,5.2698015E-5,0E0,0E0,0E0,0E0,0E0,0E0,0E0,0E0,0E0,0E0,0E0,0E0,0E0,0E0],"parents":[2147483647,0,0,1,1,2,2,3,3,5,5,6,6,8,8,9,9,10,10,11,11,12,12,13,13,15,15,16,16,17,17,18,18,25,25,26,26,27,27,28,28,29,29,30,30],"right_children":[2,4,6,8,-1,10,12,-1,14,16,18,20,22,24,-1,26,28,30,32,-1,-1,-1,-1,-1,-1,34,36,38,40,42,44,-1,-1,-1,-1,-1,-1,-1,-1,-1,-1,-1,-1,-1,-1],"split_conditions":[-2.8282908E-1,2.0770678E-1,2.2861935E-1,-3.3303258E-1,3.7007906E-2,2.8178868E-1,-3.1673843E-1,6.624985E-3,1.8380669E-1,1.4450325E-1,2.0770678E-1,3.7512937E-1,2.3459436E-1,3.263868E-2,-1.7783404E-3,1E0,-3.511677E-2,5.647162E-1,-1.8589817E-1,-2.2991247E-2,3.3871653E-3,9.72147E-3,-3.8967133E-4,1.2103678E-3,2.072364E-4,-4.7917816E-1,-9.152655E-1,1.841319E0,1.6289411E-1,1.9575673E-1,-3.667094E0,-9.958268E-4,-1.2621309E-2,8.036042E-3,-3.4561187E-3,-1.7803193E-3,1.6667856E-2,1.4176159E-3,-3.2195807E-3,1.7040969E-3,-7.101746E-3,-4.584299E-3,-2.1280868E-3,9.4413763E-4,4.83799E-3],"split_indices":[7,0,0,0,0,2,2,0,0,4,0,5,0,0,0,13,7,8,7,0,0,0,0,0,0,8,2,4,0,0,0,0,0,0,0,0,0,0,0,0,0,0,0,0,0],"split_type":[0,0,0,0,0,0,0,0,0,0,0,0,0,0,0,0,0,0,0,0,0,0,0,0,0,0,0,0,0,0,0,0,0,0,0,0,0,0,0,0,0,0,0,0,0],"sum_hessian":[6.4E1,6E0,5.8E1,5E0,1E0,5.1E1,7E0,1E0,4E0,3.5E1,1.6E1,5E0,2E0,3E0,1E0,2.3E1,1.2E1,1.2E1,4E0,3E0,2E0,1E0,1E0,1E0,2E0,1.4E1,9E0,6E0,6E0,9E0,3E0,2E0,2E0,6E0,8E0,2E0,7E0,5E0,1E0,2E0,4E0,3E0,6E0,1E0,2E0],"tree_param":{"num_deleted":"0","num_feature":"23","num_nodes":"45","size_leaf_vector":"0"}},{"base_weights":[3.7301776E-3,3.5098605E-2,-5.4723332E-5,5.996843E-3,3.1456377E-2,8.328187E-3,-8.43581E-3,5.6310655E-3,-3.1187554E-4,2.3390264E-3,6.145096E-2,-1.2939329E-2,1.6669655E-2,2.1294712E-3,-1.5115894E-3,-2.3616575E-2,9.008355E-3,2.2023011E-2,5.6299213E-3,-9.03442E-3,-1.1959649E-2,1.02385525E-2,-1.9037247E-3,1.0288126E-3,1.659134E-4,-1.5544483E-2,3.436347E-3,3.8512934E-2,7.6986896E-4,-1.6861748E-2,3.610015E-3,-2.7366402E-3,3.1989655E-3,1.5393068E-2,-1.9014359E-3,-2.201187E-3,3.1779234E-3,-7.7432157E-3,-1.7415182E-3,-4.751873E-3,2.2593103E-3],"categories":[],"categories_nodes":[],"categories_segments":[],"categories_sizes":[],"default_left":[0,0,0,0,0,0,0,0,0,0,0,0,0,0,0,0,0,0,0,0,0,0,0,0,0,0,0,0,0,0,0,0,0,0,0,0,0,0,0,0,0],"id":38,"left_children":[1,3,5,7,-1,9,11,-1,13,15,17,19,21,23,-1,25,27,-1,-1,29,-1,-1,-1,-1,-1,-1,31,33,35,37,39,-1,-1,-1,-1,-1,-1,-1,-1,-1,-1],"loss_changes":[7.7191363E-3,1.3581356E-2,4.2154714E-3,4.893557E-4,0E0,9.40109E-3,3.6075828E-3,0E0,6.8427864E-5,5.059728E-3,1.5376043E-4,2.3735887E-3,2.2256835E-3,6.3002153E-6,0E0,4.755145E-3,5.561031E-3,0E0,0E0,2.436203E-3,0E0,0E0,0E0,0E0,0E0,0E0,4.603054E-4,3.1950707E-3,1.5908523E-3,1.3343571E-3,8.8191056E-4,0E0,0E0,0E0,0E0,0E0,0E0,0E0,0E0,0E0,0E0],"parents":[2147483647,0,0,1,1,2,2,3,3,5,5,6,6,8,8,9,9,10,10,11,11,12,12,13,13,15,15,16,16,19,19,26,26,27,27,28,28,29,29,30,30],"right_children":[2,4,6,8,-1,10,12,-1,14,16,18,20,22,24,-1,26,28,-1,-1,30,-1,-1,-1,-1,-1,-1,32,34,36,38,40,-1,-1,-1,-1,-1,-1,-1,-1,-1,-1],"split_conditions":[-2.8282908E-1,2.0770678E-1,-2.332692E-1,-3.3303258E-1,3.1456377E-2,-4.728744E-1,1E0,5.6310655E-3,1.8380669E-1,-1.6004993E-1,1.7484416E-1,1E0,7.226513E-1,3.263868E-2,-1.5115894E-3,-4.0153873E-1,-8.035119E-2,2.2023011E-2,5.6299213E-3,-2.8064689E-3,-1.1959649E-2,1.02385525E-2,-1.9037247E-3,1.0288126E-3,1.659134E-4,-1.5544483E-2,-1.1147745E0,-1.2065038E-1,-7.326954E-1,2.1069428E-1,-1.2080797E-1,-2.7366402E-3,3.1989655E-3,1.5393068E-2,-1.9014359E-3,-2.201187E-3,3.1779234E-3,-7.7432157E-3,-1.7415182E-3,-4.751873E-3,2.2593103E-3],"split_indices":[7,0,3,0,0,10,19,0,0,7,0,12,3,0,0,1,7,0,0,7,0,0,0,0,0,0,2,5,8,0,3,0,0,0,0,0,0,0,0,0,0],"split_type":[0,0,0,0,0,0,0,0,0,0,0,0,0,0,0,0,0,0,0,0,0,0,0,0,0,0,0,0,0,0,0,0,0,0,0,0,0,0,0,0,0],"sum_hessian":[6.4E1,6E0,5.8E1,5E0,1E0,2.9E1,2.9E1,1E0,4E0,2.7E1,2E0,2.5E1,4E0,3E0,1E0,5E0,2.2E1,1E0,1E0,2.3E1,2E0,2E0,2E0,1E0,2E0,2E0,3E0,4E0,1.8E1,1.4E1,9E0,1E0,2E0,3E0,1E0,1E1,8E0,7E0,7E0,1E0,8E0],"tree_param":{"num_deleted":"0","num_feature":"23","num_nodes":"41","size_leaf_vector":"0"}},{"base_weights":[3.3527396E-3,2.9821822E-2,1.555138E-4,5.083264E-3,2.6737977E-2,4.3522445E-3,-1.2445047E-2,4.7864914E-3,-2.820721E-4,1.2137539E-2,-4.338633E-3,1.4608076E-2,-1.7730763E-2,1.788828E-3,-1.284851E-3,6.1183916E-3,5.2232105E-2,-1.0373466E-2,1.3483167E-2,6.194165E-4,5.954218E-3,-1.3956457E-2,-8.266851E-3,8.7449077E-4,1.3253739E-4,1.2535483E-2,-6.6784536E-3,1.8719101E-2,4.7853473E-3,-1.5731752E-2,2.0720165E-3,9.01394E-3,4.161215E-3,5.5094436E-4,-9.589386E-3,-9.6648606E-4,9.30115E-3,-4.0454357E-3,2.748108E-3,-3.696442E-5,-7.056186E-3,-4.4162753E-3,2.512436E-3,2.1757842E-3,-9.51767E-5,1.7798122E-3,-2.2978308E-3],"categories":[],"categories_nodes":[],"categories_segments":[],"categories_sizes":[],"default_left":[0,0,0,0,0,0,0,0,0,0,0,0,0,0,0,0,0,0,0,0,0,0,0,0,0,0,0,0,0,0,0,0,0,0,0,0,0,0,0,0,0,0,0,0,0,0,0],"id":39,"left_children":[1,3,5,7,-1,9,11,-1,13,15,17,19,21,23,-1,25,27,29,31,-1,-1,-1,33,-1,-1,35,37,-1,-1,39,41,-1,43,45,-1,-1,-1,-1,-1,-1,-1,-1,-1,-1,-1,-1,-1],"loss_changes":[5.4961583E-3,9.816746E-3,3.1741525E-3,3.5448265E-4,0E0,3.097407E-3,2.4039398E-3,0E0,4.908717E-5,5.4724663E-3,2.506002E-3,1.5617645E-4,3.1575654E-3,4.780006E-6,0E0,1.8903252E-3,1.1107139E-4,1.1662663E-3,8.0138375E-4,0E0,0E0,0E0,2.3161934E-3,0E0,0E0,4.4649984E-3,9.859593E-4,0E0,0E0,1.4559759E-3,7.583365E-4,0E0,7.1524635E-5,4.4311798E-4,0E0,0E0,0E0,0E0,0E0,0E0,0E0,0E0,0E0,0E0,0E0,0E0,0E0],"parents":[2147483647,0,0,1,1,2,2,3,3,5,5,6,6,8,8,9,9,10,10,11,11,12,12,13,13,15,15,16,16,17,17,18,18,22,22,25,25,26,26,29,29,30,30,32,32,33,33],"right_children":[2,4,6,8,-1,10,12,-1,14,16,18,20,22,24,-1,26,28,30,32,-1,-1,-1,34,-1,-1,36,38,-1,-1,40,42,-1,44,46,-1,-1,-1,-1,-1,-1,-1,-1,-1,-1,-1,-1,-1],"split_conditions":[-2.8282908E-1,2.0770678E-1,2.166693E-1,-3.3303258E-1,2.6737977E-2,-2.332692E-1,-6.328693E-1,4.7864914E-3,1.8380669E-1,-4.728744E-1,4.027393E-2,2.2563183E-1,-5.2759075E-1,3.263868E-2,-1.284851E-3,-4.3443984E-1,1.7484416E-1,5.637435E-1,-3.0840066E-1,6.194165E-4,5.954218E-3,-1.3956457E-2,1.2568421E0,8.7449077E-4,1.3253739E-4,-8.2217205E-1,-3.0267724E-1,1.8719101E-2,4.7853473E-3,-1.8439999E-1,8.6793214E-2,9.01394E-3,3.4690943E-1,1E0,-9.589386E-3,-9.6648606E-4,9.30115E-3,-4.0454357E-3,2.748108E-3,-3.696442E-5,-7.056186E-3,-4.4162753E-3,2.512436E-3,2.1757842E-3,-9.51767E-5,1.7798122E-3,-2.2978308E-3],"split_indices":[7,0,0,0,0,3,1,0,0,10,7,0,1,0,0,8,0,4,4,0,0,0,3,0,0,8,6,0,0,7,9,0,1,13,0,0,0,0,0,0,0,0,0,0,0,0,0],"split_type":[0,0,0,0,0,0,0,0,0,0,0,0,0,0,0,0,0,0,0,0,0,0,0,0,0,0,0,0,0,0,0,0,0,0,0,0,0,0,0,0,0,0,0,0,0,0,0],"sum_hessian":[6.4E1,6E0,5.8E1,5E0,1E0,4.4E1,1.4E1,1E0,4E0,2.3E1,2.1E1,2E0,1.2E1,3E0,1E0,2.1E1,2E0,1.6E1,5E0,1E0,1E0,2E0,1E1,1E0,2E0,1.4E1,7E0,1E0,1E0,1.1E1,5E0,1E0,4E0,8E0,2E0,8E0,6E0,5E0,2E0,4E0,7E0,1E0,4E0,2E0,2E0,5E0,3E0],"tree_param":{"num_deleted":"0","num_feature":"23","num_nodes":"47","size_leaf_vector":"0"}},{"base_weights":[3.0607216E-3,2.5338914E-2,3.6566937E-4,4.310043E-3,2.2726823E-2,2.8948118E-3,-1.6119465E-2,4.0683746E-3,-2.5244756E-4,7.5739403E-3,-5.630724E-3,-2.6741803E-2,1.0498364E-2,1.504646E-3,-1.0921233E-3,1.5910722E-2,4.5891665E-3,-2.1936893E-2,-1.2022614E-3,-4.4867247E-2,1.9018174E-3,5.0611496E-3,-3.3688545E-4,7.433171E-4,1.0631368E-4,1.8467124E-3,9.419441E-3,-1.4920236E-3,-7.7800755E-3,5.1101972E-3,-5.5007567E-3,-1.5483941E-2,-3.694439E-3,7.673264E-3,6.0929964E-5,-3.7681372E-4,3.0596675E-3,-1.4468837E-4,-2.6298047E-3],"categories":[],"categories_nodes":[],"categories_segments":[],"categories_sizes":[],"default_left":[0,0,0,0,0,0,0,0,0,0,0,0,0,0,0,0,0,0,0,0,0,0,0,0,0,0,0,0,0,0,0,0,0,0,0,0,0,0,0],"id":40,"left_children":[1,3,5,7,-1,9,11,-1,13,15,17,19,21,23,-1,-1,25,27,29,31,-1,-1,-1,-1,-1,33,-1,-1,-1,35,37,-1,-1,-1,-1,-1,-1,-1,-1],"loss_changes":[3.8933926E-3,7.0949993E-3,2.5065648E-3,2.5667477E-4,0E0,2.117035E-3,2.5426939E-3,0E0,3.5242374E-5,4.370178E-3,1.34564E-3,3.8820985E-3,2.4110248E-4,3.5991434E-6,0E0,0E0,2.368255E-3,1.4221296E-4,4.6225512E-4,2.427753E-4,0E0,0E0,0E0,0E0,0E0,1.2039384E-3,0E0,0E0,0E0,2.395813E-4,1.59638E-4,0E0,0E0,0E0,0E0,0E0,0E0,0E0,0E0],"parents":[2147483647,0,0,1,1,2,2,3,3,5,5,6,6,8,8,9,9,10,10,11,11,12,12,13,13,16,16,17,17,18,18,19,19,25,25,29,29,30,30],"right_children":[2,4,6,8,-1,10,12,-1,14,16,18,20,22,24,-1,-1,26,28,30,32,-1,-1,-1,-1,-1,34,-1,-1,-1,36,38,-1,-1,-1,-1,-1,-1,-1,-1],"split_conditions":[-2.8282908E-1,2.0770678E-1,2.2861935E-1,-3.3303258E-1,2.2726823E-2,1.4450325E-1,-3.1673843E-1,4.0683746E-3,1.8380669E-1,1.7484416E-1,5.637435E-1,3.7512937E-1,2.3459436E-1,3.263868E-2,-1.0921233E-3,1.5910722E-2,8.766238E-2,-2.5986847E-1,8.734661E-1,1E0,1.9018174E-3,5.0611496E-3,-3.3688545E-4,7.433171E-4,1.0631368E-4,-1.3722165E0,9.419441E-3,-1.4920236E-3,-7.7800755E-3,-5.8515903E-2,1.7185666E-1,-1.5483941E-2,-3.694439E-3,7.673264E-3,6.0929964E-5,-3.7681372E-4,3.0596675E-3,-1.4468837E-4,-2.6298047E-3],"split_indices":[7,0,0,0,0,4,2,0,0,0,4,5,0,0,0,0,7,1,4,18,0,0,0,0,0,6,0,0,0,7,0,0,0,0,0,0,0,0,0],"split_type":[0,0,0,0,0,0,0,0,0,0,0,0,0,0,0,0,0,0,0,0,0,0,0,0,0,0,0,0,0,0,0,0,0,0,0,0,0,0,0],"sum_hessian":[6.4E1,6E0,5.8E1,5E0,1E0,5.1E1,7E0,1E0,4E0,3.3E1,1.8E1,5E0,2E0,3E0,1E0,1E0,3.2E1,3E0,1.5E1,3E0,2E0,1E0,1E0,1E0,2E0,3E1,2E0,1E0,2E0,6E0,9E0,2E0,1E0,1E0,2.9E1,3E0,3E0,4E0,5E0],"tree_param":{"num_deleted":"0","num_feature":"23","num_nodes":"39","size_leaf_vector":"0"}},{"base_weights":[2.7226056E-3,2.1530522E-2,4.4501212E-4,3.6549123E-3,1.9317627E-2,2.4822108E-3,-1.2852405E-2,3.4584047E-3,-2.2531133E-4,6.274235E-3,-4.4341595E-3,-9.722594E-3,-9.3221664E-4,1.2655355E-3,-9.283048E-4,3.7556965E-2,3.145409E-3,-1.7673492E-2,-8.471915E-4,8.3967205E-3,-7.136536E-3,6.318196E-4,8.5001164E-5,1.3524628E-2,3.3760073E-3,-6.6545625E-5,2.0503273E-2,-1.2682915E-3,-6.2238695E-3,-3.456713E-3,5.585098E-3,4.1741375E-3,8.074442E-5,-3.841118E-3,9.777271E-4,7.535553E-3,2.716084E-3,-5.204855E-4,-3.3594132E-3,2.3167133E-3,-4.4460298E-4,-2.8638841E-4,3.227234E-4],"categories":[],"categories_nodes":[],"categories_segments":[],"categories_sizes":[],"default_left":[0,0,0,0,0,0,0,0,0,0,0,0,0,0,0,0,0,0,0,0,0,0,0,0,0,0,0,0,0,0,0,0,0,0,0,0,0,0,0,0,0,0,0],"id":41,"left_children":[1,3,5,7,-1,9,11,-1,13,15,17,-1,19,21,-1,23,25,27,29,31,-1,-1,-1,-1,-1,33,35,-1,-1,37,39,-1,41,-1,-1,-1,-1,-1,-1,-1,-1,-1,-1],"loss_changes":[2.77481E-3,5.127889E-3,1.6301817E-3,1.8589378E-4,0E0,1.3916274E-3,1.834701E-3,0E0,2.530249E-5,3.2097276E-3,8.873194E-4,0E0,1.4790915E-3,2.7055407E-6,0E0,8.648867E-5,1.7854501E-3,7.7554956E-5,2.8786925E-4,2.2827563E-4,0E0,0E0,0E0,0E0,0E0,1.2277868E-3,3.680121E-5,0E0,0E0,1.4051663E-4,8.696658E-5,0E0,4.117523E-6,0E0,0E0,0E0,0E0,0E0,0E0,0E0,0E0,0E0,0E0],"parents":[2147483647,0,0,1,1,2,2,3,3,5,5,6,6,8,8,9,9,10,10,12,12,13,13,15,15,16,16,17,17,18,18,19,19,25,25,26,26,29,29,30,30,32,32],"right_children":[2,4,6,8,-1,10,12,-1,14,16,18,-1,20,22,-1,24,26,28,30,32,-1,-1,-1,-1,-1,34,36,-1,-1,38,40,-1,42,-1,-1,-1,-1,-1,-1,-1,-1,-1,-1],"split_conditions":[-2.8282908E-1,2.0770678E-1,2.2861935E-1,-3.3303258E-1,1.9317627E-2,1.4450325E-1,-2.672283E-1,3.4584047E-3,1.8380669E-1,1.7783168E-1,5.637435E-1,-9.722594E-3,1.3737626E0,3.263868E-2,-9.283048E-4,1.7484416E-1,4.027393E-2,-2.5986847E-1,1.7279129E0,2.4056938E-1,-7.136536E-3,6.318196E-4,8.5001164E-5,1.3524628E-2,3.3760073E-3,2.0471926E-1,-2.2140834E-1,-1.2682915E-3,-6.2238695E-3,1.0122172E0,2.0770678E-1,4.1741375E-3,2.4654986E-1,-3.841118E-3,9.777271E-4,7.535553E-3,2.716084E-3,-5.204855E-4,-3.3594132E-3,2.3167133E-3,-4.4460298E-4,-2.8638841E-4,3.227234E-4],"split_indices":[7,0,0,0,0,4,4,0,0,0,4,0,1,0,0,0,7,1,8,0,0,0,0,0,0,0,5,0,0,1,0,0,1,0,0,0,0,0,0,0,0,0,0],"split_type":[0,0,0,0,0,0,0,0,0,0,0,0,0,0,0,0,0,0,0,0,0,0,0,0,0,0,0,0,0,0,0,0,0,0,0,0,0,0,0,0,0,0,0],"sum_hessian":[6.4E1,6E0,5.8E1,5E0,1E0,5.1E1,7E0,1E0,4E0,3.3E1,1.8E1,2E0,5E0,3E0,1E0,2E0,3.1E1,3E0,1.5E1,4E0,1E0,1E0,2E0,1E0,1E0,2.7E1,4E0,1E0,2E0,1.1E1,4E0,2E0,2E0,5E0,2.2E1,2E0,2E0,1E1,1E0,3E0,1E0,1E0,1E0],"tree_param":{"num_deleted":"0","num_feature":"23","num_nodes":"43","size_leaf_vector":"0"}},{"base_weights":[2.2858214E-3,1.8294808E-2,3.4770728E-4,3.0995172E-3,1.6419984E-2,2.1347129E-3,-1.1311293E-2,2.9394152E-3,-1.9979921E-4,-5.993458E-3,5.2870247E-3,-2.1214485E-2,-1.12648E-3,1.0653494E-3,-7.8905915E-4,-9.985243E-3,-1.6666845E-3,1.9056724E-2,2.1096834E-3,-1.0843277E-3,-7.7629094E-3,-2.855301E-3,3.3507347E-3,5.3704664E-4,6.810871E-5,-5.0350204E-3,3.7086664E-3,8.792626E-3,4.040515E-3,-6.6500674E-3,7.0147943E-3,4.018148E-4,1.8296243E-3,-7.107853E-4,-3.6727407E-3,-4.192616E-4,1.8957139E-3,-3.4083754E-3,1.6837836E-3,5.3687734E-3,4.4078598E-4,-9.326935E-5,2.7408602E-4],"categories":[],"categories_nodes":[],"categories_segments":[],"categories_sizes":[],"default_left":[0,0,0,0,0,0,0,0,0,0,0,0,0,0,0,0,0,0,0,0,0,0,0,0,0,0,0,0,0,0,0,0,0,0,0,0,0,0,0,0,0,0,0],"id":42,"left_children":[1,3,5,7,-1,9,11,-1,13,15,17,19,21,23,-1,-1,25,27,29,-1,-1,-1,31,-1,-1,33,-1,-1,35,37,39,41,-1,-1,-1,-1,-1,-1,-1,-1,-1,-1,-1],"loss_changes":[2.0104097E-3,3.706205E-3,1.2533936E-3,1.3456111E-4,0E0,1.364059E-3,7.8299956E-4,0E0,1.817615E-5,1.715735E-3,1.6223358E-3,2.3466919E-4,2.1973698E-4,2.0240614E-6,0E0,0E0,7.2380103E-4,9.592036E-4,1.4216104E-3,0E0,0E0,0E0,2.996411E-5,0E0,0E0,2.01552E-4,0E0,0E0,5.839421E-5,7.5702707E-4,1.2408737E-3,1.3783526E-6,0E0,0E0,0E0,0E0,0E0,0E0,0E0,0E0,0E0,0E0,0E0],"parents":[2147483647,0,0,1,1,2,2,3,3,5,5,6,6,8,8,9,9,10,10,11,11,12,12,13,13,16,16,17,17,18,18,22,22,25,25,28,28,29,29,30,30,31,31],"right_children":[2,4,6,8,-1,10,12,-1,14,16,18,20,22,24,-1,-1,26,28,30,-1,-1,-1,32,-1,-1,34,-1,-1,36,38,40,42,-1,-1,-1,-1,-1,-1,-1,-1,-1,-1,-1],"split_conditions":[-2.8282908E-1,2.0770678E-1,1.167843E0,-3.3303258E-1,1.6419984E-2,-6.133931E-1,5.637435E-1,2.9394152E-3,1.8380669E-1,-1.6004993E-1,-4.3443984E-1,1.1162657E0,2.5944486E-1,3.263868E-2,-7.8905915E-4,-9.985243E-3,2.2563183E-1,-3.32981E-1,-1.3204767E-1,-1.0843277E-3,-7.7629094E-3,-2.855301E-3,1.7566239E0,5.3704664E-4,6.810871E-5,-8.2217205E-1,3.7086664E-3,8.792626E-3,1.9575673E-1,6.1019003E-1,-6.742707E-2,1.6289411E-1,1.8296243E-3,-7.107853E-4,-3.6727407E-3,-4.192616E-4,1.8957139E-3,-3.4083754E-3,1.6837836E-3,5.3687734E-3,4.4078598E-4,-9.326935E-5,2.7408602E-4],"split_indices":[7,0,1,0,0,8,4,0,0,7,8,3,6,0,0,0,0,4,7,0,0,0,1,0,0,8,0,0,0,3,7,0,0,0,0,0,0,0,0,0,0,0,0],"split_type":[0,0,0,0,0,0,0,0,0,0,0,0,0,0,0,0,0,0,0,0,0,0,0,0,0,0,0,0,0,0,0,0,0,0,0,0,0,0,0,0,0,0,0],"sum_hessian":[6.4E1,6E0,5.8E1,5E0,1E0,5.1E1,7E0,1E0,4E0,1.4E1,3.7E1,3E0,4E0,3E0,1E0,1E0,1.3E1,6E0,3.1E1,1E0,2E0,1E0,3E0,1E0,2E0,1.1E1,2E0,3E0,3E0,1.1E1,2E1,2E0,1E0,9E0,2E0,1E0,2E0,8E0,3E0,6E0,1.4E1,1E0,1E0],"tree_param":{"num_deleted":"0","num_feature":"23","num_nodes":"43","size_leaf_vector":"0"}},{"base_weights":[1.8026719E-3,1.5545615E-2,1.4159943E-4,2.6285353E-3,1.3957215E-2,1.565093E-3,-9.128809E-3,2.4982453E-3,-1.7675133E-4,-5.64694E-3,3.8698763E-3,3.2800038E-3,-1.3811748E-2,8.968945E-4,-6.707002E-4,3.7778973E-5,-7.3825787E-3,1.0026872E-2,-1.1168978E-3,-7.925034E-5,1.5552521E-3,-1.5309652E-3,-5.8708196E-3,4.5648965E-4,5.4431384E-5,-2.0381208E-3,3.1195164E-3,1.353396E-3,2.714826E-2,-1.11397505E-2,3.9643347E-3,